{"model_data": {"model": "SimpleRNN", "input_size": 2, "skip": 1, "output_size": 1, "unit_type": "LSTM", "num_layers": 1, "hidden_size": 40, "bias_fl": true}, "state_dict": {"rec.weight_ih_l0": [[0.122557133436203, -0.7361740469932556], [0.01769193820655346, 0.279963880777359], [0.0008478435920551419, -0.07925380021333694], [-0.0016943829832598567, -0.07905144989490509], [-0.005003663711249828, -0.06632595509290695], [0.004728130530565977, -0.07233212143182755], [0.033761199563741684, -0.20168644189834595], [0.11995209753513336, -0.004603588953614235], [-0.07395070791244507, -0.5082628726959229], [-0.011431961320340633, -0.3562188744544983], [0.00010198660311289132, -0.06367175281047821], [0.21843095123767853, -0.6289748549461365], [-0.35107237100601196, -0.1276128888130188], [-0.5612586140632629, -0.2670896351337433], [0.0007972323219291866, -0.052991095930337906], [-0.04082488268613815, 0.035206519067287445], [0.25673219561576843, -0.16941583156585693], [-0.08985276520252228, -0.324081152677536], [0.10955335199832916, -0.182732492685318], [0.0009454732062295079, -0.08458535373210907], [-0.13288761675357819, 0.07366540282964706], [-0.0015746630961075425, -0.06817620247602463], [-0.3292895257472992, -0.5971724987030029], [2.484017204551492e-05, -0.040030259639024734], [-0.03329849615693092, -0.26253655552864075], [-0.10194695740938187, -0.31995585560798645], [-0.003649125574156642, -0.08854875713586807], [0.014473446644842625, -0.07006485760211945], [0.06019674614071846, -0.5363993644714355], [0.028834983706474304, 0.5431185960769653], [-0.21449118852615356, 0.22003476321697235], [-0.024791967123746872, 0.37866103649139404], [0.017763862386345863, 0.643622875213623], [-0.0019122465746477246, -0.0579352006316185], [0.00017852032033260912, -0.060866449028253555], [-0.0855647549033165, -0.6722841858863831], [3.520719110383652e-05, -0.0880441665649414], [-0.03168793395161629, -0.28873783349990845], [-0.27911433577537537, -0.22999517619609833], [0.0014144586166366935, -0.04615165665745735], [0.3749401867389679, -0.7332257628440857], [0.038728732615709305, 0.29418864846229553], [0.00038445249083451927, -0.04794849082827568], [-0.002746761776506901, -0.06338818371295929], [-0.0032593063078820705, -0.02850787714123726], [-2.0843541278736666e-05, -0.03844209015369415], [0.10222085565328598, 0.22985972464084625], [-0.2043067067861557, 0.13898415863513947], [0.07016360759735107, 0.7592329382896423], [0.13984523713588715, 0.7290132641792297], [-0.0008904592832550406, -0.03163530305027962], [0.1709728091955185, -0.21432344615459442], [0.049566514790058136, -0.2869165539741516], [-0.3113860487937927, 0.1854059398174286], [0.000649040041025728, -0.0207426305860281], [0.09106887131929398, 0.208416149020195], [0.23435890674591064, 0.2842250168323517], [0.02750084362924099, 0.3212759792804718], [0.02696259878575802, 0.272311806678772], [0.0006806320161558688, -0.02100186049938202], [0.20781715214252472, 0.27981364727020264], [-0.0009721828973852098, -0.021363014355301857], [-0.20054830610752106, 0.6809242367744446], [5.837909338879399e-05, -0.017752768471837044], [-0.07817354053258896, -0.04930107295513153], [0.08773323148488998, 0.4467881917953491], [-0.0004599784151650965, -0.05864448845386505], [0.006110873073339462, -0.11273680627346039], [0.08802773058414459, -0.04205234348773956], [-0.04365576431155205, -0.053813401609659195], [-0.08568567037582397, 0.7676494121551514], [-0.027663525193929672, 0.4113510549068451], [-0.29817670583724976, 0.7992146611213684], [-0.002684503560885787, -0.06286177039146423], [-0.00024995996500365436, -0.036840565502643585], [0.013549509458243847, 0.320086270570755], [-0.0007881124620325863, -0.06733665615320206], [0.05742863565683365, 0.1743488907814026], [-0.2566525340080261, 0.13252368569374084], [0.000678241194691509, -0.023890607059001923], [-0.11053243279457092, 0.7119331955909729], [-0.22484628856182098, -0.2107907384634018], [0.011806407012045383, -0.0006127299275249243], [-0.011010087095201015, -0.008583096787333488], [0.0222945399582386, 0.011419961228966713], [-0.003983831964433193, 0.007367353420704603], [0.06212301179766655, 0.09258873760700226], [-0.5765561461448669, -0.05812792852520943], [0.29660892486572266, -0.16212908923625946], [-0.4326370358467102, -0.04218848794698715], [0.005615845322608948, 0.0035889276769012213], [-0.6911066174507141, -0.1519618034362793], [0.7421024441719055, -0.09779022634029388], [-0.2945624589920044, 0.17274492979049683], [0.013443319126963615, 0.0016124654794111848], [-0.6949314475059509, -0.08690191805362701], [0.08770199120044708, -0.18854866921901703], [-0.039986502379179, -0.09312406927347183], [-0.41361817717552185, 0.01779596507549286], [0.008854876272380352, 0.0035660869907587767], [0.4342857301235199, 0.02835063263773918], [0.014879997819662094, 0.003303562756627798], [0.12436994165182114, -0.08753489702939987], [-0.024323904886841774, -0.012398568913340569], [0.24299712479114532, -0.030369073152542114], [-0.19151748716831207, -0.07459273934364319], [-0.014848200604319572, -0.0024546401109546423], [-0.0954531729221344, -0.04233312979340553], [-0.10866200178861618, 0.06240685656666756], [-1.1650258302688599, -0.151103675365448], [-0.23598894476890564, -0.4347926676273346], [0.12699271738529205, 0.5828213095664978], [1.005405306816101, 0.8246223330497742], [0.04359803721308708, 0.01833445020020008], [-0.015024544671177864, -0.0016821997705847025], [0.1136489287018776, -0.025102490559220314], [-0.013296136632561684, -0.0081560667604208], [-0.24250896275043488, 0.04050731286406517], [-0.14518624544143677, -0.02841857261955738], [-0.011647767387330532, -0.006818062160164118], [0.04432448372244835, -0.7631657719612122], [-0.11529412865638733, 0.07219094038009644], [0.0008542757714167237, -0.07980062812566757], [-0.000873814569786191, -0.07927524298429489], [-0.005876603536307812, -0.06650665402412415], [0.004878298845142126, -0.07264844328165054], [0.04006177559494972, -0.0871078222990036], [-0.10341095924377441, 0.23246712982654572], [-0.3301718831062317, 0.6746435761451721], [-0.12838922441005707, 0.7154555916786194], [0.0005054958164691925, -0.06423091143369675], [-0.22360356152057648, -0.46770840883255005], [-0.15548738837242126, -0.3542802035808563], [-0.49962255358695984, -0.20825494825839996], [0.0011516911908984184, -0.05309944599866867], [-0.06076176464557648, 0.06279847770929337], [0.24195460975170135, -0.062058545649051666], [0.039707001298666, 0.02698584832251072], [0.041701022535562515, 0.2139022946357727], [0.0009812067728489637, -0.08480338752269745], [-0.0026622675359249115, 0.5683899521827698], [-0.0017477228539064527, -0.06870858371257782], [0.03270002454519272, -0.05296260863542557], [-6.929135270183906e-05, -0.04017587751150131], [0.0006933935801498592, -0.4053948223590851], [0.036883872002363205, 0.29358115792274475], [-0.00422229990363121, -0.08866002410650253], [0.01047432143241167, -0.06699199229478836], [-0.028895355761051178, -0.47054892778396606], [0.036664124578237534, 0.5453044176101685], [-0.020685970783233643, 0.5274330377578735], [-0.044692084193229675, 0.3879930377006531], [-0.22305598855018616, 0.8126457929611206], [-0.0025088440161198378, -0.05808692052960396], [0.0007761423476040363, -0.061276789754629135], [-0.03127365559339523, 0.1790245920419693], [0.0006067501963116229, -0.08822855353355408], [-0.008190225809812546, 0.11177033185958862], [-0.2676355242729187, -0.13703569769859314], [0.0013737737899646163, -0.04649177938699722]], "rec.weight_hh_l0": [[-0.07724563032388687, 0.3793610632419586, 0.013842075131833553, 0.008750398643314838, 0.015834569931030273, 0.0019614463672041893, -0.08329024165868759, -0.048282232135534286, 0.051695503294467926, 0.07032418251037598, -0.011810075491666794, -0.04173250496387482, -0.41227343678474426, 0.24079030752182007, 0.02371341735124588, 0.22048023343086243, -0.03149497136473656, 0.0934857577085495, 0.12123719602823257, 0.017146922647953033, 0.41644492745399475, 0.0074137612245976925, -0.2983819246292114, -0.018990280106663704, -0.03253408521413803, 0.0749225988984108, -0.04784126207232475, 0.043339308351278305, -0.004132075235247612, -0.4317212700843811, 0.42604729533195496, -0.05866822600364685, -0.16537128388881683, 0.017882226034998894, -0.01057635061442852, -0.040484875440597534, 0.012190882116556168, 0.15849193930625916, 0.04996176436543465, -0.011992663145065308], [0.09864557534456253, -0.5613660216331482, 0.0073900381103158, 0.016995670273900032, 0.008905616588890553, -0.014949052594602108, -0.01711670309305191, -0.23974676430225372, 0.07044754922389984, -0.07984742522239685, -0.004673757590353489, -0.12505462765693665, 0.05292999744415283, 0.040121644735336304, -0.007974126376211643, 0.030086802318692207, -0.21226660907268524, -0.03508993983268738, 0.0144507996737957, -0.006326508242636919, -0.4281300902366638, 0.00569903152063489, 0.2231743335723877, 0.0044404445216059685, -0.008313983678817749, 0.06595779955387115, -0.010414798744022846, -0.0068064420484006405, 0.008243259973824024, -0.14618299901485443, 0.2745385468006134, -0.10438402742147446, 0.23291806876659393, -0.01796749420464039, -0.00021079486759845167, -0.05790853500366211, 0.006193940527737141, -0.08219435065984726, 0.005177556537091732, 0.014044149778783321], [0.0018225256353616714, -0.0010926385875791311, -0.0004877590690739453, 0.001122795045375824, -8.408021676586941e-05, -0.0005467340815812349, 0.0017061915714293718, 0.001239450415596366, -0.0002527292526792735, -0.0010809935629367828, 0.000354783987859264, 0.0013309346977621317, -0.002393060363829136, 0.001020193099975586, -0.0003474192344583571, -0.0024515308905392885, -0.0017983770230785012, -0.0007976320339366794, 0.000768092751968652, 0.00012718683865386993, 0.0030388489831238985, 0.00038414387381635606, -0.006356877274811268, 4.877659375779331e-05, 0.0040050107054412365, 1.9785607946687378e-05, -0.0007361131720244884, 8.158243144862354e-05, -0.00022899468604009598, -0.0011132977670058608, -0.00019833477563224733, -9.023884194903076e-05, 0.004252820275723934, -0.00016231164045166224, -0.00012651804718188941, 0.002375987358391285, 0.00022213620832189918, 0.00022539593919645995, 5.998199412715621e-05, 0.0004132010799366981], [-0.006856787484139204, 0.0066015394404530525, -0.0001882802025647834, -0.0013368469662964344, 0.0008759665070101619, -0.0006008067866787314, 0.0008190559456124902, 0.0002907233138103038, 0.0003906958154402673, 0.0004020174383185804, 0.0005894594942219555, 0.002292321529239416, -0.003433209378272295, 0.002858530031517148, -0.00026101566618308425, 0.00015100155724212527, -0.001032434869557619, -0.0016580763040110469, 3.3276687645411585e-06, -0.0001403299393132329, -0.0007738588028587401, 0.0004149587475694716, -0.012098385021090508, -0.00011861189705086872, 0.002710453700274229, 0.004562164191156626, -0.0008417900535278022, 0.0003021332959178835, -0.001023785793222487, 0.0008217981667257845, 0.001465533277951181, 0.0009155832231044769, 0.015047753229737282, -0.0004302971938159317, 0.0003630749124567956, 0.004623843356966972, -0.000308862014207989, 0.005009458400309086, 0.0021715215407311916, 0.0005728197866119444], [-2.5642497348599136e-05, 0.0025232783518731594, 0.0001549017906654626, 0.00046638428466394544, -5.733713987865485e-05, -0.00021664315136149526, 0.0012781620025634766, -0.0013195219216868281, 0.000657506927382201, 0.0017727370141074061, -0.00023522083938587457, 0.0007546658744104207, -0.0003362166171427816, -0.00021768883743789047, -0.00021658818877767771, -0.0004470621352083981, 0.00035067065618932247, 0.0017667270731180906, 0.004306423477828503, -0.00026030049775727093, -0.004228884819895029, 0.00014370404824148864, -0.0005938101094216108, -0.00012895629333797842, 0.0003827909822575748, -0.002515471540391445, -0.0008458807715214789, -9.058099385583773e-05, -0.0011759751942008734, 0.000776903354562819, -0.0005318898474797606, 0.0003491023962851614, 0.0017385386163368821, 0.00019443201017566025, 0.00010055251186713576, 0.0014751076232641935, -0.0005657806759700179, 0.0015697289491072297, 0.0006672677118331194, -0.0003802732680924237], [0.0006914741825312376, 0.002992230001837015, 0.0008315971354022622, -0.0006210871506482363, 0.0003736520593520254, -0.000585362664423883, 0.0012088533258065581, -0.0035270077642053366, 0.00010240497795166448, -0.000727921025827527, -0.000374606839613989, -0.0026506066787987947, -0.00017519660468678921, 0.0015453984960913658, -7.554973126389086e-05, -6.644478708039969e-05, 0.0016055277083069086, -0.0014915451174601912, 0.0019307638285681605, 4.661630009650253e-05, 0.0034624231047928333, 6.184016092447564e-05, -0.007571314927190542, 2.512890932848677e-05, 0.00011240144522162154, -0.0006199298077262938, -0.00042672580457292497, 0.0003672853345051408, 0.0002573942765593529, -0.001057146117091179, 0.0013637201627716422, 0.00036152329994365573, 0.008290831930935383, -0.0004590458411257714, -0.00028519544866867363, 0.0009058013092726469, 0.00020140648121014237, 0.003959876485168934, 0.0015256211627274752, 0.00010933776502497494], [-0.39367127418518066, 0.08197906613349915, -0.011996886692941189, 0.022928569465875626, -0.018810022622346878, -0.0055905478075146675, -0.03501901030540466, -0.012213357724249363, -0.015157181769609451, -0.07359828054904938, 0.009166222997009754, -0.022159209474921227, -0.030075781047344208, 0.057683058083057404, 0.012776345945894718, -0.01320543885231018, 0.06376676261425018, 0.0333930067718029, -0.19296222925186157, 0.006051967386156321, -0.10916651040315628, -0.013766719028353691, -0.22094695270061493, 0.0005758689949288964, 0.03084843046963215, 0.05773235484957695, 0.02443687617778778, -0.011165748350322247, 0.05048476904630661, 0.010347309522330761, 0.0026866039261221886, -0.06865939497947693, 0.14061221480369568, -0.012103973887860775, -0.006600468419492245, 0.15488779544830322, 0.053167808800935745, 0.05685676634311676, 0.09570269286632538, -0.007245808374136686], [-0.12047086656093597, -0.005035307724028826, 0.01053459569811821, 0.03364452347159386, -0.008863460272550583, -0.02787083014845848, 0.051159247756004333, 0.22801564633846283, 0.11335530877113342, 0.025504212826490402, -0.011801272630691528, -0.2198830097913742, -0.19083574414253235, 0.0380619578063488, -0.022817786782979965, -0.14498502016067505, 0.09884882718324661, 0.08639504015445709, -0.07542967796325684, -0.019481463357806206, -0.16652047634124756, 0.008996176533401012, 0.2113824039697647, 0.02580425515770912, -0.016558509320020676, -0.011609826236963272, 0.0023436450865119696, -0.00016629610036034137, 0.15601444244384766, -0.21548378467559814, -0.04809574782848358, -0.01989283412694931, 0.15497228503227234, -0.040802400559186935, -0.009616013616323471, 0.029589276760816574, 0.008887434378266335, 0.1899648904800415, 0.2135138064622879, 0.0326533317565918], [-0.2678793966770172, 0.23688727617263794, -0.01859108917415142, -0.02131788060069084, -0.012051554396748543, 0.02429569512605667, -0.05159037932753563, 0.266045480966568, 0.10956786572933197, 0.09118220210075378, 0.0071694133803248405, -0.5149007439613342, -0.3665088713169098, 0.18310919404029846, -0.014670920558273792, -0.026185721158981323, -0.42015573382377625, 0.13591033220291138, 0.12792260944843292, -0.023202454671263695, -0.11622118949890137, -0.0006815280066803098, -0.22677059471607208, 0.006623317953199148, 0.03545036166906357, 0.023465514183044434, 0.02429269813001156, 0.01810126192867756, -0.04697034880518913, -0.03882415220141411, -0.1699020117521286, 0.3862138092517853, 0.6842597126960754, 0.0019320531282573938, 0.009757203049957752, 0.012698950245976448, 0.006793127860873938, 0.009876683354377747, 0.4426512122154236, -0.009686128236353397], [-0.05724604055285454, 0.12180954217910767, 0.01580393686890602, 0.0280280951410532, -0.006220880895853043, -0.019002532586455345, -0.0246721338480711, 0.12416677922010422, -0.021815966814756393, 0.019080303609371185, -0.011200076900422573, -0.2370658963918686, -0.2274138480424881, 0.07682934403419495, 0.019584327936172485, 0.12371517717838287, -0.078187495470047, 0.075985848903656, -0.04243897274136543, 0.017131289467215538, 0.02369546890258789, -0.020305154845118523, -0.0743257999420166, 0.0006532047991640866, -0.016930030658841133, 0.21708694100379944, 0.0011923901038244367, 0.027880337089300156, -0.05228579416871071, 0.006686987821012735, -0.15496207773685455, 0.11121632903814316, 0.2698589563369751, -0.011863750405609608, -0.01667126826941967, 0.18903501331806183, 0.01829938217997551, 0.0718972459435463, 0.035842690616846085, 0.008063729852437973], [-0.0002644030610099435, 0.0006434255628846586, 0.0001908669073600322, -0.00036415422800928354, -0.00022259936667978764, -0.00034934148425236344, 0.0013730585342273116, 0.001311470870859921, -6.11798168392852e-05, 0.0001957306230906397, -0.0005178708233870566, -0.0008591334335505962, -0.002099284203723073, 0.0005718538304790854, -8.887758303899318e-05, -0.00035148009192198515, -0.0012568399542942643, -0.0011270968243479729, 0.0016097314655780792, 1.2440911632438656e-05, 0.0005630493978969753, 5.942153075011447e-05, -0.0037100519984960556, 1.5658881238778122e-05, 0.0014538634568452835, -0.000304431130643934, -0.0003087694349233061, -3.0719256756128743e-06, -0.001046805176883936, 0.000809911172837019, -0.0025876264553517103, 0.0014688740484416485, 0.004042769782245159, 4.077762787346728e-05, -0.00039442075649276376, 0.001256078016012907, 0.0002435587957734242, 0.001157346647232771, -0.000403645884944126, -0.0001595395733602345], [0.1863364726305008, 0.1325209140777588, 0.007455536630004644, -0.03262588754296303, 0.001797686330974102, 0.001424720510840416, 0.033608317375183105, -0.07248300313949585, -0.005925355013459921, -0.07939205318689346, 0.006829566787928343, -0.20257647335529327, 0.2245444804430008, -0.09228234738111496, 0.004849942866712809, 0.03495185449719429, 0.2430296689271927, 0.08377443999052048, -0.19865967333316803, 0.0005786407273262739, 0.1320585161447525, -0.007648784667253494, -0.35200345516204834, -0.004656035918742418, -0.03874265402555466, -0.12287615239620209, -0.01481291837990284, -0.01699727214872837, -0.028379395604133606, 0.10171271860599518, -0.75835782289505, 0.003084141295403242, -0.21556399762630463, 0.016988294199109077, 0.0028643105179071426, 0.07492668181657791, -0.030191102996468544, -0.04150297865271568, 0.05957983434200287, -0.0013304365566000342], [0.06844797730445862, 0.0011942043201997876, 0.008036769926548004, -0.01591404341161251, 0.011524924077093601, 0.004348769783973694, -0.11376331001520157, 0.032300520688295364, -0.006249282509088516, -0.025153620168566704, -0.0087291793897748, 0.1995934247970581, -0.12781299650669098, 0.01953592337667942, 0.0043421778827905655, 0.10392960160970688, -0.11868947744369507, -0.05303317308425903, 0.09684701263904572, 0.0011313955765217543, -0.09414555877447128, 0.0003283629775978625, 0.2234196811914444, 0.003615208202973008, -0.15063327550888062, 0.06934671849012375, -0.01190038863569498, 0.03415417671203613, 0.01271324697881937, -0.0686420425772667, 0.37969574332237244, -0.13844579458236694, -0.14009059965610504, -0.011562278494238853, 0.006128654815256596, -0.023424306884407997, -0.03533362224698067, 0.016867071390151978, -0.006490373518317938, 0.005376925691962242], [0.003478880040347576, 0.11650064587593079, 0.0060323444195091724, 0.02160908840596676, -0.000713454675860703, -0.009238943457603455, -0.11143804341554642, 0.2047528475522995, -0.13345389068126678, -0.0721636414527893, -0.0031865937635302544, 0.06216735392808914, -0.13350431621074677, 0.0509641133248806, -0.0032590292394161224, 0.06934420019388199, 0.03051801770925522, 0.006266712211072445, 0.14315426349639893, -0.0014439258957281709, -0.09307932108640671, 0.0012983294436708093, 0.11348102241754532, 0.003078242065384984, -0.05443989485502243, 0.04320733621716499, -0.009753412567079067, 0.02688428945839405, 0.014092065393924713, -0.015268122777342796, -0.08188583701848984, -0.024267423897981644, -0.1293608844280243, -0.01533564180135727, -0.003083381801843643, 0.016078315675258636, 0.01844540797173977, 0.13536913692951202, 0.10640823096036911, 0.008703107014298439], [-0.0010814786655828357, 0.0024727548006922007, 0.00012981632607989013, -0.0001431197306374088, 4.8186357162194327e-05, 0.00011797653860412538, -0.00019143665849696845, 1.3240789485280402e-05, -0.00024309151922352612, -0.0006942807813175023, -1.2954974408785347e-06, -0.0009594558505341411, -0.0005164771573618054, 0.00010179966920986772, 8.129841444315389e-05, 0.0007291458896361291, -0.00129136408213526, -7.558057404821739e-05, -0.00029080500826239586, -3.7329471524572e-05, -0.0004489926213864237, -1.715267717372626e-05, -0.002457777503877878, 4.768425060319714e-05, -0.0017235446721315384, -0.001470408751629293, -0.00016157432401087135, 3.097888838965446e-05, 0.0005236967699602246, -0.0003895476402249187, 8.063534914981574e-05, 0.0003043965552933514, 0.0037920335307717323, -8.5939493146725e-05, 9.262104867957532e-05, 0.0005126848700456321, -0.00023865402908995748, 0.00028164629475213587, 0.000147804559674114, -8.791501022642478e-05], [-0.2625356614589691, 0.08241337537765503, 0.01180528849363327, 0.021044975146651268, -0.00880099181085825, -0.02231511101126671, 0.010050294920802116, 0.023088442161679268, -0.034743521362543106, -0.04009293392300606, -0.012587218545377254, -0.006294452119618654, -0.03324269503355026, 0.02365311235189438, 0.010151124559342861, 0.006542304065078497, 0.0050362409092485905, -0.004768012557178736, -0.0433974489569664, 0.009551767259836197, -0.05229291319847107, -0.007468069903552532, -0.13831573724746704, 0.0014116844395175576, 0.08356902748346329, 0.01683991774916649, -0.00692050252109766, -0.007387074176222086, -0.03293663635849953, -0.02816685661673546, 0.0036250732373446226, 0.017435571178793907, 0.054109398275613785, -0.018448108807206154, -0.00847917515784502, 0.11608890444040298, 0.01996503956615925, 0.07976381480693817, -0.012118592858314514, 0.010976454243063927], [0.039653677493333817, -0.260450541973114, -0.0029686156194657087, 0.03032049722969532, 0.007389863952994347, 0.0019138773204758763, 0.03224659338593483, 0.022329801693558693, -0.05459918826818466, -0.10703864693641663, 0.006574984639883041, 0.16536545753479004, -0.1411871612071991, -0.011655664071440697, -0.0015975174028426409, -0.20058460533618927, 0.03665994852781296, -0.0044957054778933525, 0.00375490915030241, -0.0015649134293198586, 0.6697383522987366, -0.005943318363279104, -0.12842659652233124, -0.0014394258614629507, 0.16356198489665985, 0.14517101645469666, -0.00020095294166821986, -0.005398828536272049, -0.05518689006567001, 0.050751399248838425, 0.10470832884311676, 0.059532348066568375, 0.19140465557575226, 0.0012478579301387072, -0.0037933378480374813, -0.01234495360404253, 0.030239690095186234, -0.1252017319202423, -0.060899339616298676, -0.0023976333905011415], [0.12780897319316864, 0.10666348785161972, -0.007002566941082478, -0.007618512958288193, 0.001544068451039493, 0.0038353174459189177, 0.03294406086206436, 0.165095254778862, 0.0318247526884079, -0.044492773711681366, 0.007370957639068365, -0.04008771851658821, 0.08896350115537643, -0.05403143912553787, -7.137429201975465e-05, 0.006989131681621075, 0.04019846394658089, 0.0225105881690979, -0.05162972956895828, -0.009653653018176556, -0.21345387399196625, -0.013646600767970085, -0.10475485771894455, 0.005037096329033375, 0.0826195627450943, 0.02319241873919964, 0.016619950532913208, 0.006394310388714075, 0.03446067497134209, -0.20218981802463531, 0.13641847670078278, -0.0769481286406517, 0.006391655188053846, 0.020688362419605255, 0.007545406464487314, -0.016249824315309525, 0.00633751368150115, -0.040526438504457474, -0.04147879034280777, -0.0020781136117875576], [-0.33478498458862305, 0.11146340519189835, -0.019258689135313034, -0.010120505467057228, 0.03764120116829872, 0.03870406746864319, -0.05326675996184349, 0.12535323202610016, -0.03407306224107742, -0.044092606753110886, 0.018847132101655006, -0.30049431324005127, -0.20871321856975555, -0.06131453439593315, 0.005132182501256466, -0.041838593780994415, -0.07084738463163376, -0.02176121063530445, 0.020066866651177406, -0.010318986140191555, -0.0493418425321579, -0.013290009461343288, 0.011885127983987331, -0.019366325810551643, -0.00627093343064189, -0.006381823215633631, -0.016118349507451057, 0.018180526793003082, 0.030840659514069557, 0.09295783936977386, -0.04000113531947136, 0.03169387951493263, 0.028830327093601227, 0.02884429506957531, 0.016685795038938522, -0.0024316892959177494, -0.01395617425441742, -0.027163131162524223, -0.016400981694459915, -0.03950991854071617], [0.00026222324231639504, 0.0011343141086399555, -0.00027191659319214523, -0.00026628735940903425, -0.00014174293028190732, -0.0001232620415976271, -0.001960724825039506, 0.000280925101833418, -0.00044972673640586436, -6.188818224472925e-05, -2.4834213036228903e-05, -0.0018231425201520324, 1.2531075299193617e-05, 0.0002767260593827814, -5.549440538743511e-05, 0.0009000056306831539, -0.0008822730160318315, 0.00032272509997710586, 0.0023920596577227116, -7.332406676141545e-05, -0.0008297879830934107, -9.56698422669433e-05, -0.0027790237218141556, 1.9741057258215733e-05, -0.0004397910088300705, -0.0022797544952481985, -0.00024500431027263403, 5.1238857849966735e-06, -0.0015037448611110449, -0.0012750673340633512, 8.026496652746573e-05, 0.0006066724308766425, 0.0048150960355997086, 0.00015230941062327474, 0.0001328765065409243, -0.00038031983422115445, -0.00017527279851492494, 0.00208556791767478, 0.00013934876187704504, -6.365282388287596e-06], [-0.11194877326488495, 0.32418301701545715, 0.027848269790410995, 0.02547208033502102, 0.0033709153067320585, -0.025650912895798683, 0.03782949224114418, -0.049223393201828, 0.1880025416612625, 0.3037528097629547, -0.02451552450656891, -0.184502974152565, -0.3177253007888794, 0.1729118973016739, -0.019694862887263298, 0.020272260531783104, -0.07188262790441513, 0.11753115057945251, -0.04619817063212395, 0.00031117911566980183, 0.013643957674503326, 0.030505238100886345, 0.18382877111434937, 0.024262676015496254, 0.220877006649971, 0.1876959204673767, 0.0001013213477563113, 0.03837122023105621, 0.08823560923337936, 0.16542938351631165, 0.2098698616027832, -0.21019068360328674, 0.3858265280723572, -0.0471138171851635, -0.015453607775270939, -0.06276247650384903, 0.008588382042944431, 0.0979587584733963, 0.11607290804386139, 0.03579564392566681], [0.0013225497677922249, 0.006772681139409542, 0.0002299001789651811, -0.0004947385750710964, 0.00029372869175858796, -0.00047263302258215845, 0.0007440050831064582, -0.000891179486643523, -0.0008827184210531414, -0.0018301658565178514, -0.0005206519854255021, -0.0012411467032507062, 0.00020271059474907815, 0.00025551236467435956, -6.904569454491138e-05, 0.0023898298386484385, -0.0018798817181959748, 0.0002461503027006984, -0.0009722074028104544, 7.992057362571359e-05, -0.004034162499010563, -4.352239557192661e-05, -0.003977173939347267, 4.588482988765463e-05, -0.005510237999260426, -0.002965929452329874, -0.0009582284255884588, 0.0003421090659685433, 5.867874642717652e-05, -0.00046426267363131046, -0.00124973279889673, 0.0001991039316635579, 0.0034147892147302628, 0.00036640989128500223, 1.902759868244175e-05, 0.0005057657836005092, 6.327807932393625e-05, 0.00023687825887463987, 0.0008409515721723437, -7.753432873869315e-05], [-0.15142907202243805, -0.027417367324233055, 0.0038969386368989944, 0.035143621265888214, 0.004056708887219429, 0.004835361614823341, -0.04300327226519585, -0.4242473840713501, 0.20993757247924805, 0.11226245015859604, 0.005400179419666529, 0.09669975191354752, -0.3118058443069458, 0.12707488238811493, 0.016338752582669258, 0.17931750416755676, -0.00912703387439251, 0.07043694704771042, 0.10389602184295654, 0.0071257492527365685, 0.7507844567298889, 0.01033609826117754, -0.07740966975688934, -0.004083006642758846, -0.4655718505382538, 0.06322231143712997, -0.010185950435698032, -0.02534123696386814, -0.061962489038705826, 2.008333444595337, -0.24228017032146454, 0.09004443138837814, -0.10312368720769882, -0.016631219536066055, -0.017273640260100365, -0.0777624249458313, 0.03574613481760025, 0.027264393866062164, -0.05392881855368614, -0.008638746105134487], [-0.0014672614634037018, 0.002680874662473798, 0.00014895107597112656, -3.277348878327757e-05, 4.167369843344204e-05, 3.5858192859450355e-05, -0.00015886999608483166, 0.0006095678545534611, -0.0007317500421777368, -0.0008652074029669166, -4.0874780097510666e-05, 0.00045673863496631384, -0.0011458954541012645, 0.0001564084814162925, -1.6551563021494076e-05, 0.0004097296914551407, -0.0015361522091552615, -0.0006231674342416227, 0.0010696366662159562, -7.917636685306206e-05, 0.001235343748703599, 6.389797636074945e-05, -0.002573713194578886, 7.332111999858171e-05, -0.001223579398356378, -0.0018488243222236633, -0.00015944536426104605, 5.2518054872052744e-05, 0.0008708011591807008, -0.0002570286742411554, 0.0013817920116707683, 0.00013840850442647934, 0.0032287067733705044, -0.000128274827147834, -4.515827095019631e-05, 0.00042093079537153244, -0.00016458962636534125, -0.0004444714868441224, 0.0008810202707536519, -1.5429110135301016e-05], [-0.24127794802188873, -1.0609811544418335, -0.010617580264806747, 0.005587375722825527, -0.015556609258055687, -0.010932029224932194, -0.05115015432238579, -0.23310419917106628, -0.06719537824392319, -0.026220636442303658, 0.004269804805517197, -0.24826540052890778, -0.27348288893699646, -0.10194575041532516, -0.009132502600550652, -0.022971607744693756, 0.03566862270236015, 0.05303676053881645, 0.015254291705787182, -0.012908353470265865, -0.38780543208122253, -0.013727940618991852, -0.0941968560218811, 0.017511989921331406, 0.016366468742489815, -0.013961335644125938, 0.03439917787909508, -0.019885847344994545, -0.014365015551447868, -0.16185075044631958, 0.12213236838579178, -0.0344880111515522, 0.24483822286128998, -0.014051337726414204, 0.0070367492735385895, 0.002448171377182007, 0.021480273455381393, 0.06822966784238815, 0.0900966227054596, 0.006892471108585596], [-0.08776663988828659, -0.010598229244351387, 0.014379133470356464, -0.009340143762528896, -0.014370965771377087, -0.014433503150939941, 0.09474679082632065, 0.20397917926311493, 0.03204217925667763, 0.04695938527584076, -0.019949354231357574, -0.06158388778567314, -0.029581641778349876, 0.09276964515447617, -0.001980983652174473, -0.2173260599374771, 0.010255037806928158, -0.10407434403896332, -0.1507388949394226, 0.009502140805125237, -0.1200430616736412, 0.010950270108878613, -0.0827237069606781, -0.0030336135532706976, 0.03495527431368828, 0.09338556975126266, 0.016386907547712326, 0.022902829572558403, 0.012155706994235516, -0.09916270524263382, -0.03973229601979256, 0.08203165978193283, 0.18947167694568634, -0.0036205772776156664, -0.017313607037067413, 0.06115146353840828, -0.013429373502731323, 0.026562495157122612, -0.1472547948360443, 0.018014520406723022], [-0.005478392820805311, 0.0028461467009037733, 0.0007143939146772027, -0.00017200109141413122, 6.673757161479443e-05, -0.0005684164352715015, -0.0006476595881395042, -0.0013852788833901286, 0.0019567501731216908, 0.006181539036333561, -0.0005889846361242235, -0.0024548042565584183, -0.0023138506803661585, 0.00019308480841573328, -4.2040846892632544e-05, 0.0034382943995296955, 0.002150985412299633, 0.0021647256799042225, 0.0002651680842973292, -0.00017501429829280823, -0.0034516805317252874, 0.00042804382974281907, -0.007619649171829224, -5.5218148190760985e-05, -0.0006689041620120406, 0.0037733924109488726, -1.7846181435743347e-05, 0.000116680224891752, -0.0041726273484528065, 0.0018708284478634596, -0.004996056202799082, 0.0015537526924163103, 0.005055990070104599, -8.098429680103436e-05, 0.0002164843463106081, 0.002756620990112424, -0.0005737025057896972, 0.002829472068697214, 0.0012074834667146206, 0.0004142988764215261], [-0.0015024386812001467, 0.022978978231549263, -0.0006128810928203166, -0.0014233329566195607, -0.00010592604667181149, 0.0005276805022731423, 0.0011154417879879475, -0.006954319775104523, -0.00033865190926007926, -0.001118787215091288, 0.00042095736716873944, -0.003387640230357647, 0.0014160219579935074, 0.0036869808100163937, 9.475460683461279e-05, -0.0037911462131887674, -0.010113569907844067, 0.003665979951620102, -0.005650031846016645, -0.00014051419566385448, 0.008198861964046955, 7.330330845434219e-05, -0.03571101278066635, -0.0004162107070442289, -0.008246607147157192, 0.002491740044206381, 0.0005444220150820911, 0.0003200934734195471, -0.003411737037822604, -0.0036403287667781115, -0.003516801167279482, 0.00436051469296217, 0.0073718903586268425, 0.0008997536497190595, 0.00045366917038336396, 0.007114073261618614, -0.0009331254404969513, 0.0031823988538235426, 0.0002428050502203405, -0.00043202887172810733], [-0.20051904022693634, 0.24871958792209625, -0.008017892949283123, -0.0006514175911433995, 0.007537929806858301, -0.004478789865970612, -0.005955460015684366, 0.09121311455965042, -0.06979016959667206, -0.05666276812553406, -0.006659690290689468, -0.016089526936411858, -0.15356802940368652, 0.10051316022872925, -0.008772552944719791, 0.06266440451145172, -0.06699301302433014, 0.018144777044653893, -0.004090157803148031, -0.006556706503033638, 0.22807557880878448, 0.0020756241865456104, -0.07284020632505417, 0.007890709675848484, -0.03448403999209404, 0.04942974075675011, -0.0024140821769833565, 0.012336269952356815, -0.022932298481464386, 0.10903798788785934, 0.024138562381267548, 0.030148085206747055, 0.0461612194776535, 0.002762418705970049, 0.014357523992657661, 0.019227398559451103, -0.008024302311241627, 0.028696686029434204, 0.009724056348204613, 0.010379145853221416], [0.02753596380352974, -0.13898122310638428, 0.002400666708126664, -0.007956680841743946, 0.00018217708566226065, -0.0016637862427160144, -0.006853936240077019, -0.04905777424573898, 0.047300614416599274, 0.025284653529524803, -0.002783721312880516, 0.01626189798116684, -0.015614749863743782, -0.003582602832466364, -0.00046230186126194894, -0.01773701049387455, -0.03522561863064766, 0.003934463951736689, 0.007200262043625116, 0.0016016156878322363, 0.06909765303134918, 0.004555657971650362, 0.06683478504419327, -0.002167699858546257, 0.05064614862203598, -0.008810962550342083, -0.007593619637191296, 0.0034445312339812517, -0.0057954564690589905, -0.0025091583374887705, 0.09118656069040298, -0.0020894608460366726, -0.028065642341971397, -0.0016900983173400164, 0.00245394348166883, -0.002495942870154977, -0.012786518782377243, 0.0044661881402134895, -0.006502475589513779, 0.0024467564653605223], [-0.33754318952560425, 0.14031295478343964, -0.000648880610242486, -0.023407340049743652, 0.02580970898270607, 0.019151246175169945, 0.010649411007761955, 0.38912951946258545, 0.08218525350093842, 0.24678170680999756, 0.01968790404498577, -0.06851602345705032, -0.46548518538475037, 0.1438160091638565, 0.011454368941485882, -0.15154865384101868, -0.12167295813560486, -0.07550613582134247, 0.09260820597410202, -0.011436410248279572, -0.3493107855319977, -0.01564444787800312, 0.005326385609805584, 0.004548134747892618, -0.041325315833091736, 0.15204431116580963, -0.019600115716457367, 0.029626689851284027, 0.08257131278514862, 0.1975821703672409, -0.2018784135580063, 0.1139836385846138, 0.5214110612869263, -0.007316311821341515, 0.0025092356372624636, -0.041151903569698334, -0.012840712442994118, 0.025754719972610474, -0.013987825252115726, -0.02049407921731472], [0.12794172763824463, -0.13230454921722412, 0.0002936512464657426, -0.002832846948876977, -0.0006113987183198333, 0.0032024034298956394, -0.07955428957939148, 0.07152949273586273, -0.06558647751808167, -0.015544936060905457, -0.0037684175185859203, -0.11686071008443832, -0.1660890132188797, -0.003673357656225562, -0.0038443084340542555, -0.008439638651907444, -0.03490382805466652, 0.023821044713258743, -0.0030732478480786085, -0.003961598500609398, 0.14090804755687714, -0.0017439905786886811, -0.015772487968206406, 0.003258708631619811, 0.01872950792312622, 0.002122109290212393, 0.005494371522217989, -0.004589615389704704, 0.037114791572093964, -0.14981746673583984, 0.04367437586188316, 0.039668966084718704, 0.10521844029426575, -0.002849550684913993, 0.0015945184277370572, -0.0038785666693001986, 0.00211356277577579, -0.014536617323756218, 0.11151831597089767, -0.0002011292235692963], [-0.10473251342773438, 0.04623602703213692, 0.04476255178451538, 0.03149126097559929, -0.02395728975534439, -0.034075964242219925, 0.14568489789962769, -0.17592529952526093, 0.15956467390060425, -0.019284367561340332, -0.04278210550546646, -0.07156842947006226, -0.08136451244354248, -0.10396040230989456, -0.014002591371536255, -0.22977910935878754, 0.08668233454227448, -0.1650865077972412, -0.0006087296060286462, -0.015657195821404457, -0.11686225235462189, 0.02631308324635029, 0.5728927850723267, 0.033284980803728104, -0.0339355506002903, 0.06760730594396591, 0.030726810917258263, -0.02602669969201088, 0.08663813024759293, -0.13364365696907043, -0.0765966922044754, -0.060656946152448654, 0.38910311460494995, -0.03595760464668274, -0.042019326239824295, 0.022935064509510994, 0.008329350501298904, 0.056931812316179276, 0.029601436108350754, 0.05774333328008652], [-0.005682360380887985, 0.006724904291331768, 0.0003084198688156903, 0.0003457930579315871, 0.0002592345408629626, -2.4803895939840004e-05, 0.0004805985663551837, 0.0006981760961934924, -0.001963975839316845, -0.0033226560335606337, -2.1906549591221847e-05, 0.004247874021530151, -0.00022113948944024742, 0.0009499075240455568, -0.00029074359918013215, 0.004615523386746645, -0.0006845510797575116, -0.003539753146469593, 0.00046186160761862993, -2.440839853079524e-05, 0.0014539142139256, 0.0004366425273474306, -0.00783861055970192, 0.00024971607490442693, 0.0011370882857590914, -0.0023147868923842907, -0.0004409825196489692, 0.0003157680912408978, 0.0025798697024583817, 0.0004915623576380312, 0.004243658855557442, -0.0005193006945773959, 0.003775519784539938, -0.00030983725446276367, 0.00048776669427752495, 0.0064077372662723064, -0.0005220135790295899, 0.0002603658940643072, 0.0014331428101286292, 2.4865377781679854e-05], [-0.0024349563755095005, 0.0018257435876876116, -4.256624015397392e-05, 0.00038930276059545577, 0.0002136121183866635, -0.00035275809932500124, 0.0005647462676279247, -0.0006195185706019402, 0.0008183348691090941, -0.0019101494690403342, -0.00023163773585110903, -0.0008207602659240365, -0.001846584607847035, 0.0012356586521491408, -2.6223022359772585e-05, -0.0009352473425678909, 0.0004439249460119754, -0.0006516571156680584, 0.0015157288871705532, 3.31519368046429e-05, 0.00042355532059445977, 8.711263944860548e-05, -0.00511054415255785, -3.13375421683304e-05, 0.002382257953286171, -0.00033722800435498357, -0.0004134030023124069, 0.0002774620952550322, -0.0008268004166893661, 0.0002038103120867163, -0.0020751236006617546, 0.0015752865001559258, 0.0044438401237130165, -8.169461216311902e-05, -6.234812462935224e-05, 0.0017603668384253979, 0.00045115777174942195, 0.003080003662034869, -0.00011721596092684194, 0.00022694809013046324], [0.1208811104297638, 0.17680208384990692, 0.0169452503323555, 0.0014707236550748348, 0.011236721649765968, -0.009321197867393494, -0.11585648357868195, 0.10160734504461288, -0.07611475139856339, -0.01083562895655632, -0.01090856734663248, -0.14866457879543304, -0.1510443389415741, 0.057066626846790314, 0.0019869208335876465, -0.03589657321572304, -0.08892744034528732, -0.1330508589744568, 0.12442367523908615, 0.0016430150717496872, 0.11495743691921234, 0.007343137636780739, -0.059835221618413925, -0.006391746457666159, 0.004068801645189524, 0.05752883478999138, 0.00023734752903692424, 0.006963278632611036, 0.04366501048207283, 0.03638317808508873, -0.14420261979103088, 0.09141110628843307, 0.3007607161998749, -0.014202451333403587, -0.01163735706359148, 0.037594832479953766, -0.006659349892288446, 0.048613350838422775, 0.22966927289962769, 0.0104549964889884], [0.0009619393385946751, 0.008641780354082584, -0.00040215361514128745, 7.905767233751249e-06, 0.00032469406141899526, -4.96968932566233e-05, -0.002565879374742508, -0.0015951992245391011, 0.0032489195000380278, -0.0008012242615222931, -1.0265070159221068e-05, -0.0033147099893540144, -0.0001155793434008956, 0.00020972685888409615, -0.00030475042876787484, 0.000928244087845087, 0.0021135874558240175, -0.0011275185970589519, 0.004816193599253893, -0.00012442357547115535, -0.00770122604444623, 0.0006265393458306789, -0.007107777055352926, -0.00018482006271369755, -0.004465997684746981, -0.0026168120093643665, -0.00038708315696567297, -0.00023339955077972263, -0.0014823117526248097, 0.00247107888571918, -0.00660396832972765, -0.001490271301008761, 0.015198354609310627, 0.0008928245515562594, 0.0002003737899940461, 0.0011879346566274762, -0.002380603225901723, 0.007474879268556833, 0.0003151505079586059, 0.00021013575315009803], [0.0030947821214795113, 0.12921389937400818, 0.006873976439237595, 0.019462825730443, -0.012440786696970463, -0.016347888857126236, -0.020830903202295303, 0.15425747632980347, -0.06875862181186676, 0.06679124385118484, 0.0004581201064866036, -0.2982640564441681, -0.06913711130619049, -0.01568734459578991, 0.009608155116438866, -0.08236224204301834, -0.04830491915345192, -0.018577545881271362, 0.031331632286310196, -0.003036965150386095, 0.13101793825626373, -0.011717117391526699, -0.006881771143525839, 0.0024384225253015757, 0.04252823069691658, 0.03754712641239166, 0.005121342372149229, 0.01574244722723961, -0.08225800096988678, 0.14593034982681274, -0.12715232372283936, 0.00336387287825346, 0.26741769909858704, -0.022636469453573227, -0.009099065326154232, 0.008288887329399586, 0.03393830358982086, 0.005145816598087549, 0.04606751725077629, 0.005259683355689049], [-0.050981901586055756, 0.06629464030265808, 0.0023620915599167347, 0.005188440904021263, 0.00443169055506587, -0.005990666802972555, 0.009048916399478912, 0.18001015484333038, -0.048351142555475235, -0.13087034225463867, -0.0038204609882086515, -0.07316653430461884, -0.004909484647214413, 0.03377123177051544, -0.0015006553148850799, 0.010747803375124931, -0.009369175881147385, 0.026912052184343338, 0.0701797604560852, 0.002124227350577712, -0.20968295633792877, 0.005839402321726084, -0.21086016297340393, 5.606508784694597e-05, 0.07503925263881683, -0.08889616280794144, -0.006990896537899971, -0.0026535061188042164, 0.06395832449197769, -0.009326744824647903, -0.3498136103153229, 0.08992419391870499, -0.09488660842180252, -0.008527823723852634, 0.0001921064394991845, -0.040454741567373276, -0.00402417965233326, -0.06562461704015732, 0.09539695084095001, 0.004257178865373135], [-0.0017753983847796917, 0.001218963647261262, 0.00039110530633479357, 0.000129955995362252, -2.2242541035666363e-06, 0.00013401983596850187, 0.0008133228402584791, -0.00021404863218776882, -0.0004832397389691323, -0.0014650231460109353, 0.00010902752546826378, -7.286469190148637e-05, -0.0002631199895404279, 0.0003915976849384606, -1.2930740922456607e-05, 0.0005974704981781542, 0.00010926009417744353, -0.0009137430461123586, 0.00022611672466155142, 5.701051122741774e-05, 0.0005253321724012494, 0.00015364112914539874, -0.002399024087935686, 1.5188618817774113e-05, 0.0014388972194865346, 0.0001587909646332264, -0.00017760299670044333, 5.159019565326162e-05, 5.514837903319858e-05, -0.000497594301123172, 0.0005462022963911295, 0.000305625784676522, 0.0026384100783616304, 0.0001129758675233461, -0.00018652425205800682, 0.000713989429641515, 0.00023526052245870233, 0.0002195236156694591, 0.00022674475621897727, 0.0002136538823833689], [-0.10172689706087112, 0.06304552406072617, 0.025224896147847176, -0.007383202202618122, 0.0012768673477694392, 0.004009664990007877, 0.0052086832001805305, -0.2062685489654541, 0.18983140587806702, 0.12928001582622528, -0.0195271335542202, -0.19993624091148376, -0.017197219654917717, 0.05501798912882805, 0.0212097205221653, 0.16736619174480438, 0.14386765658855438, 0.017447736114263535, -0.05045434087514877, 0.021790916100144386, 0.22287236154079437, 0.0067420522682368755, -0.39849022030830383, -0.013790584169328213, 0.02969876490533352, -0.07258007675409317, -0.009937042370438576, -0.004207450430840254, -0.06575703620910645, -0.0819249376654625, 0.012787348590791225, -0.143479123711586, -0.4618353843688965, 0.019580328837037086, -0.02391345426440239, -0.1191626638174057, -0.01184123195707798, -0.02434011735022068, -0.022481625899672508, 0.0022125986870378256], [0.09645431488752365, -0.5356146693229675, 0.00033333999454043806, 0.012490582652390003, 0.0073164296336472034, -0.004559171851724386, -0.15059860050678253, -0.5045099854469299, 0.05473160371184349, -0.0783894956111908, -0.003972419071942568, -0.10472351312637329, 0.10422121733427048, 0.03673896566033363, -0.0007911476423032582, 0.27513521909713745, -0.1326577514410019, 0.1478779911994934, -0.04080215096473694, -0.004438532050698996, -0.48832154273986816, -0.005120489280670881, 0.2532487213611603, 0.003637499175965786, -0.3118457794189453, 0.05421154573559761, 4.759873263537884e-05, -0.013450652360916138, -0.10267802327871323, -0.014165306463837624, 0.1061464473605156, -0.1924232393503189, -0.10761506855487823, -0.016958018764853477, 0.0020534456707537174, -0.017564591020345688, 0.0048716808669269085, -0.09269475936889648, -0.0756935402750969, 0.009557818062603474], [-0.0009490179363638163, -0.004140786360949278, 0.0007582122343592346, -0.000787941855378449, 1.4793022273806855e-05, -0.0002447547158226371, -0.0010734432144090533, 0.0022288362961262465, -0.002236393978819251, 0.0017760662594810128, -0.0006614527083002031, 0.0020728553645312786, -0.0020959603134542704, 0.0010029427940025926, -0.00012918954598717391, -0.0008317842148244381, 0.0008990362985059619, 0.0014440424274653196, 0.0010426559019833803, -0.00017761664639692754, 0.0019998629577457905, -0.0002348805865040049, -0.004790871404111385, 0.00013394888082984835, 0.0037427872885018587, -0.002298386301845312, 0.00012089648225810379, -0.00038268452044576406, 0.0004157962976023555, -0.0008970586350187659, 0.0036593999247998, -0.00011774971790146083, 0.0033802397083491087, -0.0005413006874732673, 0.0007716575637459755, 0.0019201947143301368, -0.00047612813068553805, 0.001305482699535787, 0.001001184107735753, -0.00029726195498369634], [-0.004806465934962034, 0.006557443644851446, 3.43056526617147e-05, -0.0003051022067666054, 2.668347406142857e-05, 0.00037739676190540195, 0.0018405562732368708, -0.0018552977126091719, 0.0030492234509438276, -0.00049628532724455, -0.00015179786714725196, 0.0027085666079074144, -0.0021367562003433704, 0.001660857000388205, 0.00011231405369471759, 0.0011901846155524254, -0.0007721431320533156, 6.857966218376532e-05, -0.0009941763710230589, 3.2453574476676295e-06, -0.00043384957825765014, 0.00026091531617566943, -0.00883544236421585, -0.000484683143440634, -0.00030554080149158835, 0.004828170407563448, -0.00030742320814169943, 0.00011429264850448817, -0.0016166928689926863, 0.0012235732283443213, -0.0005427051801234484, 0.0017195394029840827, 0.010581878013908863, 0.0006725486018694937, 0.00022633995104115456, 0.0016254645306617022, -0.0009208013652823865, 0.004029793199151754, 0.0007040704367682338, -0.0003297455550637096], [0.0002555986575316638, 0.00017298928287345916, 3.973196362494491e-05, -0.00018636554887052625, 2.3362455976894125e-05, -0.00010044986265711486, -0.0013189570745453238, -0.0002739425690378994, 0.0022624353878200054, 0.0015301876701414585, 0.00010815326095325872, -0.0008325409726239741, -0.001338867237791419, 1.5446670659002848e-05, -0.00011016447388101369, -0.0015234382590278983, 0.0018842436838895082, 0.0007243190193548799, 0.0023468646686524153, 3.240711157559417e-05, -0.001823334489017725, 0.0001267243060283363, -0.001058788737282157, -8.131196955218911e-05, 0.0018562903860583901, -0.001283281366340816, -0.00040859568980522454, 0.00035082371323369443, -0.002004398964345455, -7.399712194455788e-05, 0.0004129898443352431, 0.0006671675946563482, 0.0009115308639593422, -9.719529771246016e-06, 0.0002828320430126041, 0.0014353608712553978, -0.0006002832669764757, 0.0007494474994018674, -0.00038347466033883393, 2.5932173230103217e-05], [0.0011187443742528558, 0.0019571322482079268, -0.00023120023251976818, -7.20148382242769e-05, -0.0002313241857336834, -0.0001427793176844716, 0.0004528370627667755, -0.0017604827880859375, -0.00046615407336503267, -0.0002694196882657707, -7.649296458112076e-05, -0.0005646489444188774, -0.000481435185065493, 0.0010837739100679755, -2.7352205506758764e-05, 0.0008424649713560939, 0.004223054740577936, -0.0006459550349973142, 0.0030692846048623323, -3.315535286674276e-05, 0.00014465785352513194, 0.00011282108607701957, -0.004648659843951464, 4.085142427356914e-05, 0.0009286128333769739, -0.0006217746995389462, -0.0001874726585811004, 0.00023655907716602087, 0.001464598230086267, 5.4913543863222e-05, -0.001012952532619238, -0.0006717806099914014, 0.005228918977081776, 0.0002903682761825621, 0.00039409741293638945, 0.0006035667029209435, 0.00020939591922797263, 0.0036237554159015417, 0.0015171004924923182, 0.00024267233675345778], [0.05289727449417114, -0.10522526502609253, 0.02287101186811924, 0.00378992035984993, 0.009891632944345474, -0.009775342419743538, -0.08445276319980621, -0.055107999593019485, 0.05172477290034294, 0.06519487500190735, -0.02616029977798462, 0.06151202693581581, 0.030021052807569504, -0.05790059641003609, 0.001742148189805448, 0.039050325751304626, 0.026030808687210083, -0.034913647919893265, 0.08545517921447754, 0.002872162265703082, 0.0766650140285492, 0.01170123927295208, 0.144407257437706, -0.0011395933106541634, 0.026935778558254242, 0.03686683624982834, -0.005524647422134876, -0.003264493541792035, -0.014945494942367077, -0.019584372639656067, -0.01941852644085884, 0.030802074819803238, -0.07627665251493454, -0.01080666296184063, -0.014000382274389267, -0.04348127916455269, 0.007040166761726141, -0.07444583624601364, -0.07324478030204773, 0.00973669532686472], [0.027935991063714027, -0.021683169528841972, 0.02082841470837593, 0.05475042015314102, -0.012265141122043133, -0.030666448175907135, 0.0317910797894001, -0.01502163428813219, 0.07977402210235596, -0.0010559088550508022, -0.011102898046374321, -0.043179288506507874, 0.06502901762723923, -0.12252318859100342, -0.000590046402066946, 0.09206582605838776, 0.09541181474924088, 0.027031322941184044, -0.0591881088912487, 0.006634133402258158, -0.11954207718372345, 0.015821119770407677, 0.15713801980018616, 0.012181276455521584, 0.03387453407049179, -0.1770022064447403, 0.004225555341690779, 0.011100027710199356, 0.023571329191327095, 0.023971622809767723, -0.16817426681518555, -0.02790750563144684, -0.2550314962863922, -0.032818153500556946, -0.033391840755939484, -0.09201042354106903, 0.04999235272407532, -0.13386286795139313, 0.06161870062351227, 0.018669936805963516], [-0.023428447544574738, -0.3537513017654419, 0.00035722157917916775, 0.008647767826914787, 0.01168900541961193, 0.005048166029155254, 0.014498495496809483, 0.025944236665964127, -0.05293592810630798, 0.003645539516583085, 0.0074692219495773315, 0.12860892713069916, 0.14436529576778412, 0.005344289354979992, -0.008822987787425518, -0.013344927690923214, 0.2182091623544693, -0.06918200105428696, -0.019086401909589767, 0.004151224158704281, 0.13357515633106232, 0.005827388260513544, 0.5558941960334778, -0.007947459816932678, 0.13297317922115326, 0.008665223605930805, -0.02157723344862461, -0.00013357594434637576, -0.03180912137031555, 0.09254380315542221, -0.02647123672068119, -0.20630712807178497, -0.36674562096595764, 0.0074779074639081955, 0.0012769089080393314, -0.0493403822183609, -0.018053848296403885, -0.008975787088274956, 0.06296083331108093, 0.001866501523181796], [-0.13034288585186005, 0.01820196583867073, 0.003953736275434494, -0.007046412210911512, -0.0029702004976570606, -0.005131393671035767, 0.017958972603082657, 0.03681683540344238, -0.062444787472486496, -0.05563563108444214, -0.00748066371306777, 0.17807401716709137, 0.2911722958087921, 0.008512541651725769, 0.006110945716500282, -0.08765234053134918, 0.1480388343334198, 0.014436583034694195, -0.03781849518418312, -0.00030628411332145333, 0.17390228807926178, -0.00540917320176959, 0.35926133394241333, 0.008750529028475285, 0.08000878244638443, -0.048094622790813446, 0.01232069917023182, -0.004020765423774719, -0.020715469494462013, 0.10629551857709885, -0.09358981996774673, -0.166707843542099, -0.5180850028991699, -0.0007762571331113577, -0.005808086600154638, 0.054817747324705124, 0.0007322573219425976, -0.10663798451423645, 0.12641163170337677, 0.006549226585775614], [0.0006059751030988991, -0.0015907749766483903, -7.238884336402407e-06, 9.036165283760056e-05, 0.0001524901163065806, 2.1836134692421183e-05, 0.0008638417348265648, 0.0015523933107033372, 0.00046898022992536426, 0.0012172202114015818, -0.00010874497820623219, -0.00014148186892271042, -0.0013070253189653158, 5.9616013459162787e-05, -0.00016013254935387522, -0.0002177314308937639, 0.0009978361194953322, -0.0004239756672177464, 0.0012583325151354074, -9.011663496494293e-05, 4.2040570406243205e-05, -6.0370730352588e-05, -0.0048030661419034, -1.3619818673760165e-05, 0.002623370848596096, -7.674306107219309e-05, -0.00019089828128926456, 4.1184430301655084e-05, -0.0004259472480043769, -0.00030489705386571586, -0.0005223886691965163, -0.0010397541336715221, 0.0019002835033461452, -0.0002297310420544818, 0.0005335427122190595, 0.001081929774954915, -0.00013360792945604771, 0.0013919631019234657, -0.00013231193588580936, 0.00011448315490270033], [0.26802536845207214, -0.3797553479671478, 0.016605354845523834, -0.0444057323038578, 0.0017920021200552583, -0.00029398006154224277, 0.06192997470498085, -0.17630939185619354, 0.150730162858963, 0.10378135740756989, -0.008135497570037842, -0.1510973572731018, 0.3508714437484741, -0.1803411990404129, 0.01115073449909687, -0.04995160549879074, 0.1335766464471817, 0.03953775390982628, -0.02468377910554409, 0.0010020647896453738, 0.1170555129647255, -0.013198798522353172, -0.20632100105285645, -0.0027552603278309107, 0.09444750100374222, -0.028174666687846184, 0.008681423962116241, -0.021866587921977043, -0.0907563790678978, 0.12029477208852768, -0.0462661050260067, -0.06714272499084473, -0.21209114789962769, 0.020914077758789062, -0.0044113206677138805, -0.04302999749779701, -0.04035566747188568, -0.09470303356647491, -0.011630905792117119, 0.0019357084529474378], [-0.014448313042521477, -0.35147061944007874, 0.0043360088020563126, -0.02745858021080494, 0.007430949714034796, 0.012610997073352337, -0.004250805824995041, -0.07255798578262329, 0.09047521650791168, 0.044417060911655426, -0.004173078574240208, 0.08651281893253326, -0.11271803081035614, -0.006837273482233286, 0.008691202849149704, 0.14262066781520844, -0.006903236266225576, -0.07621439546346664, 0.012450741603970528, 0.0051343622617423534, -0.0976421907544136, 0.0012319752713665366, 0.19567334651947021, -0.0006846503238193691, -0.04825484752655029, -0.08418422192335129, 0.0036850536707788706, 0.015263193286955357, -0.002485544653609395, -0.1424456685781479, -0.07489597797393799, -0.15390057861804962, -0.2776261866092682, -0.002607364673167467, 0.0013202212285250425, -0.07989435642957687, -0.030194340273737907, -0.04096122831106186, -0.06997201591730118, -0.0033929224591702223], [0.025188924744725227, 0.06203031912446022, -0.0005512474454008043, -0.009101890958845615, 0.001269971253350377, 0.005884611047804356, -0.04932447895407677, 0.11676964908838272, -0.11295992136001587, -0.0697416439652443, 7.657651440240443e-05, 0.09313138574361801, -0.10706064105033875, 0.06887712329626083, -0.002374483272433281, 0.12580594420433044, -0.037767209112644196, 0.012664546258747578, 0.07322157174348831, -0.0024864082224667072, 0.016257133334875107, 0.0020426674745976925, 0.046131812036037445, -0.0022708571050316095, -0.05706168711185455, 0.017234625294804573, 0.0017276197904720902, 0.01648862659931183, -0.010115517303347588, 0.002375804353505373, -0.13474370539188385, 0.045210786163806915, -0.0868678167462349, 0.00432347459718585, 0.002407601336017251, 0.03307269513607025, -0.002959015779197216, 0.07871916890144348, 0.01012828666716814, -0.0002864639100152999], [-0.00019642179540824145, 0.0015667438274249434, -5.5946871725609526e-05, -3.9749145798850805e-05, 3.839091004920192e-05, 0.00010975496843457222, -0.00017795985331758857, -0.00018936990818474442, 0.00020191672956570983, -0.0003092170227319002, -1.4371319593919907e-05, -0.0006662289379164577, 9.385691373609006e-05, -0.00010240249685011804, 4.2648258386179805e-05, 0.0009073367691598833, -0.0008495725924149156, 0.00017911482427734882, -0.00044123345287516713, -1.904745658976026e-05, -0.00036140039446763694, 1.921785224112682e-05, -0.001552493660710752, 3.275397830293514e-06, -0.0014626234769821167, -0.0010948157869279385, 1.5375544535345398e-05, -1.9960418285336345e-05, 6.369454058585688e-05, -0.00019699233234860003, 0.0005276804440654814, 0.0002276081359013915, 0.0020822633523494005, 0.000210831974982284, 2.156334085157141e-05, 0.00017923887935467064, -4.400180478114635e-05, 0.00023213494569063187, 0.00017223127360921353, 1.562071338412352e-05], [0.022962937131524086, 0.13758577406406403, 0.030050678178668022, -0.004825207870453596, 0.008272606879472733, -0.015078107826411724, -0.011773549020290375, -0.14713089168071747, 0.006387222092598677, 0.012149657122790813, -0.030963702127337456, 0.05414167419075966, 0.10733108222484589, -0.05134795233607292, 0.010196324437856674, 0.08344171196222305, 0.0253119058907032, -0.01529716607183218, 0.031561754643917084, 0.004496024455875158, 0.06758936494588852, 0.007457800675183535, 0.1546526402235031, -0.0012843889417126775, -0.034207429736852646, -0.11547708511352539, -0.011565444990992546, 0.0005568458000198007, 0.004835885018110275, -0.06715419888496399, -0.08972536772489548, 0.02837531268596649, -0.14180338382720947, -0.016432024538517, -0.016049563884735107, 0.0124421501532197, -0.017702212557196617, -0.04176049679517746, -0.06379581987857819, 0.008608668111264706], [0.07486629486083984, -0.2658136188983917, 0.0007732341182418168, 0.026894791051745415, -0.004138663876801729, 0.006088577210903168, -0.018740564584732056, -0.03425084054470062, -0.053634513169527054, -0.08953764289617538, 0.0010531286243349314, 0.15176236629486084, -0.07168592512607574, -0.038124874234199524, 0.00775219826027751, -0.12654322385787964, 0.0044606891460716724, -0.021071597933769226, 0.008458828553557396, 0.0018666399409994483, 0.5105261206626892, -0.01461170893162489, -0.07826672494411469, 0.001060430658981204, 0.17188577353954315, 0.14038386940956116, 0.02222171239554882, -0.010199137032032013, -0.08265595883131027, 0.04284900054335594, 0.18477648496627808, 0.05668141320347786, 0.2348676323890686, 0.005284139886498451, -0.015212168917059898, -0.02164579927921295, 0.03213981166481972, -0.08868693560361862, -0.03931211680173874, -0.00777885178104043], [0.019337495788931847, -0.09973537176847458, 0.0025227905716747046, -0.009058339521288872, -0.0005278987227939069, -0.00569690577685833, 0.008551390841603279, -0.05482438579201698, -0.1446971595287323, -0.040842168033123016, -0.006722752004861832, 0.10764479637145996, 0.039593782275915146, -0.027674444019794464, 0.009837562218308449, -0.028020724654197693, 0.14600366353988647, 0.03094668872654438, 0.017794951796531677, 0.004055016674101353, 0.1517258733510971, -0.004453784320503473, 0.1167861819267273, 0.0017969978507608175, 0.10474219918251038, 0.0005811356822960079, 0.016658872365951538, 0.0027934922836720943, -0.03247816860675812, 0.03194377198815346, 0.12168871611356735, -0.09299524873495102, -0.3038775324821472, -0.007396762724965811, -0.005146547686308622, -0.031104683876037598, -0.00963634718209505, -0.05085982754826546, -0.052974723279476166, -0.0014799644704908133], [-0.1497281789779663, -0.05635683238506317, -0.016456563025712967, -0.01711362786591053, -0.004612741991877556, 0.02391088381409645, 0.024814868345856667, 0.04608514532446861, 0.06148141995072365, -0.03188713639974594, 0.007967330515384674, -0.015099503099918365, 0.1015520766377449, -0.06320726871490479, 0.006619342602789402, 0.034449074417352676, 0.021273067221045494, -0.07107601314783096, -0.07188138365745544, 0.002977187978103757, -0.13645349442958832, -0.014473841525614262, 0.16133657097816467, -0.006630544550716877, -0.16207924485206604, 0.02721051499247551, 0.01966327615082264, 0.007035043090581894, -0.07612276822328568, 0.044906795024871826, 0.08459551632404327, -0.09444627910852432, -0.22789143025875092, 0.02416587807238102, 0.0002508989709895104, -0.11315267533063889, -0.00023667285859119147, -0.14858311414718628, -0.0078920628875494, -0.021881163120269775], [0.0007166069117374718, 0.000530112418346107, 4.010501652373932e-05, 5.2328556193970144e-05, 4.100517253391445e-05, -1.2498939213401172e-05, -0.0017935981741175056, -0.0005416260100901127, 0.0007188978488557041, 0.001356559107080102, -8.617250568931922e-05, -0.0008084381697699428, 1.2356262232060544e-05, -2.348164161958266e-05, -3.824850864475593e-05, 0.000967418949585408, -0.000834900769405067, 6.384689186234027e-05, 0.0023555257357656956, 1.206370689033065e-05, -0.0017318318132311106, 7.899838965386152e-05, -0.0019058926263824105, 4.2906092858174816e-05, 0.0009571828413754702, -0.001131102442741394, 3.0513521778630093e-05, 9.180783672491089e-05, -0.0011668045772239566, -0.0012034466490149498, 0.0005804580287076533, -4.5955508198858297e-07, 0.0019347731722518802, -8.655369310872629e-05, 7.852828275645152e-05, 5.723288995795883e-05, 5.5587577662663534e-05, 0.001839859294705093, -0.0003726825234480202, 7.539071521023288e-05], [0.06149418279528618, -0.8211142420768738, -0.014995033852756023, -0.004059483762830496, 0.014183690771460533, -0.0021636690944433212, -0.033371903002262115, -0.15817426145076752, 0.3213828504085541, 0.23454910516738892, -0.007652092259377241, -0.1848948895931244, 0.03760131448507309, 0.06010684743523598, -0.0014711006078869104, 0.05965733528137207, 0.06105485558509827, -0.09043563902378082, -0.21198150515556335, 0.0011246108915656805, -0.2540239691734314, -0.015901554375886917, 0.6267184615135193, 0.0007680116104893386, -0.2522318959236145, -0.016631998121738434, -0.000547447765711695, -0.012052858248353004, 0.15915799140930176, 0.13907857239246368, -0.19795343279838562, -0.4269513785839081, -0.21405617892742157, -0.01874571293592453, 0.021475275978446007, -0.22774718701839447, 0.010291981510818005, -0.058168672025203705, -0.02096835896372795, -0.0034417747519910336], [0.000405631959438324, 0.0039823343977332115, 0.00013193312042858452, -0.00031150892027653754, 0.0001516370684839785, -0.00012182502541691065, -0.0010219855466857553, 5.462214176077396e-05, 0.0006101297331042588, -0.0007168439333327115, -0.00013520334323402494, -0.0007232584757730365, -0.00032120817922987044, 0.0004371281247586012, -6.355334335239604e-06, 0.0024638015311211348, -0.00018360013200435787, -0.0005139925051480532, -0.0015555433928966522, -0.00010019621549872681, -0.0014237649738788605, 4.289317439543083e-05, -0.0025991180445998907, -3.1405648769577965e-05, -0.004136206116527319, -0.002340759616345167, -0.0001445895031793043, -7.98354740254581e-05, 0.00019057776080444455, -0.00013553767348639667, -0.001122865593060851, 0.00018549647938925773, 0.0014965495793148875, 5.310544656822458e-05, -3.5144566936651245e-05, 0.0005059389513917267, -0.00027299279463477433, 0.0007265768945217133, 0.0007526493282057345, -1.1953054126934148e-05], [0.04137241467833519, -0.17846408486366272, 0.002511105500161648, 0.03575492277741432, -0.010645296424627304, -0.012688963674008846, -0.030628418549895287, 0.15299499034881592, 0.2220698744058609, 0.07808805257081985, 0.009688790887594223, 0.10421159863471985, -0.07151614129543304, 0.06938087940216064, 0.03087010607123375, 0.04807676002383232, -0.23695147037506104, 0.06305515021085739, -0.08822748810052872, 0.015148301608860493, -0.09656421095132828, -0.007076367735862732, -0.7387763261795044, -0.012498289346694946, 0.01965998485684395, -0.0012675615726038814, 0.005604414734989405, 0.012837661430239677, 0.015846913680434227, -0.1571388989686966, 0.23678739368915558, 0.12315601110458374, -0.1531597375869751, -0.02141563966870308, -0.01678343489766121, -0.06837330013513565, 0.04474634677171707, 0.0023551499471068382, 0.040154680609703064, -0.016567641869187355], [0.0005679942551068962, 0.0026746366638690233, -6.017542182235047e-05, 0.00013008898531552404, 2.2458389139501378e-05, -4.357995931059122e-05, 0.0003196131729055196, 0.0008307984098792076, 0.00040496676228940487, 0.00010959619976347312, -3.393028964637779e-05, 9.312081601819955e-06, -0.0015550176613032818, 0.0004741685406770557, -9.019601566251367e-05, 0.0002302472130395472, -0.0011360192438587546, -0.0007277432014234364, -0.00022578646894544363, -3.158191611873917e-05, 0.0021637468598783016, 0.0002094970113830641, -0.003839004784822464, 2.4219825718319044e-05, -0.0021857181563973427, -0.0024400497786700726, -0.00016137857164721936, 6.835324893472716e-05, 0.0009844530140981078, -0.0003179879277013242, 0.002827358664944768, 0.0006294779013842344, 0.00347676919773221, -0.0001195451695821248, 4.357778743724339e-05, 0.0004548809374682605, -1.2723563486360945e-05, -0.00042070524068549275, 0.0008103650761768222, 6.300603126874194e-05], [0.10485272109508514, -1.2394193410873413, -0.007594237104058266, -0.0002832545433193445, -0.01840791665017605, -0.004127971827983856, 0.00989612378180027, -0.3143784701824188, 0.039092641323804855, -0.07548384368419647, 0.004591675475239754, -0.16432833671569824, -0.17354312539100647, -0.1791427880525589, 0.00492384796962142, 0.3229062259197235, 0.007371740415692329, -0.09441478550434113, -0.14257580041885376, -1.850754597398918e-05, -0.5204222202301025, -0.01699145883321762, -0.034197088330984116, 0.010268603451550007, -0.3327508866786957, -0.22499807178974152, 0.02539069578051567, -0.04437264800071716, -0.12408695369958878, -0.18623416125774384, 0.13842704892158508, -0.1562228947877884, -0.1539275199174881, -0.0010828908998519182, -0.00326098152436316, -0.11038551479578018, 0.02384195104241371, -0.2497250735759735, -0.08405646681785583, 0.0005467201699502766], [0.1180252656340599, -0.13108177483081818, -0.00432237284258008, -0.0347682423889637, -0.0343976654112339, 0.009011193178594112, -0.06864926218986511, 0.054287757724523544, 0.021324289962649345, 0.029895642772316933, -0.009782754816114902, 0.09473391622304916, 0.10603239387273788, -0.023877637460827827, 0.00708727864548564, -0.001701804343611002, 0.22254085540771484, -0.07695018500089645, -0.04960764944553375, 0.016414010897278786, 0.16890473663806915, -0.021247291937470436, 0.40423524379730225, 0.004688833840191364, -0.18602454662322998, -0.023891279473900795, 0.02733425237238407, 0.01052903477102518, -0.06846335530281067, 0.09228839725255966, -0.024729114025831223, -0.20282267034053802, -0.3068992495536804, 0.013664845377206802, -0.003158783307299018, -0.2650574743747711, 0.0035796761512756348, 0.004755225032567978, -0.06325638294219971, 0.0013646753504872322], [-0.0013803357724100351, -0.0007973425090312958, -0.00016841222532093525, -0.0004570267628878355, 0.0005390986334532499, 0.00019286162569187582, -0.0013633319176733494, -0.0030712708830833435, 0.0034336659591645002, 0.001982293790206313, -0.0004650800838135183, -0.002526333322748542, -0.0017353707225993276, -0.0002755430468823761, -0.00015715020708739758, 0.001281836535781622, 0.0032095471397042274, 0.001971991965547204, 2.5684479624032974e-05, 6.681044033030048e-05, 0.0001476221514167264, 0.00012489929213188589, -0.0065131885930895805, 4.750957668875344e-05, 0.0009524823981337249, 0.005752106197178364, -0.0006086512003093958, -0.00011192442616447806, -0.001715706312097609, 0.002307967748492956, -0.003616110421717167, 0.00021411466877907515, 0.004039257764816284, 0.0005039861425757408, 0.0005079922266304493, 0.0005341514479368925, -0.00023024935217108577, 0.001254630507901311, 3.2834552257554606e-05, 0.0005175124970264733], [-0.007632173597812653, 0.015117846429347992, 0.0006258364301174879, 0.001004016026854515, -0.00043323286809027195, -0.00021231411665212363, 0.000534398655872792, 0.001812933012843132, 0.001263092621229589, 0.003152412362396717, -0.00020480842795222998, -0.010884629562497139, -0.002210569102317095, 0.00215155933983624, 1.1765837371058296e-05, -0.004042759072035551, 0.0009803053690120578, -0.0001968630967894569, -0.0007278958801180124, 2.9490851375157945e-05, -0.003841734491288662, 0.00018260213255416602, 0.011628790758550167, 0.00016625750868115574, -0.009847315028309822, 0.0035031158477067947, 0.00010310552170267329, -0.0002453526540193707, 0.0017532330239191651, 0.0009235050529241562, -0.009792531840503216, -0.001971704885363579, 0.018326636403799057, -0.0005323211080394685, -0.0007000709883868694, 0.0021626537200063467, 0.0014121761778369546, 0.005173176527023315, 0.0025607035495340824, 0.00018588027160149068], [-0.15309350192546844, 0.15419435501098633, -0.026550743728876114, -0.01456281915307045, 0.009554552845656872, 0.005995330400764942, -0.02057480625808239, 0.09221434593200684, -0.0034136688336730003, -0.04370283707976341, 0.010643718764185905, 0.02497169002890587, 0.041455790400505066, 0.050962164998054504, -0.0023204272147268057, 0.01538425125181675, -0.0806993767619133, 0.049333881586790085, 6.601075438084081e-05, -0.0036727346014231443, 0.18084275722503662, -0.002045289147645235, -0.21337366104125977, -0.004610631614923477, -0.017852406948804855, -0.02122621051967144, 0.016406647861003876, 0.008364614099264145, -0.0304842721670866, 0.0285180676728487, 0.14090624451637268, 0.007787943352013826, -0.08170185983181, 0.021427640691399574, 0.018088385462760925, -0.04838317632675171, 0.0064849695190787315, -0.04485960677266121, 0.040594469755887985, -0.010597391054034233], [0.10249178111553192, -0.23873943090438843, 0.020054690539836884, 0.03155216574668884, -0.007644760888069868, -0.022323276847600937, -0.08510825783014297, 0.006967321503907442, 0.12744955718517303, 0.07844340056180954, -0.015457620844244957, -0.09535021334886551, -0.025545362383127213, -0.09268400818109512, -0.011316961608827114, 0.08530041575431824, 0.03902215138077736, -0.06668618321418762, 0.020274359732866287, -0.0036210138350725174, 0.027540292590856552, 0.01622583344578743, 0.23692695796489716, 0.005624862853437662, 0.014928883872926235, -0.022484390065073967, -0.0013630145695060492, 0.005018961150199175, 0.0003372819919604808, 0.20879746973514557, -0.12630470097064972, -0.0003451721277087927, 0.010660774074494839, -0.02031773515045643, -0.01808064803481102, -0.09974494576454163, 0.028117557987570763, 0.025605155155062675, 0.008744582533836365, 0.022840749472379684], [-0.18638131022453308, -0.2203371524810791, 0.005058562383055687, -0.021858885884284973, 0.006364603526890278, 0.011852116324007511, 0.19086773693561554, 0.0025481698103249073, 0.06503921002149582, 0.03457406163215637, -0.0036530992947518826, 0.3871764540672302, 0.07183568179607391, 0.09829741716384888, 0.01815277710556984, -0.1632090061903, 0.0048778969794511795, -0.12348566204309464, -0.1149287298321724, -0.005507964640855789, -0.4614086151123047, -0.011007486842572689, 0.21189174056053162, 0.00642787292599678, -0.09044163674116135, 0.0009154729195870459, 0.012183771468698978, 0.007297740317881107, 0.09045831114053726, -0.14095164835453033, 0.03613796457648277, 0.0538901649415493, 0.41461998224258423, -0.008216451853513718, -0.008908119052648544, -0.07107128947973251, 0.007944977842271328, 0.015650182962417603, -0.11791188269853592, -0.01396131981164217], [0.14655737578868866, -0.1775483340024948, -0.0034828390926122665, -0.014291222207248211, -0.0021076940465718508, 0.014788431115448475, -0.06698588281869888, 0.018008919432759285, -0.04769950732588768, -0.007399068679660559, -0.0027737903874367476, -0.08635269105434418, -0.0765967071056366, -0.026133446022868156, 0.0025274106301367283, -0.006709197070449591, -0.04027950018644333, 0.005771865602582693, 0.0017299494938924909, -0.0016409422969445586, -0.013006814755499363, -0.006572536192834377, 0.03784579783678055, 0.0006164266960695386, 0.02922828122973442, -0.031765442341566086, 0.01522019412368536, -0.006828350480645895, 0.02320147305727005, -0.08219881355762482, -0.05768348276615143, 0.0420229434967041, 0.09782736003398895, 0.00714090745896101, -0.0007878542528487742, -0.01672574318945408, -0.00638157594949007, -0.029221143573522568, 0.06389570981264114, -0.009164378978312016], [0.06502383947372437, -0.20392277836799622, 0.007288049906492233, -0.007042127661406994, -0.0077519542537629604, 0.004074834752827883, -0.032652657479047775, -0.08362045139074326, 0.18178369104862213, -0.1228640154004097, -0.020519012585282326, 0.01590692810714245, 0.017515404149889946, -0.12877118587493896, 0.017554456368088722, 0.010638507083058357, 0.060392968356609344, -0.05334622785449028, 0.08224449306726456, -0.011714072898030281, -0.23024500906467438, 0.004398909863084555, 0.3205873966217041, 0.0035040220245718956, -0.23923926055431366, -0.06172090023756027, 0.009541156701743603, -0.02686554379761219, 0.024500170722603798, 0.15875233709812164, 0.10495726019144058, 0.07147497683763504, -0.005807682406157255, 0.009944220073521137, -0.017739489674568176, -0.010045690461993217, 0.02358308434486389, 0.035345446318387985, -0.08150720596313477, -0.013685558922588825], [0.000574948382563889, 0.006258845794945955, -0.0003886008926201612, 0.0005948688485659659, 0.0002035157522186637, 9.06989680515835e-06, 0.0017730348045006394, 0.001229471410624683, 0.0009068365325219929, -0.0008608363568782806, 0.0005940117407590151, 0.0018962057074531913, -0.0033049704506993294, 0.0028577689081430435, 3.565028600860387e-05, 0.003788122907280922, -0.0010443367063999176, -0.0031456088181585073, -0.003020651638507843, -0.00015859646373428404, 0.002853954676538706, 0.00016651730402372777, -0.008981727063655853, 0.00015675001486670226, -0.004871991463005543, -0.0030533596873283386, 0.00023313671408686787, 0.0005589559441432357, 0.0033272108994424343, 0.0010680218692868948, 0.004900267347693443, 0.002420963253825903, 0.006916200742125511, -0.0005024110432714224, -0.00046228847349993885, 0.004417717922478914, 0.0006948162917979062, -0.00010036792082246393, 0.0033267620019614697, 0.0004516849876381457], [-0.0023318349849432707, -0.00032138926326297224, -0.0005002270336262882, -0.000177750363945961, 0.00025959580671042204, -0.000203097311896272, -0.00015327725850511342, 0.0004964785766787827, 0.00042770386789925396, -0.0013823864283040166, -0.00010231112537439913, -0.0007856090669520199, -0.0012949701631441712, 0.0005754233570769429, -0.00026540522230789065, 1.0972085874527693e-05, 0.0011906763538718224, -4.486005491344258e-05, 0.0020680702291429043, -1.298955157835735e-05, -0.0006550577818416059, -8.210153464460745e-05, -0.003953677136451006, -4.240218913764693e-05, 0.002365624066442251, -0.002646943787112832, -4.812901534023695e-05, 2.7253743610344827e-05, -0.00032072956673800945, -8.071244519669563e-05, -0.000961650162935257, 0.0008144216844812036, 0.0029890115838497877, 0.0002695316798053682, -9.155129373539239e-05, 0.0013311603106558323, 0.0002584643370937556, 0.003159931628033519, 0.0001184369539259933, 2.4886543542379513e-05], [-0.2898420989513397, -0.011999674141407013, 0.00015766096475999802, -0.006719152443110943, 0.0017520375549793243, 0.005821943283081055, -0.007150289602577686, 0.020174168050289154, 0.059848979115486145, -0.023436078801751137, 0.0026485088746994734, 0.14265643060207367, 0.10025240480899811, 0.002370591042563319, 0.0007223737193271518, 0.05158471688628197, 0.06518495827913284, 0.030147865414619446, 0.03344963863492012, 0.003109295153990388, -0.02279590629041195, 0.016481734812259674, 0.2508852481842041, 0.00034512204001657665, 0.12468960136175156, 0.007153404876589775, 0.007457767613232136, 0.017439598217606544, -0.01590052619576454, 0.05975756794214249, 0.11750172078609467, -0.1246638223528862, -0.4405500590801239, 0.004622798413038254, -0.005387435667216778, 0.03341039642691612, -0.009901276789605618, -0.009466445073485374, 0.05220206826925278, -0.0032705008052289486], [0.0005784896202385426, 0.003083023941144347, -9.244731336366385e-05, -0.0004436712770257145, 0.00042342644883319736, -0.00015851906209718436, -0.0016722605796530843, -0.0017686773790046573, 0.003064624033868313, -0.002600607927888632, 0.0002972848014906049, -0.0015682809753343463, 0.00015028001507744193, 0.0007285739411599934, -0.0003290539316367358, -0.00040109630208462477, 0.0015378516400232911, -0.0006042600143700838, 0.007086507044732571, -0.00026358323520980775, -0.006210247986018658, 0.00048250568215735257, -0.0023850547149777412, -6.65214829496108e-05, -0.0010998757788911462, -0.004928360693156719, -0.0001549488224554807, -0.00037939532194286585, -0.0004527652636170387, 0.0007596888463012874, -0.004757160320878029, -0.00180337845813483, 0.006416796240955591, 1.5944160622893833e-05, 7.690864003961906e-05, 0.00031770390341989696, -0.0002130842040060088, 0.004658148158341646, -0.00027672573924064636, -0.00012583447096403688], [0.02138180285692215, 0.14137211441993713, 0.012754477560520172, 0.010688488371670246, -0.018196141347289085, -0.0200307909399271, -0.020160088315606117, -0.0032536822836846113, -0.09782534092664719, 0.008012864738702774, -0.005625435616821051, -0.01977047510445118, 0.10289494693279266, -0.01482039038091898, 0.01806173473596573, 0.03945593908429146, 0.02426624856889248, 0.0033163311891257763, 0.05872306600213051, 0.005116311367601156, 0.11085569113492966, -0.008055577985942364, -0.1377534121274948, -0.003774263896048069, 0.03170892223715782, 0.0064709121361374855, 0.014504466205835342, 0.012298578396439552, -0.0748007744550705, 0.005616283044219017, 0.06058738753199577, -0.06363283842802048, -0.15640884637832642, -0.022750625386834145, -0.019621148705482483, -0.011961167678236961, 0.030338943004608154, 0.034676793962717056, 0.046560805290937424, -0.0014423910761252046], [-0.004420186392962933, 0.15287518501281738, -0.00014437844220083207, -0.004184137564152479, 0.007865854538977146, -8.507671009283513e-05, -0.023515380918979645, 0.10412021726369858, -0.08272486925125122, -0.17017927765846252, -0.0006824985612183809, -0.04950490593910217, 0.06363741308450699, 0.04831966385245323, 0.0006702884566038847, 0.01688235253095627, -0.0019234445644542575, 0.06721344590187073, 0.08286687731742859, 0.001823466271162033, -0.3041711449623108, 0.001718475017696619, -0.022205503657460213, -0.0014500200049951673, 0.01845427230000496, -0.059218864887952805, -0.00629182904958725, 0.0025691944174468517, 0.057468660175800323, -0.04488781839609146, -0.21209527552127838, 0.019031574949622154, -0.0828811377286911, 6.387515168171376e-05, 0.0027534186374396086, -0.03747307136654854, -0.012627014890313148, -0.012415129691362381, 0.1446993350982666, -0.00041119102388620377], [-8.656812133267522e-05, 0.0004758823197335005, -7.573040056740865e-05, 0.00027559808222576976, -3.378637120476924e-05, 3.756711885216646e-05, 0.0007040452910587192, -0.0001314489054493606, -6.0395614127628505e-05, -0.0006907791248522699, 5.3236159146763384e-05, 0.00014712677511852235, -0.0005946788005530834, 0.0003102612681686878, -0.00010197071969741955, 0.0010273848893120885, 0.001070047845132649, -0.001128863776102662, -6.744426354998723e-05, -3.7657639040844515e-05, 7.477132749045268e-05, 0.00015389018517453223, -0.00256345234811306, 5.29471471963916e-05, 0.0008647857466712594, -0.0003004657046403736, -0.0002174487162847072, 9.5596742539783e-06, 0.00040988237014971673, -0.0005463603883981705, 0.0008655166020616889, 1.223353774548741e-05, 0.002073880983516574, -0.00013529075658880174, 0.00023236886772792786, 0.0006097533623687923, -0.00018903892487287521, 0.0004622286942321807, 0.000605954322963953, 9.292885079048574e-05], [0.4912133514881134, -0.05507499724626541, 0.03367575258016586, 0.009173563681542873, 0.01807795651257038, -0.017338557168841362, -0.16853269934654236, 0.1317310482263565, -0.052138231694698334, 0.14091427624225616, -0.009595119394361973, -0.7493517398834229, 0.6671832203865051, -0.4422805607318878, -0.012759009376168251, -0.06081422045826912, 0.36636611819267273, -0.18479105830192566, -0.19159887731075287, 0.0001652073988225311, -0.4423878490924835, 0.02781001478433609, -0.028952211141586304, -0.007136684376746416, -0.04071991145610809, 0.030858062207698822, -0.02662637270987034, -0.06967421621084213, 0.08511620759963989, -0.03271268308162689, -0.6798492670059204, 0.4316064119338989, 0.37506696581840515, 0.012676022946834564, -0.034830208867788315, 0.03947633132338524, -0.034706491976976395, -0.09916439652442932, 0.06579029560089111, 0.015558973886072636], [0.03051171451807022, 0.7948495149612427, -0.008629702031612396, -0.004345911089330912, 0.00852508656680584, 0.002609614050015807, 0.04271692410111427, -0.5695706009864807, 0.07969111949205399, -0.20400696992874146, 0.004057615529745817, -0.5666407942771912, 0.6465165019035339, -0.12574434280395508, 0.010129348374903202, 0.19714239239692688, -0.21663175523281097, 0.030824102461338043, -0.05521947890520096, 0.006901161279529333, -1.47279953956604, 0.0008807870908640325, -0.44629400968551636, -0.014578314498066902, 0.1460828334093094, 0.11603112518787384, -0.003772368421778083, -0.03949194774031639, -0.052504003047943115, -0.9250640869140625, 0.16755235195159912, -0.04149860888719559, 0.25272098183631897, 0.02571217715740204, 0.00018767555593512952, -0.18056854605674744, 0.023150233551859856, 0.09252119064331055, 0.3488026559352875, -0.023596372455358505], [0.028257867321372032, -0.00903196632862091, -0.04068582504987717, -0.015873918309807777, 0.0061166733503341675, 0.02436310425400734, -0.013323081657290459, -0.009299525059759617, -0.005229595582932234, -0.003698777174577117, 0.027460996061563492, 0.010182734578847885, -0.0027025167364627123, -0.026439154520630836, -0.010280352085828781, 0.0037707502488046885, 0.014265668578445911, 0.0071480292826890945, -0.0032959727104753256, -0.009516561403870583, -0.009402797557413578, -0.00686629256233573, 0.037458039820194244, -0.00038902793312445283, 2.1358671801863238e-05, -0.013658859767019749, 0.011931626126170158, -0.000533812097273767, -0.006865172181278467, 0.019545933231711388, -0.013915861956775188, 0.0054292515851557255, -0.0076139140874147415, 0.018132204189896584, 0.03182251751422882, -0.0013731278013437986, -0.0017324183136224747, -0.019663115963339806, 0.00293755647726357, -0.018290529027581215], [-0.0018905990291386843, 0.004537846893072128, -0.0116760628297925, -0.06387288868427277, 0.02555399015545845, 0.028721027076244354, 0.020416054874658585, 0.020557265728712082, 0.022948626428842545, -0.0011807199334725738, 0.01612328179180622, 0.010718662291765213, 0.024452032521367073, 0.019906707108020782, 0.0008565221214666963, 0.0050751818343997, -0.0017678752774372697, 0.007432339247316122, 0.013769568875432014, -0.002490750979632139, 0.0030276004690676928, 0.006788549479097128, 0.028074165806174278, -0.01828957349061966, 0.001612763968296349, 0.01514608133584261, -0.010154740884900093, -0.0014784163795411587, 0.007399669848382473, 0.0245206356048584, -0.002249340061098337, 0.02115563489496708, 0.026009133085608482, 0.05070047453045845, 0.01750374585390091, -0.01105000451207161, -0.04226858168840408, 0.006261216476559639, 0.0008419485529884696, -0.024190282449126244], [0.04015390947461128, 0.029843192547559738, 0.0010845561046153307, 0.0038587632589042187, -0.029079802334308624, -0.004016836639493704, -0.04324057698249817, -0.024934517219662666, 0.0005514587974175811, -0.01685061864554882, -0.0058012064546346664, 0.019798388704657555, -0.026127781718969345, -0.003716973587870598, 0.002976596588268876, -0.04221361503005028, -0.010367102921009064, -0.0015043062157928944, -0.01551765576004982, 0.001773193827830255, -0.0036259812768548727, -0.016288848593831062, 0.0170454028993845, 0.0112149091437459, 0.027566058561205864, -0.024240631610155106, 0.029682612046599388, 0.009922543540596962, 0.04052798077464104, 0.022910529747605324, 0.015665682032704353, -0.008327926509082317, -0.041867680847644806, -0.01377036701887846, -0.0054687135852873325, 0.00473072798922658, 0.012251333333551884, 0.01068215910345316, 0.015641219913959503, 0.0072824652306735516], [-0.006535099819302559, 0.008109929040074348, 0.02548316679894924, 0.02137678861618042, -0.01140701211988926, -0.03925090283155441, 0.004447015468031168, -0.006739606149494648, -0.010343793779611588, -0.0016657537780702114, -0.020718486979603767, 0.003430349286645651, -0.0035104963462799788, 0.015334255993366241, 0.011911694891750813, -0.026591604575514793, -0.013120942749083042, 0.011327804997563362, 0.0029404223896563053, 0.009176095947623253, 0.010723630897700787, 0.0004783411859534681, -0.007195723708719015, 0.0025155292823910713, -0.010859127156436443, -0.011878935620188713, 0.0031632448080927134, 0.0033168813679367304, -9.281630627810955e-05, -0.007749001495540142, -0.009959444403648376, -0.02217719331383705, -0.02287130244076252, -0.026077672839164734, -0.024362878873944283, 0.010716788470745087, 0.014898796565830708, 0.02926468662917614, -0.0019207155564799905, 0.019887877628207207], [-0.012890670448541641, 0.20163565874099731, 0.010044789873063564, -0.01823415420949459, 0.007984551601111889, 0.018489735201001167, 0.11396533250808716, 0.34320223331451416, 0.028539713472127914, -0.09374735504388809, -0.0026398831978440285, -0.10327619314193726, -0.033367764204740524, -0.016758548095822334, 0.012833655811846256, 0.9839133620262146, 0.05560934543609619, -0.015469053760170937, -1.0687469244003296, 0.040526919066905975, -0.05666249245405197, -0.018862955272197723, 0.048796530812978745, -0.027032028883695602, 0.8411064147949219, 0.03207843378186226, -0.005321034695953131, -0.04833725467324257, 0.2961748242378235, -0.03607730567455292, -0.005298163741827011, -0.14057956635951996, -0.09451966732740402, 0.07099930942058563, -0.0034275618381798267, -0.12375064939260483, -0.017826218158006668, -0.04426191374659538, -0.177761971950531, -0.01809273660182953], [-0.5134788155555725, 0.0021430160850286484, 0.008583974093198776, 0.005781447049230337, -0.0044187824241817, -0.008757133968174458, -0.2521289587020874, 0.07186753302812576, 0.21446049213409424, 0.41538548469543457, -0.01516657043248415, -0.20411927998065948, 0.020981330424547195, -0.32577598094940186, 0.008274288848042488, 0.16536864638328552, 0.4245811402797699, 0.15738314390182495, -0.33848416805267334, 0.024061745032668114, 0.22849944233894348, 0.009408635087311268, -0.05059625953435898, -0.010246483609080315, -0.3999623954296112, -0.3151358664035797, -0.010252525098621845, -0.16929103434085846, -0.13930298388004303, 1.0382570028305054, -0.08571141958236694, 0.5125694870948792, 0.48323291540145874, 0.011871964670717716, -0.007058563642203808, 0.2709781527519226, -0.0077714333310723305, -0.45261427760124207, -0.23772890865802765, 0.002986237406730652], [0.414160817861557, -0.08965010941028595, 0.010493746027350426, 0.008529437705874443, -0.02153080329298973, -0.005990789737552404, -0.17739008367061615, 0.1003352552652359, 0.2579326033592224, 0.30259063839912415, -0.009534437209367752, -0.030903862789273262, -0.03198177367448807, 0.15884456038475037, -0.002962667727842927, 0.39401185512542725, -0.5415078401565552, -0.08995981514453888, 0.3277891278266907, 0.0005279829492792487, 0.3750256299972534, 0.007668677717447281, 0.2972160577774048, 0.011390138417482376, -0.10574238747358322, -0.1810062825679779, 0.013842272572219372, 0.1336670219898224, -0.21274863183498383, 0.0731147900223732, 0.40198028087615967, 0.08827376365661621, -0.17103569209575653, -0.03294370323419571, -0.008383454754948616, 0.4198797941207886, -0.0016389962984248996, 0.280277281999588, -0.28701794147491455, 0.015655532479286194], [0.05017038807272911, -0.06718191504478455, 0.004304428119212389, 0.0010783422039821744, 0.008295458741486073, -0.0024894808884710073, 0.2615037262439728, -0.31609538197517395, -0.28176528215408325, 0.4680004119873047, -0.001543276128359139, -0.21472857892513275, 0.3604263663291931, -0.03752192482352257, 0.0038322836626321077, -0.540261447429657, -0.31616783142089844, -0.0006153695285320282, -0.40686559677124023, 0.012493092566728592, 0.43254420161247253, -0.003819384379312396, 0.15365417301654816, -0.013113540597259998, 0.021875495091080666, 0.4154359996318817, -0.009014283306896687, -0.14237815141677856, 0.15220162272453308, -0.08204876631498337, 0.2619761824607849, 0.11583703011274338, 0.01759783923625946, 0.03410191088914871, -0.0035993927158415318, -0.31059131026268005, 0.0025359138380736113, -0.5482764840126038, -0.08338960260152817, -0.00856979563832283], [-0.02316189557313919, 0.01306008081883192, 0.03035045973956585, 0.013085756450891495, -0.00471825385466218, -0.021772051230072975, -0.0010877380846068263, 0.0030260279309004545, -0.0059446291998028755, -0.002818899229168892, -0.030165748670697212, -0.014549302868545055, -0.009378396905958652, 0.010277148336172104, 0.011564157903194427, 0.003748754970729351, -0.009534256532788277, -0.0010249752085655928, -0.006481574848294258, 0.010315611027181149, -0.0034338783007115126, 0.004737515468150377, -0.03454352170228958, -0.0002667620428837836, 0.006344758439809084, -0.005065216217190027, -0.006743378471583128, -0.002797857392579317, 0.007829279638826847, 0.0019101776415482163, 0.015958614647388458, -0.001611666870303452, -0.002557682804763317, -0.016291938722133636, -0.024755390360951424, -0.0004912929725833237, -0.0034775338135659695, 0.016236277297139168, -0.015378364361822605, 0.014165657572448254], [0.10479916632175446, 0.24801357090473175, 0.006152771878987551, -0.00784729141741991, 0.017556387931108475, 0.0008021577377803624, 0.09992179274559021, -0.05014394596219063, -0.45718103647232056, -0.19750294089317322, 0.010513694025576115, 0.3708687424659729, -0.02998240292072296, 0.017856132239103317, 0.0038655397947877645, -0.10406119376420975, -0.3168965280056, 0.1281452476978302, 0.3227083086967468, -0.0065365140326321125, 0.23592180013656616, -0.0054359231144189835, 0.1476517617702484, -0.015078773722052574, -0.22864900529384613, 0.16649068892002106, 0.007662467658519745, 0.07666176557540894, -0.10067703574895859, -0.32990172505378723, 1.221595287322998, 0.1012629047036171, 0.10000159591436386, 0.041107527911663055, -0.013741301372647285, 0.40801432728767395, 0.0010055996244773269, 0.0831582173705101, -0.23247995972633362, -0.010978796519339085], [-0.3710017204284668, 0.3644678294658661, 0.016105057671666145, 0.01907067932188511, -0.0322168730199337, -0.006210109684616327, 0.08560451865196228, 0.053248368203639984, -0.16141310334205627, 0.08216783404350281, -0.022671988233923912, 0.0986941009759903, 0.37652650475502014, -0.1422908455133438, -0.0035376991145312786, -0.27182233333587646, 0.23857063055038452, -0.019911441951990128, -0.24174076318740845, 0.009066427126526833, -0.6427556276321411, 0.022756243124604225, -0.32300058007240295, 0.0230990219861269, 0.3089008629322052, -0.1576530784368515, 0.028798071667551994, 0.01779254712164402, 0.09485804289579391, 0.37238067388534546, -1.017569899559021, 0.029088985174894333, 0.406410813331604, -0.06613454222679138, -0.01197082456201315, -0.06661969423294067, 0.009211992844939232, -0.11042734980583191, 0.056111741811037064, 0.02186589688062668], [-0.14291153848171234, 0.13554929196834564, 0.018478544428944588, -0.006918016821146011, 0.017120545729994774, -0.004256862681359053, 0.1859043389558792, -0.00754209840670228, -0.018113084137439728, 0.09327878803014755, -0.015088049694895744, -0.050884440541267395, 0.06196014583110809, 0.14221271872520447, -0.00207537948153913, 0.32400956749916077, 0.11709778755903244, 0.033895205706357956, 0.23305615782737732, 0.005803569220006466, -0.20742975175380707, -0.00014235668641049415, -0.08430526405572891, -0.010436161421239376, 0.03857487440109253, 0.2860615849494934, -0.008072411641478539, -0.10067249834537506, 0.2487267553806305, 0.07957428693771362, 0.6235111951828003, 0.22431279718875885, -0.3553641438484192, 0.04251932352781296, 0.0021198249887675047, -0.05895209684967995, -0.0215652696788311, 0.2003830075263977, 0.349629282951355, -0.003282657591626048], [0.00429717730730772, -0.00926442351192236, -0.01341331098228693, 0.0026050261221826077, 0.004204080905765295, 0.010864398442208767, -0.032222721725702286, -0.00340845319442451, 0.012221062555909157, 0.012356610968708992, 0.01321968249976635, 0.033773116767406464, -0.005681605078279972, -0.019274039193987846, -0.028319017961621284, -0.013828099705278873, 0.006275333929806948, -0.010541404597461224, -0.01296450849622488, -0.02038687840104103, -0.014656155370175838, -0.00015516695566475391, -0.0132514126598835, 0.011767633259296417, 0.011267808265984058, -0.011859421618282795, -0.0030037302058190107, -0.0024904622696340084, 0.012571007013320923, 0.005623714532703161, -0.010887491516768932, -0.02125575579702854, 0.00033493712544441223, 0.0006570790428668261, 0.0171881802380085, -0.0086433170363307, -0.002306579379364848, -0.013022397644817829, -0.003728200914338231, 0.0006422384758479893], [-0.07334945350885391, -0.03623262047767639, 0.006543285213410854, -0.0194112379103899, 0.08818747848272324, 0.03195897489786148, -1.4234026670455933, -0.4752788543701172, 0.23992562294006348, 0.34285151958465576, 0.0015293509932234883, -0.27060216665267944, 0.3545584976673126, -0.25876426696777344, 0.00904152262955904, 0.0398639515042305, -0.02829308621585369, -0.026966454461216927, -0.14572250843048096, 0.021377282217144966, 0.26544541120529175, 0.043313153088092804, 0.007921318523585796, -0.06543458998203278, -0.14096128940582275, -0.2947855293750763, -0.04543504863977432, -0.3047619163990021, -0.198855921626091, -0.486423522233963, 0.08428620547056198, 0.06190815940499306, 0.21655690670013428, 0.11834225803613663, -0.00919295009225607, 0.11335549503564835, -0.020991003140807152, 0.18332435190677643, 0.14088672399520874, -0.04418622702360153], [0.08291829377412796, -0.44281119108200073, 0.025651555508375168, 0.016658978536725044, -0.008037848398089409, 0.006300535053014755, -0.0602489598095417, -0.5593437552452087, -0.23850493133068085, -0.21049430966377258, -0.023396993055939674, 0.5133430361747742, -0.027210891246795654, -0.05184490978717804, 0.0028483192436397076, 0.11486759036779404, 0.3906225562095642, 0.0423000268638134, 0.030844157561659813, 0.014169867150485516, 0.40246424078941345, 0.012738714925944805, 0.48830485343933105, -0.004760429263114929, -0.010064045898616314, -0.3649042546749115, 0.02194446139037609, 0.005262147635221481, -0.051044709980487823, 0.2859421670436859, -0.331741601228714, -0.42263954877853394, -0.44178107380867004, 0.009038406424224377, -0.023743566125631332, 0.2333488166332245, 0.021611396223306656, -0.09601797163486481, -0.062227971851825714, -0.002994112903252244], [0.3439592123031616, 0.002908450784161687, 0.014039349742233753, -0.016353271901607513, -0.05434061959385872, 0.003839682089164853, -0.20734654366970062, 0.6203688383102417, 0.14169789850711823, -0.03958921507000923, -0.019789153710007668, -0.1509903073310852, -0.2354131042957306, -0.25677216053009033, 0.006714954506605864, -0.07614283263683319, 0.03978462889790535, 0.512493371963501, 0.41467565298080444, 0.02710062451660633, -0.24579446017742157, -0.017818568274378777, -0.07185880094766617, 0.016631823033094406, 0.21179527044296265, 0.3970063030719757, 0.039328787475824356, -0.09042156487703323, -0.14354665577411652, -0.405284583568573, -0.01586538925766945, -0.19055794179439545, 0.05975940078496933, -0.015035822987556458, -0.003081353148445487, 0.2525729835033417, -0.016288919374346733, -0.5974705815315247, 0.04615657404065132, 0.007662107236683369], [0.07327941060066223, 0.2286769449710846, -0.0018887986661866307, -0.0030055774841457605, 0.010924505069851875, -0.0009867860935628414, 0.4131140410900116, 0.03680741414427757, 0.19691337645053864, 0.25163111090660095, 0.010448160581290722, -0.2229781299829483, 0.08001535385847092, -0.11549393832683563, 0.0063777160830795765, -0.1806984543800354, 0.024041123688220978, -0.5575594305992126, 0.06801015883684158, 0.0025351413059979677, 0.05213490501046181, -0.01992051489651203, 0.06751502305269241, -0.018816087394952774, 0.904877781867981, -1.071953535079956, -0.007991313003003597, -0.12360445410013199, 0.3941133916378021, 0.10836490988731384, 0.36124560236930847, 0.020917516201734543, 0.0526357926428318, 0.04838135465979576, 0.001468665897846222, 0.20229355990886688, -0.015264376997947693, -0.6110256314277649, 0.13156069815158844, -0.0169052891433239], [-0.004168555606156588, -0.004224479664117098, -0.011049894616007805, -0.006492480169981718, 0.004176204092800617, 0.011584787629544735, -0.049211278557777405, -0.0013599046505987644, 0.02252783812582493, 0.01525467075407505, 0.01434082817286253, 0.0460941419005394, -0.01928844302892685, -0.02377947047352791, -0.01752004399895668, 0.006066814996302128, 0.013730186969041824, -0.009294616058468819, -0.03574210777878761, -0.024349823594093323, -0.01730773225426674, -0.00019818643340840936, 0.007882041856646538, 0.009944870136678219, 0.012605665251612663, 0.006613512989133596, 0.0016252704663202167, 0.00046516736620105803, 0.0034631085582077503, 0.014261242933571339, -0.011493247002363205, -0.032689839601516724, 0.003883423749357462, 0.003547841217368841, 0.010543512180447578, -0.020395254716277122, 0.00016750337090343237, -0.02040175348520279, 0.008272848092019558, -0.0027244468219578266], [0.6540076732635498, 0.39362961053848267, 0.008388099260628223, 0.0016025492222979665, -0.020203929394483566, -0.007048151455819607, 0.23840375244617462, -0.6446946263313293, -0.36207735538482666, -0.2694423496723175, -0.006582353729754686, 0.29171571135520935, -0.6588465571403503, 0.32180264592170715, -0.00017069911700673401, 0.299314022064209, -0.042941104620695114, 0.3574267029762268, 0.21974816918373108, 0.004737143870443106, 0.3467603325843811, 0.010035760700702667, 0.24504157900810242, 0.006933323107659817, -0.04581090807914734, 0.020106449723243713, 0.009889147244393826, 0.08077555149793625, -0.10750046372413635, -0.1649712473154068, 0.7669748067855835, -0.35617944598197937, -0.4307698905467987, -0.0260007344186306, -0.003842617617920041, -0.02431972324848175, -0.006126251071691513, 0.03467734530568123, 0.019246099516749382, 0.008081051521003246], [0.016556795686483383, 0.007364482153207064, -0.0011049099266529083, 0.0032600744161754847, -0.013750716112554073, -0.003484365064650774, -0.004928771872073412, -0.02690005674958229, 0.018494652584195137, 0.005761660169810057, 0.0006488927756436169, 0.0348392054438591, 0.003784277243539691, 0.03322115167975426, -0.0014342915965244174, -0.028156010434031487, -0.015284252353012562, 0.010889892466366291, 0.03951618820428848, -0.0002518507244531065, 0.0023773587308824062, -0.032357797026634216, 0.03570238873362541, 0.012209802865982056, -0.016779771074652672, -0.009935302659869194, 0.01716444455087185, -0.00011056265066144988, 0.025624621659517288, -0.015967845916748047, -0.0023807284887880087, 0.019252687692642212, -0.014335783198475838, -0.006982690189033747, 0.00026994702056981623, -0.007994205690920353, -0.0006208093254826963, -0.0013389167143031955, 0.01245709415525198, 0.0030791719909757376], [0.18389761447906494, 0.17939509451389313, -0.008942164480686188, -0.004519736394286156, -0.002729427069425583, 0.009844854474067688, 0.14304561913013458, 0.6101091504096985, -0.12213853001594543, -0.056318189948797226, 0.016623523086309433, 0.005818215664476156, 0.3985177278518677, -0.035114970058202744, 0.002176587237045169, -0.047133803367614746, -0.007920417003333569, -0.11410875618457794, 0.01120738685131073, -0.001801135833375156, -0.591465413570404, -0.0011638740543276072, 0.7891037464141846, -0.0041493140161037445, 0.3945152461528778, 0.3872004747390747, -0.004648357164114714, 0.04901556670665741, 0.2617657780647278, -1.3690963983535767, 0.250813752412796, 0.043082769960165024, 0.23149779438972473, 0.003641444258391857, 0.0036307801492512226, -0.027213381603360176, -0.009460887871682644, 0.1625290811061859, 0.43727239966392517, -0.010490979067981243], 