{"model_data": {"model": "SimpleRNN", "input_size": 2, "skip": 1, "output_size": 1, "unit_type": "LSTM", "num_layers": 1, "hidden_size": 20, "bias_fl": true}, "state_dict": {"rec.weight_ih_l0": [[0.013022520579397678, 0.5114046931266785], [0.05127575621008873, -0.508161187171936], [0.04089854657649994, 1.120935082435608], [0.09975506365299225, -0.07918450981378555], [0.11507420241832733, -0.30173009634017944], [0.11877137422561646, -0.5747076869010925], [-0.11540717631578445, 0.5866866111755371], [-0.08463716506958008, 0.1272048056125641], [0.029192663729190826, -0.1124735176563263], [0.42103448510169983, -0.829181969165802], [0.011309577152132988, -0.19631747901439667], [-0.033433541655540466, 0.2820163369178772], [-0.1694369614124298, 0.00620652362704277], [-0.1621035933494568, -0.6782228350639343], [0.13159812986850739, -0.2832542061805725], [0.11075866967439651, -0.13045793771743774], [-0.04866102710366249, -0.005000516306608915], [-0.33514755964279175, -0.009850814007222652], [0.08007384091615677, -0.44215360283851624], [0.008561012335121632, 0.23283033072948456], [0.03701645880937576, 0.37683552503585815], [0.07432214170694351, 0.3792625963687897], [0.09115894883871078, 0.26985806226730347], [0.1631753146648407, 0.0017297497252002358], [0.02326563186943531, 0.2853425443172455], [0.1532912701368332, 0.7156137824058533], [-0.15109367668628693, 0.2759045660495758], [-0.05020774155855179, 0.282921701669693], [0.17324459552764893, 0.5644919872283936], [0.4321163296699524, 0.6364489197731018], [0.03674798831343651, -0.20324555039405823], [0.00031388935167342424, 0.4112192392349243], [-0.21301190555095673, 0.1629074066877365], [-0.18986493349075317, -0.3725261092185974], [-0.10981861501932144, 0.2902856469154358], [0.230777308344841, -0.08653882145881653], [0.10322665423154831, 0.32086634635925293], [-0.5167309641838074, 0.24266131222248077], [0.1611696481704712, -0.42283904552459717], [0.0705152228474617, -0.05112282559275627], [-0.18097789585590363, 0.5592898726463318], [-0.19380086660385132, -0.0750671997666359], [-0.43027156591415405, 0.2529197037220001], [-0.6095276474952698, -0.3387243449687958], [0.2288132607936859, 0.16132821142673492], [0.08790849149227142, 0.21709275245666504], [-3.201596736907959, -0.16322509944438934], [-0.1930723339319229, 0.015205864794552326], [-0.1966923028230667, -0.11564234644174576], [-0.8706701397895813, -0.14825032651424408], [-0.08960039913654327, -0.3952498733997345], [-0.3931604325771332, 0.1254563182592392], [-0.7339096069335938, 0.28921061754226685], [0.019316041842103004, -0.9540259838104248], [0.34599757194519043, -0.06300169229507446], [0.03633587062358856, -0.08084089308977127], [-0.6528636813163757, 0.0970037505030632], [-0.020858002826571465, 0.05184541270136833], [-0.09812093526124954, -0.08214297890663147], [-0.8585624694824219, -0.35483500361442566], [-0.3235898017883301, -0.4869104325771332], [0.0472835972905159, 0.38977494835853577], [0.17852705717086792, 0.2865922451019287], [-0.046047043055295944, -0.031569864600896835], [0.14132823050022125, -0.19811910390853882], [-0.03550417721271515, 0.5753363966941833], [-0.048196643590927124, 0.5401521325111389], [0.1492835432291031, -0.44490641355514526], [-0.0643317773938179, 0.341321736574173], [-0.39180228114128113, -0.058376066386699677], [-0.03228415176272392, -0.5846483111381531], [0.03248290717601776, 0.23986859619617462], [-0.048132967203855515, 0.21121446788311005], [-0.09392722696065903, -0.6048871278762817], [-0.1273602843284607, 0.38627469539642334], [0.16549856960773468, 0.06886017322540283], [-0.015991410240530968, 0.2893557846546173], [-0.22437413036823273, 0.2921847403049469], [0.10713625699281693, -0.48228830099105835], [0.00465690391138196, 0.3133421838283539]], "rec.weight_hh_l0": [[0.11890502274036407, -0.029013346880674362, 0.17225608229637146, -0.0021779655944556, -0.2616734206676483, 0.14455744624137878, 0.0034969067201018333, 0.35713914036750793, 0.08794578164815903, -0.18423578143119812, -0.0263526514172554, -0.03774183988571167, 0.09755616635084152, -0.015153211541473866, -0.026261651888489723, -0.00564308138564229, 0.01936338283121586, -0.028123008087277412, 0.0006942717009223998, -0.025205032899975777], [0.03570420295000076, 0.04862208291888237, -0.019295845180749893, -0.021500421687960625, 0.683242917060852, -0.328365296125412, -0.03644627332687378, -1.0191150903701782, 0.16671913862228394, 0.23038604855537415, 0.22547894716262817, 0.3569045066833496, -0.22867189347743988, 0.0953826829791069, 0.04243743419647217, -0.011507838033139706, 0.06958798319101334, -0.08665250241756439, 0.22445444762706757, -0.1109081283211708], [-0.009526503272354603, -0.056290075182914734, 0.15425854921340942, -0.2805693447589874, -0.11702408641576767, 0.235426664352417, 0.04970598220825195, 0.052934709936380386, 0.15373457968235016, -0.13266105949878693, -0.04745383560657501, 0.18726499378681183, -0.004273508209735155, -0.3010418117046356, 0.05439956858754158, 0.09662750363349915, 0.16512885689735413, -0.006382645573467016, 0.08656866103410721, -0.04324793815612793], [-0.11997852474451065, -0.051825445145368576, -0.2693644165992737, -0.014262814074754715, 0.09614280611276627, 0.15816454589366913, -0.06526817381381989, -0.30466875433921814, 0.12178502976894379, -0.04939761757850647, 0.07746723294258118, 0.2417253851890564, -0.018928484991192818, 0.11050452291965485, 0.2546950876712799, -0.07944515347480774, -0.15318559110164642, -0.10442615300416946, -0.047335244715213776, -0.03099372237920761], [0.12074451148509979, 0.01186398696154356, 0.09526115655899048, -0.03243492543697357, 0.12880393862724304, -0.11074721813201904, 0.35552823543548584, -0.07102053612470627, -0.033014267683029175, 0.08985289931297302, 0.07975084334611893, -0.04269874840974808, -0.0828753188252449, 0.1174742579460144, -0.08441630750894547, -0.2797562777996063, 0.18193615972995758, 0.055557288229465485, 0.09014536440372467, -0.07004263252019882], [0.15834549069404602, 0.0858348086476326, 0.21294760704040527, -0.2528212368488312, 1.1371930837631226, -0.18291015923023224, -0.04388513043522835, -0.749171257019043, -0.14287926256656647, 0.31175366044044495, -0.04510963335633278, 0.4306446313858032, -0.3283734619617462, 0.3304031491279602, 0.1414686143398285, 0.5665605664253235, 0.29898801445961, 0.28483614325523376, 0.08650065213441849, 0.07576986402273178], [0.12142357230186462, 0.09886287897825241, 0.06744883209466934, -0.020901648327708244, -0.344018816947937, 0.08632516860961914, -0.09890131652355194, 0.0748082622885704, -0.18958139419555664, 0.10548398643732071, -0.08279062807559967, -0.10013935714960098, 0.00598027603700757, -0.20562134683132172, -0.036275897175073624, 0.1728554219007492, 0.05039076507091522, -0.5174765586853027, 0.12340793758630753, -0.29966214299201965], [0.020424919202923775, -0.09679871052503586, 0.2600846290588379, -0.03288215771317482, 0.04286252334713936, -0.07342168688774109, 0.14949633181095123, 0.11253268271684647, -0.04252837598323822, 0.28610339760780334, 0.009143659844994545, -0.06894423812627792, 0.085578553378582, 0.07075613737106323, -0.10355232656002045, 0.03403812646865845, 0.18532933294773102, -0.13542208075523376, 0.022726604714989662, -0.03208138793706894], [0.04587966576218605, 0.0404718741774559, 0.1017020046710968, -0.12774577736854553, 0.4153245985507965, -0.10320867598056793, -0.16256408393383026, -0.5097656846046448, 0.13824743032455444, 0.3746219277381897, 0.10373356938362122, 0.2267632931470871, 0.020112335681915283, -0.00853394903242588, -0.08262664079666138, 0.2326914668083191, -0.17572565376758575, 0.4353436827659607, -0.17499098181724548, -0.06977610290050507], [0.03759489580988884, 0.08086331933736801, -0.061961039900779724, -0.3605548143386841, 1.1443156003952026, -0.516144335269928, -0.3438005745410919, -0.8425816893577576, -0.2910862863063812, 0.2273128181695938, 0.1674851030111313, 0.34448301792144775, -0.021231235936284065, 0.2079738974571228, -0.18019698560237885, 0.3510380983352661, -0.20678077638149261, 0.5800328254699707, -0.4798365831375122, 0.252361923456192], [-0.0888499990105629, 0.0089398343116045, -0.0335075668990612, 0.050051625818014145, 0.03385506197810173, -0.12707409262657166, -0.11731800436973572, -0.0813678577542305, -0.07715506851673126, 0.011025743559002876, 0.029671594500541687, 0.04544748365879059, -0.1430061310529709, 0.08801259845495224, -0.06216713413596153, 0.01895051822066307, -0.04966701939702034, 0.03402210772037506, 0.0011086560552939773, -0.0873667299747467], [-0.05819260701537132, -0.003013438079506159, 0.0667489543557167, -0.2913607060909271, -0.09162414073944092, -0.026288360357284546, -0.04923718422651291, -0.07051526010036469, -0.01973002403974533, -0.002213376807048917, -0.020278681069612503, -0.1981520652770996, -0.1822553128004074, 0.2801195979118347, -0.06649642437696457, 0.029129741713404655, -0.1007843017578125, 0.11844169348478317, 0.14621642231941223, 0.08079931139945984], [0.47321027517318726, 0.06732692569494247, 0.0031088772229850292, -0.24309591948986053, 0.2167200744152069, 0.07521817833185196, 0.022075213491916656, -0.09857513755559921, -0.024732058867812157, 0.2021002322435379, -0.033027611672878265, -0.21017225086688995, 0.04413202032446861, 0.019533876329660416, -0.04752345755696297, 0.22751177847385406, 0.1319323033094406, 0.008432372473180294, 0.07781519740819931, 0.09942682832479477], [0.02509130910038948, 0.06704970449209213, 0.025234365835785866, 0.5011177062988281, 0.13838201761245728, -0.37593287229537964, -0.15192732214927673, -0.16192598640918732, 0.09250936657190323, 0.02569582499563694, 0.15108439326286316, 0.21237383782863617, -0.025073735043406487, -0.008334672078490257, -0.14274370670318604, -0.310065895318985, -0.3201647698879242, 0.1916213482618332, -0.20067405700683594, -0.13231897354125977], [0.16846460103988647, 0.019530853256583214, 0.07123269140720367, -0.049230560660362244, 0.3859613835811615, -0.08901488780975342, -0.002580492990091443, -0.6442663073539734, 0.3066706359386444, 0.2289171814918518, 0.1599513292312622, 0.2737249732017517, -0.02804100327193737, -0.08727509528398514, 0.016684094443917274, -0.10808258503675461, 0.0370418056845665, -0.38895905017852783, 0.038097985088825226, -0.23766307532787323], [0.05803631246089935, 0.05613036826252937, 0.14301744103431702, -0.021375784650444984, -0.10063900798559189, -0.022260935977101326, 0.009303187020123005, -0.058832861483097076, -0.009863809682428837, 0.03293551877140999, -0.0007057168404571712, 0.029808493331074715, 0.07713785022497177, 0.026281220838427544, -0.008199861273169518, 0.06933034211397171, -0.0881229043006897, 0.14761969447135925, -0.016997506842017174, -0.041553180664777756], [-0.015503572300076485, 0.02510160207748413, 0.17084819078445435, 0.020928997546434402, -0.010373332537710667, -0.030086979269981384, -0.02577732503414154, 0.0004851624835282564, -0.2355344593524933, 0.14930497109889984, 0.026548035442829132, 0.03638675808906555, -0.00893823429942131, 0.0004030208510812372, -0.004682396072894335, 0.39178740978240967, -0.06569154560565948, 0.04668017849326134, -0.03531278669834137, -0.020974617451429367], [0.04174590855836868, -0.23102790117263794, 0.06275386363267899, -0.0909026637673378, -0.05049404501914978, 0.17602983117103577, 0.2666343152523041, -0.320441335439682, 0.05791353061795235, -0.07271605730056763, 0.09573590010404587, 0.16127270460128784, -0.3039584755897522, 0.003523772582411766, -0.14351360499858856, -0.27582478523254395, 0.588975727558136, 0.14392144978046417, -0.038241203874349594, -0.3173862397670746], [-0.10285097360610962, 0.00639810087159276, -0.05073557794094086, 0.09179264307022095, -0.15927590429782867, -0.15305018424987793, 0.03531632572412491, 0.007475127931684256, -0.16098283231258392, 0.008740497753024101, -0.040542423725128174, -0.12628838419914246, -0.014649029821157455, 0.10867273807525635, -0.10917466133832932, -0.21098679304122925, -0.07213258743286133, -0.0012068364303559065, -0.12389025837182999, 0.07401325553655624], [0.009508534334599972, 0.03039068728685379, 0.04612288251519203, -0.02848711423575878, 0.04829702526330948, 0.045170728117227554, -0.04680527746677399, 0.14979694783687592, 0.023760315030813217, -0.036808356642723083, -0.014018692076206207, 0.00996636413037777, 0.08727611601352692, 0.013529568910598755, 0.04178798943758011, 0.10997451841831207, -0.05821700766682625, 0.08059293776750565, -0.10352525860071182, 0.05351516231894493], [0.4998798072338104, -0.06310626864433289, 0.2948465645313263, 0.2488158494234085, -0.4137701690196991, 0.020538367331027985, -0.047627873718738556, 0.256229966878891, 0.06551976501941681, -0.2048184722661972, 0.0502421036362648, 0.09761091321706772, 0.41933882236480713, 0.08153795450925827, -0.0013626149157062173, -0.19606037437915802, -0.19009184837341309, -0.22855381667613983, -0.18289010226726532, -0.3054769039154053], [-0.044261474162340164, -0.028044698759913445, -0.05496267229318619, 0.1651155799627304, -0.552990198135376, 0.2844063341617584, -0.03068489395081997, 1.1148681640625, -0.23850084841251373, -0.39478600025177, -0.17405810952186584, -0.3483593165874481, 0.22962474822998047, 0.012004553340375423, -0.21397674083709717, 0.042461078613996506, -0.0636567622423172, 0.3977048993110657, -0.18088804185390472, 0.13340350985527039], [0.20176059007644653, -0.06277462840080261, -0.230773463845253, -0.1980091631412506, -0.2597096562385559, 0.011057550087571144, 0.07206988334655762, -0.03900839388370514, 0.03754635155200958, 0.07019874453544617, -0.03568040207028389, -0.07791384309530258, -0.04838009551167488, -0.03780543431639671, -0.0995863676071167, -0.015272671356797218, -0.05230024829506874, -0.2475147843360901, -0.17428292334079742, 0.019030677154660225], [-0.344641774892807, 0.053084008395671844, -0.1934773474931717, 0.0027909555938094854, -0.23615440726280212, 0.32449400424957275, -0.08256519585847855, 0.10433834791183472, -0.10170808434486389, -0.34984245896339417, -0.03853914514183998, -0.056581251323223114, -0.08969663083553314, 0.08689544349908829, 0.23596899211406708, -0.021212268620729446, 0.05933259427547455, -0.05484486743807793, 0.018190480768680573, -0.15957674384117126], [0.1978968232870102, -0.18141008913516998, 0.13897424936294556, 0.025160929188132286, -0.07708615064620972, 0.28701063990592957, -0.2102690488100052, 0.3939247727394104, -0.24353836476802826, -0.07340474426746368, -0.0355549231171608, -0.04534604027867317, 0.16974976658821106, -0.06895403563976288, -0.1848430037498474, -0.2122679501771927, -0.11346609890460968, -0.37284398078918457, 0.20414595305919647, 0.18404991924762726], [-0.31689590215682983, 0.03127691522240639, 0.5078774690628052, 0.4653661847114563, -0.40689295530319214, -0.025386270135641098, -0.3034811317920685, 1.1973259449005127, -0.8246839642524719, 0.2026095688343048, -0.24019958078861237, -0.4151712656021118, -0.24368301033973694, -0.08059719949960709, 0.5338818430900574, 0.17195293307304382, 0.3037072718143463, -0.2309548407793045, -0.12932437658309937, -0.44977355003356934], [0.04074722155928612, -0.0038728946819901466, -0.07767122238874435, 0.004156888462603092, -0.02392166666686535, -0.09293238073587418, 0.08458921313285828, 0.13130393624305725, -0.02303384430706501, 0.16658703982830048, -0.052004389464855194, 0.010171198286116123, 0.01265349704772234, 0.02000037580728531, -0.010205946862697601, -0.11952148377895355, 0.03912356123328209, -0.26249781250953674, 0.09532123804092407, 0.024745332077145576], [-0.10544581711292267, -0.14799191057682037, 0.16439233720302582, -0.19031837582588196, -0.09721583873033524, 0.06769958138465881, 0.3533931076526642, 0.31864601373672485, -0.07613950967788696, 0.08681371808052063, -0.01636466011404991, -0.1116381511092186, 0.0766521692276001, 0.02728256769478321, -0.1714608520269394, -0.06406457722187042, 0.46265509724617004, -0.2571696937084198, 0.05749299004673958, -0.24843686819076538], [0.011070900596678257, 0.01331703644245863, 0.2343185842037201, -0.0801151767373085, -0.7742701172828674, 0.37482693791389465, -0.11474672704935074, 0.6490389108657837, -0.007652814965695143, -0.24039435386657715, -0.1854207068681717, -0.34897381067276, 0.20384161174297333, -0.21368363499641418, -0.12466293573379517, 0.17698721587657928, -0.0832027792930603, -0.2522999346256256, 0.28564488887786865, 0.12129861861467361], [-0.0746566653251648, -0.18664690852165222, -0.22723181545734406, -0.16375721991062164, -0.9396919012069702, 0.8573828935623169, -0.1504509150981903, 0.9818140268325806, -0.16647286713123322, 0.0747896209359169, -0.14414620399475098, -0.2576165795326233, 0.2921455204486847, -0.15828879177570343, -0.49056029319763184, -0.3252909779548645, -0.520587146282196, -0.34434112906455994, 0.2553539276123047, 0.12872837483882904], [-0.1136632040143013, 0.004207482561469078, -0.044609591364860535, 0.06390422582626343, -0.049243442714214325, -0.11400457471609116, -0.12058787792921066, 0.023552127182483673, -0.10414937883615494, -0.027029860764741898, 0.01783839985728264, 0.006364739965647459, -0.12562954425811768, 0.12659695744514465, -0.07428544759750366, 0.010649444535374641, -0.038776881992816925, 0.0383431613445282, -0.03207561746239662, -0.11266057938337326], [-0.11529025435447693, -0.08559383451938629, 0.3237805664539337, -0.10394392162561417, -0.22995686531066895, 0.17405641078948975, -0.11472943425178528, 0.20799864828586578, -0.09905657917261124, -0.2419167459011078, -0.03820979222655296, -0.0796397477388382, -0.22865425050258636, 0.21091091632843018, -0.10797151923179626, 0.02005729079246521, 0.028326839208602905, 0.26239851117134094, 0.005365149583667517, 0.010047176852822304], [0.22106552124023438, -0.05133511498570442, -0.11839353293180466, -0.07773925364017487, -0.42275768518447876, 0.4660205543041229, -0.0034074196591973305, 0.5001755356788635, -0.01749802753329277, 0.13796035945415497, -0.04478516802191734, -0.27818554639816284, -0.04267355427145958, -0.13074637949466705, -0.020674534142017365, 0.0491819903254509, 0.028149351477622986, -0.13873663544654846, 0.08447752892971039, 0.09071900695562363], [-0.06221683695912361, 0.02371239848434925, 0.07943230122327805, 0.5566349029541016, -0.41538867354393005, -0.09524080902338028, -0.15765281021595, 0.43719008564949036, -0.016019729897379875, -0.1777200996875763, 0.031913116574287415, -0.10958828032016754, 0.039188746362924576, -0.07132983952760696, -0.1418871283531189, -0.32588061690330505, -0.3575289249420166, 0.20436014235019684, -0.11108817905187607, -0.1820690780878067], [-0.0026293902192264795, -0.21897520124912262, -0.18928585946559906, 0.033044591546058655, -0.4169926047325134, 0.20718590915203094, 0.16036978363990784, 1.0729867219924927, -0.1727590411901474, -0.22999219596385956, -0.17928120493888855, -0.3665080666542053, 0.26344290375709534, 0.06378378719091415, -0.24685293436050415, 0.2241370677947998, 0.15554337203502655, 0.5058534145355225, -0.0833243578672409, 0.1636350005865097], [-0.010264836251735687, 0.04413097724318504, 0.07674911618232727, -0.03741763159632683, -0.26682594418525696, 0.14404919743537903, -0.1014384925365448, 0.14179295301437378, 0.010891281068325043, -0.03265073150396347, -0.009722927585244179, 0.07704775780439377, 0.09230480343103409, 0.049432460218667984, -0.00452890619635582, 0.06307665258646011, -0.2647821307182312, 0.13727222383022308, -0.033037882298231125, -0.040221817791461945], [0.022961143404245377, 0.10441266745328903, -0.1514645367860794, 0.027853280305862427, -0.493013471364975, 0.1372835338115692, 0.04165501520037651, 0.4521702527999878, -0.11102964729070663, 0.051660843193531036, 0.0028166675474494696, -0.17270994186401367, 0.1175186038017273, -0.05914228782057762, 0.017603028565645218, 0.22729799151420593, -0.08357968181371689, -0.21810422837734222, -0.09806857258081436, -0.18083636462688446], [-0.02262519672513008, -0.21132728457450867, -0.0916447713971138, -0.010568327270448208, -0.286154568195343, 0.01793396845459938, 0.4579351842403412, 0.49369266629219055, 0.5401067733764648, 0.054230209439992905, -0.021502362564206123, -0.07770845293998718, 0.06814853847026825, -0.09635273367166519, -0.0832974761724472, 0.08956407010555267, 0.33845147490501404, 0.44029754400253296, -0.10256701707839966, 0.06666912883520126], [-0.3122228682041168, -0.037466373294591904, -0.1792658269405365, 0.09882798045873642, -0.256458044052124, -0.1056821346282959, 0.04517791420221329, 0.06481943279504776, -0.2599111795425415, -0.13080909848213196, -0.06971673667430878, -0.025832701474428177, -0.11493880301713943, 0.17312650382518768, -0.21800284087657928, -0.41233932971954346, -0.13402973115444183, 0.038524873554706573, -0.27793410420417786, 0.03656870871782303], [-0.04672139883041382, 0.034481197595596313, -0.17645452916622162, 0.05383343994617462, 0.045756809413433075, 0.0982576534152031, -0.21128015220165253, 0.23471036553382874, -0.04233808442950249, -0.023821013048291206, 0.012044710107147694, 0.061209455132484436, 0.010833380743861198, 0.0966406986117363, -0.00048508605686947703, 0.05629010871052742, -0.15508423745632172, 0.04201787710189819, -0.18015237152576447, -0.0005893766647204757], [1.1757946014404297, 0.24303783476352692, 2.3495113849639893, 0.26756513118743896, 0.5416033864021301, -0.014781097881495953, 0.4351534843444824, -0.3189131021499634, 0.07447431236505508, -0.11419975757598877, -0.246753990650177, -0.9275534152984619, -0.06109907478094101, 0.16174748539924622, -0.00866790022701025, 0.4536595940589905, 0.09914255887269974, -0.2657349705696106, 0.7803090810775757, 0.8779758214950562], [-0.43401122093200684, 0.45674893260002136, -0.11803910881280899, -0.3745880424976349, -0.019490621984004974, 0.08961483836174011, -0.06280477344989777, -0.07176072895526886, 0.18501397967338562, 0.007998581975698471, 0.06241978332400322, -0.12441033869981766, -0.10967161506414413, 0.23723451793193817, 1.0852115154266357, 0.004143434576690197, -0.3620269298553467, -0.10745807737112045, -0.2660726308822632, 0.22520822286605835], [0.1007729321718216, 0.42591333389282227, 1.3439717292785645, 0.5174366235733032, 0.0311907809227705, -0.6594325304031372, -0.5093168616294861, 0.1055702418088913, -1.1697100400924683, 0.04529625177383423, -0.14391255378723145, -0.2584283947944641, -0.7249699831008911, 0.24640832841396332, 0.06673885881900787, 0.5502909421920776, 1.3712385892868042, -0.23050975799560547, 0.002615442732349038, -1.320644497871399], [0.733004629611969, 0.2174963504076004, 0.25550901889801025, -0.1667543202638626, -0.14450104534626007, -0.3215273916721344, -0.2798629105091095, 0.15691688656806946, -0.052578020840883255, -0.18137741088867188, 0.233443021774292, 0.27059006690979004, 0.035912271589040756, 0.497632771730423, -0.20538447797298431, -0.304431676864624, 0.12263265997171402, -0.15072277188301086, -0.3779549300670624, -0.41193002462387085], [-0.0545235350728035, 0.05663616582751274, 0.31408408284187317, -0.11612802743911743, -0.015575111843645573, 0.11748088151216507, -0.19277863204479218, -0.2731544077396393, -0.23145444691181183, 0.10238609462976456, 0.0021974619012326, 0.011505801230669022, -0.09707266092300415, -0.018839295953512192, -0.03066430054605007, 0.17848218977451324, 0.35255101323127747, 0.6258562803268433, -0.07846823334693909, -0.7630136609077454], [-0.057054996490478516, 0.11673074215650558, 0.27976879477500916, 0.21037165820598602, 0.09133320301771164, 0.13214440643787384, -0.30922242999076843, -0.11759402602910995, -0.5685451030731201, 0.13672438263893127, -0.11051520705223083, -0.3533019423484802, -0.24902459979057312, 0.06449493765830994, 0.3070007562637329, 0.2459239810705185, 0.5950324535369873, -0.21988634765148163, 0.06086091697216034, -0.5778552889823914], [0.029457101598381996, -0.012705669738352299, -0.017615653574466705, -0.02957184985280037, -0.006991707719862461, 0.5658344030380249, 0.5640037655830383, -0.21548563241958618, -0.25567930936813354, -1.0140222311019897, -0.21842122077941895, 0.01946571283042431, -0.04679793864488602, -0.11514516174793243, 0.03032100945711136, 0.15089094638824463, -0.10520335286855698, -0.15656384825706482, 0.02585405856370926, 0.05350726097822189], [-0.03446071222424507, -0.10823196917772293, -0.1120673343539238, 0.03273632004857063, -0.11336751282215118, -0.03842093050479889, 0.3495979607105255, 0.3356756269931793, -0.2441186159849167, 0.4005802571773529, 0.020205769687891006, -0.17716975510120392, 0.07887496054172516, 0.022876247763633728, -0.0627557560801506, -0.23720300197601318, 0.26541101932525635, -0.5021246075630188, -0.06191791221499443, -0.22057878971099854], [-0.029486076906323433, -0.2376348078250885, 0.12160100042819977, 0.007153819315135479, 0.11778391152620316, 0.9984337687492371, 0.41166746616363525, 0.08089371025562286, 0.28175684809684753, -0.0986013188958168, 0.21784593164920807, -0.02541584149003029, -0.03885432705283165, 0.06385662406682968, 0.07612273097038269, -0.07076855003833771, 0.4839397072792053, 0.391743004322052, -0.029681142419576645, -0.32663968205451965], [0.09122856706380844, 0.24073998630046844, 0.09669362008571625, 0.16322332620620728, -0.09478966146707535, -0.14516901969909668, 0.22890402376651764, 0.06677601486444473, 0.3787339925765991, 0.18111106753349304, -0.0718558058142662, -0.15040285885334015, -0.2274874895811081, -0.027085252106189728, 0.3777853548526764, 0.18984971940517426, 0.11889852583408356, 0.06175787374377251, 0.16494373977184296, 0.2168242186307907], [0.06361936777830124, 0.04075959697365761, 0.13812986016273499, 0.18336355686187744, 0.09191106259822845, 0.0024167716037482023, -0.044423528015613556, 0.001088243443518877, 0.04212172329425812, -0.13526923954486847, 0.16228707134723663, 0.11909149587154388, 0.11138682067394257, 0.406036376953125, -0.07106877118349075, -0.2592797577381134, 0.2600397765636444, 0.016484173014760017, -0.07353352010250092, -0.3441203534603119], [-0.5719624161720276, -0.12463132292032242, -0.056427158415317535, 0.037945497781038284, 0.010857844725251198, 0.3276258707046509, -0.0864298939704895, 0.1273065060377121, 0.04447931423783302, -0.22088375687599182, 0.32002654671669006, -0.12008906900882721, 1.1707044839859009, 0.5864862203598022, 0.05733787268400192, 0.011218382976949215, -0.14751343429088593, 0.09284362941980362, 0.59451824426651, -0.1807437241077423], [0.7260518074035645, -0.1150631308555603, -0.09521694481372833, -0.1520945131778717, 0.012193338945508003, 0.32267993688583374, -0.09403463453054428, -0.0797063410282135, 0.12016073614358902, 0.025132862851023674, 0.03823820874094963, -1.124606728553772, 0.14009511470794678, 0.32795271277427673, -0.3791835308074951, 0.16323281824588776, -0.22932663559913635, 0.07138267159461975, -0.6388717293739319, -0.1521129012107849], [-0.0030679022893309593, -0.09139401465654373, 0.11636260151863098, -0.17144525051116943, 0.10687502473592758, -0.3571549654006958, 0.08187896758317947, -0.05375507101416588, -0.15592488646507263, -0.0670381635427475, -0.12863045930862427, -0.11345525085926056, -0.37365809082984924, 0.6829760074615479, -0.20085091888904572, 0.08648368716239929, 0.0641566663980484, 0.0668216198682785, -0.11939040571451187, 0.05794477090239525], [0.3236222565174103, -1.1574485301971436, -0.04516797512769699, 0.38825246691703796, -0.09712273627519608, -0.2538551986217499, 0.05699688568711281, -0.09957665950059891, -0.02998320758342743, -0.0844615250825882, 0.10096285492181778, 0.32952243089675903, 0.19508813321590424, -0.235237255692482, 0.2666650414466858, -0.05987793952226639, 0.11732605844736099, 0.052890196442604065, 0.19308947026729584, 0.20719175040721893], [-0.10183645784854889, 0.03384476155042648, 0.07762795686721802, -0.2684079110622406, 0.006582784466445446, -0.38326942920684814, -0.7234025597572327, -0.11500048637390137, 0.3915705680847168, 0.21961136162281036, -0.2780047357082367, -0.26744428277015686, 0.39771562814712524, -0.5226635932922363, -0.016413595527410507, 0.10437104105949402, -0.1537093073129654, 0.7125409841537476, 0.33293843269348145, -0.7461826205253601], [-0.15279020369052887, 0.019515641033649445, -0.044419486075639725, -0.3281155824661255, -0.1480192244052887, 0.034961454570293427, 0.6061913967132568, -0.048237722367048264, -1.288325548171997, -0.47316962480545044, -0.054572731256484985, -0.10537699609994888, 0.5048143267631531, -0.23091340065002441, -0.012285028584301472, -0.2995375096797943, -0.0699705183506012, 0.31361469626426697, 0.028128547593951225, -0.13072209060192108], [0.009864149615168571, -0.1806199699640274, -0.05231871455907822, 0.21185018122196198, -0.11533045768737793, 0.4004470407962799, 0.6605907678604126, -0.19692520797252655, -0.22473572194576263, -0.32733604311943054, 0.33546221256256104, -0.1378798633813858, -0.23968520760536194, 0.1588784009218216, -0.013368187472224236, -0.6780361533164978, 0.39320945739746094, 0.34946581721305847, -0.002219972899183631, 0.25304222106933594], [-0.8237170577049255, -0.07597856968641281, 0.11702805757522583, 0.07979379594326019, 0.12135042995214462, 0.3203747272491455, -0.1580183058977127, 0.11188732087612152, 0.03583332151174545, -0.30977901816368103, 0.20224888622760773, -0.2964506149291992, 0.9550181031227112, -0.6056838035583496, -0.022653788328170776, -0.13404345512390137, 0.06095195934176445, 0.03367191180586815, 0.4117477536201477, -0.10890953242778778], [-0.1554364562034607, -0.3614221215248108, 0.18557268381118774, -0.05953193083405495, 0.6189010143280029, 0.38021180033683777, 0.2614571154117584, -0.03123609907925129, 0.6819222569465637, -0.2881869077682495, -0.24835072457790375, 0.015653332695364952, 0.06948256492614746, -0.2873889207839966, -0.13038815557956696, 0.559135377407074, -0.5120722055435181, -0.649772584438324, -0.15906131267547607, -0.17718082666397095], [-0.039969515055418015, 0.06175602972507477, -0.22058320045471191, 0.039887841790914536, 0.28879183530807495, -0.1862000823020935, -0.001894553774036467, -0.38480621576309204, 0.02663440816104412, 0.25734591484069824, 0.025330008938908577, 0.13555419445037842, -0.22727446258068085, 0.2882065176963806, -0.14177604019641876, -0.1922360062599182, -0.25310131907463074, 0.05431526526808739, -0.36354920268058777, -0.3562636971473694], [0.055876411497592926, -0.0173959918320179, -0.028058554977178574, -0.04172533005475998, -0.4083174765110016, 0.08285918831825256, 0.07719257473945618, 0.1615728735923767, 0.20926763117313385, -0.09979709982872009, -0.011231725104153156, 0.0824962928891182, 0.11796541512012482, -0.06813875585794449, 0.09313111007213593, 0.06947736442089081, -0.028180470690131187, 0.060551512986421585, 0.027779247611761093, -0.1204717829823494], [0.14825962483882904, -0.1185893639922142, -0.22572170197963715, -0.34605684876441956, -0.17788146436214447, 0.13016411662101746, 0.08016616106033325, -0.25133779644966125, -0.05201157554984093, 0.05375191941857338, -0.11740030348300934, -0.24066022038459778, -0.02510407380759716, -0.11154361814260483, -0.08047614246606827, 0.10074590146541595, 0.014443771913647652, -0.17115294933319092, 0.20329846441745758, 0.20389029383659363], [-0.1350889950990677, -0.02333862893283367, 0.29336774349212646, 0.11492273211479187, 0.2543179392814636, 0.1560414731502533, 0.08946647495031357, -0.06514765322208405, 0.19514991343021393, -0.1516340970993042, 0.08341285586357117, 0.13894924521446228, -0.08533954620361328, 0.12635764479637146, 0.1433296948671341, 0.05781691148877144, 0.10726223886013031, 0.0011408415157347918, 0.08893556147813797, 0.0829705223441124], [0.1421833634376526, -0.051352910697460175, -0.1007567048072815, 0.022036485373973846, 0.04124901816248894, 0.12128235399723053, -0.0330330953001976, 0.23955628275871277, -0.3749329447746277, 0.05035031959414482, 0.06387651711702347, -0.11501084268093109, -0.08874963968992233, 0.053121741861104965, -0.06871981173753738, -0.27577826380729675, 0.3827725052833557, -0.027942702174186707, 0.059172097593545914, -0.23345668613910675], [-0.009864726103842258, -0.1651391237974167, -0.01266991812735796, 0.21307335793972015, -0.36922019720077515, 0.5295389890670776, 0.021045155823230743, 0.2239651381969452, 0.15975536406040192, -0.27255910634994507, 0.02554628811776638, -0.1325523555278778, 0.1723208874464035, -0.11610261350870132, 0.0200328566133976, -0.05667451024055481, 0.012049342505633831, -0.11262395977973938, 0.19643595814704895, 0.028104525059461594], [0.058659184724092484, -0.0135869225487113, -0.03911875933408737, -0.2397899329662323, -0.2157069742679596, 0.14253416657447815, 0.2617354393005371, 0.2204359918832779, 0.2241659164428711, 0.31643736362457275, -0.07231559604406357, -0.10405579954385757, 0.0900314450263977, -0.10633289813995361, 0.1338680386543274, 0.04383188113570213, -0.34025493264198303, -0.008993924595415592, 0.06332354247570038, 0.10994260758161545], [-0.1742151379585266, -0.017412204295396805, -0.10409655421972275, -0.01367331761866808, -0.018496684730052948, -0.07715433835983276, 0.05919211357831955, 0.4293801486492157, 0.09490703046321869, 0.048871539533138275, 0.01684481091797352, -0.20602692663669586, 0.28172045946121216, 0.14429374039173126, -0.07555791735649109, -0.052721913903951645, 0.27616849541664124, -0.2968633472919464, 0.01212802343070507, 0.1173536479473114], [-0.20059740543365479, 0.009954561479389668, 0.08983535319566727, -0.0963350161910057, -0.47569549083709717, 0.06578004360198975, 0.10465370863676071, 0.33837980031967163, -0.03224568068981171, -0.14779168367385864, -0.06480712443590164, -0.09081335365772247, -0.009231289848685265, -0.10092440247535706, 0.006758301984518766, 0.18080677092075348, 0.07824667543172836, 0.11213859170675278, 0.04715229570865631, -0.14192920923233032], [0.04961036518216133, -0.1325070559978485, 0.021550096571445465, 0.11595850437879562, -0.05344661325216293, 0.052913181483745575, 0.0014952674973756075, 0.019781777635216713, 0.05712813138961792, -0.9974786043167114, 0.06796645373106003, -0.03116781823337078, -0.0967215970158577, -0.13902491331100464, 0.026988891884684563, -0.09806612133979797, 0.24907295405864716, 0.12263613194227219, -0.23258469998836517, -0.10983855277299881], [-0.05001913011074066, 0.015712404623627663, 0.2014012187719345, 0.13710473477840424, 0.17958053946495056, -0.31601962447166443, -0.14010408520698547, -0.1476624757051468, -0.08770725131034851, 0.08405622094869614, 0.06608424335718155, 0.10012705624103546, -0.3105798363685608, 0.16443583369255066, -0.07965821027755737, 0.08348201215267181, 0.008363406173884869, 0.003637403715401888, -0.028631845489144325, -0.13193447887897491], [-0.01446660328656435, -0.02066297084093094, -0.12635646760463715, -0.19536660611629486, -0.2511745095252991, 0.12929245829582214, -0.009224426932632923, 0.21800851821899414, -0.03209258243441582, -0.10149667412042618, -0.03225431963801384, -0.2520275413990021, -0.08435807377099991, 0.14472532272338867, -0.019195204600691795, -0.019814850762486458, -0.0375608466565609, 0.08158458024263382, 0.0015807845629751682, -0.018934499472379684], [0.07029850780963898, 0.06549102813005447, 0.04809488728642464, -0.2974883019924164, -0.10787950456142426, 0.091562420129776, 0.08342438191175461, -0.04181475192308426, -0.04340650513768196, 0.22950224578380585, -0.03937326744198799, -0.34708720445632935, 0.16292166709899902, 0.06027579680085182, -0.05050737038254738, 0.07141821086406708, -0.02506214566528797, 0.12673482298851013, 0.08853647112846375, 0.1511913537979126], [-0.13762052357196808, 0.07460279017686844, -0.02748938836157322, 0.25663039088249207, 0.030422456562519073, -0.29835960268974304, -0.2775794267654419, -0.004808453842997551, 0.006687738001346588, -0.05814880505204201, 0.055958472192287445, 0.08869586139917374, -0.09885203093290329, -0.05345990136265755, -0.17163553833961487, 0.06786412000656128, -0.2485489398241043, 0.13617751002311707, 0.01675497740507126, 0.044424302875995636], [-0.10040904581546783, -0.05141323804855347, 0.021008683368563652, -0.024911314249038696, -0.41325581073760986, 0.235733762383461, 0.09156304597854614, 0.42035356163978577, 0.14878740906715393, -0.031906455755233765, 0.008915109559893608, -0.035548776388168335, 0.08991862833499908, -0.11643636971712112, 0.12573765218257904, -0.0862111747264862, 0.17171186208724976, -0.22726702690124512, 0.15921127796173096, -0.04208757355809212], [0.013805579394102097, 0.04797324165701866, 0.17340302467346191, -0.03630758821964264, -0.12721848487854004, -0.0016257509123533964, -0.12546832859516144, 0.07676200568675995, -0.09566789865493774, -0.04027962684631348, -0.03384723886847496, -0.025418739765882492, 0.04716737940907478, -0.004789469297975302, -0.006497250869870186, 0.19941362738609314, -0.138503760099411, 0.06454535573720932, -0.039302848279476166, -0.06269063800573349], [0.040302980691194534, 0.010421795770525932, -0.107132688164711, 0.02548987604677677, -0.004928989801555872, 0.09061845391988754, -0.04394283890724182, 0.32936176657676697, -0.2539188265800476, -0.06272973865270615, -0.028084104880690575, -0.03434518352150917, 0.14866453409194946, 0.035485148429870605, -0.035397205501794815, 0.14113938808441162, 0.0019595955964177847, 0.042245469987392426, 0.009946651756763458, -0.03747051581740379], [0.055355288088321686, -0.14837120473384857, -0.3515392541885376, -0.05798409506678581, -0.01196188386529684, 0.24434734880924225, 0.2515510022640228, 0.21933791041374207, 0.3722763955593109, -0.1456916481256485, 0.0208966676145792, 0.08398032933473587, 0.1004742681980133, -0.014090794138610363, -0.05769854411482811, -0.03541244566440582, 0.16390946507453918, 0.45242610573768616, -0.06125404313206673, 0.08430507779121399], [-0.11620569974184036, 0.02282491698861122, 0.07174154371023178, 0.058349039405584335, -0.2533803880214691, -0.20860527455806732, -0.029900388792157173, 0.05327974259853363, -0.19655123353004456, -0.011961887590587139, -0.0318744033575058, -0.2281855344772339, -0.08570954203605652, 0.10888823121786118, -0.11303885281085968, -0.27936822175979614, 0.10840941965579987, 0.0475614070892334, -0.22212588787078857, -0.1837647557258606], [-0.010765149258077145, 0.013717090710997581, -0.024608761072158813, -0.022714149206876755, -0.058406829833984375, 0.07888177782297134, -0.052629221230745316, 0.2616358697414398, 0.023575473576784134, -0.11490049213171005, -0.019574420526623726, -0.026117980480194092, 0.10293284058570862, 0.021333541721105576, 0.02308562397956848, 0.09048150479793549, -0.11462007462978363, 0.04302164912223816, -0.1061508059501648, 0.07541225850582123]], "rec.bias_ih_l0": [0.5361963510513306, -1.3027729988098145, 0.190802201628685, -0.29218459129333496, -0.27803120017051697, -1.0542136430740356, -0.025000210851430893, 0.030938034877181053, -0.6319912075996399, -0.9447202682495117, -0.11214403808116913, 0.04627666249871254, -0.15119419991970062, -0.3488800525665283, -1.2103124856948853, 0.051320869475603104, -0.08945618569850922, -0.5703359842300415, 0.13414302468299866, 0.29693886637687683, 0.34584131836891174, 1.599900245666504, 0.04036904126405716, 0.41549721360206604, 0.7624427080154419, 1.55131196975708, 0.08948013186454773, 0.428953617811203, 0.9904288649559021, 1.2608667612075806, 0.10646287351846695, 0.38117581605911255, 0.39637187123298645, 0.49646157026290894, 1.7945212125778198, 0.36557313799858093, 0.4254355728626251, 0.3145689070224762, 0.23387165367603302, 0.2794254720211029, -0.08420612663030624, -0.11167547106742859, 0.06294774264097214, 0.10316582769155502, -0.25988221168518066, 0.08363208919763565, -0.17012783885002136, 0.38149315118789673, -0.19266267120838165, -0.11278989911079407, -0.22729890048503876, -0.11959931254386902, -0.08780013769865036, 0.06005348265171051, 0.09408338367938995, 0.08180167526006699, -0.05076927691698074, -0.11552917957305908, -0.2365051656961441, 0.2463206797838211, -0.523848831653595, 0.08554732799530029, -0.2503199279308319, -0.04671268165111542, 0.18089789152145386, 0.24504582583904266, 0.01762220449745655, 0.45052629709243774, 0.5411940217018127, 0.22700557112693787, -0.29349204897880554, 0.37524697184562683, 0.10460197180509567, -0.021945342421531677, 0.16879265010356903, 0.286698579788208, 0.5054848790168762, 0.12172646075487137, 0.2072218656539917, 0.492325097322464], "rec.bias_hh_l0": [0.5361948609352112, -1.2332580089569092, 0.19110184907913208, -0.30603739619255066, -0.20176200568675995, -1.0624459981918335, -0.039632100611925125, 0.05434570834040642, -0.6427258253097534, -0.9339578747749329, -0.12029755115509033, 0.045218273997306824, -0.12363854050636292, -0.3341521620750427, -1.1827030181884766, 0.05090952292084694, -0.06780475378036499, -0.570739209651947, 0.13415928184986115, 0.29677683115005493, 0.4040653705596924, 1.6767269372940063, 0.0665135383605957, 0.3794904053211212, 0.6785382032394409, 1.5644530057907104, 0.1299223154783249, 0.5110468864440918, 0.9641645550727844, 1.2193856239318848, 0.107174813747406, 0.36177727580070496, 0.39001908898353577, 0.515572190284729, 1.7630473375320435, 0.3645751476287842, 0.3776724338531494, 0.31667542457580566, 0.23388923704624176, 0.26698094606399536, 0.07758784294128418, 0.14671392738819122, 0.010867388918995857, 0.06848382949829102, -0.15976914763450623, 0.05747605860233307, -0.06175150349736214, 0.3155524730682373, -0.06051398813724518, -0.09547260403633118, -0.059011057019233704, -0.33155155181884766, -0.05186457931995392, 0.14853739738464355, -0.02333478257060051, 0.05608561262488365, -0.2405216097831726, -0.06573216617107391, -0.05171147361397743, -0.0069350614212453365, -0.5907958149909973, 0.0953771099448204, -0.22733527421951294, -0.07116281986236572, 0.135828897356987, 0.2331039160490036, 0.011924564838409424, 0.36021825671195984, 0.5359550714492798, 0.24678486585617065, -0.3459550738334656, 0.3772764205932617, 0.09954939037561417, -0.024641454219818115, 0.2278272956609726, 0.2869032025337219, 0.5055586695671082, 0.12154842168092728, 0.20722948014736176, 0.492330938577652], "lin.weight": [[0.6005878448486328, 0.422493040561676, -0.013527501374483109, 0.9318673610687256, -0.04780900105834007, -0.433928519487381, 0.06708989292383194, 0.06035269424319267, -0.009422266855835915, 0.07293155789375305, 0.1294056624174118, 0.8196230530738831, 0.6169856786727905, -0.593299150466919, -1.7583636045455933, -0.11345706880092621, 0.2516084909439087, 0.05728818103671074, 0.6171382069587708, 0.29975587129592896]], "lin.bias": [0.12983456254005432]}}