{"model_data": {"model": "SimpleRNN", "input_size": 1, "skip": 1, "output_size": 1, "unit_type": "LSTM", "num_layers": 1, "hidden_size": 20, "bias_fl": true}, "state_dict": {"rec.weight_ih_l0": [[-0.019447844475507736], [-0.025056468322873116], [-0.027949145063757896], [-0.0577019564807415], [0.0598582848906517], [-0.13664653897285461], [0.04766739159822464], [-0.0004665635642595589], [-0.01822698302567005], [-0.026177534833550453], [0.13945509493350983], [0.08213596791028976], [-0.07263191044330597], [0.016477657482028008], [0.08215028792619705], [-0.037856072187423706], [-0.02933952771127224], [0.02008328214287758], [0.26485326886177063], [-0.005131983198225498], [0.029838887974619865], [-0.18419921398162842], [-0.0031650769524276257], [0.01123843714594841], [0.02191070280969143], [-0.27952781319618225], [-0.08440619707107544], [0.003502423409372568], [-0.05589883029460907], [0.009617816656827927], [-0.17085745930671692], [0.18455921113491058], [0.13033755123615265], [0.12017399072647095], [-0.01160273514688015], [-0.06674443930387497], [-0.006865261122584343], [0.0690724328160286], [0.3255431354045868], [0.038427989929914474], [-0.01661967858672142], [-0.5548465251922607], [0.11351384967565536], [0.584331750869751], [-0.016461731866002083], [-0.16648893058300018], [-1.0327941179275513], [0.9544013738632202], [-0.20280593633651733], [1.1926831007003784], [-0.616495668888092], [0.09868396073579788], [-0.13096849620342255], [-0.24977411329746246], [-0.20742036402225494], [-0.38016119599342346], [0.29314446449279785], [-1.937903881072998], [0.024048205465078354], [-0.25330114364624023], [0.013881120830774307], [0.05058179050683975], [-0.06444364786148071], [0.0011564228916540742], [0.07852021604776382], [-0.1330355554819107], [0.005339630413800478], [-0.02271626703441143], [-0.020067662000656128], [-0.016898978501558304], [-0.33312153816223145], [0.15334169566631317], [0.04010051488876343], [-0.06493920832872391], [0.0035527292639017105], [-0.08799711614847183], [0.0704353079199791], [0.013689864426851273], [0.25253525376319885], [0.17539390921592712]], "rec.weight_hh_l0": [[0.05518711358308792, -0.07754596322774887, 0.1685483306646347, -0.0913996696472168, -0.2602922022342682, -0.037981774657964706, 0.13025124371051788, -0.19238460063934326, -0.011549021117389202, 0.11967886239290237, -0.0605015903711319, 0.14672507345676422, -0.15146052837371826, -0.05317859351634979, -0.030638353899121284, 0.012755597941577435, -0.08355163782835007, -0.018700124695897102, -0.06902393698692322, 0.20091427862644196], [0.06355689465999603, 0.030786724761128426, -0.05928857624530792, -0.012655655853450298, 0.007466302718967199, 0.08178248256444931, -0.03774162381887436, 0.16089120507240295, -0.05458729714155197, 0.197276309132576, -0.06130843982100487, 0.022037575021386147, 0.0040161521174013615, -0.0770571306347847, -0.16013172268867493, -0.0008425589185208082, 0.1516290158033371, 0.14186187088489532, 0.02541075088083744, -0.08810049295425415], [-0.524373471736908, 0.16818387806415558, -0.019238272681832314, -0.11372976750135422, 0.0701417550444603, -0.028050227090716362, 0.027428431436419487, 0.1503446251153946, -0.2877107560634613, 0.031496159732341766, 0.07854628562927246, 0.014592357911169529, -0.07841438800096512, 0.013700781390070915, 0.11680330336093903, -0.0017987401224672794, -0.04115646332502365, 0.0809141993522644, -0.13139332830905914, -0.007932211272418499], [-0.4056844711303711, 0.12930133938789368, 0.15358392894268036, 0.026014741510152817, 0.005089582875370979, -0.11111375689506531, -0.0958380326628685, -0.015418748371303082, -0.21881882846355438, 0.027688652276992798, 0.18690986931324005, -0.10109016299247742, 0.13574892282485962, -0.19272464513778687, -0.09890548139810562, 0.01318427175283432, 0.016408206894993782, 0.026119373738765717, -0.05442313104867935, 0.15848655998706818], [0.13398471474647522, 0.08619386702775955, -0.021596305072307587, -0.1534799039363861, 0.16563911736011505, 0.10313551127910614, 0.07548533380031586, 0.16313296556472778, -0.06530635803937912, 0.19126686453819275, -0.06023223325610161, 0.09392081201076508, -0.004347410053014755, -0.09310080856084824, -0.0575074777007103, -0.030204886570572853, 0.007390162441879511, 0.019699223339557648, 0.005358520429581404, -0.08646290749311447], [0.1843971461057663, -0.018506525084376335, 0.03716927021741867, 0.012037134729325771, -0.006488522980362177, 0.02295824885368347, -0.1835903823375702, 0.2045467644929886, 0.0771871879696846, -0.147933229804039, 0.03253037482500076, -0.03855613246560097, 0.022985512390732765, -0.017058363184332848, -0.11690850555896759, -0.03735721856355667, 0.018544495105743408, -0.10423094779253006, -0.010551358573138714, -0.07274038344621658], [0.052193935960531235, -0.09647965431213379, 0.08652778714895248, -0.20198531448841095, -0.016227394342422485, 0.0027239988557994366, 0.07964092493057251, 0.005623224191367626, 0.09144940227270126, -0.06319887936115265, -0.1224178820848465, 0.07078646123409271, 0.03756197541952133, -0.06315693259239197, 0.21645326912403107, -0.14940914511680603, -0.11221224814653397, -0.140094593167305, 0.17217060923576355, 0.0003183537919539958], [0.24861879646778107, -0.11006616801023483, 0.041085343807935715, 0.04827073588967323, 0.01700403541326523, 0.09396681189537048, -0.009279567748308182, 0.034621912986040115, 0.04443267732858658, 0.012656724080443382, -0.07372145354747772, 0.004609929397702217, 0.0008676739525981247, 0.07328000664710999, -0.04831444099545479, -0.024859372526407242, -0.06788402050733566, 0.11174312978982925, 0.009761597029864788, -0.11245103925466537], [-0.007153129670768976, 0.07364089041948318, -0.0407341793179512, -0.12981930375099182, -0.2676835060119629, 0.016422968357801437, 0.12459628283977509, 0.10387853533029556, -0.03812267258763313, 0.10162214189767838, -0.05509015545248985, 0.054045651108026505, 0.018475472927093506, -0.014680090360343456, 0.06931336969137192, -0.19449570775032043, -0.026312896981835365, -0.03233358636498451, 0.008052026852965355, 0.08063368499279022], [0.613568127155304, 0.0727277472615242, -0.05489224195480347, -0.09499085694551468, 0.13869860768318176, 0.11290702223777771, -0.0036256411112844944, -0.10369529575109482, 0.06793326884508133, 0.20772422850131989, -0.09905779361724854, 0.048957910388708115, 0.015556463971734047, 0.03691618889570236, 0.2973245084285736, 0.07774403691291809, 0.02511819265782833, 0.08108650892972946, 0.00046650462900288403, -0.1091407909989357], [-0.86009681224823, -0.10406261682510376, 0.22447270154953003, -0.021440040320158005, 0.16686441004276276, 0.035943347960710526, -0.34318485856056213, 0.03716016933321953, -0.42758941650390625, -0.44736242294311523, 0.1625305414199829, -0.09072662144899368, -0.11658599972724915, 0.07145371288061142, -0.34718888998031616, 0.1038302630186081, 0.19135968387126923, -0.24012550711631775, 0.37812545895576477, 0.32723236083984375], [-0.15308919548988342, 0.08990888297557831, -0.027086924761533737, 0.05531707778573036, 0.006414886564016342, -0.08645354211330414, -0.06555881351232529, -0.06185548007488251, 0.07370388507843018, -0.1491524577140808, -0.04989151656627655, 0.04488036781549454, -0.1230119913816452, -0.06806948035955429, -0.172956183552742, -0.12870381772518158, -0.09606195986270905, 0.08611079305410385, 0.10462788492441177, 0.008232355117797852], [-0.367292582988739, 0.11138580739498138, 0.0031885395292192698, -0.3427893817424774, -0.1015293300151825, -0.14681513607501984, 0.25029194355010986, 0.15894490480422974, 0.09416560083627701, -0.19857197999954224, -0.03334103152155876, 0.14039084315299988, -0.023395443335175514, -0.22777166962623596, 0.27052807807922363, -0.5065270662307739, -0.1796034872531891, 0.0019449623068794608, 0.3372080326080322, -0.025632493197917938], [-0.022000785917043686, -0.004159725271165371, 0.19379712641239166, -0.24253106117248535, -0.09026728570461273, -0.1452236920595169, 0.11413471400737762, 0.12810909748077393, 0.24495892226696014, -0.20736302435398102, 0.09517615288496017, 0.10710468143224716, -0.060880232602357864, -0.05134632810950279, 0.2977038621902466, -0.390456885099411, -0.1439114660024643, -0.027828190475702286, 0.29142382740974426, 0.08747142553329468], [-0.09254381060600281, -0.036984626203775406, 0.04237798973917961, 0.020839734002947807, -0.12830771505832672, 0.09405510872602463, -0.3001168370246887, 0.25881487131118774, 0.024240506812930107, -0.5709332823753357, -0.09835831820964813, -0.20472173392772675, -0.06580699980258942, -0.016431452706456184, 0.10101104527711868, -0.3172624707221985, -0.01669861376285553, -0.16322168707847595, 0.021406587213277817, 0.006790733430534601], [-0.10307866334915161, 0.15614144504070282, 0.11624249070882797, 0.01447403896600008, 0.03802252933382988, -0.09303879737854004, 0.09924206137657166, -0.019547684118151665, -0.05412214249372482, 0.18201403319835663, 0.11399507522583008, 0.009984846226871014, -0.06619109213352203, 0.033900387585163116, -0.1033070757985115, -0.02524891123175621, 0.11317434906959534, -0.0199305210262537, 0.0794379860162735, 0.09347192198038101], [0.0037171465810388327, -0.08064486086368561, -0.0036210191901773214, 0.03865945711731911, 0.08312246203422546, 0.10228807479143143, -0.15479548275470734, 0.041672952473163605, -0.12907816469669342, -0.00853489339351654, 0.07558782398700714, 0.0034813617821782827, 0.19832739233970642, 0.0597023069858551, 0.018976539373397827, -0.17339521646499634, -0.07434844225645065, 0.03505590558052063, 0.12372438609600067, -0.06665539741516113], [0.008073627017438412, -0.10481277108192444, 0.005965737160295248, -0.15711688995361328, -0.24352867901325226, 0.15142901241779327, 0.00287107122130692, 0.30174970626831055, 0.3665829598903656, -0.49575045704841614, -0.08783245831727982, -0.010550597682595253, 0.06200718134641647, 0.007726295851171017, 0.578364372253418, -0.38180312514305115, -0.05335056409239769, -0.03512635827064514, -0.006351667456328869, -0.2357603907585144], [0.03611001372337341, -0.008967970497906208, -0.009080021642148495, 0.033711690455675125, 0.12387523055076599, 0.13339465856552124, 0.055278174579143524, 0.09763850271701813, -0.035956818610429764, 0.024043133482336998, -0.2639020085334778, 0.0026563771534711123, 0.12354875355958939, 0.07986221462488174, -0.013545723631978035, -0.2586804926395416, 0.13148213922977448, -0.15180565416812897, 0.2021348774433136, -0.0351102240383625], [-0.11332911252975464, -0.024008115753531456, 0.2591845989227295, -0.036349114030599594, 0.07933103293180466, -0.0941624641418457, -0.05212608352303505, 0.040998347103595734, -0.1126856654882431, -0.15193016827106476, 0.03711472451686859, -0.03700776398181915, -0.19575026631355286, 0.007940077222883701, -0.09336519241333008, -0.0832693800330162, 0.06101037189364433, 0.08595991879701614, 0.08712240308523178, -0.09356433153152466], [0.16976068913936615, 0.053457923233509064, 0.047168467193841934, -0.038565173745155334, -0.11630398035049438, -0.1273966133594513, 0.11235647648572922, -0.04071684554219246, -0.1456076204776764, 0.22767679393291473, -0.11523449420928955, 0.0979793444275856, -0.11354968696832657, 0.19242408871650696, -0.28191548585891724, 0.19490966200828552, -0.0451824814081192, 0.03359649330377579, -0.057823117822408676, 0.0956057533621788], [0.09106718748807907, 0.0511152409017086, 0.11181432753801346, -0.10830819606781006, -0.2195604145526886, 0.053606968373060226, 0.03869840130209923, 0.3305540978908539, 0.1176816001534462, -0.16111579537391663, 0.05209739878773689, 0.05709341540932655, -0.11477018892765045, 0.02699420414865017, 0.2768569588661194, -0.03854607790708542, -0.23495110869407654, -0.020116491243243217, -0.10312322527170181, -0.07122493535280228], [0.40556085109710693, 0.35976940393447876, -0.057626549154520035, 0.08397476375102997, -0.06416057050228119, 0.02077019028365612, -0.06882838159799576, 0.1651061326265335, -0.2175593376159668, -0.0877477154135704, -0.1346227377653122, 0.10463865846395493, -0.24723148345947266, 0.1293589323759079, 0.02098769322037697, -0.06147242337465286, -0.08753819018602371, 0.22121471166610718, 0.1341845840215683, -0.5504289269447327], [0.3860865533351898, 0.045471809804439545, -0.08179875463247299, 0.13998962938785553, -0.03690464422106743, 0.038696177303791046, -0.05967707559466362, -0.0849035456776619, 0.023538896813988686, -0.2226492017507553, -0.1061340793967247, 0.06482906639575958, 0.010904069058597088, -0.07550954073667526, 0.1631031185388565, -0.09098077565431595, -0.02459479123353958, -0.01733514852821827, -0.017377126961946487, -0.25344717502593994], [0.3391460180282593, 0.10788827389478683, 0.13200058043003082, -0.1252831518650055, 0.21193215250968933, 0.11215222626924515, -0.0776895061135292, 0.1670871526002884, -0.06608565896749496, -0.03549337014555931, -0.051310647279024124, -0.017618706449866295, -0.09330866485834122, 0.11655986309051514, -0.23797817528247833, -0.0675773173570633, 0.005865470971912146, -0.0082725053653121, -0.011635241098701954, -0.1532534658908844], [-0.10071156173944473, 0.10421384871006012, 0.20407120883464813, -0.0030700182542204857, -0.0048719351179897785, -0.1255800426006317, -0.22566194832324982, 0.2017441838979721, 0.05974109098315239, 0.03128395974636078, 0.26711562275886536, -0.08869525790214539, 0.09876594692468643, -0.19008401036262512, -0.1641746163368225, -0.003172787372022867, -0.059353578835725784, -0.09080056846141815, -0.04172667860984802, 0.10759281367063522], [0.11491812020540237, -0.04278715327382088, 0.13546107709407806, -0.32020047307014465, 0.14268504083156586, -0.004577815532684326, 0.15249836444854736, -0.12116020917892456, -0.021616654470562935, -0.10573703050613403, -0.06680600345134735, -0.010151765309274197, -0.01626966893672943, -0.023915179073810577, -0.10059578716754913, -0.06953808665275574, 0.026196515187621117, -0.08279087394475937, -0.030784161761403084, 0.05564115568995476], [0.11658988893032074, 0.07681453227996826, 0.06907898187637329, 0.07555898278951645, 0.13886964321136475, 0.11012448370456696, 0.02053801529109478, 0.14608268439769745, -0.06404314935207367, 0.2591259777545929, -0.04033399745821953, 0.09589162468910217, 0.055985063314437866, 0.01348342839628458, -0.19363245368003845, 0.16787676513195038, 0.02078312076628208, 0.21490556001663208, -0.04522955045104027, -0.07876956462860107], [0.0420592725276947, -0.16450564563274384, -0.025422630831599236, -0.14074808359146118, -0.26500189304351807, -0.05448778346180916, 0.03831452503800392, 0.028988296166062355, 0.04341387003660202, 0.10080904513597488, 0.05014178901910782, 0.025865083560347557, 0.18208439648151398, -0.15921948850154877, -0.07673126459121704, -0.09131553769111633, 0.11459461599588394, -0.16353444755077362, 0.010043404996395111, -0.21848678588867188], [0.09297915548086166, -0.07854297012090683, -0.0019902244675904512, 0.01058158278465271, 0.08630484342575073, 0.19351205229759216, -0.07669854164123535, 0.0073563032783567905, 0.08910699933767319, 0.16878071427345276, -0.059664756059646606, 0.06689996272325516, 0.2060290277004242, -0.1598183959722519, 0.4693920314311981, 0.20351167023181915, -0.02319936454296112, -0.2049332559108734, 0.0444454662501812, -0.05937489494681358], [0.7798285484313965, 0.20003077387809753, -0.1343485713005066, 0.1370982676744461, 0.017063530161976814, 0.06680324673652649, 0.03752143681049347, -0.06393051147460938, 0.19468966126441956, 0.16968829929828644, 0.0761818140745163, 0.11241009086370468, -0.020848605781793594, -0.030951332300901413, 0.44083860516548157, 0.04575372114777565, -0.10479496419429779, 0.05636642873287201, 0.2869620621204376, -0.443560928106308], [0.18153466284275055, 0.027363019064068794, -0.23293231427669525, 0.0028774382080882788, -0.052322935312986374, 0.0663243755698204, -0.03143864497542381, 0.2670721113681793, 0.00170124473515898, -0.005373551044613123, -0.09155614674091339, -0.011632365174591541, -0.08735886216163635, 0.013353523798286915, -0.25829771161079407, -0.17538999021053314, 0.12865805625915527, -0.12845346331596375, -0.059509169310331345, -0.24301007390022278], [0.17737792432308197, 0.06863731145858765, 0.054283928126096725, -0.057352688163518906, -0.03799900412559509, 0.19825217127799988, -0.037604548037052155, 0.11726255714893341, -0.010019748471677303, 0.037927061319351196, -0.25382697582244873, 0.13807876408100128, 0.16005846858024597, -0.021249303594231606, 0.12161421775817871, -0.1691218614578247, -0.12973327934741974, 0.11699627339839935, 0.13884595036506653, -0.34416183829307556], [0.3007068634033203, 0.09789492934942245, -0.033219631761312485, -0.1408054530620575, -0.05611281096935272, 0.06117524206638336, 0.1869868040084839, 0.2733920216560364, 0.14597037434577942, -0.0854317843914032, -0.09783947467803955, 0.11572053283452988, 0.06885351240634918, 0.20954126119613647, -0.08388807624578476, -0.0762842670083046, -0.050169311463832855, 0.06211793050169945, 0.00341834407299757, -0.17761747539043427], [-0.1346873790025711, -0.06681209802627563, 0.017213420942425728, 0.11984555423259735, -0.24496197700500488, 0.17371641099452972, -0.18343396484851837, 0.04677750915288925, 0.006853971630334854, -0.3461613059043884, -0.09639036655426025, -0.14038771390914917, -0.33644846081733704, -0.019630586728453636, 0.09115317463874817, -0.25757458806037903, -0.06273835897445679, -0.22995640337467194, 0.1631535440683365, 0.07523029297590256], [0.32713791728019714, -0.053083036094903946, -0.08243323117494583, 0.06900257617235184, -0.12421544641256332, 0.05434458330273628, 0.22892023622989655, 0.15312838554382324, 0.008620060980319977, 0.07965958118438721, -0.13229049742221832, 0.05122791603207588, -0.14224916696548462, 0.11537053436040878, 0.04483243450522423, -0.1551467478275299, 0.21375761926174164, 0.08786673843860626, 0.04111376777291298, -0.17772528529167175], [0.03148979693651199, -0.1760224550962448, 0.09003748744726181, 0.15080566704273224, 0.049119677394628525, 0.041085563600063324, -0.07567440718412399, -0.030287746340036392, 0.048328906297683716, -0.0744897723197937, 0.027094217017292976, 0.12166319042444229, -0.03629114106297493, 0.011878994293510914, 0.27847597002983093, 0.03419726341962814, -0.0050366781651973724, 0.22292423248291016, 0.18567684292793274, -0.17328034341335297], [0.12912826240062714, -0.025668499991297722, 0.01809111423790455, -0.11586974561214447, -0.35044318437576294, -0.1909199208021164, -0.0835878923535347, -0.31039685010910034, 0.21585716307163239, 0.07006615400314331, -0.07119827717542648, 0.003586525097489357, -0.09913111478090286, -0.04842475801706314, 0.5373096466064453, 0.22338496148586273, -0.09059341251850128, 0.29390236735343933, -0.1838504523038864, 0.006482669152319431], [0.0954788476228714, -0.032887041568756104, 0.08449117094278336, 0.09508473426103592, 0.055184315890073776, 0.16823363304138184, -0.04347890987992287, 0.08229794353246689, -0.01208715420216322, -0.1341208666563034, -0.40839409828186035, 0.010798952542245388, 0.06817186623811722, 0.10478953272104263, 0.013213057070970535, -0.15433190762996674, 0.13343586027622223, -0.03425770252943039, 0.25413352251052856, -0.03963897377252579], [0.3240131139755249, -0.2790905833244324, 0.15220527350902557, -0.12126345187425613, -0.07320094853639603, 0.04171093553304672, 0.10024428367614746, 0.19695627689361572, 0.19993437826633453, -0.04386099800467491, -0.06523620337247849, 0.0064988513477146626, -0.2966424226760864, 0.1711294949054718, -0.005026223137974739, -0.15169019997119904, -0.04805539548397064, 0.025549598038196564, 0.061277370899915695, -0.42419594526290894], [0.13923175632953644, 0.017169682309031487, -0.04358465224504471, -0.29512137174606323, -0.2871777415275574, -0.20253393054008484, 0.16914258897304535, -0.041008614003658295, -0.21866939961910248, 0.4340055286884308, -0.06894917041063309, -0.3058825135231018, -0.15388667583465576, 0.31054675579071045, 0.01102521177381277, -0.3149740695953369, -0.01754787191748619, -0.4037586748600006, -0.3517920970916748, 0.158807173371315], [-0.4313404858112335, 1.1180589199066162, -0.12737725675106049, -0.2799406349658966, -0.15076160430908203, 0.22833599150180817, 0.11000654101371765, -0.8952880501747131, 0.2768722474575043, 0.07509218156337738, 0.14199607074260712, 0.20531217753887177, 0.38628679513931274, -0.8842794895172119, 0.001496198121458292, 0.37435269355773926, 0.518085241317749, -0.5048409104347229, 0.3589304983615875, 0.10033226013183594], [0.03063080459833145, -0.24207119643688202, 0.38083839416503906, -0.11670436710119247, -0.17530037462711334, 0.10815171897411346, -0.03697971627116203, -0.16784346103668213, -0.18032021820545197, -0.006299176253378391, 0.06263911724090576, 0.20600225031375885, 0.07931842654943466, 0.06473029404878616, -0.022941092029213905, 0.017116080969572067, -0.27065062522888184, -0.013434681110084057, -0.028377745300531387, 0.4438842236995697], [0.04224401339888573, -0.07611489295959473, -0.010809943079948425, 0.29222550988197327, -0.11268536746501923, -0.043959204107522964, -0.09121895581483841, -0.34670591354370117, 0.06419596821069717, 0.039221327751874924, 0.3267923891544342, 0.16331574320793152, -0.1173529103398323, 0.24470095336437225, -0.13202466070652008, 0.1369520127773285, -0.32494786381721497, -0.02809019386768341, 0.19161471724510193, -0.030928315594792366], [0.2406466156244278, -0.047444719821214676, 0.17867831885814667, -0.35072630643844604, 0.2735164761543274, -0.41306042671203613, -0.19087530672550201, -0.04930517077445984, 0.009675138629972935, 0.17522534728050232, -0.23789304494857788, -0.16921637952327728, 0.043332818895578384, 0.17128579318523407, -0.1873631477355957, 0.13223111629486084, -0.2983833849430084, -0.39131173491477966, 0.2106103003025055, -0.11893614381551743], [0.10713448375463486, 0.08144135773181915, -0.06139902397990227, 0.47830289602279663, 0.0024118758738040924, 0.17847904562950134, -0.4969433844089508, 0.4308473765850067, -0.02927405945956707, -0.07437098771333694, -0.5246979594230652, -0.00395441148430109, 0.1126737892627716, -0.40116825699806213, 0.04712648689746857, -0.1883619874715805, 0.18932709097862244, -0.5393751263618469, -0.20471177995204926, 0.10393787175416946], [-0.11637541651725769, 0.16183283925056458, 0.03938937559723854, 0.10318911820650101, -0.33420419692993164, 0.23087525367736816, 0.09553191810846329, -0.09233136475086212, 0.29236873984336853, 0.2825022041797638, -0.5552937984466553, -0.08126301318407059, -0.4086342453956604, 0.2552979290485382, 0.22795289754867554, -0.06688957661390305, 0.22683085501194, -0.6351633667945862, -0.3816053569316864, -0.20521199703216553], [0.06815006583929062, 0.4565068185329437, -0.06525842100381851, 0.4270302653312683, -0.04826843738555908, -0.8507645726203918, 0.41582822799682617, 0.33449864387512207, 0.18746115267276764, -0.10201624035835266, 0.4767521023750305, -0.1108599454164505, 0.0032275542616844177, 0.30028200149536133, -0.10117435455322266, -0.17669804394245148, 0.37637728452682495, 0.11025926470756531, 0.1056724414229393, -0.1760924756526947], [0.2070411890745163, -0.32502317428588867, 0.29637452960014343, -0.04921501502394676, -0.24431903660297394, 0.2864691913127899, 0.28001365065574646, -0.06782922148704529, 0.2464793622493744, -0.27357301115989685, -0.2570817470550537, 0.17266914248466492, 0.02090652659535408, 0.10924096405506134, 0.23944680392742157, 0.20374080538749695, -0.27400997281074524, 0.042763601988554, -0.32242053747177124, 0.10804042220115662], [0.19071649014949799, 0.01202115137130022, -0.026613228023052216, 0.1986340880393982, 0.11925983428955078, 0.11513922363519669, -0.04764822870492935, 0.476375550031662, -0.3040287494659424, 0.98257976770401, 0.7210394144058228, 0.09049449861049652, 0.11846762895584106, -0.0026971306651830673, -0.14613811671733856, -0.46489810943603516, 0.045152369886636734, -1.6310784816741943, -0.18576636910438538, -0.09904998540878296], [-0.21525487303733826, 0.04094169661402702, -0.06941691040992737, -0.09283953160047531, 0.03514055907726288, 0.03903475031256676, -0.022421587258577347, -0.06441312283277512, 0.16870999336242676, -0.08788010478019714, 0.45228129625320435, -0.2011692374944687, -0.14479069411754608, -0.05831347405910492, -0.03652813658118248, 0.1244521364569664, -0.245909184217453, 0.5162651538848877, 0.06720925122499466, -0.08223555982112885], [0.026699259877204895, 0.00360883423127234, -0.18935711681842804, 0.40429866313934326, -0.3906765282154083, 0.2240845263004303, 0.18387466669082642, 0.4693744480609894, -0.10609876364469528, 0.16114476323127747, 0.0063889906741678715, 0.139456644654274, 0.2566794157028198, -0.20481769740581512, 0.13368941843509674, 0.009563636966049671, -0.05193132162094116, -0.060658689588308334, -0.06102257966995239, 0.026429595425724983], [-0.1268141269683838, 0.10378284007310867, -0.01828247494995594, 0.2100524753332138, 0.02284441702067852, -0.22071857750415802, 0.17202308773994446, 0.1727799028158188, 0.10225635021924973, 0.021009469404816628, -0.22915436327457428, -0.35565224289894104, 0.7137183547019958, 0.4633220434188843, 0.06783448904752731, -0.04633165895938873, -0.06192544847726822, -0.14755545556545258, -0.16726748645305634, -0.26141396164894104], [-0.38820764422416687, 0.07095174491405487, -0.15632595121860504, -0.11489453166723251, 0.14005668461322784, -0.056401774287223816, 0.40626779198646545, -0.12793578207492828, -0.10824675858020782, -0.10862603783607483, -0.13559739291667938, -0.25529247522354126, -0.4646509885787964, 0.2838524281978607, 0.10328935831785202, 0.4633214771747589, 0.056607820093631744, -0.32452288269996643, -0.04348072409629822, 0.2882534861564636], [0.30375927686691284, 0.051862116903066635, -0.14059531688690186, 0.21215425431728363, 0.09002532064914703, 0.059089843183755875, 0.29778897762298584, 0.2619076371192932, -0.2252063751220703, 1.0252048969268799, 0.03024251013994217, 0.02512906678020954, 0.1990104466676712, 0.093150295317173, 0.456004798412323, -0.32553035020828247, -0.10106544941663742, 0.30300936102867126, 0.31197354197502136, -0.10592939704656601], [-0.10675077885389328, 0.03682442381978035, -0.010096455924212933, 0.14318576455116272, 0.20980194211006165, 0.1857621818780899, 0.008769013918936253, 0.5586007237434387, -0.03416971489787102, 0.12339051812887192, -0.13547898828983307, 0.4690411686897278, -0.09273680299520493, -0.3867665231227875, -0.22544987499713898, 0.5164781212806702, 0.018709702417254448, 0.21482619643211365, 0.007817843928933144, -0.08669661730527878], [0.05136937275528908, 0.08086460828781128, 0.21252280473709106, 0.07833073288202286, 0.2651141583919525, 0.00030707858968526125, -0.198433980345726, -0.36806657910346985, -0.08295860141515732, -0.08443014323711395, 0.05079793184995651, -0.11356166005134583, -0.12516193091869354, -0.42306795716285706, -0.1525263637304306, -0.07236669957637787, 0.15414094924926758, -0.046727996319532394, 0.0373234748840332, -0.7135791778564453], [0.2396337240934372, 0.03729848936200142, -0.017802035436034203, 0.12509280443191528, 0.31392529606819153, 0.4061480760574341, 0.7166010141372681, -0.0667586475610733, -0.13034680485725403, 0.10801254212856293, -1.1205450296401978, -0.026681294664740562, 0.13077040016651154, 0.0846031978726387, -0.15310442447662354, -0.007979312911629677, 0.05364982411265373, 0.1986275464296341, 0.35777002573013306, -0.006562936119735241], [-0.11628499627113342, -0.19037050008773804, -0.004186953417956829, 0.1302499920129776, -0.048719123005867004, -0.1498170644044876, -0.2743493914604187, 0.1006791740655899, -0.09985107183456421, 0.19557268917560577, -0.38731253147125244, 0.2661249041557312, 0.2161782681941986, 0.06950879842042923, 0.13739536702632904, -0.2847604751586914, -0.3093758821487427, -0.13636299967765808, 0.31451910734176636, -0.04805455729365349], [-0.02166399173438549, 0.6374966502189636, -0.15104129910469055, 0.18398530781269073, -0.06696739047765732, 0.1132352352142334, -0.2109995037317276, 0.09604392945766449, -0.026411037892103195, -0.0023876805789768696, 0.04268968477845192, 0.07891078293323517, 0.05361737310886383, -0.29614102840423584, 0.0869331881403923, 0.09887289255857468, 0.4863097071647644, -0.0004327053902670741, 0.13819122314453125, 0.1984143853187561], [0.23051334917545319, -0.1709744930267334, 0.14953890442848206, 0.0054176305420696735, 0.11638125777244568, 0.1266314685344696, 0.030762163922190666, 0.035325802862644196, -0.0201104823499918, 0.19108863174915314, -0.1377185583114624, 0.10326515883207321, -0.10290209203958511, 0.0265737846493721, -0.11793085187673569, -0.057479046285152435, -0.15671487152576447, -0.02553725056350231, -0.020432863384485245, 0.09188609570264816], [-0.20288819074630737, -0.14035733044147491, 0.2599354088306427, -0.12636587023735046, 0.1716126948595047, 0.045363347977399826, -0.30592286586761475, 0.507266640663147, -0.19150719046592712, 0.0693628266453743, -0.12916161119937897, -0.07910674065351486, -0.24438121914863586, 0.2909030318260193, 0.02503439038991928, 0.035324253141880035, -0.06596338748931885, 0.1651722937822342, 0.022286176681518555, 0.26621538400650024], [0.1899721473455429, 0.08468672633171082, -0.09108949452638626, -0.11257001757621765, 0.10953354090452194, 0.1350809782743454, 0.05919210612773895, 0.05906875059008598, -0.07084725052118301, -0.10556021332740784, 0.12131771445274353, 0.034024108201265335, 0.018359538167715073, -0.06456560641527176, 0.0032120670657604933, 0.051280274987220764, 0.13367721438407898, -0.13550032675266266, -0.12439004331827164, -0.24519376456737518], [-0.02472725324332714, -0.017404649406671524, 0.0636158138513565, 0.03262493759393692, 0.1450464129447937, 0.005044430959969759, -0.09617512673139572, -0.12185516953468323, -0.17306165397167206, 0.027704963460564613, 0.045100804418325424, -0.049219902604818344, -0.014663508161902428, -0.10401890426874161, -0.18337421119213104, -0.054771535098552704, 0.09166082739830017, -0.0731942430138588, 0.05720146745443344, -0.10533948987722397], [0.26419153809547424, 0.10495138168334961, -0.0076685380190610886, -0.10598411411046982, 0.3827645480632782, 0.114641934633255, -0.07933659106492996, 0.07565934211015701, -0.002265776274725795, 0.1884608268737793, -0.08026482909917831, 0.05847161263227463, 0.002042987383902073, -0.0067171985283494, -0.18542268872261047, 0.03555125370621681, -0.003627935890108347, -0.050981711596250534, 0.06457199901342392, -0.1540309339761734], [0.17835724353790283, -0.029317228123545647, 0.028521044179797173, 0.0035392811987549067, 0.027483467012643814, 0.15516617894172668, -0.10134986788034439, 0.10501471906900406, 0.026896057650446892, -0.05632646754384041, 0.013510658405721188, -0.015052174217998981, -0.024902354925870895, -0.0015614175936207175, -0.11609374731779099, 0.010721812956035137, 0.06179821863770485, -0.19459344446659088, 0.025492019951343536, -0.051282402127981186], [0.07877568155527115, -0.026986969634890556, 0.07073523849248886, -0.15905673801898956, 0.06028737872838974, -0.010365620255470276, 0.1017925813794136, -0.06199342757463455, 0.0740463137626648, -0.1665819138288498, -0.11410873383283615, 0.014859393239021301, 0.021334506571292877, -0.026313917711377144, 0.19240055978298187, -0.16641037166118622, -0.07086162269115448, 0.002937508514150977, 0.13439172506332397, -0.049346305429935455], [0.28698548674583435, -0.1560705602169037, 0.01952996663749218, 0.021978450939059258, 0.019334550946950912, 0.07389725744724274, -0.03320539742708206, 0.057249560952186584, 0.04705408588051796, -0.09220963716506958, -0.08259608596563339, 0.01085758302360773, 0.012495073489844799, 0.05938482657074928, -0.0057157413102686405, -0.025711944326758385, -0.025855442509055138, 0.13672302663326263, -0.00433687586337328, -0.1726580560207367], [0.15554185211658478, 0.18901211023330688, -0.06088297814130783, -0.08506298810243607, -0.047368451952934265, -0.06249123811721802, 0.1434173583984375, -0.02158305048942566, -0.07309050112962723, 0.16348381340503693, -0.0514211505651474, 0.08650696277618408, -0.04560128599405289, -0.07383815944194794, 0.24159756302833557, -0.1319306492805481, 0.03624483570456505, -0.0053337933495640755, 0.14580881595611572, -0.012695527635514736], [0.017098521813750267, 0.02503501996397972, -0.05076740309596062, -0.15532885491847992, -0.08970646560192108, 0.06014537811279297, -0.030462652444839478, 0.21565033495426178, 0.3237997889518738, -0.2852051258087158, -0.07067572325468063, 0.03924785554409027, 0.21194329857826233, -0.1601308286190033, 0.24752213060855865, -0.053338728845119476, -0.18312014639377594, -0.16718827188014984, -0.17160071432590485, -0.22419995069503784], [0.08555172383785248, -0.02454000897705555, -0.21753042936325073, -0.15531988441944122, -0.036603983491659164, -0.20419520139694214, -0.2580181360244751, 0.05731011927127838, -0.2696142792701721, -0.020279016345739365, -0.09182162582874298, 0.04090350493788719, -0.045855581760406494, 0.28867611289024353, 0.024244854226708412, 0.1187562346458435, 0.11405564099550247, 0.09064043313264847, 0.25273922085762024, -0.05670219287276268], [-0.05385452136397362, 0.06621890515089035, -0.07044613361358643, 0.04675038531422615, 0.02152925357222557, -0.009806583635509014, -0.08709662407636642, 0.17900450527668, 0.02588646300137043, 0.02044445276260376, -0.07280890643596649, 0.058553047478199005, -0.06649596244096756, -0.07144111394882202, -0.20431692898273468, -0.05683119595050812, -0.03799177706241608, -0.11374171078205109, 0.08909958600997925, 0.007314491551369429], [-0.1342078000307083, 0.0033359371591359377, -0.02266041748225689, -0.1688535511493683, 0.03621985390782356, -0.07345856726169586, 0.07044830918312073, -0.11105158925056458, -0.065687395632267, 0.14396783709526062, -0.061915475875139236, 0.06165111064910889, -0.12667125463485718, -0.14244189858436584, -0.30820944905281067, -0.25725340843200684, -0.07673522084951401, 0.051614630967378616, 0.17282825708389282, -0.1732366681098938], [0.05335399881005287, 0.04370842128992081, 0.11886487156152725, -0.10240764170885086, -0.05008556321263313, -0.04787052795290947, -0.02903696894645691, 0.10461476445198059, 0.16830579936504364, -0.06434677541255951, 0.012763012200593948, 0.0333307608962059, 0.026882650330662727, -0.010828156024217606, -0.16058841347694397, -0.2006685733795166, -0.17212340235710144, 0.10095018148422241, 0.1615990847349167, -0.10633113980293274], [-0.11777893453836441, -0.1932394653558731, 0.04955294728279114, 0.005075437482446432, -0.1590052843093872, 0.21985219419002533, -0.17645008862018585, 0.05407583341002464, 0.02613874524831772, -0.4451829493045807, -0.11264562606811523, -0.23517920076847076, -0.06383272260427475, 0.0607115775346756, -0.07532841712236404, -0.2579372525215149, 0.06117881461977959, -0.31672361493110657, -0.021872924640774727, -0.0706743374466896], [0.07996908575296402, 0.04626275226473808, 0.02481096424162388, -0.04288803040981293, 0.04978155344724655, -0.1629432588815689, 0.0822039321064949, 0.17862951755523682, -0.09502481669187546, 0.4352978467941284, 0.08532485365867615, 0.07033726572990417, 0.0459168404340744, 0.08127461373806, 0.05702952295541763, 0.0921453982591629, -0.052166979759931564, 0.2103320211172104, 0.002976727904751897, 0.03580274060368538], [0.1289876401424408, -0.03575800359249115, 0.021792303770780563, -0.014487012289464474, 0.016564980149269104, 0.04814746230840683, -0.12159586697816849, 0.04213055595755577, -0.0889158770442009, -0.04056653007864952, 0.034457724541425705, 0.0005513964570127428, 0.037567924708127975, 0.047996435314416885, -0.06937775015830994, -0.14253641664981842, -0.021663444116711617, -0.09004682302474976, 0.11391518265008926, -0.07379676401615143], [0.43603023886680603, -0.0029760815668851137, -0.10980848222970963, -0.16192962229251862, -0.011631254106760025, 0.056147251278162, -0.006954428274184465, 0.12824289500713348, 0.08456043154001236, 0.22289247810840607, -0.030710216611623764, 0.07302848994731903, -0.023945657536387444, 0.011976624839007854, 0.3609016239643097, -0.02172541432082653, 0.003756101941689849, -0.10637445002794266, 0.050293948501348495, -0.2468091994524002], [0.1385963410139084, -0.06833112984895706, -0.04986532777547836, 0.03133188188076019, 0.15011072158813477, 0.05505494400858879, 0.008324693888425827, 0.18377022445201874, -0.050877895206213, 0.17120873928070068, -0.28318557143211365, 0.04503720626235008, 0.047725822776556015, 0.05922408401966095, 0.05306164175271988, -0.14810509979724884, 0.10992700606584549, -0.009958084672689438, 0.24131332337856293, -0.1501450538635254], [0.17556996643543243, 0.12208673357963562, 0.08723075687885284, 0.010026003234088421, 0.25097987055778503, -0.07268402725458145, -0.06488477438688278, -0.19588764011859894, -0.026841677725315094, -0.030350737273693085, 0.02051105909049511, -0.05738178268074989, 0.009565136395394802, -0.03752167895436287, 0.01649254932999611, -0.04465774819254875, 0.16749273240566254, -0.1124056875705719, 0.08275403827428818, -0.44765087962150574]], "rec.bias_ih_l0": [0.14517435431480408, 0.6256894469261169, -0.5717323422431946, -0.3645298182964325, -0.08454426378011703, 0.14826171100139618, 0.16085481643676758, 0.5091933012008667, -0.15307006239891052, 0.7597822546958923, -0.8900325298309326, -0.17418847978115082, -0.10293237864971161, 0.011349597945809364, -0.01765066385269165, -0.3141070008277893, -0.07679037749767303, 0.515574038028717, -0.2621793746948242, -0.012434535659849644, 0.40655070543289185, 0.4257395565509796, 1.2611676454544067, 0.7791802287101746, 0.5075463652610779, 0.07835584878921509, 0.2709204852581024, 0.3717329204082489, 0.37483495473861694, 0.21627648174762726, 1.2124181985855103, 0.2910071015357971, 0.5797698497772217, 0.4539254307746887, 0.09796024858951569, 0.6119762063026428, 0.4341959059238434, 0.2678508758544922, 0.4402651786804199, 0.5339578986167908, 0.2266973853111267, 0.01239941455423832, -0.0822000727057457, 0.007153352256864309, 0.053930606693029404, 0.043209657073020935, -0.06513307243585587, 0.04835222661495209, -0.2300364077091217, -0.11231109499931335, 0.12749990820884705, 0.015378490090370178, 0.08578379452228546, 0.10476798564195633, 0.07995379716157913, -0.018380586057901382, -0.08287065476179123, -0.13277867436408997, -0.09044957906007767, -0.08579383790493011, 0.3516314923763275, -0.19832743704319, 0.29906585812568665, 0.34712737798690796, 0.10509075969457626, 0.3543000817298889, 0.328898161649704, 0.6580108404159546, 0.04005907475948334, 0.3715592324733734, 0.32867833971977234, 0.056479569524526596, 0.15456300973892212, 0.41150355339050293, 0.06998909264802933, 0.10156511515378952, 0.3027420938014984, 0.836060643196106, 0.07527327537536621, 0.18008150160312653], "rec.bias_hh_l0": [0.018375858664512634, 0.6242098212242126, -0.6204426288604736, -0.1853937953710556, -0.022900238633155823, 0.10749237984418869, 0.13822628557682037, 0.5310292840003967, -0.056469663977622986, 0.8753479719161987, -1.1072821617126465, -0.11722907423973083, -0.16967375576496124, -0.11796876043081284, -0.0055249473080039024, -0.2868879735469818, -0.07874584943056107, 0.46796464920043945, -0.31792253255844116, -0.13146205246448517, 0.5312536358833313, 0.4049069285392761, 1.1813859939575195, 0.7111272215843201, 0.5536248087882996, 0.1589651256799698, 0.18216070532798767, 0.35282230377197266, 0.4690030515193939, 0.32424694299697876, 1.3772910833358765, 0.4310070872306824, 0.7315399646759033, 0.3486241400241852, 0.1225629672408104, 0.6205018758773804, 0.5245019197463989, 0.2472427934408188, 0.3821500539779663, 0.501843273639679, 0.1527239978313446, 0.14041176438331604, 0.16786015033721924, 0.0007133455364964902, -0.12824152410030365, 0.0063535552471876144, -0.018522439524531364, 0.03538041561841965, 0.17421527206897736, 0.14589400589466095, -0.10892212390899658, 0.015044253319501877, -0.08327899128198624, 0.10795953124761581, 0.0783134326338768, -0.000978068565018475, 0.024949895218014717, -0.093327097594738, 0.1053456962108612, -0.03664274886250496, 0.38756445050239563, -0.20239730179309845, 0.21224819123744965, 0.29082581400871277, 0.10203298181295395, 0.281552255153656, 0.26964759826660156, 0.6644425392150879, 0.055581990629434586, 0.33446845412254333, 0.4395447373390198, 0.00493905832991004, 0.05383862927556038, 0.5078919529914856, 0.1035236343741417, 0.24302226305007935, 0.29049086570739746, 0.8210676312446594, 0.04698069393634796, 0.31791824102401733], "lin.weight": [[0.05645647272467613, -0.2549063563346863, -1.4746023416519165, -0.631580114364624, -0.6705546379089355, 0.23585760593414307, -0.17128312587738037, -0.3324567973613739, -0.5485033392906189, 0.0011912216432392597, 0.3762320280075073, 0.41860735416412354, 0.14777110517024994, 0.612967312335968, -0.06913593411445618, 0.2421087920665741, -1.038062572479248, 0.15200375020503998, -0.06400201469659805, 1.1660274267196655]], "lin.bias": [0.20427300035953522]}}