{"model_data": {"model": "SimpleRNN", "input_size": 2, "skip": 1, "output_size": 1, "unit_type": "LSTM", "num_layers": 1, "hidden_size": 40, "bias_fl": true}, "state_dict": {"rec.weight_ih_l0": [[-0.023855121806263924, 0.3434712588787079], [-0.010555088520050049, -0.07144270092248917], [0.009175567887723446, -0.1118941605091095], [-0.037768781185150146, -0.05879873409867287], [-0.017457013949751854, -0.022312337532639503], [0.07132373750209808, 0.1901206523180008], [0.0017345994710922241, 0.04812295362353325], [0.04297102242708206, -0.21209731698036194], [-0.001361419796012342, 0.22533586621284485], [0.011011728085577488, -0.03054993972182274], [-0.003256161930039525, -0.21929022669792175], [8.711251211934723e-06, -7.285366154974326e-05], [0.10189696401357651, -0.2512822151184082], [0.016208337619900703, -0.0016816908027976751], [0.05193687975406647, -0.0037216953933238983], [0.018657246604561806, -0.013164443895220757], [-1.8461907984601567e-06, -1.3418251000985038e-05], [-1.8439912992107566e-06, -6.56993393022276e-07], [-3.6243218346498907e-06, -3.3907379020092776e-06], [-0.009817634709179401, -0.09253980219364166], [0.023899581283330917, -0.1812247782945633], [4.400155830808217e-06, -5.143384260009043e-05], [6.64821397933224e-09, -3.2799216569401324e-06], [0.015716176480054855, 0.02011616714298725], [7.798138540238142e-06, -4.757652277476154e-05], [0.019033467397093773, -0.002805408090353012], [7.749971700832248e-06, -0.00021674271556548774], [6.235018190636765e-06, -4.729119609692134e-05], [0.022120825946331024, -0.008041485212743282], [0.006994287017732859, 0.04285544157028198], [-1.1522387467266526e-05, -9.999622125178576e-05], [0.1761975735425949, 0.08812883496284485], [0.12916386127471924, -0.3583184480667114], [0.018179796636104584, 0.9311625361442566], [0.010952777229249477, 0.005668085999786854], [0.06149778142571449, 0.0020280664321035147], [-0.0051906225271523, 0.2977742850780487], [0.07206062972545624, 0.34594395756721497], [2.403184453214635e-06, 5.0877338253485505e-06], [1.9403765691095032e-05, -0.0003961115435231477], [-0.03498227521777153, 0.18125228583812714], [0.028707029297947884, -0.005303237587213516], [0.03574397787451744, 0.0822758600115776], [0.042251575738191605, 0.013554264791309834], [-0.018917862325906754, 0.13818489015102386], [0.11565808206796646, 0.6391183733940125], [0.03621997684240341, -0.00492045097053051], [-0.08425384759902954, 0.2910069525241852], [-0.027166854590177536, 0.044525615870952606], [0.006757636088877916, 0.1117490828037262], [-0.020105911418795586, -0.12652266025543213], [8.782048098510131e-06, -5.391720696934499e-05], [-0.035442959517240524, 0.1219385489821434], [0.0017867384012788534, 0.017255162820219994], [0.12556049227714539, 0.3681059777736664], [-0.0022146678529679775, 0.0810587927699089], [-2.8402300813468173e-06, 7.313399237318663e-06], [-1.960120926014497e-06, -5.684098596248077e-07], [-4.051600626553409e-06, 3.0775158847973216e-06], [0.09506058692932129, 0.12415070831775665], [-0.01662435382604599, 0.2392830103635788], [4.382606221042806e-06, -3.101838592556305e-05], [2.093001327807542e-08, -2.494285354259773e-06], [0.01655210554599762, -0.019027771428227425], [7.902899596956559e-06, -3.842583464575e-05], [0.010032633319497108, -0.002687253523617983], [7.2721340984571725e-06, -0.00015856808749958873], [5.868877906323178e-06, -1.4498287782771513e-05], [0.02447899803519249, -0.030292270705103874], [0.006770663429051638, -0.013586748391389847], [-1.2237670489412267e-05, -6.435048271669075e-05], [0.2664414346218109, 0.19972722232341766], [-0.1626637578010559, 0.3354095220565796], [0.023692520335316658, 0.05006980150938034], [0.015646472573280334, 0.11385931819677353], [0.02653016708791256, 0.03318268433213234], [-0.04609355702996254, -0.0012973479460924864], [-0.09074324369430542, 0.32651248574256897], [2.039713990598102e-06, 2.296137245139107e-05], [1.9679875549627468e-05, -0.00030426617013290524], [0.6420856714248657, 0.11825194209814072], [0.06321931630373001, 0.012308910489082336], [-0.07467109709978104, -0.008544590324163437], [-0.03186526522040367, 0.006177470088005066], [-0.2315681129693985, 0.010569745674729347], [-0.3512507379055023, -0.03286831080913544], [-0.03717077150940895, 0.022185657173395157], [0.032748833298683167, 0.11167451739311218], [-0.0598573312163353, 0.015780070796608925], [-0.2209589183330536, -0.01709921471774578], [0.06590082496404648, -0.5652678608894348], [-0.00014417784404940903, -0.00043019212898798287], [0.6160973310470581, 0.0056141940876841545], [-0.0653156116604805, 0.012637724168598652], [0.033292531967163086, 0.01237664744257927], [-0.1281011402606964, 0.014395110309123993], [3.8449459680123255e-05, -0.0007275125826708972], [0.0008975562523119152, -0.00036465434823185205], [-0.0004219493130221963, -0.0003832350193988532], [0.2685145437717438, -0.013515823520720005], [0.08887383341789246, 0.007797877304255962], [0.00046942426706664264, 0.0007138257496990263], [-0.0007222910062409937, -4.77266030429746e-06], [0.15498392283916473, -0.01693565398454666], [0.000497720087878406, 0.0004397297161631286], [0.011703460477292538, 0.007942472584545612], [-0.00013082360965199769, 0.00040239436202682555], [-5.5808472097851336e-05, 0.0005306333769112825], [-0.2936139404773712, 0.014740083366632462], [-0.07912041991949081, -0.02554863505065441], [0.0008480988326482475, 0.0001389568205922842], [0.0027941621374338865, -0.03696312755346298], [0.07028365880250931, 0.05881061777472496], [0.14966094493865967, 0.1274971216917038], [0.03790794685482979, -0.04808494821190834], [-0.3114831745624542, -0.025391729548573494], [-0.29489588737487793, 0.0604310967028141], [1.4775422811508179, -0.0414167195558548], [-1.0327191375836264e-05, -0.0006011041696183383], [-0.00021405995357781649, 0.00045023474376648664], [-0.027499502524733543, 0.3758660852909088], [-0.0027230405248701572, -0.007877916097640991], [0.01908080279827118, -0.014398409053683281], [-0.04967351630330086, 0.1553834229707718], [-0.04318613186478615, 0.03963053226470947], [0.036494120955467224, 0.28852397203445435], [0.019608531147241592, 0.06661459058523178], [-0.029321961104869843, 0.1614682674407959], [-0.0044571999460458755, 0.2276846319437027], [0.02260272204875946, -0.017623618245124817], [0.008967820554971695, -0.24916042387485504], [8.738717042433564e-06, -7.298865239135921e-05], [0.10561829060316086, -0.21402034163475037], [0.016815759241580963, 0.0005283090868033469], [0.09307131171226501, 0.4994910657405853], [-0.005803278647363186, 0.02321053296327591], [-9.24692699300067e-07, -1.318289196206024e-05], [-1.8426408132654615e-06, -6.44613294298324e-07], [-3.7116956264071632e-06, -3.29305294144433e-06], [0.004045319743454456, -0.01694267988204956], [-0.08938475698232651, -0.5255950689315796], [4.1565849642211106e-06, -5.136285471962765e-05], [1.030617653441368e-07, -3.2790994737297297e-06], [0.017300346866250038, 0.021107910200953484], [7.718206688878126e-06, -4.757628994411789e-05], [0.016045501455664635, 0.0006807884783484042], [6.2999351939652115e-06, -0.0002161683514714241], [6.822846444265451e-06, -4.721442746813409e-05], [0.011872158385813236, 0.018395762890577316], [0.006979999132454395, 0.04690021649003029], [-1.2644905837078113e-05, -9.90413100225851e-05], [0.13798747956752777, 0.2155316323041916], [-0.06467004865407944, 0.17198365926742554], [0.015499794855713844, 0.4960801899433136], [-0.0191335491836071, -0.24536862969398499], [0.07919397205114365, 0.049954164773225784], [0.0006145334918983281, -0.10311464220285416], [0.05825350061058998, 0.24179184436798096], [2.8174549697723705e-06, 5.192886874283431e-06], [1.7180376744363457e-05, -0.00039544622995890677]], "rec.weight_hh_l0": [[0.08622366935014725, -0.00423500407487154, 0.01022874191403389, 0.05959944427013397, -0.027233431115746498, -0.2840501070022583, 0.0009804310975596309, 0.2669506371021271, 0.04505841061472893, 0.002945762360468507, -0.24256348609924316, 0.00017740884504746646, -0.028875961899757385, -0.008519594557583332, 0.2632923126220703, 0.013528456911444664, 9.311211761087179e-05, 0.00013757357373833656, -5.052693722973345e-06, -0.08927276730537415, -0.2599582076072693, -0.00017710843530949205, 2.44372604356613e-05, 0.018463458865880966, -0.00016288964252453297, -0.004049535375088453, -0.0002005330316023901, -0.00012546259677037597, -0.008317400701344013, 0.019256602972745895, 0.00024358037626370788, -0.04414895176887512, -0.107137031853199, -0.08718951791524887, 0.2566969692707062, -0.02523025870323181, 0.033639464527368546, -0.09494788199663162, 0.0001112529425881803, -0.00035466396366246045], [0.02745567448437214, 0.019162457436323166, 0.01595989242196083, -0.0290767140686512, 0.015263304114341736, 0.04808454215526581, -0.02331550605595112, -0.033387910574674606, 0.019689712673425674, -0.008480745367705822, -0.01098801288753748, 0.000469258549856022, 0.013356413692235947, 0.006742260884493589, -0.06412170082330704, 0.011741182766854763, 0.0002712836139835417, 1.0226614904240705e-05, 0.0002396833006059751, -0.009182184934616089, 0.14172299206256866, -0.0004205783479847014, 1.383215294481488e-05, -0.00312794023193419, -0.000520583416800946, -0.0014058839296922088, -0.00010688630572985858, -0.0003061121969949454, -0.025768188759684563, -0.020809391513466835, 0.00012273498577997088, 0.03310875967144966, -0.036862749606370926, -0.007020735647529364, -0.08438996225595474, 0.0004918061895295978, 0.004362680949270725, 0.00041245046304538846, 0.00030883861472830176, -0.0005581895238719881], [0.024345701560378075, 0.020474717020988464, -0.01133850309997797, -0.021321170032024384, 0.011821215972304344, 0.08168964833021164, -0.019563477486371994, -0.016678860411047935, 0.025256717577576637, -0.0074281953275203705, 0.005138119217008352, 0.0001893889857456088, 0.03401689976453781, 0.01451227068901062, -0.045501794666051865, 0.01275312528014183, 0.0003078210284002125, -0.00033685998641885817, 0.00029756923322565854, -0.048644572496414185, 0.1724708378314972, -0.0002866918221116066, 0.0003678441571537405, -0.007083290256559849, -0.00029188161715865135, 0.0037372782826423645, -0.0005239923484623432, -0.0003061340539716184, 0.01577826403081417, 0.011121432296931744, -0.0003320604155305773, 0.0495973564684391, -0.045530013740062714, 0.009078883565962315, -0.06988988071680069, -0.013064696453511715, -0.02617870457470417, -0.01522107608616352, 0.0003462676249910146, -9.300456440541893e-06], [-0.012123912572860718, 0.0006287546129897237, 0.024385808035731316, 0.06264238059520721, -0.08816298842430115, 0.026977578178048134, 0.0014571474166586995, -0.12063074856996536, -0.11847960948944092, -0.021441366523504257, 0.02375316433608532, -0.0003862049197778106, 0.13699328899383545, -0.030237870290875435, -0.18280968070030212, 0.021815424785017967, -0.0001422811474185437, 0.00024232035502791405, -0.00021254309103824198, -0.21251437067985535, 0.45417287945747375, 0.0001523290848126635, 0.0005537443212233484, -0.024138517677783966, 0.0003411251527722925, -0.004746387246996164, 0.0007257824763655663, 0.00013768687495030463, -0.0178364384919405, -0.03794984519481659, -0.00032952570472843945, -0.20023739337921143, 0.08741027116775513, -0.026395058259367943, -0.14412595331668854, 0.030241092666983604, -0.04332325607538223, -0.03319738805294037, -0.00022419533343054354, 0.0007423604256473482], [-0.023113036528229713, 0.0628143772482872, -0.03409845754504204, -0.0650285929441452, 0.06511425971984863, -0.0720481276512146, 0.007036248687654734, -0.07208000123500824, 0.012018533423542976, 0.04744566231966019, -0.03742093965411186, 5.7939720136346295e-05, 0.03538942709565163, -0.0061303433030843735, -0.18692103028297424, 0.022639822214841843, 0.00012999844329897314, 6.143299106042832e-05, 1.8954771803691983e-05, -0.006865959148854017, 0.25267907977104187, -0.00024221796775236726, -0.000190594102605246, -0.035057563334703445, 1.025553501676768e-05, 0.045243602246046066, -0.00039938284317031503, -0.0005981281865388155, -0.008777359500527382, -0.02792537957429886, 0.0005583902820944786, -0.09560167789459229, -0.04157710820436478, 0.016501283273100853, -0.08365541696548462, 0.0472104512155056, -0.008819054812192917, 0.033684518188238144, 0.00026086060097441077, -0.00040290888864547014], [0.0738232359290123, 0.07264870405197144, 0.03971722349524498, 0.03976908326148987, -0.1304830014705658, 0.008414140902459621, -0.03282969444990158, -0.22952480614185333, 0.11120248585939407, -7.925062163849361e-06, -0.22156769037246704, 0.0002357627818128094, 0.29430851340293884, 0.02224520593881607, 0.00679241307079792, -0.03202922269701958, 0.00026550449547357857, 7.289403583854437e-05, -5.6264852901222184e-05, 0.006515760440379381, 0.6255174279212952, -0.0001613698259461671, 0.00039792642928659916, 0.03401920571923256, -0.00016675045480951667, -0.0024024166632443666, -0.00015992563567124307, -0.00039667831151746213, -0.008813528344035149, 0.035398680716753006, 0.0004644502478186041, 0.10634917765855789, 0.0775015726685524, 0.014529568143188953, -0.26644450426101685, -0.04713816940784454, -0.07228253781795502, -0.1784730851650238, 0.0002178718423238024, -0.0002830728190019727], [0.029035266488790512, 0.027343157678842545, 0.0033668249379843473, -0.03179397061467171, 0.035890720784664154, 0.06772740185260773, 0.024981919676065445, 0.02645305171608925, 0.026273213326931, -0.015386688522994518, -0.025095943361520767, 6.540458707604557e-05, 0.02157815359532833, -0.011986920610070229, 0.007527551148086786, -0.01693049445748329, 7.771471427986398e-05, -0.00037378029082901776, 0.00021663267398253083, -0.022468985989689827, 0.10453280806541443, -4.869916301686317e-05, 4.301809167372994e-05, 0.0023121938575059175, -8.870264719007537e-05, 0.0031528263352811337, 0.00021717965137213469, 2.0189156202832237e-05, -0.0034648231230676174, 0.026426132768392563, -0.0004949665162712336, 0.027565836906433105, 0.02387852780520916, -0.009784538298845291, -0.04435163363814354, 0.008785021491348743, -0.033746156841516495, -0.009357525035738945, 4.4734897528542206e-05, 0.00017644224863033742], [-0.5254085063934326, 0.0191123615950346, 0.01967446878552437, -0.14219319820404053, -0.08128494769334793, 0.2115534543991089, -0.008845793083310127, -0.1617709845304489, 0.03943346440792084, 0.016786539927124977, 0.00597202405333519, -1.680886998656206e-05, 0.11553864926099777, -0.02659669704735279, 0.009057554416358471, -0.03842088580131531, 0.0003531619440764189, 0.000117787356430199, 7.93660874478519e-05, 0.14299774169921875, 0.8920426368713379, -0.00021526454656850547, 0.0004419929173309356, -0.03301393240690231, -4.913106022286229e-05, -0.007749426644295454, -0.0001799764868337661, -0.0003565068473108113, -0.1077626571059227, 0.024681489914655685, 0.00013107880658935755, 0.009854026138782501, 0.007228197064250708, 0.3271764814853668, -0.2794303894042969, -0.012110823765397072, 0.20457857847213745, 0.12142927944660187, 0.00026417957269586623, -0.00014849487342871726], [0.019524654373526573, 0.00959988497197628, 0.003265497274696827, 0.0290905199944973, 0.008568127639591694, -0.17811931669712067, 0.004653255920857191, 0.19771192967891693, 0.027948006987571716, -0.006823912262916565, -0.18607307970523834, -0.00021121696045156568, -0.04952245578169823, 0.0012800097465515137, 0.2158481478691101, 0.008485069498419762, -3.759461105801165e-05, -0.00011549284681677818, 4.691994490713114e-06, -0.059315893799066544, -0.17209863662719727, 0.00013768377539236099, -1.2828213584725745e-05, 0.009893612004816532, 0.000232008722377941, -0.0034325907472521067, 0.00021361593098845333, 4.769820225192234e-05, -0.013557027094066143, 0.01882993057370186, -0.0003154273726977408, -0.00034350098576396704, -0.03743525221943855, 0.0364389531314373, 0.1958197057247162, -0.0026572812348604202, 0.010150915943086147, -0.03401172533631325, -6.704076804453507e-05, 0.00042017505620606244], [0.027548009529709816, 0.023453544825315475, 0.01202307641506195, 0.021768268197774887, -0.0014660554006695747, -0.016782451421022415, 0.02786148153245449, 0.08808659017086029, 0.05814174562692642, -0.024093642830848694, 0.021319705992937088, -1.1273816653556423e-06, -0.06186702847480774, 0.0044551813043653965, 0.08205526322126389, 0.04661107063293457, -7.322135934373364e-05, 5.152356607140973e-05, -2.7877173124579713e-05, -0.024605603888630867, -0.074961356818676, 6.247821875149384e-05, -0.00011247788643231615, 0.008144533261656761, 6.205573299666867e-05, -0.005458936095237732, 0.00013689494517166167, 0.00011165022442582995, 0.019288118928670883, -0.02500075474381447, -1.973074904526584e-05, 0.0683518797159195, -0.0338783897459507, 0.00532842380926013, 0.1447746455669403, -0.005421946756541729, -0.013369807042181492, 0.02695745788514614, -8.922912093112245e-05, 2.38912325585261e-05], [0.09494253993034363, 0.021683888509869576, -0.023990947753190994, -0.026599720120429993, 0.04151972755789757, -0.07323151081800461, -0.021979806944727898, -0.05887090042233467, 0.04672325402498245, 0.0053229136392474174, 0.2380230724811554, -0.00023219244030769914, -0.11365440487861633, 0.006581967230886221, -0.052924975752830505, 0.008343938738107681, -2.1922354790149257e-05, 0.00014247333456296474, -0.00029729274683631957, 0.05626393109560013, -0.07662850618362427, 0.00016973316087387502, 0.0005174982361495495, 0.016694089397788048, 0.00023044396948534995, -0.01448229793459177, -0.0001346924836980179, -0.00017692151595838368, 0.011763572692871094, 0.0017140491399914026, 0.0003841751895379275, -0.047565679997205734, 0.005457581020891666, 0.1289704591035843, 0.03939392790198326, -0.024687744677066803, -0.06786873191595078, -0.02103962004184723, -0.0001463964581489563, 5.2223254897398874e-05], [9.868998773754356e-08, 6.342305368889356e-06, 1.3043028047832195e-05, -1.1223764886381105e-05, 1.308571700064931e-05, 7.732240919722244e-05, 3.69670442523784e-06, -7.937741611385718e-05, -2.6913963665720075e-05, -4.4682465158985e-06, 5.8227102272212505e-05, -5.486744925065068e-08, 3.226313856430352e-05, -1.8932795455839369e-06, -8.088797039818019e-05, -1.2637656254810281e-05, 1.6179408035554843e-08, -2.5351106103244092e-08, 1.4853961616267952e-08, 2.7856956876348704e-05, 7.832128903828561e-05, 2.8388582151706032e-08, -1.9224140501705733e-08, -2.987333346027299e-06, 5.944978198613171e-08, -6.95952962814772e-07, 6.363756455129987e-08, -8.90118911911486e-09, -4.363242169347359e-06, -6.8004519562236965e-06, -9.054326000068613e-08, 1.6234309441642836e-05, 8.324200280185323e-06, -8.057061495492235e-05, -8.355791214853525e-05, -3.792391112256155e-07, -2.5209434170392342e-05, 1.989684096770361e-05, 1.2786634862038682e-08, 1.2504696655923908e-07], [-0.04483065754175186, 0.04640340805053711, -0.0032278047874569893, 0.040474120527505875, -0.025215521454811096, -0.013188036158680916, -0.040009234100580215, 0.033914465457201004, -0.1390654593706131, 0.028994262218475342, -0.060053903609514236, 0.0006721123936586082, -0.04611682519316673, 0.004922137130051851, 0.07375318557024002, -0.02807535044848919, 0.0003107855445705354, -0.00027426291489973664, 0.0005488317110575736, -0.01867889240384102, 0.24769774079322815, -0.000500312598887831, -1.2543021512101404e-05, 0.019179049879312515, -0.0003479143197182566, -0.022760504856705666, 0.00025377600104548037, 0.00013468274846673012, -0.059647150337696075, 0.032050780951976776, -0.0005961074493825436, 0.06708431243896484, 0.03022744506597519, 0.1647484451532364, -0.04069429263472557, -0.06107216328382492, 0.03601337596774101, 0.1546090841293335, 0.00012970635725650936, -0.0004127833526581526], [0.007514140103012323, -0.0005159150459803641, -0.005552010610699654, 0.014704030938446522, -0.0072820489294826984, -0.08298385888338089, 0.020744940266013145, 0.12679557502269745, 0.060010671615600586, -0.014771976508200169, 0.0511118583381176, 3.794046278926544e-05, -0.0600062757730484, -0.0017233154503628612, 0.12953601777553558, 0.004176301881670952, 1.0492877663637046e-05, 0.0001693093217909336, -9.900362056214362e-05, -0.03795146942138672, -0.16770532727241516, -1.0323019523639232e-06, 4.3560503399930894e-05, 0.012723871506750584, -7.287868356797844e-05, -0.0020805292297154665, 7.292647933354601e-05, 3.575252412701957e-05, 0.013397082686424255, -0.01888425089418888, 0.00018044174066744745, 0.08023599535226822, -0.01615583896636963, -0.010152923874557018, 0.21193398535251617, -0.002927605528384447, -0.01012394204735756, 0.048845645040273666, -1.4509701941278763e-05, -8.626904309494421e-05], [0.08821659535169601, -0.058507222682237625, -0.06460174918174744, 0.10234182327985764, -0.003640896175056696, 0.41209402680397034, -0.03230960667133331, -0.6009446382522583, 0.2321227639913559, 0.008235117420554161, -0.10336780548095703, -0.0004818942106794566, 0.126922145485878, 0.017287105321884155, -0.10352347046136856, 0.014275263994932175, -0.0002717809402383864, 0.0004122279060538858, -0.0005286544328555465, 0.06402340531349182, 0.796334445476532, 0.00034499922185204923, -0.00017274991841986775, 0.003932160325348377, 7.864331564633176e-05, 0.009643202647566795, -0.00021762425603810698, 0.00014785341045353562, -0.01070780772715807, -0.03043825551867485, 0.0005140386056154966, 0.3267523944377899, 0.15050123631954193, -0.012451929971575737, -0.2049192637205124, -0.01531735435128212, 0.0035408958792686462, 0.02094382978975773, -0.0001881439529825002, -0.0005581033183261752], [0.05449368804693222, -0.048142410814762115, -0.016888923943042755, -0.033027008175849915, 0.04817851632833481, 0.03392590954899788, -0.026460714638233185, -0.04498105123639107, 0.025189299136400223, -0.003978309221565723, 1.7865682821138762e-05, 0.00011988554615527391, 0.075531966984272, -0.006361435167491436, -0.1346845179796219, 0.06454727053642273, 0.0002700797631405294, 8.433243056060746e-05, 0.00018481416918803006, -0.020506316795945168, 0.12898752093315125, -0.000212002094485797, 0.00019087549299001694, -0.005073966924101114, -0.0001859038748079911, 0.020146360620856285, -0.0007635880028828979, -0.00037175838951952755, -0.002411452354863286, 0.0034975814633071423, 0.00014859602379146963, 0.030280059203505516, -0.021070417016744614, 0.029706433415412903, -0.052253641188144684, 0.014370336197316647, -0.026247726753354073, 0.005619650240987539, 0.00032043654937297106, -0.000340123224304989], [6.14990040048724e-06, -6.9965244620107114e-06, -2.298695562785724e-06, 2.6600891942507587e-06, -1.799126221158076e-05, 2.1416115487227216e-05, -7.562065093225101e-06, -2.259658504044637e-05, 2.8181628294987604e-05, 1.5000240409790422e-06, -1.3305925676831976e-05, -3.220126032488224e-08, -2.786525510600768e-05, -5.765580226579914e-06, -2.551016768848058e-05, 1.09628554127994e-05, -1.1096140184463366e-07, 9.880345430701709e-09, -4.892592997407519e-08, -6.763896635675337e-06, 4.672081195167266e-05, 6.292611942626536e-08, -2.431725754092895e-08, 5.9074018281535245e-06, 4.504763495560837e-08, 1.5320792954298668e-06, 4.9411891467343594e-08, 8.721064403971468e-08, -3.3958456242544344e-06, 9.722584763949271e-06, 3.648653645882405e-08, -9.22025901672896e-06, -1.1539862498466391e-05, 0.00027086594491265714, -3.616624962887727e-05, 7.73212559579406e-06, 3.5058004868915305e-05, -1.4538475625158753e-05, -7.939392787648103e-08, 1.4504170309237452e-08], [-1.1932288543903269e-06, -1.7931240563484607e-06, -2.6320587949157925e-06, -1.052180437000061e-06, 5.049715809946065e-07, 1.0300969961463124e-06, -1.2923901522299275e-06, -1.113733674174e-06, -4.0833822367858374e-07, -1.3558934597313055e-07, 1.7777490484149894e-06, -2.7277029523986585e-09, -2.661588723640307e-06, 4.0739942619438807e-07, -7.244464654831972e-07, 7.172215532591508e-07, 2.53446907905186e-09, -3.675141080350386e-09, 2.5315758378496866e-09, 5.887111456104321e-07, 1.7730408217175864e-06, 1.4343665144522788e-09, 1.7629296911181314e-09, -7.777766199978942e-07, 3.653738422926267e-09, -1.3603926163341384e-07, 4.984649581984968e-09, -3.647986079879928e-10, 1.873908331617713e-06, -1.0015137519303607e-07, -1.0233625502564792e-08, -2.5021404326253105e-06, -1.046264173965028e-06, 1.7561902154739073e-07, -1.400187557010213e-06, -2.7261759782959416e-07, -3.4711152352429053e-07, -1.694281309028156e-06, 2.8030258669708985e-10, 1.0691017848785123e-08], [6.204921646713046e-06, -2.0791405859199585e-06, 9.386918122800125e-07, 1.7375829202137538e-06, -2.609469333947345e-07, 2.3697216420259792e-06, -2.85888131656975e-06, -2.2939095742913196e-06, 5.607406819763128e-06, -5.03314119271181e-08, -3.6895746688969666e-06, -1.72200109727072e-09, -7.733983693469781e-06, -9.17376155484817e-07, -2.718272071433603e-06, 2.794927240756806e-06, -1.0076517398260876e-08, -1.1834897506446396e-09, -3.6922525037397236e-09, -2.15031104744412e-06, 5.125235929881455e-06, 4.309698375948301e-09, -1.6481247477884153e-09, 5.556862561206799e-07, 3.806814419249349e-09, -2.711339277539082e-07, 4.244079754300856e-09, 7.456984363329866e-09, 2.119690179824829e-06, 2.0421925910341088e-06, -4.920948717956897e-11, -3.4219717690575635e-06, -3.648240181064466e-06, 2.922562816820573e-05, -3.7994288959453115e-06, 3.4327163120906334e-06, 4.661512321035843e-06, -4.701405487139709e-06, -6.072904845666471e-09, 2.1583079767850677e-09], [0.006138706114143133, -0.010958109982311726, -0.019024327397346497, -0.3494890332221985, -0.0021188370883464813, 0.048041149973869324, 0.015480058267712593, -0.21233241260051727, -0.09735258668661118, 0.007648851722478867, 0.041633717715740204, -0.00010442414350109175, 0.034172818064689636, 0.017073864117264748, -0.19600246846675873, -0.054514478892087936, -0.0006049111834727228, 0.0006164473597891629, -0.0004621937405318022, -0.09769490361213684, 0.5137286186218262, 0.0002804684336297214, -0.00043334710062481463, -0.00026139122201129794, 0.0004264380841050297, -0.0015697451308369637, 0.0003578618634492159, -0.0001239313423866406, -0.045564424246549606, 0.006038115359842777, 0.0007350464584305882, -0.0164747703820467, -0.016232896596193314, -0.0016132504679262638, -0.1751326620578766, -0.01180384960025549, -0.02379903756082058, -0.009037336334586143, -0.00015742052346467972, 0.0005331740831024945], [-0.05428760126233101, -0.00028673955239355564, -0.019941002130508423, -0.025966981425881386, 0.05937780812382698, 0.20273101329803467, -0.00498349079862237, -0.11259692162275314, -0.04904765635728836, -0.023912101984024048, 0.058129288256168365, 0.00033520552096888423, -0.051852546632289886, 0.0030928696505725384, -0.24312062561511993, 0.012016435153782368, 0.0001575643109390512, -0.0002862146939150989, 0.0002880014944821596, 0.06567645072937012, -0.20275594294071198, -0.00036792014725506306, 0.00029579520924016833, 0.012495849281549454, 0.0001759521837811917, -0.010740255936980247, 7.462635403499007e-05, -0.0002979348646476865, -0.01205401960760355, -0.006693258415907621, -0.0001632899366086349, 0.028737949207425117, -0.14905044436454773, -0.11122580617666245, 0.017379285767674446, -0.004794850014150143, -0.09289102256298065, 0.21215446293354034, 0.00019479896582197398, 0.00011467825970612466], [1.82361327460967e-05, -1.3774653098153067e-06, 5.56204940949101e-06, 1.4803041494815261e-06, 1.2014847015962005e-05, 5.849545414093882e-05, -3.2655714221618837e-06, -6.129962275736034e-05, -3.7924512525933096e-06, -2.5402000574104022e-06, 2.8585996915353462e-05, -1.2151401662663375e-08, 8.258808520622551e-06, -3.1591002880304586e-06, -6.246273551369086e-05, -5.044383215135895e-06, -2.4401424880693412e-08, -1.3033409018703423e-08, -7.847303917785098e-10, 5.401407634053612e-06, 6.557816959684715e-05, 1.988771813898893e-08, -2.7942798297431182e-08, 7.400216873065801e-06, 2.2835607182969397e-08, -1.4945666180210537e-06, 2.862642389800385e-08, 1.6425005355813482e-08, -3.974933406425407e-06, 2.1309233488864265e-07, -1.1701938085195707e-08, 4.132367394049652e-06, 3.6057208490092307e-06, 3.7330817576730624e-05, -6.745223799953237e-05, 4.46822105004685e-06, -1.0629953067109454e-05, 2.2694086965202587e-06, -9.456301519605859e-09, 2.545820798616205e-08], [1.2927796433359617e-06, -7.02527927387564e-07, 1.424904780833458e-06, -3.927058060071431e-06, -6.538731440741685e-07, 9.242618943972047e-06, 2.857674132883403e-07, -1.025284655042924e-05, -2.021171439992031e-06, 7.668081707379315e-07, 4.230063950672047e-06, 6.281194231405607e-09, 5.697549113392597e-06, 8.841912517709716e-07, -1.1109812476206571e-05, -6.647132408943435e-07, -3.971525774915108e-09, 2.4540980358978004e-09, -9.798811761996262e-10, 3.532597247613012e-06, 1.1216297025384847e-05, -2.1028716545856696e-09, -4.359264949016506e-09, 9.516217858163145e-08, -4.139210307840813e-09, 9.97602683128207e-07, -4.7827990456994485e-09, 2.4428790101893583e-09, -4.263639766577398e-06, -2.4111780021485174e-06, 1.013499950630603e-08, 1.2333309769019252e-06, 1.890336307042162e-06, -4.5355923248280305e-06, -1.2119992788939271e-05, -2.041579136857763e-06, -1.8451667074259603e-06, 8.95346232709926e-08, -2.4092672301634366e-09, -1.5613810688819285e-08], [0.03279981389641762, -0.01232793927192688, 0.028857475146651268, 0.010352304205298424, -0.021693246439099312, -0.08927997201681137, 0.033317189663648605, 0.11669911444187164, 0.0642038881778717, -0.011670859530568123, 0.04935535043478012, 1.7711688997223973e-05, -0.034283969551324844, 0.001717109582386911, 0.11840242147445679, 0.014453147538006306, -3.948219273297582e-06, 0.00020461583335418254, -0.00013833207776769996, -0.03673284873366356, -0.15251219272613525, 2.766918441921007e-05, 3.142586865578778e-05, 0.017968252301216125, -4.8610916564939544e-05, -0.005923464894294739, 9.353499626740813e-05, 5.433490514406003e-05, 0.006973299663513899, -0.023880209773778915, 0.0002273965801578015, 0.06984515488147736, -0.04691937193274498, -0.0003963433555327356, 0.20454438030719757, -0.008964651264250278, -0.019750112667679787, 0.015115335583686829, -4.016400271211751e-05, -7.356010610237718e-05], [1.0884123184951022e-05, 8.948260870056401e-07, 1.2418710184647352e-06, -1.2151122064096853e-05, 1.8326063582208008e-05, 5.748067269450985e-05, -2.5070482934097527e-06, -6.067208596505225e-05, -2.0053050320711918e-05, -2.065546595986234e-06, 3.583803481888026e-05, -4.991538560261688e-08, 2.38271095440723e-05, -2.5642380023782607e-06, -6.212715379660949e-05, -9.367826351081021e-06, 1.608674082831385e-08, -2.7452488282619925e-08, 1.45784904148627e-08, 1.919196620292496e-05, 6.113303970778361e-05, 2.6659989771360415e-08, -1.4076365850712591e-08, -2.326017238374334e-06, 5.4548262795606206e-08, -1.3976070931676077e-06, 5.367729016825251e-08, -1.1609286865166268e-08, -3.04736408907047e-06, -3.988891421613516e-06, -8.493162795275566e-08, 1.1805700523837004e-05, 7.424917384923901e-06, -3.9524256862932816e-05, -6.520457827718928e-05, 2.99714173479515e-07, -2.4579288947279565e-05, 1.2801185221178457e-05, 1.2787981340522947e-08, 1.1507939490229546e-07], [0.019169967621564865, -0.009001508355140686, 0.02044091373682022, 0.0201428160071373, -0.009711126796901226, -0.028210362419486046, 0.011208933778107166, 0.09180302172899246, 0.056014034897089005, 0.002082713646814227, 0.06574229151010513, 3.1475225114263594e-05, -0.06354360282421112, 0.0029777921736240387, 0.10290863364934921, 0.028456689789891243, -2.6518315280554816e-05, 7.242264837259427e-05, -4.387037915876135e-05, -0.021627813577651978, -0.1077198013663292, 2.8561364160850644e-05, -7.151719910325482e-05, 0.009462259709835052, 1.422217428626027e-05, -0.005911253392696381, 8.171937224688008e-05, 6.102630868554115e-05, 0.01460003200918436, 0.0026833508163690567, 1.850571425165981e-05, 0.08318977057933807, 0.0011766197858378291, -0.014984354376792908, 0.1684202402830124, -0.01615905575454235, -0.004956287331879139, 0.05136837065219879, -6.804829172324389e-05, -3.2954401831375435e-05], [-3.6593226013792446e-06, -7.326619652303634e-06, 2.3882265054453455e-07, -3.115996878477745e-05, 5.759932264481904e-06, 0.00022350098879542202, -3.073367042816244e-05, -0.0002347809640923515, -3.108141027041711e-05, -1.1830005860247184e-05, 0.0001343981857644394, -4.287099386601767e-08, 6.385527376551181e-05, 3.6319847822596785e-06, -0.00023918757506180555, -1.9171126041328534e-05, -4.343534598660881e-08, -2.892527284359403e-08, 9.407259859983697e-09, 4.993076072423719e-05, 0.00023764256911817938, 4.2797797306093344e-08, -6.235148930500145e-08, 7.915125934232492e-06, 7.00053632840536e-08, -9.807177775655873e-06, 8.633093528942481e-08, 3.445405738489171e-08, -5.808480523228354e-07, -7.076625479385257e-06, -7.657661882376487e-08, 2.5275452571804635e-05, 2.9388616894721054e-05, -9.19432713999413e-05, -0.00024734550970606506, -8.706354037713027e-07, -5.279050674289465e-05, 1.7451748135499656e-05, -2.0512183951382212e-08, 9.802835876371319e-08], [1.3841803365721717e-06, -3.729561512955115e-06, 2.100813617289532e-06, -4.4364451241563074e-06, -1.5637249816791154e-05, 6.276447675190866e-05, -2.9566147077275673e-06, -6.443863094318658e-05, 2.1713816749979742e-05, -3.484709623080562e-06, 1.400612836732762e-05, -1.014415396127788e-08, -8.315079867315944e-06, -4.595550763042411e-06, -6.696513446513563e-05, -2.8214537906023907e-06, -1.347030149645434e-07, 1.564693796751726e-08, -5.11376114786799e-08, 3.141765091640991e-06, 8.684410568093881e-05, 6.366894211851104e-08, -4.265146813509091e-08, 1.2690608855336905e-05, 2.693217204807752e-08, 9.18378404435316e-08, 5.318642237739368e-08, 1.1468160465710753e-07, -1.075681302609155e-05, 6.820102953497553e-06, 6.751065484422725e-08, -3.223296062060399e-06, -2.0217919427523157e-06, 0.0002035741345025599, -7.94155421317555e-05, 2.7787345970864408e-06, 1.9889394025085494e-05, -4.273896138329292e-06, -9.688186253242748e-08, -2.595254322557139e-08], [0.0021185644436627626, 0.006385417655110359, 0.017605777829885483, -0.020760957151651382, 0.004853977356106043, -0.06120184808969498, 0.012601897120475769, 0.10044726729393005, 0.08860009908676147, -0.025437723845243454, 0.10935874283313751, -0.00018394958169665188, -0.019585464149713516, -0.01472565159201622, 0.07630758732557297, 0.037606459110975266, 4.532004822976887e-05, 0.00010840490722330287, -8.012145553948358e-05, -0.02349763922393322, -0.11185518652200699, 0.0001496366021456197, -2.6197956685791723e-05, -0.005079049617052078, 0.00018945132615044713, 0.0052698031067848206, 0.00033137903665192425, 0.0001300230505876243, 0.0044563752599060535, -0.009651809930801392, -0.00020705719362013042, 0.08747540414333344, -0.0654815211892128, 0.004636995028704405, 0.18501220643520355, -0.002569505712017417, -0.007139256689697504, 0.031562600284814835, -5.722772766603157e-05, 0.00043216912308707833], [0.0494556799530983, -0.009331528097391129, -0.000934393669012934, 0.005139835644513369, 0.035842277109622955, -0.03811626136302948, -0.0002204707416240126, 0.08980561792850494, 0.05390249565243721, 0.0007511725416406989, -0.0449429452419281, -0.00013841762847732753, -0.026533093303442, -0.0074295238591730595, 0.08584831655025482, 0.02270198054611683, -0.00010495795868337154, 2.1573655430984218e-06, -2.459634379192721e-05, -0.02150598168373108, -0.08763448894023895, 0.00017054758791346103, -0.0001002755670924671, 0.013714800588786602, 0.0001927995472215116, -0.010724537074565887, 0.00047248206101357937, 0.00032184566953219473, 0.014823824167251587, -0.007981736212968826, -0.0003121614863630384, 0.05356216803193092, -0.010127483867108822, 0.02123694308102131, 0.13557817041873932, -0.004185189958661795, -0.03156846761703491, 0.008413543924689293, -0.00015772449842188507, 0.0004052132717333734], [-3.684100738610141e-05, -1.0816036592586897e-05, -1.9615741621237248e-05, -1.1863027793879155e-05, -4.3660793380695395e-06, 9.992922423407435e-05, -3.910676241503097e-05, -9.834414959186688e-05, -2.3082875486579724e-05, -8.689957212482113e-06, 5.952608262305148e-05, -7.911950916650312e-08, 3.0878305551595986e-05, 4.6930318831073237e-07, -0.00010150191519642249, 2.843890615622513e-05, 1.0495359958895278e-07, -4.779001372412495e-08, 5.708900374656878e-08, 2.6228926799376495e-05, 0.00010742409358499572, -1.2298653651043878e-08, 2.1605531586033067e-08, -1.7709244275465608e-05, 8.096994719153372e-08, -3.974254468630534e-06, 5.144212522623093e-08, -9.535019529494093e-08, 3.392003054614179e-05, 1.74063586655393e-06, -2.1376592940214323e-07, 1.5970257663866505e-05, 1.2333875929471105e-05, -0.00012335168139543384, -0.00010643453424563631, 2.545065217418596e-05, -1.0140783160750289e-05, 7.6040782914788e-06, 7.822808356650057e-08, 2.139841797088593e-07], [-0.18296605348587036, -0.05315553769469261, -0.03175986930727959, 0.021883182227611542, 0.01886601187288761, -0.04444698616862297, 0.0021745937410742044, -0.07068126648664474, -0.15234918892383575, -0.02871084399521351, -0.12250783294439316, 0.00039695019950158894, 0.2651267647743225, 0.020126065239310265, -0.0012976264115422964, 0.030115004628896713, 4.826127042178996e-05, -0.00011273870768491179, 0.00042920937994495034, 0.0065322453156113625, 0.03788145259022713, -0.00021137449948582798, -1.9020762920263223e-05, 0.020439213141798973, -0.00022697649546898901, 0.014886735007166862, -0.0002767457626760006, -1.0024979928857647e-05, -0.01141409482806921, -0.022688115015625954, 9.804163710214198e-05, 0.12183813750743866, -0.002938157180324197, -0.022391384467482567, -0.08929812163114548, 0.05267500877380371, -0.04695025086402893, 0.15200866758823395, 4.159954016813572e-07, -0.0005986727774143219], [0.10060210525989532, -0.09340440481901169, 0.08924965560436249, -0.04305027425289154, -0.054453056305646896, 0.5276444554328918, 0.016338268294930458, -0.23038524389266968, 0.2590618133544922, -0.06730040162801743, 0.09922201931476593, 0.00023944494023453444, 0.14023736119270325, 0.07965733855962753, 0.7343494296073914, 0.026447951793670654, 0.00024789595045149326, -6.146649684524164e-05, -8.744823571760207e-05, 0.014273561537265778, 1.152901291847229, -0.00042813809704966843, 0.00024854569346643984, 0.03397747501730919, -0.0003588340478017926, 0.026996882632374763, -0.00045781026710756123, -0.0003036054549738765, -0.039189744740724564, -0.11424493789672852, 0.00047646573511883616, 0.7447677850723267, -0.2234930843114853, -0.037264104932546616, -0.2591707706451416, 0.11801349371671677, -0.06130193918943405, -0.2145102620124817, 0.0004165761929471046, -0.00040958228055387735], [0.038672272115945816, 0.013639437966048717, 0.023646553978323936, 0.02107895165681839, 0.014317743480205536, -0.21037636697292328, -0.00831727683544159, 0.2765985429286957, -0.03843918442726135, 0.022154826670885086, -0.5615881085395813, 0.00011921281839022413, 0.2090141922235489, -0.013319329358637333, 0.23916007578372955, -0.007501985877752304, -0.00039362316601909697, -0.00015424017328768969, -0.00021367483714129776, 0.002653634175658226, -0.001627486664801836, 0.00011837764759548008, -6.75483352097217e-06, 0.030603766441345215, -7.198430103017017e-05, 0.003346095560118556, -0.0002664335770532489, 0.00016746918845456094, -0.02254200354218483, 0.06968150287866592, 0.0005641825846396387, -0.06365180015563965, -0.10513097792863846, 0.07024227827787399, 0.03807267174124718, 0.0411500483751297, -0.004340690560638905, -0.09717275202274323, -0.00026456432533450425, -0.0006379903061315417], [-0.04316317290067673, -0.00016077610780484974, -0.0020979635883122683, 0.010747408494353294, 0.005589435808360577, -0.06573912501335144, -0.007899085991084576, 0.0865095779299736, 0.022230930626392365, 0.0013582592364400625, -0.00941807683557272, 0.00018921162700280547, -0.0316397026181221, 0.00037720802356489, 0.0874098613858223, 0.011624287813901901, 0.00015735375927761197, 2.3027283532428555e-05, 7.604727579746395e-05, -0.03230752423405647, -0.09043619781732559, -0.00020042055984959006, -3.0214725484256633e-05, 0.011609600856900215, -0.00014679743617307395, -0.0003726898867171258, -0.00029073524638079107, -0.00020303434575907886, 0.005208797752857208, 0.008197720162570477, 0.00012553045235108584, 0.0028940257616341114, -0.0016864440403878689, 0.030582329258322716, 0.10553178191184998, -0.014773651026189327, -0.009388973005115986, 0.01865195855498314, 0.0001770711678545922, -0.0003741410037036985], [0.013652459718286991, 0.04054996371269226, -0.007046039216220379, -0.07549746334552765, -0.02199634350836277, -0.10762150585651398, 0.040284473448991776, 0.07181210070848465, 0.04799440875649452, 0.004441962111741304, 0.1287434697151184, 7.941309740999714e-05, 0.0967322587966919, -0.014837343245744705, -0.046046528965234756, 0.017708053812384605, 0.0001487091212766245, 2.0197665435262024e-05, 1.297137373512669e-06, -0.03995610028505325, 0.036538999527692795, -3.840164572466165e-05, 0.00011472145706648007, 0.023583384230732918, 2.822398346324917e-05, -0.00632145581766963, -0.00045279815094545484, -0.0004615769430529326, 0.030177678912878036, 0.038825295865535736, 0.0003899621369782835, -0.04664917290210724, -0.05636707693338394, 0.010583908297121525, 0.01489163190126419, -0.13632847368717194, -0.11470328271389008, -0.03632122650742531, 8.331468416145071e-05, -0.0001828046515583992], [0.01459962036460638, 0.006603281944990158, -0.0010166261345148087, 0.0441473089158535, 0.014295999892055988, -0.26949039101600647, 0.010619196109473705, 0.2821686267852783, 0.023719344288110733, 0.0005129511700943112, -0.1494717001914978, 0.0003993537393398583, -0.05977723002433777, -0.004810861311852932, 0.2946098744869232, 0.011412682943046093, -1.5613079085596837e-05, 6.846040196251124e-05, 1.3740763279201929e-05, -0.09016197174787521, -0.3135734498500824, -0.0002631971728987992, -5.63550456718076e-05, 0.026384595781564713, -0.0003682770184241235, 0.00167647039052099, -0.0005554808885790408, -0.00015289058501366526, 0.01688447967171669, 0.020029816776514053, 0.0005588557105511427, -0.03478538617491722, -0.055723801255226135, -0.0008282972266897559, 0.31008610129356384, -0.04168412834405899, -0.027107279747724533, -0.014652940444648266, 8.600768342148513e-05, -0.0009342178236693144], [0.04399586468935013, -0.009494634345173836, -0.020859206095337868, -0.154315784573555, 0.06837982684373856, -0.6227911114692688, -0.0635191798210144, 0.07644776254892349, -0.10630521923303604, 0.04069286584854126, -0.2569054365158081, -0.0003355060762260109, 0.25222983956336975, 0.043690070509910583, -0.6900954246520996, 0.0024156479630619287, -0.001080692047253251, 0.0006684019463136792, -0.0007509257411584258, 0.13780711591243744, -0.3518955111503601, 0.0008298132452182472, -0.0004309649229981005, -0.03439886122941971, 0.00027074897661805153, 0.0763704851269722, 7.756968989269808e-05, 0.0005577107658609748, -0.04948139935731888, -0.0006430221255868673, 0.0015552837867289782, -0.2740781009197235, -0.4090456962585449, -0.1884317696094513, 0.13291069865226746, 0.024680348113179207, -0.032591018825769424, -0.24938172101974487, -0.0009558506426401436, -0.0005139266140758991], [1.2143586900492664e-05, -4.254818122717552e-06, 1.4692203649246949e-06, 7.2429834290232975e-06, -6.924832177901408e-06, 7.433643986587413e-06, -1.5931682355585508e-06, -7.08359857526375e-06, 1.9827753931167535e-05, -4.0334640516448417e-07, -1.767913818184752e-05, 2.3863901965626155e-09, -1.769115260685794e-05, -4.032562628708547e-06, -8.988933586806525e-06, 3.687646085381857e-06, -8.505889326215765e-08, 7.354193698461131e-09, -3.3275057376158657e-08, -1.238277127413312e-05, 2.3123568098526448e-05, 3.562860939609891e-08, -2.645866281625331e-08, 9.54639290284831e-06, 8.260878203714128e-09, 2.430535062103445e-07, 1.963546125693938e-08, 6.605550595395471e-08, -5.1658576012414414e-06, 6.511905212391866e-06, 5.786918322314705e-08, -5.679391961166402e-06, -1.1286229891993571e-05, 0.00016040905029512942, -1.7134560039266944e-05, -1.1102256394224241e-06, 1.7636622942518443e-05, -7.139840818126686e-06, -5.5870874149377414e-08, -3.613958199366607e-08], [-3.9002843550406396e-05, -5.816399607283529e-06, 1.0442895472806413e-05, -4.1785388020798564e-05, 4.9732883780961856e-05, 0.00040057837031781673, -5.8670520957093686e-05, -0.00041193238575942814, -0.00011910009197890759, -2.2275999072007835e-05, 0.0002857665822375566, -2.003372117087565e-07, 0.00015125726349651814, 4.085732143721543e-06, -0.00041909131687134504, -2.2338157577905804e-05, 1.4943385906462936e-07, -1.1308892311490126e-07, 1.0428173879972746e-07, 9.769436292117462e-05, 0.00040205768891610205, 5.04788353339336e-08, -5.688706394835208e-08, -1.6227515516220592e-05, 2.2737133065220405e-07, -1.0084882887895219e-05, 2.0025416347380087e-07, -1.3219293748534255e-07, 2.1540878151427023e-05, -2.5905768779921345e-05, -4.247049503192102e-07, 8.203619654523209e-05, 5.135762330610305e-05, -0.0004871479468420148, -0.0004278515698388219, 2.657558752616751e-06, -0.00013849325478076935, 7.560491940239444e-05, 1.2246135838722694e-07, 4.911592554890376e-07], [0.09662456065416336, -0.003796081990003586, 0.020455127581954002, -0.0028363659512251616, -0.028167661279439926, -0.33891135454177856, 0.016550598666071892, 0.07209271192550659, 0.09500531852245331, 0.010929863899946213, -0.19383683800697327, 0.00045074400259181857, 0.15304690599441528, 0.002540991175919771, -0.13745388388633728, -0.0021282476373016834, 2.1165191355976276e-05, 9.519141894998029e-05, 3.1055635190568864e-05, 0.01537152100354433, -0.18149136006832123, -0.0002553616068325937, -0.00027964412583969533, 0.015897346660494804, -0.0003212470910511911, 0.01290364470332861, 0.00026767479721456766, 0.00030246589449234307, 0.004868184681981802, -0.014296227134764194, -2.6739917302620597e-06, -0.05832081288099289, -0.06851285696029663, 0.07948190718889236, 0.0873427614569664, 0.032953936606645584, 0.007037193980067968, -0.17698216438293457, -6.483272591140121e-05, -0.0005038631497882307], [0.04086698591709137, -0.008825583383440971, 0.027840811759233475, 0.03230787813663483, -0.019429849460721016, -0.1312670111656189, -0.035411935299634933, 0.17071877419948578, 0.05100115388631821, -0.008208061568439007, 0.009042085148394108, 0.00017966021550819278, -0.11572566628456116, 0.0019287177128717303, 0.1588401347398758, 0.06783921271562576, -0.00010226426093140617, 0.0005426406860351562, -0.00020944395510014147, -0.02961796522140503, -0.38600632548332214, -5.385146141634323e-05, -0.00011992848885711282, 0.005228906404227018, -0.00014156245742924511, 0.000554173078853637, -9.5831173894112e-06, -0.00012036631960654631, -0.03502391651272774, -0.04031342640519142, 0.0008532993961125612, 0.08004254847764969, -0.05647934600710869, 0.0003535175055731088, 0.31423160433769226, -0.013325130566954613, 0.010792127810418606, 0.05946784466505051, -1.586697544553317e-05, -0.000704442907590419], [0.03772098943591118, -0.03835480287671089, -0.06242493540048599, 0.07410729676485062, -0.02944708615541458, -0.12216254323720932, -0.039322398602962494, 0.15312781929969788, 0.05422079563140869, 0.0016513126902282238, 0.08622777462005615, 0.00017809384735301137, -0.13807514309883118, 0.004847537726163864, 0.21256324648857117, 0.08151380717754364, -0.0003908951475750655, 5.4131804063217714e-05, -7.875986193539575e-05, -0.0430634543299675, -0.32848358154296875, 8.177194831660017e-05, 4.0533122955821455e-05, -0.0010267815086990595, -3.0291998882603366e-06, 0.0017505809664726257, 0.000590982788708061, 0.0006144511280581355, -0.013906741514801979, -0.02570487931370735, 0.0003585501399356872, 0.04980691149830818, -0.056249573826789856, 0.022726088762283325, 0.2974565923213959, -0.026585791260004044, 0.0354301892220974, 0.051590610295534134, -0.0003170057898387313, -0.00024482590379193425], [-0.0072885314002633095, -0.02351151965558529, -0.03489912673830986, 0.09820346534252167, 0.05851779133081436, -0.09744187444448471, 0.030679935589432716, 0.43289729952812195, 0.1497393548488617, 0.0033403055276721716, 0.19298173487186432, -0.00043648091377690434, -0.14527367055416107, 0.008835314773023129, 0.3883714973926544, 0.05122670158743858, 0.0004869315307587385, 0.00028763766749762, 0.0002685720392037183, -0.19012659788131714, -0.8462304472923279, 0.00022982580412644893, 0.00031470757676288486, 0.02918924018740654, -4.5337033952819183e-05, 0.00383718847297132, 0.0004356453428044915, 0.0003708424046635628, 0.05976960062980652, 0.01778108812868595, -0.0009171261335723102, 0.17232149839401245, 0.006087379064410925, 0.11759627610445023, 0.4353397786617279, 0.04215049743652344, -0.012163836508989334, 0.07146371155977249, 0.00010059650958282873, 0.0007610364118590951], [0.09241881221532822, -0.03304669260978699, 0.0007451555575244129, 0.07400555908679962, -0.15763744711875916, -0.15833617746829987, -0.015333487652242184, 0.26730144023895264, 0.08012864738702774, -0.022621415555477142, 0.2884118854999542, 5.708386015612632e-05, -0.21728290617465973, -0.002114183036610484, 0.11962678283452988, 0.038550108671188354, -0.0007065323297865689, -0.000495570246130228, 0.00012118541053496301, -0.12236686050891876, -0.6096824407577515, 0.00036712325527332723, -0.000506413693074137, 0.01393461786210537, 0.0002714086149353534, -0.003882252611219883, 0.0010815728455781937, 0.0012160080950707197, -0.013239948078989983, -0.04878205433487892, -0.00070808274904266, 0.11178908497095108, 0.01023024134337902, -0.0026059122756123543, 0.21882331371307373, -0.11066210269927979, -0.003971872851252556, 0.04703085124492645, -0.0006417394033633173, 0.00045787388808093965], [-0.37745359539985657, -0.028295451775193214, 0.019689813256263733, 0.01733085699379444, -0.02041628584265709, -0.521731436252594, 0.12324227392673492, 0.48008009791374207, 0.04548752307891846, -0.06811568140983582, -0.3820396661758423, 0.0002967163163702935, 0.19093531370162964, -0.019610121846199036, -0.10691778361797333, 0.007722686976194382, 0.0003625714161898941, 3.809123518294655e-05, 0.00026825317763723433, -0.10141418874263763, -0.8486579060554504, -0.00015717194764874876, 0.0005940449191257358, 0.05656659975647926, -4.317325419833651e-06, -0.017738135531544685, 0.00013179227244108915, -0.00018257695774082094, 0.11011911928653717, -0.0047988006845116615, -4.632566196960397e-05, 0.029012469574809074, 0.16569095849990845, -0.46930932998657227, 0.5122876763343811, 0.07469447702169418, -0.05642322823405266, 0.23401890695095062, 9.306782158091664e-05, -2.849734073606669e-06], [0.021880298852920532, 9.312250767834485e-05, 0.004281285218894482, 0.03544545918703079, 0.016392605379223824, -0.06353269517421722, 0.03832876682281494, 0.1642838716506958, 0.055885884910821915, -0.017977336421608925, 0.09969186782836914, 0.0002442329132463783, -0.17224565148353577, 0.011275849305093288, 0.2033924162387848, 0.01615472324192524, -0.0004125250852666795, 0.00012425196473486722, -0.0001656462118262425, -0.007348611485213041, -0.29407376050949097, 6.0893646150361747e-05, -0.00031974163721315563, 0.010124487802386284, -7.523386739194393e-05, -0.010561966337263584, 0.0002935997035820037, 0.0003314465284347534, 0.004346413072198629, -0.015338345430791378, 0.0004723313031718135, 0.08934403210878372, -0.010573964565992355, 0.010404708795249462, 0.28951331973075867, 0.020459361374378204, -0.004106875509023666, 0.10234782844781876, -0.00028414002736099064, -0.0006211297586560249], [0.3627752363681793, 0.05936688557267189, 0.011716543696820736, 0.001692941295914352, 0.1420077681541443, -0.45932629704475403, 0.013348893262445927, 0.5870073437690735, 0.03382361680269241, 0.03178752213716507, -0.14430122077465057, 0.0001504491810919717, -0.32168617844581604, -0.006851138547062874, -0.023564640432596207, -0.013097483664751053, 0.00033061171416193247, 5.659493035636842e-05, 0.0001021585485432297, -0.02207297272980213, -1.1450425386428833, -0.0003209866990800947, 0.00024337730428669602, 0.008642896078526974, -0.0002507797034922987, -0.004273322410881519, -0.0001888949191197753, -0.00026847500703297555, 0.052042484283447266, 0.04856858402490616, -2.2003079720889218e-05, -0.26426005363464355, 0.06117923557758331, 0.08918045461177826, 0.38996297121047974, -0.0799807533621788, -0.05848485976457596, -0.18734480440616608, 0.0002484306169208139, -0.00021092801762279123], [0.016610952094197273, 0.01914830692112446, 0.00032900573569349945, -0.04232209175825119, 0.025511648505926132, -0.020862659439444542, 0.014862480573356152, -0.030607983469963074, 0.012982099317014217, -0.0026575527153909206, -0.07120679318904877, -0.0003062581818085164, 0.011490621604025364, 0.010331847704946995, -0.029038676992058754, -0.00334630417637527, 9.208176197716966e-05, 0.00020092604972887784, -0.00010180645040236413, 0.019853394478559494, 0.07796638458967209, 0.00013946904800832272, 0.00022970998543314636, -0.019581682980060577, 0.00023607366892974824, -0.008789701387286186, -0.00016746269830036908, -0.0003333847562316805, -0.02323187328875065, 0.013551025651395321, 0.00012296345084905624, 0.008416075259447098, -0.0509130097925663, 0.029201310127973557, -0.05493054538965225, 0.06705189496278763, 0.009770192205905914, -0.093899667263031, 8.18275730125606e-05, 0.0003581914061214775], [0.030118992552161217, -0.019569238647818565, 0.02124629355967045, 0.018186718225479126, 0.0031421082094311714, -0.050765469670295715, 0.0184102151542902, 0.09761328995227814, 0.0495675764977932, -0.018989194184541702, -0.05069057643413544, 4.509610789682483e-06, -0.03616965562105179, -0.007774424273520708, 0.09696226567029953, 0.023162616416811943, -0.000424849713454023, 0.0001103721879189834, -0.00022511265706270933, -0.037639129906892776, -0.0848987028002739, 0.0002448062296025455, -0.0001881194912130013, -0.0031117459293454885, 0.00012126555520808324, 0.00712647195905447, -0.00018634636944625527, 0.00012331170728430152, 0.03320680931210518, -0.020092220976948738, 0.0005885909777134657, 0.01576816849410534, -0.07112608850002289, 0.0027257315814495087, 0.14523260295391083, 0.026566321030259132, -0.010842246003448963, 0.0007771801319904625, -0.0002784875105135143, -0.0004181658732704818], [0.10356257110834122, 0.048880450427532196, -0.03141386806964874, -0.052650026977062225, 0.015169510617852211, -0.21274825930595398, -0.02122718282043934, 0.04481036961078644, 0.05654926598072052, 0.0018806677544489503, 0.424437940120697, -0.0004278982523828745, -0.19351989030838013, 0.008131267502903938, 0.010249610058963299, -0.01859690248966217, -0.00015700867515988648, 5.139288623468019e-05, -0.0005449170130304992, 0.06683049350976944, -0.3096357583999634, 0.00039170830859802663, 0.0007483377121388912, 0.02766392193734646, 0.0005167831550352275, -0.015260729007422924, 8.228467049775645e-05, -5.7914177887141705e-05, -0.0054930029436945915, -0.0010184679413214326, 0.0003680984955281019, -0.0796140655875206, -0.014329739846289158, 0.14398427307605743, 0.19446678459644318, -0.10719997435808182, -0.08379022032022476, 0.00294483988545835, -0.00033640797482803464, 0.00035682451562024653], [-8.850739163790422e-08, 5.982039965601871e-06, 1.28065421449719e-05, -1.0700910934247077e-05, 1.3394789675658103e-05, 6.234014290384948e-05, 3.625051931521739e-06, -6.32308074273169e-05, -2.6967796657118015e-05, -4.261607955413638e-06, 4.8313486331608146e-05, -5.665070901272884e-08, 3.4084914659615606e-05, -1.4360595059770276e-06, -6.413878145394847e-05, -1.3115709407429677e-05, 2.6863519408948378e-08, -2.476324745259717e-08, 1.7642076244328564e-08, 2.673568633326795e-05, 6.253248284338042e-05, 2.4933683562267106e-08, -1.3916235275246436e-08, -4.166787221038248e-06, 5.7665150876573534e-08, -4.68725886548782e-07, 6.337023705782485e-08, -1.580133712764109e-08, -4.942081886838423e-06, -7.613334219058743e-06, -9.785274102114272e-08, 1.6782363672973588e-05, 8.135169991874136e-06, -7.952951273182407e-05, -6.673178722849116e-05, 8.680011376327457e-08, -2.533978840801865e-05, 1.9815113773802295e-05, 1.9797997907744502e-08, 1.323401193076279e-07], [0.12233729660511017, 0.0576966218650341, -0.05023239925503731, 0.11096784472465515, 0.11106473952531815, -0.1628531813621521, -0.02806997112929821, 0.34724557399749756, -0.0026983944699168205, 0.06692922115325928, -0.04544733092188835, 0.0011576976394280791, -0.12432463467121124, -0.014542183838784695, 0.40698978304862976, -0.03191758692264557, 0.0010150759480893612, -0.0008002289687283337, 0.0010956835467368364, -0.09079807251691818, -0.07757887244224548, -0.0011928186286240816, 0.0005444771959446371, 0.015877703204751015, -0.0008789538987912238, -0.04676976799964905, -0.0002496653760317713, -0.000395929062506184, -0.04354914277791977, 0.10869842022657394, -0.000859746418427676, -0.011893127113580704, 0.10921292006969452, -0.055458277463912964, 0.19284482300281525, -0.15332908928394318, 0.04232551530003548, -0.062054477632045746, 0.0007950686849653721, -0.000601751497015357], [0.00479463255032897, -0.00807408057153225, 0.0039617582224309444, -0.005092556122690439, 0.0038637476973235607, -0.03085613064467907, -0.014486276544630527, 0.04744222015142441, 0.03271237015724182, -0.00727146677672863, 0.01018033642321825, -1.1839853868877981e-05, -0.03995482996106148, -0.017363902181386948, 0.0448099821805954, -0.013303515501320362, -0.00010997866047546268, -5.7281486078863963e-05, -3.892253153026104e-05, -0.008038987405598164, -0.06531491130590439, 8.915806392906234e-05, 2.3435255570802838e-05, 0.011424622498452663, 7.21718097338453e-05, -0.005288781598210335, 1.095463721867418e-05, 2.225414755230304e-05, 0.026081565767526627, -0.005263134371489286, 8.823115786071867e-05, 0.01822839304804802, -0.007691134233027697, 0.01333263423293829, 0.10396241396665573, 0.042559362947940826, 0.003340370487421751, 0.030759088695049286, -0.00010017750173574314, -8.646213245810941e-05], [0.3500610291957855, -0.0002763893862720579, -0.0221681110560894, 0.30238473415374756, 0.014699665829539299, -0.3442099392414093, 0.019205236807465553, 0.4369586408138275, 0.03558323159813881, 0.007920336909592152, -0.28014063835144043, 7.936678593978286e-05, -0.0912708044052124, 0.037844326347112656, 0.04182927682995796, 0.061103109270334244, 7.842821651138365e-05, 0.0001083147362805903, -0.00018728773284237832, 0.01506754569709301, -0.7921950817108154, -0.00010560586088104174, 0.00019114660972263664, 0.02676433138549328, 0.00041578462696634233, 0.0079631507396698, -0.0003003234451171011, -0.0002284923248225823, 0.10883379727602005, -0.0012126746587455273, 0.0003386025200597942, 0.059012189507484436, 0.3066626191139221, 0.38224855065345764, 0.5289008617401123, 0.10737800598144531, 0.04804887995123863, -0.023885857313871384, -0.00019909626280423254, -0.00024095991102512926], [0.04462905600667, -0.06933750212192535, -0.0027827739249914885, 0.008776183240115643, 0.02122381329536438, -0.062186695635318756, -0.049157459288835526, 0.19632364809513092, 0.11323633044958115, -0.03249109536409378, 0.07364513725042343, -8.63605018821545e-05, -0.16301599144935608, -0.0005563474260270596, 0.27045270800590515, 0.08570589125156403, -0.0004381666367407888, 0.0005536877433769405, -0.0004521403170656413, -0.04497728869318962, -0.3554888963699341, 0.0002586206828709692, -8.419885489274748e-06, 0.007294851820915937, 0.00017377387848682702, -0.01643974520266056, 0.0005910402978770435, 0.0003711411845870316, 0.02443784847855568, -0.020347928628325462, 0.000821261724922806, 0.11395478993654251, -0.03176170587539673, 0.008962168358266354, 0.3221583962440491, 0.015178080648183823, -0.011975151486694813, 0.0625324621796608, -0.00029969075694680214, -0.00032823174842633307], [6.317050520010525e-06, -7.228943559312029e-06, -2.9711047773162136e-06, 8.29753844300285e-06, -1.7361593563691713e-05, -3.799266892201558e-07, -8.157454431056976e-06, 6.04435911100154e-07, 2.997541378135793e-05, 9.370673978992272e-07, -2.7165373467141762e-05, -1.4245475021823495e-08, -3.2834941521286964e-05, -6.291928002610803e-06, -1.6457224774057977e-06, 1.1631284905888606e-05, -1.1038368796789655e-07, 1.2562951567929304e-08, -4.770722483726786e-08, -1.446522946935147e-05, 2.2316600734484382e-05, 5.264748992317436e-08, -2.5470605180544226e-08, 7.595669103466207e-06, 2.688361888658619e-08, 1.6482733826705953e-06, 3.3280009859026904e-08, 8.569620746357032e-08, -1.877382032944297e-06, 1.1064574209740385e-05, 5.6814396742765894e-08, -1.2225656064401846e-05, -1.5382120182039216e-05, 0.0002717004099395126, -1.12862962851068e-05, 5.303198577166768e-06, 3.460603329585865e-05, -1.6238827811321244e-05, -7.66572227917095e-08, -1.8116194766548688e-08], [-1.5192381397355348e-06, -1.850393687163887e-06, -2.736587475737906e-06, -8.892537266547151e-07, 4.351043401129573e-07, 5.851442210769164e-07, -1.2691557458310854e-06, -4.7355970878015796e-07, -4.5482516952688457e-07, -9.014318891331641e-08, 2.303528845004621e-06, -2.7619684317414794e-09, -3.148919176965137e-06, 3.932023560082598e-07, 1.6270458758071982e-08, 8.422991299994464e-07, 2.9232074538754205e-09, -3.785555424684617e-09, 2.825323086597109e-09, 3.859860271404614e-07, 9.103961815526418e-07, 1.2088364753637393e-09, 1.5113954532353091e-09, -7.742776233499171e-07, 3.913031676461287e-09, -1.0353349466640793e-07, 4.794082020254109e-09, -8.56744397648157e-10, 2.0338077320047887e-06, -1.4371779855082423e-07, -1.062921395345029e-08, -2.5826368528214516e-06, -1.3007431789446855e-06, 2.1658121129863872e-10, -5.432285092865641e-07, -4.040088299461786e-07, -3.5594820246842573e-07, -1.4288324337030645e-06, 5.693722715527372e-10, 1.0826860297186158e-08], [5.588116437138524e-06, -2.0215245513099944e-06, 7.089367954904446e-07, 3.4611812225193717e-06, 1.153573947476616e-07, -3.984620434493991e-06, -3.15744910039939e-06, 4.590059234033106e-06, 5.9243843679723796e-06, -2.065319506527885e-07, -7.438908596668625e-06, 2.5659935287691837e-10, -9.071932254300918e-06, -8.966159157353104e-07, 4.4477637857198715e-06, 3.1282997952075675e-06, -1.0315349463496659e-08, -1.9713273236021678e-09, -3.3587717052085964e-09, -4.4281823647907e-06, -2.223566525572096e-06, 3.4275307037034963e-09, -2.7099906763083936e-09, 8.5965797325116e-07, 2.7051283435497453e-09, -2.0322963223406987e-07, 2.1943444838967707e-09, 6.916393235911755e-09, 2.9281736715347506e-06, 2.275481165270321e-06, 2.2227868434754328e-09, -4.2438250602572225e-06, -5.016932391299633e-06, 2.7807098376797512e-05, 3.609610530475038e-06, 2.7774869977292838e-06, 4.448444087756798e-06, -4.858698503085179e-06, -5.8372524591732144e-09, -1.6777773614862213e-09], [-0.014083615504205227, 0.014693664386868477, -0.0034771664068102837, -0.08782494813203812, -0.05922577157616615, -0.17957568168640137, -0.026700321584939957, 0.40792685747146606, 0.12265084683895111, -0.015534525737166405, -0.14189739525318146, -0.0005737566389143467, -0.18661653995513916, 0.016593512147665024, 0.30630314350128174, 0.002803119132295251, -0.00011299426842015237, 0.000265946495346725, -8.279957546619698e-05, -0.1763034611940384, -0.9284001588821411, 0.000540535431355238, -0.00025061413180083036, 0.04555588588118553, 2.3527023586211726e-05, -0.021450992673635483, -0.00011921016266569495, -1.9647584849735722e-05, -0.08218406140804291, 0.015401076525449753, -5.143538874108344e-05, 0.2274095118045807, 0.05993538722395897, 0.07367853820323944, 0.41321635246276855, -0.20001819729804993, -0.08254723995923996, 0.11200841516256332, 7.811677642166615e-05, 0.0002458807430230081], [-0.3257765471935272, 0.04921721667051315, -0.0752837210893631, 0.03604942560195923, 0.009400934912264347, 0.06865403056144714, -0.02600874938070774, -0.00033644938957877457, -0.13237328827381134, -0.012742307968437672, -0.050671953707933426, 0.0003227381967008114, -0.045293115079402924, -0.01041380688548088, 0.005570676643401384, -0.03983258828520775, 7.84557851147838e-05, -0.00029355339938774705, 0.0003780780825763941, -0.013336781412363052, -0.49784862995147705, -0.00048340269131585956, 0.00038989956374280155, 0.01983947493135929, 0.00022432357945945114, -0.0036697275936603546, 0.00010262652358505875, -0.00046407891204580665, -0.00013501344074029475, 0.054533038288354874, -0.00035351270344108343, -0.06649656593799591, -0.1350848525762558, -0.1552474945783615, 0.14221607148647308, -0.04613541439175606, -0.03054693713784218, 0.3316066861152649, 0.00022622995311394334, 0.00032946295686997473], [1.67499492818024e-05, -1.9731676275114296e-06, 4.9519449021318e-06, 3.0367136787390336e-06, 1.199530470330501e-05, 4.0402439481113106e-05, -3.5630839647637913e-06, -4.195977817289531e-05, -3.7964596231176984e-06, -1.9910910395992687e-06, 1.7976924937102012e-05, -7.427793491388002e-09, 8.883935151970945e-06, -2.9235434340080246e-06, -4.242721479386091e-05, -5.4468523558171e-06, -1.4604828457720487e-08, -1.0875439215851657e-08, 2.0468573502796517e-09, 3.009864485647995e-06, 4.595263453666121e-05, 1.2819508121708623e-08, -2.3891381317753257e-08, 6.8177751018083654e-06, 1.51352530508575e-08, -1.1758327218558406e-06, 2.2157717438631153e-08, 9.456398331053606e-09, -3.857581759802997e-06, 1.1047958281551473e-07, -1.078657518860382e-08, 4.351697043603053e-06, 3.0735791369806975e-06, 3.991186895291321e-05, -4.6802775614196435e-05, 4.519532922131475e-06, -1.071846236300189e-05, 2.509335445211036e-06, -2.1159833885064927e-09, 1.999940479890938e-08], [1.6979075780909625e-06, -6.856818686173938e-07, 1.396673837916751e-06, -3.5155017030774616e-06, -6.317987981674378e-07, 8.40483517094981e-06, 3.5349810900697776e-07, -9.408858204551507e-06, -1.8193507003161358e-06, 8.077994948507694e-07, 3.533705921654473e-06, 7.530978507475083e-09, 5.226696885074489e-06, 8.066178907029098e-07, -1.0249808838125318e-05, -4.86419423850748e-07, -4.466505387767938e-09, 2.63288990609567e-09, -1.0845853104513026e-09, 2.9790960525133414e-06, 1.0268545338476542e-05, -2.6863848923142086e-09, -4.5802868164912525e-09, 2.7051851247961167e-07, -5.197666297362957e-09, 9.557275006955024e-07, -6.0928284639771846e-09, 2.5025199690276168e-09, -4.150802396907238e-06, -2.2508456822833978e-06, 1.2009992111927659e-08, 9.380445931128634e-07, 1.6574550727455062e-06, -5.046500973548973e-06, -1.118535510613583e-05, -2.1809876216138946e-06, -1.7089608945752843e-06, -5.203236241868581e-08, -2.5055060248746486e-09, -1.83728321445642e-08], [-0.006171075627207756, -0.018381157889962196, 0.018161427229642868, -0.021946674212813377, -0.0071337418630719185, -0.04192206263542175, 0.02181648276746273, 0.0407957099378109, 0.03796938806772232, -0.009915577247738838, 0.05847933515906334, -9.763555135577917e-05, -0.03831631317734718, -0.012477666139602661, 0.04795793816447258, 0.02384571172297001, -0.000197690911591053, -3.6262372304918244e-05, -0.00012070895900251344, -0.004224143456667662, -0.08803004026412964, 0.00015951070236042142, 2.6199937565252185e-05, 0.012981627136468887, 0.0001338207657681778, -0.017884986475110054, 2.2642198018729687e-05, 7.209939212771133e-05, 0.014572355896234512, -0.02190040796995163, 0.00015178135072346777, 0.004674049094319344, 0.02509521134197712, 0.0043322136625647545, 0.1192593052983284, 0.004860984161496162, -0.019743405282497406, 0.03048855997622013, -0.00015443144366145134, -1.4687103430333082e-05], [1.0940387255686801e-05, 6.342478400256368e-07, 1.1561105566215701e-06, -1.1529665243870113e-05, 1.861557575466577e-05, 4.9927239160751924e-05, -2.5740066575963283e-06, -5.253935887594707e-05, -2.0067549485247582e-05, -2.0089737517992035e-06, 3.080366877838969e-05, -4.974291201165215e-08, 2.4593668058514595e-05, -2.3907152808533283e-06, -5.3686857427237555e-05, -9.526022950012702e-06, 2.106986940475508e-08, -2.665977127946917e-08, 1.5810986297992713e-08, 1.8290880689164624e-05, 5.2970892284065485e-05, 2.4445071744594316e-08, -1.1353227691301981e-08, -2.7617929845291656e-06, 5.2313328779973745e-08, -1.204928139486583e-06, 5.278943504549716e-08, -1.4648577462139656e-08, -3.1925410439725965e-06, -4.227865247230511e-06, -8.694966169287e-08, 1.197369783767499e-05, 7.369642844423652e-06, -3.8248741475399584e-05, -5.658777809003368e-05, 6.761132453902974e-07, -2.4612099878140725e-05, 1.2605314623215236e-05, 1.6136070257743995e-08, 1.167767038623424e-07], [0.012164750136435032, -0.029707806184887886, 0.0006501951138488948, 0.022427350282669067, -0.0011661254102364182, -0.037683963775634766, 0.003735570004209876, 0.08317053318023682, 0.04817277193069458, 0.0034061428159475327, -0.00010537567141000181, -0.00030367911676876247, -0.04651929438114166, 0.002224993659183383, 0.08187491446733475, 0.04093564674258232, -0.00026600994169712067, -2.097839387715794e-05, -0.00015786413860041648, -0.02733910083770752, -0.08948010206222534, 0.00033723251544870436, -1.6395930288126692e-05, 0.005335308611392975, 0.0003737563674803823, -0.00588239124044776, 0.00026272100512869656, 0.000210457481443882, 0.01894308440387249, 0.007686777971684933, -0.00016044394578784704, 0.036513082683086395, 0.003619592869654298, 0.0121108153834939, 0.15041251480579376, 0.006091207731515169, -0.0035576524678617716, 0.021613476797938347, -0.00026279198937118053, 0.0004825296637136489], [-1.3974257626614417e-06, -8.681499821250327e-06, 3.586110324249603e-07, -2.295612830494065e-05, 5.311930181051139e-06, 0.00017682403267826885, -3.1069143005879596e-05, -0.00018618974718265235, -2.9934506528661586e-05, -1.1376335351087619e-05, 9.636133472668007e-05, -4.534431141678397e-08, 6.355653749778867e-05, 4.354533757577883e-06, -0.00018958603322971612, -1.8999255189555697e-05, -3.5578477053377355e-08, -2.6604604741464755e-08, 9.076571494404106e-09, 4.012180943391286e-05, 0.00019262495334260166, 4.261005770445081e-08, -5.303129668732254e-08, 8.463756785204168e-06, 6.543754693666415e-08, -9.7928277682513e-06, 9.027768754776844e-08, 3.454335484320836e-08, -2.450256260999595e-06, -6.356174253596691e-06, -8.240007076665279e-08, 2.2370199076249264e-05, 2.3457261704606935e-05, -7.549197471234947e-05, -0.0001985722192330286, -4.119214736419963e-06, -5.232693729340099e-05, 1.1712048944900744e-05, -1.7630251036848676e-08, 1.0830046903720358e-07], [2.451714863127563e-06, -4.526626526057953e-06, 1.594792706782755e-06, 3.2821230888657738e-06, -1.5634228475391865e-05, 3.0129614970064722e-05, -3.2942491543508368e-06, -3.04714594676625e-05, 2.4002107238629833e-05, -3.4633567338460125e-06, -1.0897755601035897e-05, 7.080037001117034e-09, -1.2835988854931202e-05, -4.961719696439104e-06, -3.2719719456508756e-05, -1.969086042663548e-06, -1.3300294199325435e-07, 2.101928586739632e-08, -5.089374610633968e-08, -7.103385087248171e-06, 5.2997300372226164e-05, 5.323094853793009e-08, -4.111086937541586e-08, 1.4608778656111099e-05, 7.0933885432111765e-09, 1.5247773887949734e-07, 3.775783241621866e-08, 1.1400306476616606e-07, -1.0139106962014921e-05, 8.570056706957985e-06, 8.781471905194849e-08, -5.846259682584787e-06, -6.949523140065139e-06, 0.00021114619448781013, -4.415837611304596e-05, -6.403924999176525e-07, 1.995055572479032e-05, -6.804079930589069e-06, -9.383230548110078e-08, -5.7033595624034206e-08], [0.022428423166275024, 0.0039853425696492195, 0.034951239824295044, -0.06000843644142151, 0.04598827287554741, 0.0036126314662396908, 0.03822121024131775, 0.06230021268129349, 0.054000549018383026, 0.01313699409365654, 0.11053181439638138, 4.723537131212652e-05, -0.02477916330099106, -0.028705932199954987, 0.08753634244203568, 0.019560426473617554, -0.0002815808111336082, 0.00013774765830021352, -0.00011700039613060653, -0.016722654923796654, -0.11700998246669769, 0.0001812473201425746, -0.0002554133243393153, -0.02884446457028389, 0.0001169554961961694, 0.02991962991654873, -0.00018243215163238347, 5.1472638006089255e-05, 0.014806041494011879, 0.018957551568746567, 0.00041730189695954323, 0.029926463961601257, -0.0065734004601836205, 0.0141209801658988, 0.15710045397281647, -0.02186770550906658, -0.053951140493154526, 0.05849022790789604, -0.00019188910664524883, -0.00026970510953105986], [0.02120319753885269, -0.015330945141613483, -0.029649723321199417, -0.013184242881834507, -0.00832449458539486, -0.028567444533109665, 0.005207269452512264, 0.09838073700666428, 0.037063296884298325, 0.01241732481867075, 0.03105095587670803, 0.00018577581795398146, -0.05951187387108803, -0.003701146226376295, 0.11138083040714264, 0.01838166080415249, -0.0003192937874700874, 0.00010392758122179657, -0.0001295712572755292, -0.04225362837314606, -0.16535885632038116, 7.376520079560578e-05, -0.0001446149981347844, 0.020410045981407166, -9.581518679624423e-05, -0.002986008068546653, -0.00039973296225070953, -1.3678639334102627e-05, -0.02301260642707348, -0.021541569381952286, 0.0007720300927758217, 0.030701277777552605, 0.013184730894863605, 0.003529707668349147, 0.1815555989742279, -0.03124147839844227, 0.009158949367702007, 0.04556639865040779, -0.00014514426584355533, -0.0007505487883463502], [-3.2154712243936956e-05, -1.0886083146033343e-05, -2.007763396250084e-05, -4.369453279196023e-07, -2.0866825707344105e-06, 6.650725117651746e-05, -3.9583163015777245e-05, -6.291540921665728e-05, -1.7642194507061504e-05, -1.002298085950315e-05, 3.5858203773386776e-05, -6.852145872926485e-08, 1.744541987136472e-05, -9.0321769619095e-08, -6.458821735577658e-05, 3.1456162105314434e-05, 9.415724377959123e-08, -4.916147844369334e-08, 5.370791456016377e-08, 9.785618203750346e-06, 7.141097739804536e-05, -1.3657203368211412e-08, 1.7066417612454643e-08, -1.3372480680118315e-05, 7.37054008936866e-08, -3.7589484236377757e-06, 4.140693832255238e-08, -9.084521224167474e-08, 3.665216718218289e-05, 5.185469035495771e-06, -1.9409648643886612e-07, 9.542424777464475e-06, 3.1750926154927583e-06, -0.00012041913578286767, -6.916532584000379e-05, 1.8675013052416034e-05, -1.0114832548424602e-05, 3.859504886349896e-06, 7.340431551483562e-08, 1.8935716639134625e-07], [-0.07311806082725525, -0.07496434450149536, -0.051434796303510666, 0.02511507272720337, 0.026900457218289375, -0.19711221754550934, -0.01240293588489294, 0.06275025755167007, -0.059574853628873825, -0.015571572817862034, -0.23119555413722992, 0.0006026918417774141, 0.3437751829624176, 0.032991889864206314, 0.17109505832195282, 0.03815596178174019, 0.00023513911582995206, -0.00013234921789262444, 0.0006520852912217379, -0.014782809652388096, -0.17066910862922668, -0.0004282472364138812, 4.577850995701738e-05, 0.032062701880931854, -0.0004078176280017942, 0.010597112588584423, -0.0005837891949340701, -0.00015386911400128156, -0.03922836855053902, -0.021695274859666824, 8.087271999102086e-05, 0.30875808000564575, 0.21138639748096466, 0.11974108964204788, 0.09970300644636154, 0.046645354479551315, -0.040101971477270126, 0.20539970695972443, 0.00016315329412464052, -0.0009342462290078402], [-0.01608925871551037, 0.030450114980340004, 0.022235071286559105, -0.12889379262924194, 0.02470732480287552, -0.4830036461353302, 0.012364530935883522, 0.3280973434448242, 0.10511691123247147, -0.025568634271621704, -0.0350535623729229, -0.00021286783157847822, 0.024582412093877792, -0.018063899129629135, -0.5045285224914551, -0.015920331701636314, 4.751479718834162e-05, -0.0005895617068745196, 4.034971061628312e-05, -0.010609556920826435, -0.9810665845870972, 7.248295332829002e-06, 0.0002106556057697162, -0.027873512357473373, 0.0001243854349013418, -0.016275325790047646, 8.442505350103602e-05, -0.00010136816126760095, 0.010968144051730633, -0.03277883678674698, -0.0005813570460304618, 0.02000262215733528, -0.23696516454219818, -0.061055008322000504, 0.42878153920173645, -0.011565323919057846, -0.044061675667762756, -0.11685018986463547, -6.083120752009563e-05, 0.0003949760284740478], [-0.02114197425544262, -0.014713959768414497, -0.03466144576668739, 0.08020029962062836, 0.05150356888771057, 0.035796500742435455, 0.0016835907008498907, 0.04022859409451485, -0.08299843221902847, 0.0023530316539108753, -0.29657861590385437, -0.00015104937483556569, 0.0958009585738182, 0.006837136577814817, -0.058947425335645676, -0.031721122562885284, -0.0005120534915477037, 0.0005198999424465001, -0.0005373824387788773, 0.020583899691700935, 0.057929493486881256, 0.00029364554211497307, -0.0007677539251744747, 0.03353988751769066, 0.00025242025731131434, 0.028434699401259422, 0.0004608025774359703, 0.0004187810409348458, 0.01569501683115959, 0.011457416228950024, 0.0003244621038902551, -0.0639495700597763, 4.3374617234803736e-05, 0.06450240314006805, 0.005336407572031021, -0.050616130232810974, -0.20704935491085052, 0.015454085543751717, -0.0004617793019860983, 6.337305239867419e-05], [-0.07863542437553406, -0.0018836784875020385, -0.006027129013091326, 0.028952183201909065, 0.020439011976122856, -0.15839488804340363, -0.01182090025395155, 0.20569345355033875, 0.06505095958709717, -0.004256688989698887, -0.04563771188259125, 0.00027367830625735223, -0.07326521724462509, -0.0025293068028986454, 0.20658563077449799, 0.026588233187794685, 0.00023192573280539364, 7.012953574303538e-05, 7.007990643614903e-05, -0.0730024203658104, -0.2316019982099533, -0.00028854497941210866, 5.200106534175575e-05, 0.020589521154761314, -0.0002103425213135779, -0.0026822800282388926, -0.0003021078300662339, -0.0002450323954690248, 0.015576777048408985, 0.013684980571269989, 0.00019866832008119673, 0.007381432224065065, -0.009359623305499554, 0.07374894618988037, 0.24579116702079773, -0.025511445477604866, -0.016277074813842773, 0.032462287694215775, 0.0002458376402501017, -0.0004822621704079211], [0.0167385321110487, 0.03048514947295189, -0.010708584450185299, 0.021429482847452164, -0.07548307627439499, -0.15405626595020294, 0.0454263836145401, 0.16401313245296478, 0.08021922409534454, -0.004927107132971287, 0.11845384538173676, 0.00041542472899891436, -0.036455921828746796, -0.024024011567234993, 0.08721759915351868, 0.07014244049787521, 6.401997961802408e-05, -0.00039673896390013397, 0.0003911097883246839, -0.007969602011144161, -0.3055747449398041, -0.00026040655211545527, -7.512137381127104e-05, 0.00854355376213789, -0.00027491251239553094, -0.021355580538511276, -0.0008908329182304442, -0.0003421537985559553, 0.07546427100896835, -0.015497714281082153, 0.00013745797332376242, 0.04742816463112831, 0.0179835744202137, 0.020351318642497063, 0.23135338723659515, -0.03676247596740723, 0.04775276780128479, 0.0429733507335186, 0.0002028859016718343, -0.0006847819895483553], [-0.15444359183311462, 5.4048268793849275e-05, -0.014973417855799198, -0.01960732974112034, 0.09023481607437134, -0.0355086475610733, 0.03783475607633591, 0.12223263829946518, 0.04470659792423248, -0.013870221562683582, 0.10756450891494751, 0.0002443106204736978, -0.1910688430070877, -0.007417157292366028, 0.1219194084405899, -0.06802408397197723, -8.613139652879909e-05, -9.387907630298287e-05, -7.109239231795073e-05, -0.009107096120715141, -0.21550138294696808, -0.00015845440793782473, -0.00010054241283796728, 0.004072723910212517, -0.0002151610387954861, 0.0010899020126089454, -0.0003551506088115275, 2.719783879001625e-05, 0.04287848621606827, -0.01097224559634924, 0.0002835972991306335, -0.08119814842939377, 0.10155901312828064, -0.2548178732395172, 0.15684767067432404, -0.08232341706752777, -0.16358816623687744, 0.10444314777851105, 7.26848011254333e-05, -0.000596526893787086], [-0.039262283593416214, 0.005322878714650869, -0.009782124310731888, -0.0840965062379837, -0.021588744595646858, -0.4946449100971222, -0.023786133155226707, 0.1410805732011795, -0.048262618482112885, 0.01712336204946041, 0.032919690012931824, 4.217721652821638e-06, 0.025180526077747345, 0.021502263844013214, -0.4587918817996979, -0.00517250644043088, -0.0009939761366695166, 0.0007178871892392635, -0.0006903328467160463, 0.2693732976913452, -0.2868712246417999, 0.0005307979881763458, -0.000422069919295609, -0.0500677265226841, -0.00023075993522070348, 0.04461407661437988, -8.142663136823103e-05, 0.000274287915090099, 0.0401281900703907, -0.033813443034887314, 0.002104063518345356, -0.2979418635368347, -0.3078635036945343, 0.039985720068216324, 0.08905411511659622, 0.00521896593272686, 0.010202337987720966, -0.25405505299568176, -0.0006049786461517215, -0.0010851988336071372], [1.1751570127671584e-05, -4.846418960369192e-06, 7.152390253395424e-07, 1.2211188732180744e-05, -6.830508937127888e-06, -1.260727640328696e-05, -1.8221979871668736e-06, 1.3920911442255601e-05, 2.147227496607229e-05, -5.356488372854074e-07, -3.1288189347833395e-05, 1.9533787920522627e-08, -2.145228791050613e-05, -4.705772425950272e-06, 1.2283276191737968e-05, 4.30102727477788e-06, -8.233835302462467e-08, 1.1541056110786485e-08, -3.146616833760163e-08, -1.9319497368996963e-05, 1.10702887923253e-06, 2.405285748352526e-08, -2.7198650442983308e-08, 1.1006698514393065e-05, -9.54343271075686e-09, 5.005362027077354e-07, 3.3419300660142426e-09, 6.283415387997593e-08, -3.957884928240674e-06, 7.719443601672538e-06, 7.629164144873357e-08, -7.730965990049299e-06, -1.451714888389688e-05, 0.0001626168959774077, 5.29388898939942e-06, -3.2094444577523973e-06, 1.7484640920883976e-05, -7.812488547642715e-06, -5.1404011713884756e-08, -6.702970978267331e-08], [-3.54637777491007e-05, -7.69355392549187e-06, 1.0273670341121033e-05, -3.628667400334962e-05, 5.0154987548012286e-05, 0.000333224656060338, -5.8964833442587405e-05, -0.00034099744516424835, -0.00011802571680163965, -2.1619560357066803e-05, 0.00023702711041551083, -2.0855996751834027e-07, 0.00015569405513815582, 5.9734456954174675e-06, -0.0003452572855167091, -2.4138902517734095e-05, 1.7748779157500394e-07, -1.0982057574437931e-07, 1.0862876109740682e-07, 8.981321298051625e-05, 0.0003353157371748239, 4.422327748443422e-08, -3.625619271474534e-08, -1.8303382603335194e-05, 2.218331331960144e-07, -9.293588846048806e-06, 2.049216618615901e-07, -1.4633290845722513e-07, 1.8323975382372737e-05, -2.7275287720840424e-05, -4.465710787826538e-07, 8.108078327495605e-05, 4.766756319440901e-05, -0.0004709605418611318, -0.00035510995076037943, 1.9941046502935933e-06, -0.00013768863573204726, 7.009243563516065e-05, 1.3938696952209284e-07, 5.186062708162353e-07], [-0.0053385039791464806, 0.052863143384456635, -0.007424996234476566, -0.10976605117321014, -0.07854732871055603, -0.07718395441770554, -0.020838990807533264, -0.07513550668954849, 0.9195586442947388, -0.0232723206281662, -0.02355409786105156, -1.0433523129904643e-05, -0.4719029664993286, 0.006277984939515591, -0.3544726073741913, -0.0459924042224884, 4.89676276629325e-05, -7.603730773553252e-05, 9.99115000013262e-05, 0.08456972986459732, -0.219269260764122, -0.00026344851357862353, -3.0298257115646265e-05, 0.01217418909072876, 4.277499556337716e-06, 0.017454391345381737, 0.00025947552057914436, -4.100889782421291e-05, -0.008063344284892082, 0.015422013588249683, -0.0001920459180837497, -0.14678342640399933, 0.705899178981781, -0.2877550721168518, -0.017654750496149063, 0.033430617302656174, 0.22585786879062653, -1.0594321489334106, 0.00022716053354088217, 0.00032875515171326697], [-0.012972621247172356, 0.5226022005081177, 0.3238540291786194, -0.13837751746177673, -0.1916898488998413, -0.02462724596261978, -0.5197428464889526, 0.13791495561599731, -0.012005435302853584, 0.04423297941684723, 0.05933569371700287, -0.00023844250245019794, 0.00647237291559577, -0.0024320506490767, 0.0023143093567341566, 0.018544089049100876, -5.021943070460111e-05, 2.486075936758425e-05, 0.0001349347730865702, 0.11042281240224838, -0.02714364603161812, 0.00032557715894654393, -0.00016525795217603445, -0.008898487314581871, 0.00032531959004700184, -0.01047573983669281, 0.00026168907061219215, 0.00019084227096755058, 0.10724161565303802, 0.05699856951832771, -0.0004919152706861496, 0.0034330571070313454, 0.03856499493122101, -0.001516771037131548, 0.08575861901044846, 0.2458501160144806, -0.13462454080581665, -0.056788213551044464, -0.0003303709381725639, 0.00041409084224142134], [-0.014971807599067688, -0.2408619523048401, 0.48126086592674255, -0.02995416894555092, 0.2190164178609848, -0.037295151501894, 0.37802207469940186, -0.0030588104855269194, -0.028423158451914787, -0.013930643908679485, -0.01942981593310833, -0.0007784427725709975, 0.0033460056874901056, -0.013737611472606659, -0.04740004241466522, 0.5482399463653564, -0.0015552352415397763, 0.0005250932299531996, -0.0010213666828349233, -0.03599032387137413, -0.044039420783519745, 0.0013291281647980213, 7.44472854421474e-05, 0.01300105545669794, 0.0005477746017277241, 0.0051053669303655624, 0.0012537973234429955, 0.001575276954099536, -0.029996013268828392, -0.012035645544528961, 0.0005185281625017524, 0.04561904817819595, 0.0073256464675068855, 0.0016957081388682127, 0.016033831983804703, -0.3658650815486908, 0.17844103276729584, -0.05761091783642769, -0.0015047102933749557, 0.0010899576591327786], [-0.007217049598693848, 0.06534340232610703, 0.02899097092449665, 0.293199747800827, -0.35567575693130493, 0.014287030324339867, 0.04159171134233475, -0.06785864382982254, -0.03568173199892044, -0.0667891874909401, -0.010559102520346642, 3.683774593810085e-06, -0.02186385542154312, -0.0034222567919641733, -0.029288308694958687, 0.04449571296572685, 0.0002636401040945202, -9.228145790984854e-05, 0.00031759936246089637, -0.5582018494606018, 0.05806240439414978, -0.00014817336341366172, -0.00030330661684274673, 0.004915701691061258, 3.5918621961172903e-06, -0.0064024366438388824, 2.8186595955048688e-05, -0.00011340004857629538, -0.022906895726919174, -0.043564051389694214, -0.0006468971259891987, -0.015664907172322273, 0.04105798155069351, -0.004732429515570402, -0.04968354478478432, -0.09512297064065933, 0.18226225674152374, -0.016987869516015053, 0.00026088362210430205, 0.0004111199814360589], [-0.005679314490407705, 0.036730214953422546, -0.17043621838092804, 0.691726803779602, 0.20313315093517303, 0.02359556220471859, 0.04744158685207367, -0.03137493133544922, 0.02083960734307766, 0.012922744266688824, 0.04105256497859955, -0.00016144146502483636, -0.016841594129800797, 0.04058729484677315, 0.0015755911590531468, -0.25904086232185364, 5.8729739976115525e-05, 0.00032817161991260946, -0.00019626945140771568, 0.0510832816362381, -0.06219605728983879, 0.0002638055884744972, 3.8569669413845986e-05, 0.01860783062875271, 0.00015301513485610485, -0.016426194459199905, 0.0001867369719548151, 0.00017018007929436862, -0.24224627017974854, 0.022692369297146797, 3.8589758332818747e-05, 0.007907161489129066, 0.038909751921892166, 0.004542851820588112, 0.014434121549129486, -0.445829838514328, -0.7101209759712219, 0.0630950853228569, -0.00015304666885640472, 0.000250355718890205], [-0.0019380353624001145, -0.037656646221876144, 0.0069725289940834045, -0.056121282279491425, 0.007479985244572163, 0.03838936612010002, 0.05349540710449219, 0.4410383105278015, 0.12869691848754883, -0.03388063982129097, 0.09787499159574509, -0.00019478818285278976, 0.2536868155002594, -0.03914227709174156, 0.30285581946372986, -0.021190043538808823, -0.000710201624315232, -0.0002482734271325171, -0.00010240454139420763, 0.035130683332681656, 0.24590089917182922, 0.0004692241200245917, -0.00010476096213096753, -0.021185917779803276, 0.0005549566121771932, -0.01884477585554123, 0.0008553923107683659, 0.0006844724994152784, 0.03848956525325775, -0.0574362650513649, -0.0003917932044714689, -0.025585558265447617, 0.08358706533908844, -0.06694046407938004, -0.1770564317703247, -0.06715372204780579, 0.04463085159659386, -0.24615222215652466, -0.0006656778859905899, 0.0007815305143594742], [-0.00823854748159647, 0.6251805424690247, -0.2934834659099579, -0.08076980710029602, -0.0324791856110096, -0.06367921829223633, 0.5193446278572083, -0.13172613084316254, -0.014459864236414433, 0.007930840365588665, -0.0031392413657158613, -9.813481301534921e-05, 0.002697793999686837, 0.018589692190289497, 0.041538625955581665, 0.17424803972244263, -0.0005570522625930607, -1.4142100553726777e-05, -0.0002890072937589139, -0.0705484077334404, 0.008961526677012444, 7.216777885332704e-05, 0.0002321926294825971, -0.009991820901632309, 6.0858910728711635e-05, 0.00022729558986611664, -0.00025601169909350574, 0.0002511726343072951, -0.05928019434213638, -0.012740242294967175, 0.00040857645217329264, 0.007433111779391766, -0.01672733575105667, -0.0009026038460433483, -0.01605457067489624, 0.15282218158245087, -0.04964389279484749, 0.023073246702551842, -0.0003281068056821823, -0.0003466985945124179], [0.006589171011000872, 0.017478158697485924, 0.017405690625309944, -0.17686773836612701, 0.08517290651798248, 0.24635061621665955, -0.009542644955217838, 0.2140703648328781, 0.05594028905034065, -0.007128268945962191, -0.13190098106861115, 7.304431346710771e-05, -0.25268131494522095, -0.004213518463075161, 0.29014983773231506, 0.007883024401962757, 0.0005001249955967069, -0.00018302950775250793, 0.00012794582289643586, 0.02288985811173916, 0.14653591811656952, -0.0003442356828600168, 0.00015262099623214453, -0.002813351806253195, -0.0002021969121415168, -0.01963219605386257, -0.0004545026458799839, -0.000402575999032706, -0.06280971318483353, -0.003555845934897661, -0.0003409839409869164, -0.16777080297470093, 0.2822900712490082, 0.1965961456298828, -0.030005231499671936, 0.026508763432502747, -0.05756170302629471, -0.0005025803111493587, 0.0006365792942233384, 2.7698763005901128e-05], [-0.3407778739929199, -0.05130646005272865, -0.020832901820540428, -0.1247783973813057, -0.025206033140420914, 0.10290205478668213, -0.007488839328289032, -0.161807119846344, -0.15368446707725525, 0.03267736732959747, 0.02937409281730652, 0.00048282925854437053, -0.03969089686870575, 0.041885506361722946, -0.1699286848306656, -0.04189478978514671, 0.00019621527462732047, 0.0002438181545585394, -3.1506660889135674e-05, 0.13792739808559418, 0.13223712146282196, 8.448529115412384e-05, -0.00013187130389269441, -0.01577405072748661, -0.0003450642398092896, -0.004814228042960167, -3.0165190764819272e-05, 0.00018677031039260328, 0.027585726231336594, 0.0018368297023698688, 0.0007481592474505305, 0.5002729296684265, 0.36381995677948, 0.04581257328391075, 0.11243227869272232, -0.007137778215110302, -0.13291983306407928, -0.9937986135482788, -0.00032781867776066065, -0.001104010851122439], [0.011676356196403503, -0.012455780059099197, 0.013785326853394508, 0.05365518480539322, 0.028838081285357475, -0.018070761114358902, -0.027782555669546127, 0.28168055415153503, 0.014156829565763474, 0.35119324922561646, 0.06300806254148483, -0.00037662702379748225, 0.04834951460361481, 0.5105413198471069, -0.03886701911687851, 0.13862931728363037, -0.0007779475999996066, 0.00017454700719099492, -0.00021272787125781178, 0.09212132543325424, -0.01271046418696642, 0.0008329983102157712, -0.00033109611831605434, 0.06255209445953369, 0.000510973681230098, -0.26572155952453613, 0.001637221546843648, 0.0012192627182230353, -0.3959467113018036, -0.07090263068675995, -0.00026378786424174905, -0.04699217528104782, 0.03315921872854233, -0.008376792073249817, -0.012797818519175053, 0.13586463034152985, -0.029196182265877724, 0.08979540318250656, -0.0007815778953954577, 0.0010574421612545848], [-0.055746033787727356, 0.004824578762054443, 0.0059156534262001514, -0.052114974707365036, -0.008148295804858208, -0.03725200518965721, -0.04217440262436867, -0.14898617565631866, 0.01816745474934578, 0.009902497753500938, 0.4921184778213501, 0.00018512766109779477, -0.1862029731273651, -0.03609224781394005, -0.08913160860538483, -0.006200211588293314, 0.0004086456319782883, -0.00011509648174978793, 1.5898587662377395e-05, 0.03170741721987724, -0.06145216152071953, -0.0001669537741690874, 0.0002541349094826728, -0.0056175231002271175, -0.00029251835076138377, 0.012775377370417118, -0.00023167584731709212, -0.00028015338466502726, -0.07910865545272827, 0.026791898533701897, -0.00013165606651455164, 0.013904508203268051, -0.06148162856698036, -0.0326443575322628, 0.06682565063238144, 0.03585357218980789, -0.014328799210488796, 0.06487125903367996, 0.000487698707729578, -0.00020892255997750908], [-0.000254801067057997, 0.0005773830343969166, -0.00030821276595816016, 0.0003442095476202667, 0.00041936736670322716, -0.0003519075398799032, 0.0002750139101408422, 0.0003312640474177897, -0.00033701022039167583, 5.195859193918295e-05, 8.371453441213816e-05, -7.560523226857185e-05, 6.683535320917144e-05, -0.00030776174389757216, 0.00010844656935660169, -0.00048744864761829376, 1.3949354979558848e-05, -1.3001330444240011e-05, 5.500927272805711e-06, -0.0003331532934680581, 0.00017731613479554653, 4.0622635424369946e-05, -1.2442353181540966e-05, -0.00028156975167803466, 7.218616519821808e-05, 1.0218107490800321e-05, 9.160580520983785e-05, -1.0399669008620549e-05, 0.00026090911705978215, 0.00023683843028265983, -0.00011335792805766687, -0.00021880277199670672, 0.0001395533763570711, -0.0002651565882842988, 0.00011037813237635419, -0.0003917063295375556, -0.0007306218612939119, 8.061596599873155e-05, 1.6596299246884882e-05, 0.00017654718249104917], [-0.0706213042140007, -0.016075965017080307, 0.02118539623916149, 0.07260377705097198, 0.02627192810177803, 0.02078285813331604, -0.003309367224574089, 0.5205881595611572, -0.3516749143600464, -0.03383813425898552, -0.014691413380205631, 9.937785944202915e-05, 0.12528003752231598, 0.03546571359038353, -0.07447364926338196, -0.017638279125094414, 0.0002507746103219688, 0.00012324888666626066, 0.00010123457468580455, -0.048069145530462265, -0.25001227855682373, -0.0001239105622516945, 0.00010531104635447264, 0.03994552418589592, -0.00026220318977721035, -0.012896458618342876, -0.00015461847942788154, -0.00014029447629582137, 0.005829467438161373, 0.013105926103889942, -3.860814467770979e-05, -0.015050360932946205, -0.3116054832935333, 0.03534695878624916, -0.04571704939007759, 0.01184365525841713, -0.017530014738440514, 0.18050731718540192, 8.657550642965361e-05, -0.00031676978687755764], [-0.02111121080815792, -0.025916172191500664, -0.016384746879339218, 0.051823411136865616, 0.06960175931453705, -0.006760274991393089, -0.017736636102199554, -0.08389405161142349, -0.029111668467521667, -0.5544977784156799, 0.06527150422334671, 0.00017186070908792317, -0.012412571348249912, 0.31755584478378296, -0.09603732079267502, 0.03737425059080124, 0.0005329439300112426, -9.535175195196643e-05, 0.00040155439637601376, 0.07672036439180374, -0.11056660860776901, -0.0006955207209102809, 0.00010395357821835205, 0.771586537361145, -0.0005215741111896932, -0.020919034257531166, 0.0002752227883320302, -0.0005324771627783775, -0.21367137134075165, 0.26121923327445984, -0.0011486605508252978, 0.06272256374359131, 0.007634902372956276, -0.0023994804359972477, 0.02606123499572277, -0.031781312078237534, 0.10539764165878296, -0.10903025418519974, 0.0007920737261883914, 0.0006095503340475261], [0.5875669121742249, 0.021447302773594856, -0.006691229995340109, 0.0631188377737999, 0.0373997800052166, 0.29719120264053345, 0.0013827625662088394, 0.2562301754951477, 0.0779995247721672, 0.0018130234675481915, 0.18070587515830994, 0.00046531230327673256, 0.04683437943458557, 0.03663809597492218, 0.18818560242652893, -0.021120339632034302, 4.178259041509591e-05, 0.00021144903439562768, 1.725543916109018e-05, -0.0735044777393341, 0.4741670489311218, -0.0005268122768029571, 0.00022655772045254707, 0.023571636527776718, -0.0003406930773053318, 0.013520210050046444, -0.00023518814123235643, -0.000417935021687299, 0.047291625291109085, 0.002819653367623687, 0.0007915042224340141, 0.4668412506580353, 0.12522093951702118, 0.16680477559566498, 0.05719145014882088, -0.006342706736177206, -0.1269790083169937, 0.016524914652109146, 0.00017340089834760875, -0.000736118177883327], [0.014165209606289864, 0.0033263135701417923, -0.5991009473800659, -0.004286644980311394, 0.23248755931854248, 0.02162119559943676, -0.22840562462806702, -0.17490480840206146, 0.04057573154568672, -0.00977584533393383, -0.05591198056936264, -7.330696826102212e-05, 0.029819371178746223, -0.004617935046553612, -0.011514237150549889, 0.4405163824558258, 0.0006527932710014284, -1.479550246585859e-05, 0.00021042079606559128, -0.17006665468215942, 0.026793155819177628, -0.0003332936903461814, 0.0001545762352179736, -0.018317541107535362, 6.426932668546215e-05, 0.012356863357126713, -0.0002743396908044815, -0.0005770768038928509, -0.1325140744447708, -0.04528767615556717, -0.0003551744157448411, -0.001959058688953519, -0.012638947926461697, -0.0012625454692170024, 0.015346835367381573, 0.007150543387979269, 0.20045161247253418, 0.04886849224567413, 0.0005596662522293627, 5.548364424612373e-05], [-0.00022424213238991797, 0.0005058351089246571, -0.0007285437313839793, 0.0002113942609867081, 0.0005556376418098807, -0.0001077058186638169, 0.0009555755532346666, 0.0003634423774201423, -0.0003528123488649726, -0.00044570170575752854, 9.116016735788435e-05, -0.00010813972767209634, 0.00017011218005791306, -0.0006048917421139777, 0.00012936623534187675, -0.0005043358542025089, -2.205167584179435e-05, -1.5664734746678732e-05, 8.057441846176516e-06, -0.0005012006731703877, 0.0002185056800954044, 8.275293657789007e-05, -1.0634450518409722e-05, -2.8637388822971843e-05, 9.092035179492086e-05, 5.03878909512423e-05, 0.00017494206258561462, 5.637571302941069e-05, 0.00044840204645879567, 0.00016810017405077815, -0.0001756161655066535, 0.0002831225283443928, 0.0006886929622851312, -0.0009151393896900117, 7.184671994764358e-05, -0.00037827063351869583, -0.0006933357217349112, 0.0004363376647233963, -1.783779043762479e-05, 0.0002744787489064038], [0.00021825711883138865, -0.0003723387198988348, 0.0002291507989866659, -5.765170044469414e-06, -0.000347863242495805, -0.0001661141577642411, -2.447480619593989e-05, 4.029941919725388e-05, -0.00013431203842628747, -5.029213207308203e-05, -8.362659718841314e-05, 4.628679562301841e-06, 0.0002791506703943014, 0.00023359476472251117, -9.684557153377682e-05, 0.0001184785578516312, -2.066159140667878e-05, -1.9176759451511316e-06, -8.659681952849496e-06, 0.00011248070222791284, -0.00020019448129460216, 8.49431671667844e-06, -3.685778665385442e-06, 2.899039100157097e-05, 3.281861154391663e-06, 0.00018896763504017144, -5.093145318824099e-06, 1.5605213775415905e-05, -0.00012278610665816814, -0.0001302631280850619, 1.75445184140699e-05, 0.00046923276386223733, -0.000792472914326936, 0.00024111400125548244, 3.86688370781485e-05, 0.00040531178819946945, 2.3129623514250852e-05, -0.0002211840619565919, -1.9526094547472894e-05, -2.0500268874457106e-05], [-9.009039786178619e-06, 0.0005179333384148777, -0.0004467020044103265, 0.00020858283096458763, 0.000496293359901756, -0.0001684744202066213, 0.0007112949970178306, 0.0003005404432769865, -0.00039947935147210956, -0.0004574467893689871, -1.575453825353179e-05, -4.522293966147117e-05, 2.4623222998343408e-05, -0.000386191182769835, 5.708079333999194e-05, -0.0003501080209389329, 7.267830369528383e-06, -3.258735432609683e-06, 6.321832870526123e-07, -0.0002657997829373926, -1.1859925507451408e-05, 3.093888153671287e-05, 7.321411885641282e-07, 8.130532660288736e-05, 3.6000219552079216e-05, -0.00017917444347403944, 7.143954280763865e-05, 9.65233539318433e-06, 0.0003430926881264895, 0.00037011870881542563, -5.8225250540999696e-05, -0.00047617574455216527, 0.0006701223319396377, -0.0004665399028453976, 3.845429091597907e-06, -0.0005275763105601072, -0.000157933754962869, 0.00034949759719893336, 5.769005383626791e-06, 0.00011426726268837228], [0.003899927483871579, -0.042074285447597504, 0.050121910870075226, 0.357276052236557, 0.3548505902290344, -0.020368970930576324, -0.0760062038898468, 0.0009497439605183899, 0.042951684445142746, 0.04714300483465195, -0.004604370333254337, -3.165539965266362e-05, 0.048161670565605164, -0.05736803263425827, -0.007106384262442589, 0.13181506097316742, -0.00020582396246027201, -6.888504140079021e-05, 0.00012058288120897487, 0.4068215787410736, 0.0392867773771286, -9.693295578472316e-05, -0.00020013871835544705, -0.03913548216223717, 0.00010925098467851058, 0.00808472279459238, 7.883675425546244e-05, -0.00010445081716170534, 0.30202555656433105, 0.026643669232726097, -2.5479832402197644e-05, 0.03725319728255272, -0.026097862049937248, -0.004694684408605099, 0.015856267884373665, 0.40957024693489075, 0.10421840846538544, -0.07050762325525284, 1.73525586433243e-05, 7.818380981916562e-05], [-0.09573755413293839, 0.03328579664230347, -0.044420599937438965, 0.06297916918992996, 0.10579495877027512, -0.004681149497628212, -0.0397481843829155, -0.1486482471227646, 0.12112437933683395, -0.016691703349351883, 0.03401340916752815, 8.215333946282044e-05, -0.1805550903081894, 0.019020115956664085, 0.42758098244667053, -0.04488098993897438, 1.8953029211843386e-05, -0.00012108466034987941, 0.00010479754564585164, -0.023758944123983383, 0.40736016631126404, -0.00015830170013941824, 0.0003500482125673443, 0.028395334258675575, 0.00021837280655745417, -0.012277105823159218, 0.0001476334291510284, -0.0001575508649693802, 0.0005767144612036645, 0.043956857174634933, -1.5239718777593225e-05, -0.014893796294927597, 0.17645426094532013, 