{"model_data": {"model": "SimpleRNN", "input_size": 1, "skip": 1, "output_size": 1, "unit_type": "GRU", "num_layers": 1, "hidden_size": 20, "bias_fl": true}, "state_dict": {"rec.weight_ih_l0": [[0.026822594925761223], [-0.004841226618736982], [-0.011196700856089592], [-0.06291262805461884], [0.03238847106695175], [0.02086537517607212], [0.06587588042020798], [-0.11040057986974716], [0.009698347188532352], [-0.05728991702198982], [-0.04079362750053406], [0.010584189556539059], [0.050149574875831604], [0.02875901199877262], [0.03809771686792374], [-0.006634572986513376], [-0.02522708848118782], [0.11340095847845078], [-0.046097803860902786], [0.11951924860477448], [-0.0004045196692459285], [0.013669021427631378], [-0.011361829936504364], [-0.003345960984006524], [-0.006605790928006172], [0.06249541416764259], [-0.004667894449084997], [-0.022752683609724045], [0.0047764345072209835], [0.003133351681753993], [0.006372781936079264], [0.002211244311183691], [0.005141580011695623], [-0.0016309322090819478], [-0.06311625987291336], [0.01016949862241745], [0.0053419554606080055], [0.10792481899261475], [0.06848417967557907], [0.00408794404938817], [-0.8834587931632996], [0.562974214553833], [0.888481080532074], [-0.5694723129272461], [1.2292088270187378], [0.11283116042613983], [-1.964808464050293], [-0.05593942850828171], [-0.6124300956726074], [-1.2640596628189087], [0.4421082139015198], [1.2138739824295044], [0.3692827522754669], [0.5513628125190735], [0.2531152665615082], [-0.2054193764925003], [0.47310420870780945], [0.31240135431289673], [0.21622255444526672], [0.7672934532165527]], "rec.weight_hh_l0": [[-0.020829888060688972, 0.02435627579689026, 0.09611386805772781, 0.04108960181474686, 0.057869572192430496, 0.15879522264003754, -0.03490409255027771, 0.06131823733448982, -0.008041604422032833, -0.035816822201013565, -0.06133471056818962, 0.12414126843214035, 0.03602541610598564, -0.02923770621418953, -0.014139383099973202, 0.0026966591831296682, 0.03622746840119362, 0.11090738326311111, 0.01845504157245159, 0.0025701592676341534], [0.030489925295114517, 0.11148073524236679, 0.023348085582256317, 0.07400860637426376, -0.009075075387954712, -0.2992887496948242, 0.04533947631716728, -0.24228660762310028, -0.012683186680078506, -0.03496314212679863, -0.0021404908038675785, 0.042489878833293915, 0.029616132378578186, -0.02312948927283287, -0.22525057196617126, 0.019416896626353264, -0.05208240821957588, -0.09883439540863037, -0.04843657836318016, 0.021548859775066376], [0.09446059167385101, -0.017426034435629845, -0.1734745055437088, 0.4043731987476349, 0.044338345527648926, -0.38077419996261597, -0.06915441155433655, -0.7170319557189941, -0.04851594194769859, 0.0657147765159607, -0.1374526023864746, 0.024098630994558334, 0.1571422666311264, -0.018501896411180496, -0.49085572361946106, 0.0298633836209774, -0.2533954381942749, -0.36096835136413574, 0.03613564744591713, 0.08389091491699219], [0.06017277389764786, -0.14824162423610687, 0.1759304404258728, 0.11308562755584717, 0.012425128370523453, 0.038399651646614075, -0.17798979580402374, -0.5338605642318726, -0.0019935290329158306, 0.03926398232579231, -0.22568777203559875, -0.15622347593307495, 0.1117638647556305, -0.07247214019298553, 0.03805040940642357, 0.13584275543689728, -0.19715355336666107, 0.008731039240956306, -0.07196006178855896, 0.01698152720928192], [-0.07029957324266434, -0.14444614946842194, 0.480118066072464, -0.13530738651752472, -0.1297706514596939, -0.07767195254564285, 0.06662809103727341, -0.059517718851566315, -0.007378370501101017, 0.07801907509565353, 0.0614556260406971, -0.19003665447235107, 0.034946903586387634, 0.04930410906672478, 0.1876397728919983, -0.13857536017894745, -0.011174737475812435, 0.10753183811903, 0.12947815656661987, -0.04155115783214569], [0.13085167109966278, 0.14634071290493011, -0.09380051493644714, 0.06258390843868256, -0.0031673158518970013, -0.5110459327697754, 0.045846935361623764, -0.18697962164878845, -0.03832736983895302, -0.10640887916088104, -0.11121051013469696, 0.16006986796855927, 0.08164383471012115, -0.0689782202243805, -0.3871738314628601, 0.006276196800172329, -0.12883061170578003, -0.20043128728866577, -0.29300713539123535, 0.0056907301768660545], [0.04186635836958885, 0.013481366448104382, -0.01288570836186409, -0.14788933098316193, -0.07437293231487274, -0.44947922229766846, 0.011417710222303867, 0.15659931302070618, 0.0016803882317617536, -0.15174542367458344, -0.025781815871596336, 0.06696973741054535, -0.0626337006688118, -0.05028526112437248, -0.015182986855506897, 0.0060445093549788, -0.1590624451637268, -0.11320111155509949, -0.22813759744167328, -0.048111505806446075], [0.05959446728229523, -0.09123523533344269, 0.07985350489616394, 0.21973304450511932, -0.09365998208522797, -0.17818006873130798, -0.11057515442371368, -0.44587522745132446, -0.09136755764484406, 0.05547157675027847, -0.11641228944063187, -0.07143741846084595, 0.11821245402097702, -0.016830984503030777, -0.1824967861175537, 0.010223984718322754, -0.14216920733451843, -0.11674871295690536, -0.00985799916088581, 0.07005278021097183], [0.07421468943357468, -0.05650322884321213, -0.03961469605565071, 0.02607336826622486, -0.042792972177267075, -0.2611633539199829, 0.0056807477958500385, -0.10993348062038422, 0.00873515009880066, -0.03589383140206337, -0.028417862951755524, 0.052989162504673004, 0.013225795701146126, -0.006582717411220074, -0.0690414234995842, -0.026153115555644035, -0.14906613528728485, -0.1651102602481842, -0.10272474586963654, 0.010076448321342468], [0.09202171862125397, 0.07301852107048035, -0.18169529736042023, -0.08852078020572662, -0.0225476436316967, -0.29262101650238037, -0.019652608782052994, -0.07369241118431091, 0.009117293171584606, -0.06631670147180557, -0.12170664221048355, -0.0011489673051983118, 0.10647917538881302, -0.04656457155942917, -0.05167004466056824, 0.05071164295077324, -0.06859368085861206, -0.18765956163406372, -0.12835414707660675, -0.05696675553917885], [0.07296352833509445, 0.17809218168258667, -0.6329426169395447, 0.05501547455787659, -0.06317303329706192, -0.06414978951215744, 0.10148578137159348, 0.09706154465675354, 0.030004791915416718, -0.021409491077065468, 0.21985149383544922, 0.10431532561779022, -0.12884491682052612, -0.0327785350382328, 0.015339009463787079, 0.099554643034935, 0.12416990101337433, -0.14965137839317322, -0.017353909090161324, 0.009250101633369923], [0.06800245493650436, 0.003055847715586424, -0.06331322342157364, 0.19978134334087372, 0.017522942274808884, -0.44527873396873474, 0.026565946638584137, -0.4353342056274414, -0.028710121288895607, -0.006108013913035393, -0.08374913036823273, -0.023895179852843285, 0.09903039783239365, 0.000902746629435569, -0.3156105577945709, -0.034754011780023575, -0.1841346174478531, -0.21295595169067383, -0.044810499995946884, 0.06748155504465103], [0.08641764521598816, 0.24824883043766022, -0.26048043370246887, -0.01219211146235466, -0.047928400337696075, 0.003542425110936165, -0.10384272783994675, 0.1134440079331398, -0.09782662987709045, -0.1606162190437317, 0.014474267140030861, 0.4527583718299866, 0.05079392343759537, -0.09407342970371246, 0.05673357844352722, 0.016743626445531845, 0.037284791469573975, 0.06352174282073975, -0.13501733541488647, -0.005287501495331526], [0.03724151849746704, 0.045389775186777115, -0.14490178227424622, 0.06589251011610031, 0.010675890371203423, -0.03968582674860954, -0.08485259860754013, 0.10489559918642044, 0.014239958487451077, -0.036002207547426224, 0.008879625238478184, 0.13999950885772705, -0.027234135195612907, -0.046880945563316345, -0.0011964035220444202, 0.043860066682100296, -0.017423110082745552, -0.1543264538049698, -0.06148863583803177, 0.008972438983619213], [-0.007220863364636898, 0.19595299661159515, -0.48167094588279724, 0.14181654155254364, 0.057072579860687256, 0.03487526997923851, -0.01677560806274414, -0.12153203785419464, -0.027605580165982246, 0.008036061190068722, 0.057011887431144714, 0.17103971540927887, -0.028766511008143425, -0.010505842044949532, -0.29712560772895813, 0.11812364310026169, 0.05063626542687416, -0.25784218311309814, 0.07381849735975266, 0.005944523960351944], [0.04200046509504318, -0.0005218504229560494, -0.16424797475337982, 0.06049153581261635, -0.04769797995686531, 0.018657488748431206, -0.13781584799289703, 0.04175635054707527, 0.1208612248301506, -0.044418588280677795, -0.08954205363988876, 0.002169602084904909, -0.04805872216820717, -0.10224094241857529, -0.24264754354953766, 0.2582353949546814, -0.08070135861635208, -0.17034028470516205, -0.12512139976024628, -0.020285939797759056], [-0.011016988195478916, -0.07326687127351761, 0.16258807480335236, 0.015510618686676025, -0.032786112278699875, -0.07131500542163849, 0.01189559604972601, -0.17348834872245789, -0.06457056850194931, -0.013734927400946617, -0.044946298003196716, 0.015008358284831047, 0.018008681014180183, -0.00862933974713087, 0.08382927626371384, -0.05472880229353905, -0.034102339297533035, 0.30484041571617126, -0.03209764510393143, 0.01946820504963398], [-0.022157523781061172, 0.2342885136604309, -0.3465336263179779, 0.007915286347270012, 0.08120858669281006, -0.03976838290691376, -0.004121767356991768, 0.012085642665624619, -0.16188009083271027, -0.098970428109169, 0.008676397614181042, 0.25093674659729004, 0.07092700153589249, -0.023725051432847977, -0.3632539212703705, 0.07414700090885162, 0.04572770744562149, -0.07494217157363892, 0.007724632043391466, 0.02548338659107685], [0.0021625347435474396, 0.295271635055542, 0.0885368138551712, 0.10652673244476318, -0.014860137365758419, -0.26371949911117554, 0.12372802197933197, -0.13607612252235413, 0.14962217211723328, -0.18570710718631744, -0.0219414085149765, 0.17185428738594055, 0.007562099955976009, -0.15062105655670166, -0.3059122562408447, 0.24429306387901306, -0.03920583054423332, -0.11139767616987228, -0.12360485643148422, -0.14573253691196442], [-0.026248818263411522, 0.04991624131798744, 0.2609063684940338, -0.23689867556095123, 0.010143307968974113, -0.13908177614212036, 0.05095883831381798, 0.2003464698791504, -0.08913041651248932, -0.13574175536632538, 0.04746933653950691, 0.20311740040779114, 0.002179246861487627, -0.001765165594406426, 0.3328794538974762, -0.22754955291748047, -0.008215539157390594, -0.008185191079974174, -0.056618113070726395, -0.05197286978363991], [-0.020795535296201706, -0.03766972944140434, -0.03715163841843605, -0.05210605263710022, -0.006528254598379135, 0.1363532990217209, 0.00503015099093318, 0.12614455819129944, -0.008204998448491096, 0.01711156964302063, 0.05566138029098511, -0.026454033330082893, -0.04627332463860512, 0.027395082637667656, 0.13576862215995789, -0.02567329816520214, 0.04870816320180893, 0.07659498602151871, 0.02819826453924179, -0.018347039818763733], [-0.047094639390707016, 0.023421376943588257, 0.011517676524817944, -0.039014559239149094, 0.02727331407368183, 0.15916959941387177, -0.013468747958540916, 0.08292190730571747, -0.02178327366709709, -0.0009687637793831527, 0.012786239385604858, 0.010281914845108986, -0.010469053871929646, 0.0037256956566125154, 0.06293677538633347, -0.002795417094603181, 0.08270328491926193, 0.13199488818645477, 0.05697645619511604, -0.006667700596153736], [-0.01325253490358591, 0.13962019979953766, -0.12279212474822998, -0.2919948697090149, -0.04903304949402809, 0.345075398683548, -0.03350123018026352, 0.7217072248458862, 0.11448682099580765, -0.10728023201227188, 0.1768270581960678, 0.1491089016199112, -0.2414146214723587, -0.04337404668331146, 0.3343932330608368, 0.1251072734594345, 0.22798608243465424, 0.10520590096712112, -0.1456485390663147, -0.06259795278310776], [-0.04551275074481964, 0.05457253381609917, 0.024876117706298828, -0.13188868761062622, -0.012408371083438396, 0.2666008770465851, -0.009709981270134449, 0.2986084222793579, 0.04347209259867668, -0.0202974583953619, 0.07908850163221359, -0.0018246418330818415, -0.08927667886018753, -0.010684043169021606, 0.16549451649188995, 0.04007713496685028, 0.1508530080318451, 0.11226232349872589, 0.011461272835731506, -0.04650946334004402], [0.000396891962736845, 0.1273745447397232, -0.0767342820763588, 0.042997363954782486, 0.02961140312254429, 0.21248380839824677, -0.06872139126062393, 0.13305708765983582, 0.027168555185198784, -0.023726893588900566, 0.053662825375795364, 0.20810073614120483, -0.03310011699795723, -0.026878269389271736, -0.002065845299512148, 0.1450006067752838, 0.11542927473783493, 0.050819672644138336, 0.019204694777727127, -0.0038733254186809063], [0.07431647181510925, -0.11954744905233383, 0.3450622856616974, 0.21791845560073853, 0.2776891887187958, -2.326411724090576, 0.7862416505813599, -0.8396378755569458, -0.16961108148097992, 0.31710100173950195, 0.004788639489561319, -0.11937519907951355, 0.027148570865392685, 0.46856823563575745, -0.4193195700645447, -0.6003208160400391, -0.5410333871841431, -0.27153727412223816, 0.1483834981918335, 0.34250572323799133], [-0.08588765561580658, 0.02625279314815998, 0.014232142828404903, -0.10764744877815247, 0.01867200993001461, 0.4764106571674347, -0.04945969954133034, 0.3346261978149414, 0.009503212757408619, 0.01952926628291607, 0.07601609081029892, 0.0005279108881950378, -0.06633542478084564, 0.011995893903076649, 0.22528022527694702, 0.06898346543312073, 0.21032744646072388, 0.26554563641548157, 0.10389076173305511, -0.045086201280355453], [0.18517102301120758, -0.3431893587112427, -0.4765368402004242, 0.7077241539955139, -0.1858987808227539, -0.1514553427696228, -0.43813836574554443, -0.3899673819541931, 0.12541331350803375, 0.08703352510929108, -0.28817930817604065, -0.1489296555519104, 0.011688980273902416, -0.08140771090984344, -0.7821227312088013, 0.15041714906692505, -0.48820799589157104, -0.43339234590530396, -0.0577477291226387, 0.19555066525936127], [-0.06909716129302979, 0.012942233122885227, 0.027736913412809372, -0.06561262160539627, 0.015917157754302025, 0.33121076226234436, -0.029705271124839783, 0.19968508183956146, -0.004067328758537769, 0.020480720326304436, 0.0613509863615036, -0.021795004606246948, -0.0366348922252655, 0.016036465764045715, 0.15515637397766113, 0.03914498910307884, 0.1446799784898758, 0.19522514939308167, 0.09741034358739853, -0.03872547671198845], [-0.0626177117228508, 0.010910696350038052, -0.017583228647708893, -0.13394795358181, -0.0007118866196833551, 0.3277054727077484, -0.011840246617794037, 0.32329002022743225, 0.014091082848608494, 0.0019591189920902252, 0.08516275137662888, -0.024850880727171898, -0.0887504518032074, 0.012990119867026806, 0.21542872488498688, 0.0250879917293787, 0.15076036751270294, 0.1845674067735672, 0.04755192622542381, -0.04221363365650177], [-0.06304612755775452, -0.14277565479278564, 0.1110641285777092, -0.08534533530473709, 0.0043527004308998585, 0.11810377985239029, 0.042301055043935776, 0.0850108191370964, -0.05189482867717743, 0.03225574269890785, -0.09744404256343842, -0.1751154661178589, 0.05825474485754967, 0.025270039215683937, 0.1506778597831726, -0.0991000235080719, 0.008631987497210503, 0.2402792125940323, 0.04964841529726982, -0.0025021000765264034], [-0.09582332521677017, 0.023180970922112465, -0.013567937538027763, -0.13105903565883636, 0.01865624450147152, 0.4938969314098358, -0.054381705820560455, 0.3686636984348297, 0.00268490519374609, 0.018352864310145378, 0.09583555907011032, -0.01546423602849245, -0.08110085129737854, 0.01776508055627346, 0.25723910331726074, 0.05786559358239174, 0.22242747247219086, 0.2777329981327057, 0.10299961268901825, -0.04961792379617691], [-0.04129674285650253, 0.05870095640420914, 0.10078176856040955, -0.07663833349943161, -0.0013124642428010702, 0.13173972070217133, 0.02271689660847187, 0.14379902184009552, 0.05351957678794861, -0.010109948925673962, 0.02264402247965336, -0.10063089430332184, -0.045117270201444626, -0.01945376582443714, 0.04418693855404854, 0.032571591436862946, 0.08616597950458527, 0.04632732272148132, 0.02102404460310936, -0.03147471323609352], [-0.02162850648164749, 0.02553478442132473, 0.010113440454006195, -0.007731569465249777, 0.006788363214582205, 0.07117149978876114, 0.0033949112985283136, 0.058491822332143784, 0.015429195016622543, 0.0020473275799304247, 0.004996074829250574, -0.03256819024682045, -0.008839106187224388, -0.006657439284026623, 0.015395763330161572, 0.024517443031072617, 0.0518515519797802, 0.04598751664161682, 0.018038373440504074, -0.013717693276703358], [0.09316504746675491, -0.1642913520336151, -0.9542197585105896, 0.3112201690673828, -0.07240067422389984, -0.20212604105472565, 0.03360439091920853, -0.20604297518730164, -0.10183344036340714, 0.09419582784175873, 0.02663613110780716, -0.09952586889266968, 0.049781039357185364, 0.04195886850357056, -0.0649566724896431, 0.027647336944937706, -0.16758708655834198, -0.07171176373958588, 0.001677943393588066, 0.09577349573373795], [0.007318128366023302, 0.12598489224910736, -0.16285328567028046, 0.07448091357946396, 0.025090746581554413, -0.04936349019408226, -0.006496661342680454, -0.009476380422711372, 0.025088857859373093, -0.01830662228167057, 0.04560906067490578, 0.007329012732952833, -0.027239874005317688, -0.022625504061579704, -0.06083003059029579, 0.05508528649806976, 0.03472316265106201, -0.0986286923289299, 0.0002794075116980821, -0.010140505619347095], [0.006090470589697361, -0.04831112548708916, 0.02714584954082966, 0.07199863344430923, 0.047340936958789825, -0.13048531115055084, -0.019586971029639244, -0.2886527180671692, -0.04406464844942093, 0.03531622514128685, -0.06448285281658173, 0.02702479250729084, 0.06552231311798096, 0.021755345165729523, -0.1424957811832428, -0.07175860553979874, -0.08521653711795807, -0.10746194422245026, 0.06624659895896912, 0.048318106681108475], [-0.02190457098186016, 0.09373284131288528, 0.5834034085273743, 0.07647276669740677, -0.01934746280312538, -0.07771063596010208, 0.03682786226272583, -0.09371918439865112, -0.02555833011865616, -0.035706207156181335, 0.08480266481637955, 0.2187872976064682, 0.007296717260032892, 0.01985604129731655, 0.011147260665893555, -0.012583493255078793, -0.12738990783691406, -0.2515539824962616, 0.10925044864416122, -0.09449596703052521], [0.14632824063301086, 0.26064056158065796, 0.5339906215667725, 0.6795796751976013, 0.22888699173927307, -0.38066741824150085, -0.3064538240432739, -0.529752254486084, -0.15896514058113098, -0.07194114476442337, -0.4312930107116699, 0.44470518827438354, 0.2649889588356018, 0.09481102228164673, -0.4784557819366455, -0.6101047992706299, -0.24159494042396545, -0.500262439250946, -0.004927937872707844, 0.48539334535598755], [-0.03656066954135895, 0.03319360688328743, 0.049459993839263916, -0.007587689906358719, 0.025451209396123886, 0.21237029135227203, -0.03180196136236191, 0.11301752179861069, -0.011779431253671646, 0.0023485419806092978, 0.01631760783493519, 0.07201472669839859, 0.003068939782679081, 0.000315085839247331, 0.06429659575223923, 0.04892297089099884, 0.09719940274953842, 0.1496637761592865, 0.056969400495290756, -0.01487636473029852], [-0.02335754595696926, -0.04661566764116287, -0.18293720483779907, 0.027792872861027718, -0.1894088089466095, -0.06311547011137009, 0.03917744383215904, -0.012022383511066437, -0.11777842044830322, -0.0321919322013855, 0.04739214852452278, 0.1545954942703247, -0.05718114972114563, -0.057024236768484116, 0.2069227248430252, 0.045104578137397766, -0.04959540814161301, -0.12488265335559845, -0.05893447995185852, -0.01026673149317503], [-0.20380385220050812, 0.3919908404350281, -0.11164192855358124, -0.31223049759864807, 0.33507394790649414, -0.3825056254863739, -0.47200512886047363, 0.09624503552913666, 0.24572238326072693, -0.327115535736084, 0.1807556301355362, 0.24526168406009674, 0.11247018724679947, 0.06642137467861176, -0.32050418853759766, 0.19851379096508026, 0.23162783682346344, -0.1392783522605896, 0.09371290355920792, 0.20277518033981323], [-0.5512338876724243, 1.058341383934021, 1.8469594717025757, -0.7240930199623108, 0.7215262055397034, -0.015359538607299328, -1.84432053565979, -0.6390112042427063, -0.9425913691520691, -0.8653264045715332, 0.2745645344257355, 2.0608437061309814, 0.5323731899261475, 0.2643296420574188, 0.3409586548805237, -0.4716603755950928, 0.388910174369812, 0.3420744836330414, -0.5272232294082642, 0.5919642448425293], [-0.05504254996776581, 0.09065324068069458, -0.5876926183700562, 0.2094830572605133, -0.06522814184427261, 0.2017868310213089, 0.33281412720680237, -0.2044176161289215, -0.000961969664786011, 0.2920939028263092, -0.25404641032218933, -0.21544109284877777, -0.19093330204486847, -0.2614858150482178, -0.0464252270758152, 0.00883433222770691, 0.1005546972155571, 0.03068479709327221, 0.8764544129371643, -0.1726835072040558], [-0.08310411125421524, -0.039777256548404694, -0.28308895230293274, 0.21806016564369202, 0.30255964398384094, -0.19199177622795105, 0.23203791677951813, 0.039975591003894806, 0.13798294961452484, 0.0680294781923294, 0.038733646273612976, -0.14312328398227692, 0.11307846754789352, 0.12709392607212067, -0.05956103652715683, -0.23489877581596375, 0.17185552418231964, -0.25530484318733215, 0.010420695878565311, 0.07706929743289948], [-0.13046541810035706, -0.5252905488014221, 0.15503785014152527, 0.16525179147720337, 0.3654014468193054, 0.5685548186302185, 0.016457192599773407, 0.1314881443977356, -0.2172715812921524, 0.3296146094799042, 0.31071463227272034, -0.5130332708358765, -0.27510207891464233, 0.3241179287433624, 0.32910966873168945, -0.4114905297756195, 0.00696385046467185, 0.2708396911621094, 0.8215691447257996, -0.04078935459256172], [0.04025941714644432, 0.31728628277778625, 0.16378867626190186, -0.029705218970775604, -0.1454634815454483, -0.6779674291610718, 0.6816875338554382, 0.5080528259277344, -0.36782050132751465, 0.7748252749443054, -0.08946073800325394, 0.3198509216308594, -0.2696339190006256, -0.164315864443779, 0.017760632559657097, -0.062024254351854324, 0.17043592035770416, 0.22254611551761627, 1.1140737533569336, -0.33806636929512024], [-0.2602559030056, 0.3890167772769928, 0.4553755521774292, -0.42337143421173096, 0.15130478143692017, 0.30433258414268494, -0.0697111263871193, 0.517916738986969, 0.21348215639591217, 0.1011444553732872, 0.14796708524227142, -0.09442069381475449, -0.3520498275756836, -0.05521860346198082, 0.3569280803203583, -0.12487580627202988, 0.4215891659259796, -0.03676243871450424, 0.33528071641921997, -0.18533751368522644], [0.2939912676811218, -0.03772270306944847, 0.31927311420440674, 0.4252159893512726, -0.3773813545703888, 0.1602814793586731, 0.29739266633987427, 0.25629112124443054, -0.2311781495809555, 0.4182404577732086, 0.04800459370017052, 0.12755529582500458, -0.5019872784614563, -0.3378119468688965, -0.1733284592628479, 0.13164590299129486, 0.1494557410478592, -0.2609412372112274, -0.18287575244903564, -0.13094918429851532], [-0.025785258039832115, -0.019413137808442116, -0.014880185015499592, 0.06854481250047684, 0.0934498980641365, -0.18912629783153534, 0.006532676517963409, 0.3165600597858429, -0.19887171685695648, 0.2832115590572357, -0.1524687111377716, -0.13433261215686798, -0.11423636227846146, 0.22659434378147125, 0.0779278352856636, 0.023392880335450172, 0.041433826088905334, -0.002156170317903161, 1.0891603231430054, 0.02683597058057785], [0.0032209130004048347, 0.030702553689479828, -0.45321953296661377, 0.13959790766239166, -0.04562113434076309, -0.07980743795633316, 0.307380348443985, 0.0346246063709259, 0.06731623411178589, 0.18081945180892944, 0.14600571990013123, -0.02527911588549614, -0.11079417169094086, -0.004824562463909388, 0.09856057167053223, -0.1824195384979248, 0.1408468335866928, -0.15699106454849243, -0.1823441982269287, -0.008878214284777641], [-0.37773746252059937, 0.18705210089683533, -0.2873949110507965, -0.5573988556861877, 0.4107116758823395, -0.31332114338874817, -1.286478042602539, -0.09624968469142914, -0.4112509787082672, -1.0004740953445435, 0.16167183220386505, 0.5306808948516846, 0.38434353470802307, 0.31611955165863037, -0.06895865499973297, -0.16852238774299622, 0.061320461332798004, 0.13280509412288666, -0.5527102947235107, 0.5827363133430481], [0.13873866200447083, -0.06154148653149605, 0.34962090849876404, 0.11899219453334808, -0.20634090900421143, 0.1571621596813202, -0.09622640907764435, -0.6604142785072327, -0.20110180974006653, -0.110544852912426, 0.018106643110513687, -0.008073875680565834, 0.12680327892303467, -0.06016530096530914, -0.05348077788949013, 0.08667559176683426, -0.12218330055475235, 0.18240606784820557, -0.3096504807472229, 0.21820366382598877], [0.02667710743844509, -0.2929016649723053, -0.060564182698726654, 0.17098061740398407, 0.06916841119527817, -0.146648570895195, 0.4024564027786255, -0.021271342411637306, 0.050653550773859024, 0.2119995504617691, 0.16395266354084015, -0.20039322972297668, 0.03698039799928665, 0.16558504104614258, 0.19625680148601532, -0.062419865280389786, -0.007441641762852669, -0.020045535638928413, 0.05393669381737709, 0.1689988374710083], [-0.11293096840381622, -0.11298423260450363, 0.465851753950119, -0.21783776581287384, 0.06216169148683548, -0.010613428428769112, 0.025532877072691917, 0.269334614276886, -0.17278337478637695, -0.12236686050891876, -0.09754034876823425, 0.4301416873931885, 0.27619606256484985, 0.06331481784582138, 0.3469476103782654, -0.15537163615226746, 0.04981394484639168, 0.498540461063385, 0.03838951885700226, 0.0025990114081650972], [0.13178957998752594, -0.07681284844875336, -0.129935622215271, 0.13120558857917786, -0.2599387764930725, 0.24669839441776276, -0.3705540597438812, 0.09331421554088593, 0.040053997188806534, 0.03182056546211243, -0.11618668586015701, 0.1315976083278656, -0.04503303021192551, -0.15191376209259033, -0.4050219655036926, 0.4749099910259247, -0.1794634759426117, 0.028707338497042656, -0.2799243628978729, -0.02172369696199894], [-0.1653541475534439, 0.34191766381263733, -0.1798436939716339, -0.21071669459342957, 0.13723896443843842, -0.07066794484853745, -0.040627412497997284, 0.3695319592952728, 0.0905195027589798, -0.04959210008382797, 0.0018717380007728934, 0.1885027438402176, 0.1856396645307541, -0.05523912236094475, -0.18151740729808807, 0.0071687414310872555, 0.08595511317253113, -0.1792832612991333, 0.19691750407218933, -0.03578508645296097], [-0.14147593080997467, -0.1632108986377716, 0.4855186343193054, -0.21024945378303528, -0.02441304549574852, -0.15168994665145874, 0.07306547462940216, -0.03358452394604683, -0.1747814118862152, -0.01646728441119194, -0.02822204865515232, 0.11785726249217987, 0.38664278388023376, 0.00991202611476183, 0.4090905487537384, -0.08137794584035873, 0.06603632122278214, 0.35344067215919495, 0.11400759965181351, -0.041269898414611816], [-0.23965683579444885, 0.42008423805236816, 0.3487291634082794, 0.17575514316558838, 0.3688409626483917, 0.034699440002441406, -0.3977596163749695, 0.07848965376615524, -0.34390202164649963, -0.3439251780509949, -0.052778955549001694, 0.5063503980636597, 0.23471404612064362, 0.16328400373458862, 0.14855584502220154, -0.1501300036907196, 0.34881946444511414, 0.20552748441696167, 0.8801134824752808, 0.1230381429195404], [0.18868066370487213, -0.34185388684272766, -0.33039984107017517, 0.08154205977916718, -0.18295973539352417, -0.04162006080150604, 0.2714400291442871, -0.2103201299905777, 0.1998102366924286, -0.006235660053789616, -0.0388210192322731, -0.30115824937820435, 0.23156945407390594, -0.029230840504169464, -0.13238491117954254, 0.09036668390035629, -0.03416907787322998, 0.17603197693824768, -0.616703450679779, 0.07960018515586853]], "rec.bias_ih_l0": [-0.16306549310684204, 0.24157142639160156, 0.693164587020874, 0.13231481611728668, -0.12716349959373474, 0.17522978782653809, 0.5172051191329956, 0.1765788346529007, 0.40240293741226196, 0.12514442205429077, -0.0388590469956398, 0.5131534337997437, 0.13073205947875977, 0.07821840047836304, 0.18929046392440796, 0.09905316680669785, 0.02499953657388687, 0.2350037395954132, 0.19822920858860016, 0.13650567829608917, -0.16738402843475342, -0.22866091132164001, -0.47776544094085693, -0.3588244915008545, -0.2747114896774292, 1.331359624862671, -0.6032897233963013, 1.3187857866287231, -0.4143211841583252, -0.4124588072299957, -0.15852075815200806, -0.6307612657546997, -0.18439000844955444, -0.10448502749204636, 0.2671881318092346, 0.06865683943033218, 0.18615451455116272, 0.5489479303359985, 1.017603874206543, -0.28530430793762207, 0.16065016388893127, -0.016782281920313835, 0.25649774074554443, 0.18943557143211365, -0.08980362862348557, -0.1526423543691635, 0.03790435940027237, -0.25225701928138733, 0.060728710144758224, -0.039634205400943756, -0.11983294785022736, -0.09124577790498734, -0.1180720180273056, -0.07861112058162689, -0.11276574432849884, -0.17046195268630981, -0.19927597045898438, -0.23971125483512878, 0.15323370695114136, 0.02591490000486374], "rec.bias_hh_l0": [-0.15289661288261414, 0.2695894241333008, 0.6818056106567383, 0.1642744094133377, -0.18787401914596558, 0.2300914227962494, 0.4920656681060791, 0.2463730126619339, 0.4023929238319397, 0.25858432054519653, -0.13332629203796387, 0.5133577585220337, 0.17894457280635834, 0.10798461735248566, 0.007844589650630951, 0.1152547299861908, -0.002417582320049405, 0.06861438602209091, 0.2979922592639923, 0.11787872761487961, -0.16738402843475342, -0.22866089642047882, -0.4777688682079315, -0.3588244915008545, -0.2747114896774292, 1.3313257694244385, -0.6032897233963013, 1.3534083366394043, -0.4143211543560028, -0.4124588072299957, -0.15851417183876038, -0.6307612657546997, -0.18439000844955444, -0.10448502749204636, 0.249088317155838, 0.06865755468606949, 0.1861545592546463, 0.5656210780143738, 1.0515844821929932, -0.28530430793762207, -0.07341046631336212, -0.23470227420330048, -0.12544679641723633, 0.23554229736328125, -0.05644311383366585, -0.21914397180080414, 0.1843399852514267, 0.10157150775194168, -0.05242414027452469, 0.30316951870918274, -0.22914908826351166, -0.054460905492305756, 0.08887442946434021, -0.004058733582496643, -0.14642608165740967, 0.06025401130318642, -0.20351849496364594, -0.18368610739707947, 0.07812006026506424, -0.2217208296060562], "lin.weight": [[0.2387925237417221, -0.08910135924816132, -0.10034845024347305, 0.01213366724550724, -0.3859206438064575, 0.22800743579864502, 0.016344573348760605, 0.060386862605810165, 0.15426543354988098, 0.16182105243206024, -0.17719420790672302, 0.0006371142226271331, 0.09205685555934906, -0.06329899281263351, -0.14483939111232758, 0.05279121920466423, -0.2156790941953659, -0.264482706785202, -0.0728258341550827, -0.1256256103515625]], "lin.bias": [-0.13538746535778046]}}