{"model_data": {"model": "SimpleRNN", "input_size": 2, "skip": 1, "output_size": 1, "unit_type": "LSTM", "num_layers": 1, "hidden_size": 20, "bias_fl": true}, "state_dict": {"rec.weight_ih_l0": [[0.08271654695272446, 0.25394460558891296], [0.07277816534042358, -0.20522910356521606], [0.03162608668208122, 0.3309827446937561], [-0.10544812679290771, -0.07808365672826767], [0.020436270162463188, 0.39333176612854004], [-0.034892186522483826, 0.01214408129453659], [0.018406737595796585, -0.4225289225578308], [0.03362201526761055, -0.048601459711790085], [-0.02314303256571293, 0.43232035636901855], [-0.04447991028428078, 0.030987409874796867], [0.22531336545944214, -0.5430798530578613], [0.10434296727180481, 0.022557485848665237], [-0.1580212116241455, -0.21051540970802307], [0.023194201290607452, 0.14621832966804504], [-0.0076137566938996315, 0.3393169641494751], [0.017556335777044296, 0.04112854599952698], [-0.015982219949364662, -0.030755940824747086], [0.019273558631539345, 0.19713404774665833], [-0.01653624325990677, -0.2947998642921448], [-0.053611353039741516, 0.6686944365501404], [0.16392670571804047, -0.1315409392118454], [0.0816793367266655, -0.003502021310850978], [0.057372551411390305, 0.1146908551454544], [-0.13546764850616455, 0.03831065073609352], [0.003584478283300996, 0.166102796792984], [-0.06208702176809311, 0.1422460675239563], [-0.058113425970077515, 0.5728836059570312], [0.03288250416517258, 0.13857941329479218], [-0.0888838842511177, 0.16928356885910034], [-0.06571189314126968, 0.05495430529117584], [-0.03919338434934616, 0.9015135169029236], [0.13750174641609192, 0.002502073533833027], [0.002806343138217926, 0.7495978474617004], [0.038685157895088196, 0.3330569267272949], [-0.01915803924202919, -0.11894495040178299], [0.005023934878408909, 0.021814599633216858], [0.0023032932076603174, -0.07034368813037872], [0.05780902877449989, 0.008443084545433521], [0.03516259044408798, 0.059370268136262894], [0.0766780823469162, 0.08460474014282227], [0.48247602581977844, 0.2960524260997772], [0.2530313730239868, 0.04861795902252197], [1.0952043533325195, -0.10444005578756332], [-0.23457439243793488, -0.5771663784980774], [0.28582656383514404, -0.0842563733458519], [-0.060644276440143585, 0.2215633988380432], [-0.7732061147689819, 0.004122784361243248], [0.17957782745361328, 0.07264919579029083], [-0.11129119992256165, -0.010590193793177605], [-0.04319041222333908, -0.516857922077179], [-0.8768337368965149, 0.007492384873330593], [0.232225239276886, -0.007765307556837797], [-0.629539966583252, 0.2394404262304306], [-0.06886924803256989, 0.28671252727508545], [1.277066707611084, 0.25303465127944946], [0.04078131541609764, 0.045163754373788834], [-0.03046317957341671, -0.057685043662786484], [0.4334348142147064, -0.05949077010154724], [0.1514979898929596, 0.019773360341787338], [2.4966037273406982, -0.06543196737766266], [0.10914076864719391, 0.25235769152641296], [0.07207530736923218, -0.07931966334581375], [0.016121644526720047, 0.35392338037490845], [-0.12164804339408875, 0.038816727697849274], [0.12213660776615143, -0.22556282579898834], [-0.13856841623783112, -0.08904296904802322], [-0.05171480402350426, -0.010084529407322407], [0.016123125329613686, -0.05108308047056198], [-0.0368802584707737, 0.3189249634742737], [-0.08941470086574554, -0.049909669905900955], [0.15025973320007324, 0.28565049171447754], [0.12820588052272797, 0.0459505170583725], [-0.14134466648101807, 0.4012613296508789], [0.022527514025568962, 0.1576278805732727], [-0.005561941768974066, 0.33119839429855347], [0.052125781774520874, 0.019712064415216446], [-0.018894130364060402, -0.07863025367259979], [0.02739902399480343, 0.2197679728269577], [0.038936566561460495, -0.1429983675479889], [-0.046254079788923264, 0.7109619379043579]], "rec.weight_hh_l0": [[-0.04239678755402565, -0.019807927310466766, -0.010216339491307735, -0.020343191921710968, 0.023573150858283043, 0.09209561347961426, 0.0203452929854393, 0.043197304010391235, -0.0959833487868309, -0.09551940858364105, -0.012663565576076508, 0.00975287239998579, -0.23599156737327576, 0.12982229888439178, 0.02858656644821167, 0.17096230387687683, -0.013015472330152988, 0.06816689670085907, -0.04601172357797623, 0.13809582591056824], [-0.014962050132453442, -0.0010453658178448677, -0.012969136238098145, 0.07273610681295395, -0.16297495365142822, -0.026608474552631378, -0.00017925919382832944, -0.019877828657627106, 0.09621591866016388, 0.06975796818733215, -0.04354258254170418, 0.0079343905672431, 0.11508698761463165, 0.15182261168956757, 0.049030955880880356, -0.02928098849952221, -0.004904323723167181, 0.019368063658475876, 0.019888659939169884, -0.0013647152809426188], [-0.024299737066030502, -0.01894478313624859, -0.018094640225172043, -0.04647369310259819, 0.058525580912828445, 0.11689084023237228, 0.01664113625884056, 0.035981010645627975, -0.03984181582927704, -0.0809832215309143, 0.03140637278556824, 0.030032213777303696, -0.21495628356933594, 0.08914913237094879, 0.04232301563024521, 0.15461474657058716, -0.025715840980410576, 0.04023268446326256, -0.06352174282073975, 0.014087044633924961], [-0.039504848420619965, 0.05693994462490082, -0.029674315825104713, 0.05950559303164482, -0.08887218683958054, 0.037862349301576614, 0.03866526857018471, -0.05910368636250496, 0.03072243556380272, -0.0013917408650740981, 0.08960453420877457, -0.042578648775815964, 0.1464494913816452, 0.0670594573020935, -0.025381244719028473, -0.005786985624581575, 0.015873806551098824, -0.055507782846689224, 0.033409785479307175, -0.09235317260026932], [0.032213449478149414, -0.008824633434414864, 0.047215528786182404, 0.024815410375595093, -0.04212765768170357, 0.12625369429588318, 0.0665886178612709, 0.012069684453308582, -0.06397784501314163, -0.08937489241361618, 0.10420043766498566, 0.02614573948085308, -0.3475646674633026, 0.21361123025417328, -0.028056656941771507, 0.21538424491882324, -0.028573844581842422, -0.010481457225978374, 0.02329603210091591, 0.015373393893241882], [0.01137359719723463, 0.002434264402836561, 0.001387881231494248, 0.03403783589601517, -0.04058906435966492, 0.04971570894122124, -0.0025999366771429777, -0.019643327221274376, 0.03064519539475441, 0.03627733141183853, 0.048508573323488235, -0.001522383070550859, 0.03957081958651543, -0.03899290785193443, 0.00028842443134635687, 0.04756292328238487, -0.022324251011013985, -0.025612464174628258, 0.005293294787406921, -0.08114653080701828], [0.13600851595401764, -0.061281099915504456, 0.05732736736536026, 0.0475199930369854, -0.05916455760598183, -0.19522276520729065, 0.07244307547807693, 0.06921122968196869, 0.08690134435892105, 0.06391821801662445, -0.22346313297748566, 0.1397513896226883, 0.42558518052101135, -0.06626838445663452, -0.04279741644859314, -0.24891114234924316, 0.08149240165948868, 0.029837090522050858, -0.017845002934336662, -0.006031892262399197], [-0.019244592636823654, 0.007397983223199844, -0.0377521775662899, -0.012723356485366821, -0.005489249248057604, 0.014416963793337345, 0.002442670986056328, 0.02638738974928856, 0.008494751527905464, -0.028024859726428986, -0.029767775908112526, 0.012501992285251617, -0.02886882983148098, 0.06872104108333588, 0.05789441242814064, 0.03994420915842056, -0.017606599256396294, 0.025993894785642624, -0.021645162254571915, -0.014107543975114822], [-0.058181412518024445, 0.045777250081300735, -0.12778127193450928, 0.030860258266329765, -0.057525042444467545, 0.1679096519947052, 0.03301054984331131, 0.007497862912714481, 0.04320072382688522, -0.08914915472269058, -0.0573904924094677, 0.022955697029829025, -0.11589408665895462, 0.1345299929380417, 0.10528538376092911, 0.2253594994544983, -0.02840178646147251, -0.004914304707199335, -0.023633213713765144, -0.06463918834924698], [-0.0965036004781723, 0.025736695155501366, -0.08660279959440231, 0.033798523247241974, -0.023851336911320686, 0.05636806786060333, -0.03590252622961998, -0.012657119892537594, 0.019846394658088684, 0.055152032524347305, -0.028387349098920822, 0.020076056942343712, -0.013337314128875732, -0.15160875022411346, -0.0072251479141414165, 0.09607048332691193, -0.026244986802339554, -0.0021134198177605867, 0.0482201874256134, -0.005687583703547716], [-0.0346437469124794, -0.00849882047623396, 0.1899973750114441, 0.16192059218883514, 0.04000913351774216, -0.1555347740650177, 0.06998156011104584, 0.03335529938340187, -0.03487798571586609, 0.13645121455192566, -0.2579132616519928, 0.31151458621025085, 0.7730403542518616, -0.1708427518606186, 0.030213462188839912, -0.15912002325057983, 0.14965768158435822, 0.2758197486400604, 0.07034873217344284, 0.6467760801315308], [-0.060634762048721313, 0.01258378941565752, -0.10250689834356308, -0.04863158240914345, -0.05093441158533096, 0.007779296021908522, -0.013968038372695446, 0.0643853172659874, 0.0291779525578022, -0.02090899646282196, -0.16878169775009155, 0.10427769273519516, -0.0851639062166214, 0.02166825719177723, 0.13080240786075592, 0.053225450217723846, -0.050237227231264114, 0.05938982591032982, -0.03352193534374237, -0.029149828478693962], [0.024516651406884193, 0.1355511099100113, -0.3331916034221649, 0.288074254989624, -0.0681718960404396, 0.11035077273845673, 0.14178507030010223, 0.035834603011608124, 0.47562509775161743, -0.06035114824771881, -0.5281219482421875, 0.28688478469848633, 0.4657385051250458, -0.16225308179855347, 0.05239608511328697, 0.13615640997886658, 0.08747570961713791, -0.11571503430604935, -0.11430896073579788, -0.3230089843273163], [0.003037895541638136, -0.008125784806907177, 0.007189374417066574, -0.020455002784729004, 0.023164676502346992, 0.05922343209385872, -0.017214005813002586, 0.022154424339532852, -0.04039047285914421, -0.08073192089796066, 0.0037987050600349903, 7.039065530989319e-05, -0.043561503291130066, 0.04465004429221153, 0.03940136358141899, 0.04037394002079964, -0.009077535010874271, 0.014964677393436432, -0.026593433693051338, 0.01693415269255638], [-0.05013516545295715, 0.007127251476049423, -0.010754614137113094, 0.016675664111971855, 0.026216866448521614, 0.12991777062416077, 0.028913021087646484, -0.00031671515898779035, -0.061351798474788666, -0.10474660992622375, 0.05899203196167946, -0.033149924129247665, -0.17676177620887756, 0.2006884515285492, 0.013459499925374985, 0.17883849143981934, -0.004579266998916864, 0.01675998792052269, -0.016599370166659355, -0.016802005469799042], [-0.06164003536105156, -0.0012171119451522827, 0.013247814029455185, 0.028574977070093155, 0.033112723380327225, 0.05173100531101227, 0.02217288129031658, -0.012363682501018047, -0.04926999285817146, -0.0005642562173306942, 0.026440104469656944, -0.022273724898695946, -0.04726139456033707, 0.010295773856341839, -0.018251359462738037, 0.07155001908540726, 0.01818123459815979, 0.014992968179285526, -0.002088040579110384, 0.06543096899986267], [-0.006395346485078335, -0.0037541224155575037, 0.019740885123610497, 0.0092602064833045, -0.011901892721652985, 0.02349861152470112, 0.024356037378311157, -0.013220032677054405, -0.053892798721790314, 0.027144230902194977, 0.05944708734750748, -0.05705483257770538, -0.046867117285728455, -0.039336033165454865, -0.03163180500268936, 0.05560239776968956, -0.003086723620072007, -0.009464625269174576, -0.004148415289819241, 0.03733726218342781], [-0.05055660381913185, 0.005658384412527084, -0.058505523949861526, -0.0022782280575484037, 0.011335895396769047, 0.08452187478542328, 0.011946730315685272, 0.014708152040839195, -0.02112799510359764, -0.028858916833996773, -0.006888880394399166, -0.002866226015612483, -0.10164620727300644, -0.023938940837979317, 0.05955507606267929, 0.10948318988084793, -0.00867092702537775, 0.020883094519376755, -0.05657292529940605, 0.012791141867637634], [-0.20927876234054565, 0.04456530511379242, -0.08464357256889343, 0.0641353502869606, 0.06335107982158661, -0.08179700374603271, -0.0036009144969284534, 0.011652437038719654, 0.03346172720193863, 0.17425993084907532, -0.039493363350629807, -0.125750333070755, 0.23536428809165955, 0.181942418217659, -0.041051533073186874, -0.0775085985660553, 0.084587462246418, 0.036697905510663986, -0.015836186707019806, 0.021004188805818558], [0.22115731239318848, -0.06835915148258209, 0.22722600400447845, -0.027990443632006645, -0.012423139996826649, 0.15812444686889648, 0.01634114980697632, -0.038556620478630066, -0.10537084192037582, -0.19741584360599518, 0.3033936321735382, -0.06923965364694595, -0.4760303497314453, 0.39211800694465637, -0.13899898529052734, 0.21573421359062195, -0.030670147389173508, -0.08633934706449509, 0.1094755306839943, 0.010206243023276329], [-0.03790546953678131, -0.0506746731698513, -0.009495657868683338, -0.014175083488225937, 0.13975471258163452, -0.052836377173662186, 0.0013970230938866735, 0.07093031704425812, -0.11515707522630692, 0.0404440201818943, -0.15436093509197235, 0.057592231780290604, -0.09962938725948334, -0.08513747155666351, 0.005163068417459726, -0.006774781737476587, 0.01718107797205448, 0.13746994733810425, -0.08128023892641068, 0.3081083297729492], [0.0013382595498114824, -0.006818108260631561, 0.06534208357334137, 0.06582853198051453, -0.13211767375469208, 0.006888114381581545, 0.014162804000079632, -0.037285368889570236, 0.013712947256863117, 0.07414916902780533, 0.041166502982378006, -0.028356511145830154, -0.03362944722175598, 0.09657476842403412, 0.022427905350923538, -0.037325918674468994, 0.01658857986330986, 0.024711498990654945, 0.021684641018509865, 0.13781818747520447], [0.02975555881857872, -0.03403690084815025, -0.023247066885232925, -0.0669245570898056, 0.04155559465289116, 0.02734101191163063, 0.013126105070114136, 0.0487528033554554, -0.014679444022476673, -0.018257757648825645, -0.013944163918495178, 0.11853018403053284, -0.07299365103244781, -0.0021086924243718386, 0.09821140021085739, -0.00020650394435506314, -0.03110797144472599, 0.040766116231679916, -0.09880489110946655, -0.014263653196394444], [-0.07235325127840042, 0.07681847363710403, -0.03982769697904587, 0.07933806627988815, -0.09242425113916397, 0.06149900332093239, 0.05336831510066986, -0.07597667723894119, 0.018318792805075645, 0.005334259010851383, 0.11227395385503769, -0.06218940392136574, 0.15774527192115784, 0.06268463283777237, -0.0397755391895771, 0.02046876773238182, 0.023344656452536583, -0.06325382739305496, 0.04537006467580795, -0.09976650774478912], [0.05637332797050476, -0.01616913080215454, 0.00781659223139286, -0.0476946122944355, -0.08933762460947037, -0.04933147504925728, 0.07066980004310608, 0.0672621876001358, 0.005501016043126583, -0.005666916724294424, 0.016725962981581688, 0.07395589351654053, -0.059776823967695236, -0.05558205023407936, 0.006195737048983574, -0.07299138605594635, -0.022007284685969353, -0.05530787631869316, -0.04249996691942215, -0.041638411581516266], [0.01171445194631815, 0.010123739950358868, -0.0032086558640003204, 0.0556451790034771, -0.05768035724759102, 0.06043045595288277, -0.007065321318805218, -0.03465748950839043, 0.04592304676771164, 0.052311718463897705, 0.07073910534381866, -0.003707250813022256, -0.02786014787852764, -0.06283675879240036, 0.000995206763036549, 0.05379834026098251, -0.03307614475488663, -0.044740427285432816, 0.014658421277999878, -0.12242624908685684], [-0.26366305351257324, 0.11748123914003372, -0.06853941828012466, 0.2049054056406021, 0.012133861891925335, 0.31158384680747986, 0.2224167287349701, -0.03360433876514435, -0.1680542677640915, -0.06133406236767769, 0.27638959884643555, 0.018689407035708427, -0.6468367576599121, 0.15419891476631165, -0.004042368847876787, 0.3071826994419098, 0.0017618723213672638, 0.020761044695973396, -0.026634229347109795, 0.047886550426483154], [-0.012682205997407436, 0.01157973799854517, -0.04654715582728386, -0.009546827524900436, -0.01299260277301073, 0.030694996938109398, 0.0019966636318713427, 0.02579464018344879, 0.014895296655595303, -0.02612118609249592, -0.01900431513786316, 0.018821021541953087, -0.10686498135328293, 0.08084968477487564, 0.07033158838748932, 0.07014792412519455, -0.02539733238518238, 0.024833083152770996, -0.022072255611419678, -0.02592252939939499], [0.050482381135225296, 0.005923262797296047, -0.08718319982290268, 0.04221571981906891, 0.027227351441979408, -0.03966054692864418, -0.027790240943431854, -0.018572865054011345, 0.3029499351978302, 0.07048658281564713, -0.09499294310808182, -0.016954941675066948, 0.09373443573713303, -0.018911132588982582, -0.019387368112802505, -0.0008061084663495421, -0.008789286017417908, -0.07494654506444931, 0.010971156880259514, -0.11317487061023712], [-0.1455467790365219, 0.040191780775785446, -0.12656106054782867, 0.05556628480553627, -0.045388031750917435, 0.09327531605958939, -0.06464963406324387, -0.0217918511480093, 0.025784146040678024, 0.0890006348490715, -0.040352046489715576, 0.027108022943139076, -0.011149217374622822, -0.23114150762557983, -0.015427995473146439, 0.14523978531360626, -0.03873056918382645, -0.0012440079590305686, 0.08127868175506592, 0.005739439278841019], [-0.06382668763399124, -0.12001480162143707, 0.24153393507003784, 0.39920756220817566, -0.1831374615430832, 0.3763103187084198, 0.10487543791532516, -0.10120449960231781, -0.3166120946407318, 0.08783334493637085, 0.436532586812973, 0.019360670819878578, -0.5711489915847778, 0.15473459661006927, -0.06661627441644669, 0.7266992330551147, -0.23363476991653442, -0.06358662992715836, 0.07198441028594971, 0.016809584572911263], [-0.0957123264670372, 0.0162507314234972, -0.15549200773239136, -0.04337701573967934, -0.040267057716846466, 0.020854301750659943, -0.010305537842214108, 0.09319822490215302, 0.057671234011650085, -0.0022736238315701485, -0.22945167124271393, 0.15318676829338074, -0.1423063725233078, -0.023087672889232635, 0.16617174446582794, 0.09342479705810547, -0.05850318446755409, 0.0831441879272461, -0.0613153837621212, -0.03739527612924576], [0.10276148468255997, -0.009533224627375603, 0.01511728297919035, 0.0019192165927961469, 0.19596830010414124, 0.1871338039636612, 0.13614587485790253, 0.03208436444401741, -0.3397184908390045, -0.08604839444160461, 0.22360704839229584, -0.09686192125082016, -0.589230477809906, 0.2123311460018158, -0.09848655760288239, 0.3422459661960602, -0.021180082112550735, -0.05326063185930252, -0.0019551555160433054, 0.049127597361803055], [-0.0251381304115057, 0.0040314472280442715, 0.0105665298178792, -0.032250065356492996, 0.053391918540000916, 0.1308673769235611, -0.012562278658151627, 0.0323437862098217, -0.09824300557374954, -0.15693490207195282, 0.019588060677051544, -0.016204316169023514, -0.10798444598913193, 0.09415079653263092, 0.07179632037878036, 0.10280570387840271, -0.015474289655685425, 0.03917626291513443, -0.03256848081946373, 0.0504307821393013], [0.013817047700285912, -0.031174149364233017, 0.04151289165019989, 0.04661804065108299, 0.07527682930231094, -0.051936764270067215, -0.014086216688156128, -0.028319507837295532, 0.020474914461374283, 0.0784468725323677, 0.038102030754089355, -0.05721912160515785, 0.019263755530118942, -0.022847352549433708, -0.05267217755317688, -0.048527367413043976, 0.023714805021882057, -0.021841729059815407, 0.007034206762909889, -0.07569633424282074], [-0.05450451374053955, -0.014811026863753796, 0.005190934985876083, 0.05389720946550369, 0.029631471261382103, 0.05935193970799446, 0.022836508229374886, -0.020461026579141617, -0.03000713884830475, 0.01998143456876278, 0.03934948146343231, -0.025338975712656975, -0.07753373682498932, -0.019826875999569893, -0.023880010470747948, 0.09214965999126434, 0.01831747032701969, -0.007287910673767328, -0.008271871134638786, 0.04902220144867897], [0.002914016367867589, -0.007810186594724655, 0.007542496081441641, 0.014330148696899414, -0.012248045764863491, 0.00543453823775053, 0.021349553018808365, -0.0037089858669787645, -0.020260097458958626, 0.05290156975388527, 0.025845572352409363, -0.04053215682506561, -0.04575261101126671, -0.06930184364318848, -0.016031313687562943, 0.03752196580171585, -0.004396570846438408, -0.006465769372880459, -0.008526590652763844, 0.011261173523962498], [-0.022212237119674683, -0.01956848055124283, -0.028625113889575005, -0.0031124595552682877, 0.06765557080507278, -0.013197018764913082, -0.011332713067531586, 0.022240066900849342, -0.037486009299755096, 0.03023291751742363, -0.07147904485464096, 0.02001473307609558, -0.031178468838334084, -0.10311621427536011, 0.04172462970018387, -0.013688245788216591, 0.005610974505543709, 0.03658348694443703, -0.05527264624834061, 0.07543718814849854], [-0.05253884196281433, 0.04409944638609886, -0.026790466159582138, 0.07113716006278992, 0.01738540455698967, 0.09279093891382217, 0.05893268808722496, 0.016676070168614388, 0.0743812620639801, 0.05884242430329323, 0.045390550047159195, -0.032558638602495193, -0.1612631231546402, 0.1621088683605194, 0.06671220809221268, 0.10111583024263382, 0.05828117951750755, 0.05207022279500961, -0.004581307992339134, 0.020186448469758034], [0.5370367765426636, -0.1242586225271225, 0.300575852394104, -0.11031339317560196, -0.08026476204395294, -0.03914719447493553, -0.03311271220445633, 0.05448029190301895, 0.10023269057273865, -0.035151202231645584, 0.25230419635772705, 0.14490476250648499, -0.4293758273124695, 0.07117073982954025, -0.03364569693803787, -0.00040997311589308083, -0.03819243237376213, -0.09491389989852905, 0.17230747640132904, -0.11025029420852661], [-0.23287752270698547, -0.04068858548998833, 0.4797019064426422, 0.023210203275084496, 0.0798780769109726, 0.021455511450767517, 0.023665113374590874, -0.04082493856549263, 1.0521740913391113, 0.014193423092365265, 0.5802066326141357, -0.23118627071380615, -0.5292066931724548, -0.06400423496961594, 0.7320728302001953, -0.23223260045051575, 0.043682679533958435, -0.41705092787742615, 0.12718655169010162, 0.2669709324836731], [-0.15136782824993134, 0.17256514728069305, -0.6138433218002319, 0.05133586749434471, -0.12928859889507294, 0.22799932956695557, -0.05815676227211952, -0.06024022400379181, 0.10903293639421463, 0.009381125681102276, -0.05463112145662308, 0.06327515095472336, 0.2311888337135315, 0.07977092266082764, -0.241516575217247, -0.2873201072216034, 0.06745318323373795, -0.33010250329971313, 0.2797209620475769, 0.013539675623178482], [0.3416159152984619, 0.005102012772113085, -0.23487980663776398, 0.020293526351451874, 0.10806818306446075, 0.048681117594242096, -0.17685402929782867, 0.03257225453853607, -0.02539753168821335, -0.33894506096839905, 0.6664478182792664, -0.018699444830417633, 0.3006027638912201, 0.013895750045776367, -0.4426226019859314, 0.07608269155025482, -0.06703729182481766, -0.22476480901241302, 0.13899573683738708, 0.06940104812383652], [-0.03310862183570862, 0.022562656551599503, -0.029121965169906616, 0.14819549024105072, 0.02305559255182743, 0.15228009223937988, 0.040436938405036926, -0.03675832599401474, 0.16926506161689758, -0.08240605890750885, 0.2664312720298767, 0.04771869629621506, -0.12637454271316528, 0.11420904844999313, -0.2020157128572464, -0.35745301842689514, 0.07834210991859436, -0.07695397734642029, 0.034264255315065384, -0.20014633238315582], [0.5641801357269287, 0.11673089861869812, 0.5642608404159546, -0.1147325411438942, 0.6691681742668152, 0.037981968373060226, 0.024039946496486664, -0.0070788925513625145, -0.6647955179214478, 0.3357754647731781, 0.15321128070354462, -0.3204467296600342, 0.1736389696598053, -0.06634333729743958, -0.10680384188890457, -0.21397270262241364, 0.13540278375148773, 0.35174527764320374, 0.07750003784894943, 2.2828433513641357], [0.04100637137889862, -0.06757868826389313, 0.07984732836484909, -0.048406556248664856, 0.12459453195333481, 0.209716796875, -0.1617378145456314, 0.03756929934024811, -0.0432688444852829, -0.0985284298658371, 0.06746389716863632, 0.10003980994224548, 0.12043765932321548, 0.08027607947587967, 0.08684846758842468, 0.04379411041736603, -0.10828148573637009, 0.012595859356224537, -0.1600750833749771, -0.12792572379112244], [-0.12682388722896576, 0.7032666206359863, 0.7026055455207825, 0.03700454533100128, -0.16606220602989197, -0.29536566138267517, 0.5244086980819702, -0.04497607797384262, -0.06251972913742065, -0.19426029920578003, -0.015008505433797836, -0.06444916129112244, -0.1297989785671234, -0.22497861087322235, 0.30229541659355164, 0.09997022897005081, 0.19272510707378387, 0.44542092084884644, 0.5183541178703308, -0.13259164988994598], [0.07965298742055893, -0.005106811877340078, -0.07279684394598007, -0.03404189646244049, 0.04372166842222214, -0.2687303125858307, -0.12099853157997131, 0.1701468676328659, -0.10066216439008713, -0.0512581467628479, -0.23876701295375824, 0.09416662901639938, -0.10940084606409073, -0.023060139268636703, 0.165054589509964, -0.022814854979515076, -0.08381188660860062, 0.10912773013114929, -0.15655259788036346, 0.19468794763088226], [-0.6666103005409241, -0.12061797827482224, -0.15475454926490784, -0.0009779763640835881, -0.04360106959939003, -0.06620056182146072, -0.1713670790195465, 0.21300357580184937, 0.020127123221755028, -0.05393616855144501, 0.003727284725755453, -0.12364751100540161, -0.6420890688896179, -0.10241737961769104, -0.5522631406784058, -0.04748217388987541, 0.047095317393541336, 0.09317059814929962, -0.09643669426441193, -0.9346166849136353], [-0.17516537010669708, 0.011117181740701199, 0.09259659051895142, 0.058428213000297546, 0.006396864075213671, -0.025742122903466225, -0.1310490071773529, -0.029063593596220016, -0.09081080555915833, 0.5037526488304138, 0.10015413165092468, 0.03697958216071129, 0.046340230852365494, -0.19920696318149567, -0.04989247769117355, 0.17092500627040863, 0.04721442610025406, 0.06873724609613419, -0.044731538742780685, -0.2941456735134125], [-0.4439406991004944, 0.060245368629693985, -0.18812406063079834, -0.01559432689100504, 0.07008524239063263, 0.1741241216659546, -0.07363934814929962, 0.003171120537444949, -0.06746208667755127, -0.2584809958934784, 0.16680049896240234, -0.1507636457681656, -0.24370555579662323, -0.07366855442523956, -0.09934011101722717, 0.023979322984814644, 0.08489103615283966, 0.005374220199882984, 0.04062507674098015, -0.7931830883026123], [0.07277769595384598, -0.03385760635137558, -0.00015793250349815935, -0.019268834963440895, -0.022629156708717346, 0.024332642555236816, -0.07859320938587189, 0.04614347591996193, 0.2321661114692688, -0.09341186285018921, -0.26785874366760254, 0.22123165428638458, -0.30787333846092224, -0.059401266276836395, 0.218556746840477, 0.0696159303188324, -0.026021573692560196, 0.1139601543545723, -0.03163572773337364, -0.1734074205160141], [0.354479044675827, 0.019195187836885452, -0.12563355267047882, 0.2301703542470932, 0.11002347618341446, -0.2706616520881653, 0.06553108990192413, -0.06095809116959572, 0.47079557180404663, 0.018245339393615723, 0.19887208938598633, 0.3599129319190979, 0.44359931349754333, 0.017155665904283524, -0.0807265043258667, 0.036427877843379974, -0.09903808683156967, -0.15639019012451172, 0.07648337632417679, -0.4028761386871338], [-0.08241140097379684, 0.048761989921331406, 0.00038623111322522163, -0.027135567739605904, -0.059939466416835785, -0.09516534954309464, -0.03267810121178627, 0.0717499777674675, -0.05011434853076935, -0.11248554289340973, 0.024213319644331932, 0.01691228710114956, -0.01645822823047638, 0.705078661441803, -0.08085408061742783, -0.04653281345963478, 0.04973161220550537, 0.02027197554707527, -0.016951462253928185, -0.06561410427093506], [-0.7722709774971008, 0.03182539716362953, 0.3262564241886139, 0.05337857827544212, -0.004025695379823446, -0.05352184548974037, -0.09670017659664154, 0.06922810524702072, 0.3784429132938385, -0.06207142770290375, 0.19134752452373505, 0.011102060787379742, 0.04848693683743477, -0.12105615437030792, 0.01694006845355034, -0.1803099364042282, -0.13873973488807678, -0.1073453426361084, -0.04022689536213875, -0.6102518439292908], [0.052894141525030136, -0.05267733335494995, -0.15527024865150452, 0.10333401709794998, -0.00811480637639761, 0.08376523107290268, -0.026564767584204674, -0.007161539979279041, 0.1882140040397644, 0.07541109621524811, -0.10730341076850891, 0.060727015137672424, -0.2820125222206116, 0.0021129499655216932, 0.18949520587921143, 0.2717214524745941, -0.0922064483165741, -0.1166457012295723, -0.028859397396445274, -0.30603840947151184], [-0.1545911580324173, 0.05128927901387215, 0.05926334485411644, 0.07413195818662643, 0.17107725143432617, -0.03642037510871887, 0.10813064873218536, -0.04373174160718918, -0.10792522877454758, 0.09337719529867172, 0.11879323422908783, -0.166122168302536, 0.08175330609083176, 0.04937278851866722, -0.2482178658246994, -0.04011022672057152, 0.14209233224391937, -0.01961558125913143, 0.07029521465301514, 0.3620399236679077], [0.31579336524009705, 0.1446428894996643, -0.16763275861740112, 0.09182588756084442, 0.23299676179885864, 0.11736436188220978, 0.00037356617394834757, -0.14468125998973846, 0.07133699953556061, -0.016651323065161705, -0.19727808237075806, -0.02088761329650879, 0.19777169823646545, 0.0959453210234642, 0.3268955945968628, 0.08472153544425964, 0.049723606556653976, -0.13229802250862122, 0.14325346052646637, 0.530211329460144], [-0.018902871757745743, -0.10244300216436386, -0.2379721850156784, -0.0756709948182106, -0.5126879215240479, -0.21323588490486145, 0.012035645544528961, -0.10061478614807129, 0.07913480699062347, 0.26407286524772644, 0.1715601086616516, -0.04578138142824173, -0.01933763176202774, 0.2337634265422821, -0.055945850908756256, 0.04316902160644531, -0.13074691593647003, -0.24181857705116272, 0.26972755789756775, -0.05001169443130493], [0.5506542921066284, 0.20336280763149261, 0.33450889587402344, 0.12872986495494843, 0.044802501797676086, -0.08349253982305527, 0.12031015753746033, -0.011190274730324745, 0.3411652743816376, 0.2541840970516205, 1.1866780519485474, 0.12778663635253906, 1.0649579763412476, 0.16093838214874268, 0.785659909248352, 0.12632440030574799, -0.04823877662420273, -0.10722456872463226, 0.11157902330160141, 1.1993019580841064], [-0.05576680228114128, -0.028612863272428513, -0.02756423130631447, -0.03691447526216507, 0.0577041432261467, 0.08571074903011322, 0.017527034506201744, 0.06690264493227005, -0.11714748293161392, -0.10429158806800842, -0.045987557619810104, 0.021731475368142128, -0.25737178325653076, 0.13019110262393951, 0.029815442860126495, 0.17304497957229614, -0.016035253182053566, 0.0953228697180748, -0.06609329581260681, 0.17824256420135498], [-0.018631473183631897, 0.023778067901730537, -0.025065364316105843, 0.07338913530111313, -0.05489135906100273, -0.0021373340860009193, 0.00553944893181324, -0.02121046930551529, 0.040643926709890366, 0.03243764117360115, -0.06007296219468117, -0.013441774994134903, 0.09658120572566986, 0.133548304438591, 0.029908418655395508, 0.0026593066286295652, -0.008498512208461761, 0.026898352429270744, 0.04186508432030678, 0.09201899915933609], [-0.054010625928640366, -0.01613100990653038, -0.032375678420066833, -0.04002796486020088, 0.02824549749493599, 0.13049934804439545, 0.01874495856463909, 0.03747178614139557, -0.029201461002230644, -0.07741484045982361, 0.024012461304664612, 0.0289197638630867, -0.22182708978652954, 0.09451542794704437, 0.029036322608590126, 0.17872019112110138, -0.0304372850805521, 0.039571475237607956, -0.06868288666009903, 0.008880550973117352], [-0.05172111839056015, 0.06962068378925323, -0.03397703543305397, 0.07400991767644882, -0.10291030257940292, 0.04589060693979263, 0.050241801887750626, -0.06779352575540543, 0.022645067423582077, 0.017964620143175125, 0.10083089023828506, -0.05018153786659241, 0.1484169214963913, 0.04362138733267784, -0.03588180989027023, 0.010138282552361488, 0.02304111048579216, -0.06129481643438339, 0.041874878108501434, -0.091385617852211], [0.10985074192285538, -0.023201946169137955, 0.08178312331438065, 0.14581777155399323, 0.05901053175330162, -0.060657158493995667, -0.011738882400095463, 0.08798041939735413, 0.10058183968067169, 0.0776636078953743, -0.07584874331951141, 0.1468055248260498, -0.1250719577074051, 0.5571407079696655, -0.05142651125788689, -0.014267399907112122, 0.05514124035835266, 0.03589259460568428, 0.049442946910858154, -0.05359998345375061], [-0.05268816277384758, 0.014169319532811642, -0.02415105327963829, 0.07560332119464874, -0.22788959741592407, -0.026216264814138412, 0.01694055274128914, -0.05233035236597061, 0.12413004040718079, 0.12627391517162323, 0.030122699216008186, -0.017707929015159607, 0.16361020505428314, -0.1493343710899353, 0.040858518332242966, -0.028755448758602142, -0.028852704912424088, -0.081248439848423, 0.024139927700161934, -0.16930072009563446], [-0.12090349942445755, 0.03846639394760132, 0.00020898724324069917, 0.06573493033647537, -0.03992483764886856, -0.11241546273231506, 0.08234070241451263, 0.015464280731976032, 0.030334170907735825, 0.03519745543599129, -0.07096745073795319, 0.07240822911262512, 0.2485617995262146, -0.07255352288484573, -0.0038584130816161633, -0.15304626524448395, 0.06387175619602203, -0.002143074059858918, -0.043148066848516464, -0.01708938367664814], [0.006890090182423592, 0.006888088770210743, -0.00197786558419466, -0.004035863094031811, -0.01450614258646965, 0.006874019280076027, 0.005476968362927437, 0.00799553096294403, -0.004716346971690655, -0.006474134512245655, 0.011167919263243675, -0.009684696793556213, -0.005237185396254063, 0.041846368461847305, 0.0218792911618948, 0.017303528264164925, -0.01535014621913433, 0.013493547216057777, 5.5751006584614515e-05, 0.001815389608964324], [-0.017089104279875755, 0.03767501190304756, -0.12381661683320999, 0.030872203409671783, -0.03712973743677139, 0.11768601834774017, 0.018161775544285774, 0.0033855035435408354, 0.06825004518032074, -0.05751151964068413, -0.03750599920749664, 0.024865545332431793, -0.15185333788394928, 0.09893914312124252, 0.08875833451747894, 0.18266548216342926, -0.03541020303964615, -0.010563360527157784, -0.014755482785403728, -0.0748300552368164], [-0.1469382345676422, 0.052776359021663666, -0.22361166775226593, 0.025009803473949432, -0.024494359269738197, 0.0619085319340229, -0.08043782413005829, -0.0035778924357146025, 0.0880231037735939, 0.060139719396829605, -0.09406381100416183, 0.05748194456100464, 0.06562533974647522, -0.23861119151115417, -0.027477754279971123, 0.0659438967704773, -0.028772175312042236, -0.013526302762329578, 0.057104770094156265, 0.0207202285528183], [-0.1178492084145546, -0.008594205603003502, -0.0918460264801979, 0.09026461094617844, -0.0021841174457222223, 0.09990539401769638, 0.06576709449291229, 0.05610379949212074, 0.001136250328272581, -0.04452104493975639, -0.18047676980495453, 0.21948640048503876, -0.025554344058036804, 0.06926000118255615, 0.20072121918201447, 0.1848834753036499, 0.019834812730550766, 0.1044757068157196, -0.13280919194221497, 0.1036033108830452], [-0.05636180564761162, 0.01668742299079895, -0.1399676352739334, -0.05771642178297043, -0.06778153777122498, 0.024729080498218536, -0.02628602646291256, 0.08718829602003098, 0.06532763689756393, -0.043270573019981384, -0.21573954820632935, 0.15900498628616333, -0.14853502810001373, 0.03963160514831543, 0.17370449006557465, 0.09594360738992691, -0.07788241654634476, 0.06813309341669083, -0.044292401522397995, -0.06216972693800926], [-0.1102895587682724, 0.04307122528553009, 0.003434682497754693, 0.050023045390844345, 0.1597752422094345, 0.19097675383090973, 0.11785811185836792, -0.04049356281757355, -0.06802091002464294, -0.1854134052991867, 0.06617829203605652, -0.012291735969483852, -0.2922307252883911, 0.10737752914428711, -0.13087086379528046, 0.04168137535452843, 0.014051498845219612, -0.012148816138505936, 0.025681231170892715, -0.05609766021370888], [0.08117974549531937, -0.048382826149463654, 0.14406250417232513, -0.0011513521894812584, -0.11184712499380112, 0.09208036214113235, 0.010754902847111225, -0.012198304757475853, -0.05280595272779465, -0.14681309461593628, 0.11955516040325165, -0.06584905833005905, -0.004361378960311413, 0.020384766161441803, 0.10742507129907608, 0.05006531998515129, -0.03174658492207527, -0.01987011730670929, -0.014875124208629131, -0.029571019113063812], [-0.052187301218509674, 0.006615304853767157, -0.010235924273729324, 0.020152922719717026, 0.04164799675345421, 0.13061052560806274, 0.028825409710407257, -0.0018614070722833276, -0.059231799095869064, -0.10341881960630417, 0.059180114418268204, -0.032990463078022, -0.1708158552646637, 0.19635513424873352, 0.018061187118291855, 0.1747785210609436, -0.0037427651695907116, 0.014244589023292065, -0.018097367137670517, -0.034216705709695816], [-0.041900601238012314, -0.0009295661584474146, 0.011788647621870041, 0.03929974511265755, 0.06690257042646408, 0.057912666350603104, 0.02608269453048706, -0.010209357365965843, -0.05494125932455063, 0.0028136130422353745, 0.016178250312805176, -0.019500354304909706, -0.05943138897418976, -0.008095599710941315, 0.010001338087022305, 0.07381440699100494, 0.023720404133200645, 0.02207045629620552, -0.010118793696165085, 0.10726702213287354], [-0.01891777291893959, -0.011328738182783127, 0.03115762770175934, 0.008465013466775417, -0.011204351671040058, 0.006671324372291565, 0.021569594740867615, -0.010521262884140015, -0.06791207939386368, 0.042906176298856735, 0.05576540157198906, -0.07209498435258865, -0.03304135426878929, -0.06436098366975784, -0.05590788647532463, 0.03919215872883797, 0.002452010056003928, -0.005348777864128351, -0.010798663832247257, 0.058413151651620865], [-0.04269847646355629, 0.008013611659407616, -0.0654887780547142, -0.005744252819567919, 0.03171916678547859, 0.09464144706726074, 0.011681102216243744, 0.019934585317969322, -0.021845141425728798, -0.037113551050424576, -0.01228125300258398, -0.0012589548714458942, -0.11951760947704315, -0.009455426596105099, 0.06771166622638702, 0.1290307343006134, -0.0175312589854002, 0.027882132679224014, -0.05948984995484352, 0.016679096966981888], [-0.21561665832996368, 0.03699713945388794, -0.09301751852035522, 0.07148206979036331, -0.00040532942512072623, -0.011005332693457603, 0.028646238148212433, 0.059535540640354156, 0.061880212277173996, 0.09005729854106903, -0.1484246402978897, 0.021085942164063454, 0.16708478331565857, 0.16523319482803345, 0.04678530991077423, -0.013778289780020714, 0.07328101247549057, 0.1298089623451233, -0.051398929208517075, 0.010679136961698532], [0.2812960743904114, -0.0797778069972992, 0.2530665397644043, -0.033046916127204895, -0.005869939457625151, 0.14776743948459625, 0.013517608866095543, -0.02914297766983509, -0.08260501176118851, -0.20056289434432983, 0.3011150658130646, -0.04328020289540291, -0.44674819707870483, 0.42915454506874084, -0.14213547110557556, 0.161524698138237, -0.019791532307863235, -0.08041726052761078, 0.11607959866523743, 0.015398009680211544]], "rec.bias_ih_l0": [0.4087839424610138, -0.24570704996585846, 0.41390013694763184, -0.025057977065443993, 0.5367449522018433, -0.0975969135761261, -1.3407286405563354, -0.16778980195522308, 0.17198975384235382, 0.15214815735816956, -1.0387258529663086, 0.06440050154924393, -1.1700185537338257, 0.18182456493377686, 0.49412834644317627, 0.1579235941171646, 0.04963362216949463, 0.3020343780517578, -0.6542443633079529, 0.4895398020744324, -0.04343106225132942, 0.4836449921131134, -0.006492170039564371, 0.12327632308006287, 0.071049265563488, 0.5327417850494385, 1.8887590169906616, 0.36652639508247375, 0.15002579987049103, 0.30100658535957336, 1.1943763494491577, 0.1341945379972458, 1.403212308883667, 0.4691151976585388, -0.06014057248830795, 0.219243124127388, 0.10183868557214737, 0.0005015077767893672, 0.9606102705001831, -0.3197951316833496, -0.1820138692855835, 0.06601908057928085, 0.0003360737464390695, 0.18183517456054688, 0.06842035055160522, 0.16471633315086365, -0.006086104083806276, 0.0028980786446481943, -0.1601075381040573, 0.014898631721735, -0.03901033475995064, -0.08838777989149094, -0.11300856620073318, -0.0648934617638588, -0.010495040565729141, 0.19829945266246796, -0.010497920215129852, 0.037054792046546936, -0.01811661198735237, 0.19350466132164001, 0.4061039984226227, 0.041647981852293015, 0.46700969338417053, 0.06511922180652618, -0.2531201243400574, -0.10466881096363068, -0.13525588810443878, -0.054918792098760605, 0.43743398785591125, 0.07187837362289429, 0.4138224720954895, 0.0927945077419281, 0.5544241666793823, 0.045732270926237106, 0.4913621246814728, 0.20158372819423676, 0.019008906558156013, 0.3405579626560211, -0.00864304881542921, 0.44225797057151794], "rec.bias_hh_l0": [0.4087839424610138, -0.24570704996585846, 0.41390013694763184, -0.025057977065443993, 0.5367449522018433, -0.0975969135761261, -1.3407286405563354, -0.16778980195522308, 0.17198975384235382, 0.15214820206165314, -1.0387258529663086, 0.06440050154924393, -1.1700185537338257, 0.18182456493377686, 0.49412834644317627, 0.1579235941171646, 0.04963362216949463, 0.3020343780517578, -0.6542443633079529, 0.4895314872264862, -0.04343106225132942, 0.4836449921131134, -0.006492170039564371, 0.12327632308006287, 0.071049265563488, 0.5327417850494385, 1.8887590169906616, 0.36652639508247375, 0.15002579987049103, 0.30100658535957336, 1.1943763494491577, 0.13419455289840698, 1.403212308883667, 0.4691151976585388, -0.06014057248830795, 0.219243124127388, 0.10183868557214737, 0.0005015077767893672, 0.9606102705001831, -0.3196825683116913, -0.17860430479049683, 0.08053649961948395, 0.0002484364958945662, 0.17912141978740692, 0.05642019584774971, 0.1647794246673584, -0.0010793013498187065, 0.01771322265267372, -0.15922462940216064, 0.01761532574892044, -0.038129545748233795, -0.08973727375268936, -0.07028564065694809, -0.06220114603638649, -0.00772818922996521, 0.19990500807762146, 1.4601518159906846e-05, 0.04180719330906868, -0.017919393256306648, 0.18371601402759552, 0.4061039984226227, 0.041647981852293015, 0.46700969338417053, 0.06511922180652618, -0.2531201243400574, -0.10466881096363068, -0.13525588810443878, -0.054918792098760605, 0.43743398785591125, 0.07187837362289429, 0.4138224720954895, 0.0927945077419281, 0.5544241666793823, 0.045732270926237106, 0.4913621246814728, 0.20158372819423676, 0.019008906558156013, 0.3405579626560211, -0.00864304881542921, 0.44225889444351196], "lin.weight": [[0.1003795936703682, -0.7935227751731873, -0.7434349060058594, -0.07558686286211014, 0.3913436233997345, 0.2760891616344452, 0.3147290050983429, 0.06356137245893478, 0.07621174305677414, 0.25898998975753784, 0.11068949848413467, 0.03700139746069908, 0.16449499130249023, 0.2692866027355194, -0.30784112215042114, -0.1220402643084526, -0.21918857097625732, -0.5105369091033936, -0.6028090715408325, 0.16460813581943512]], "lin.bias": [0.023856271058321]}}