{"model_data": {"model": "SimpleRNN", "input_size": 2, "skip": 1, "output_size": 1, "unit_type": "LSTM", "num_layers": 1, "hidden_size": 40, "bias_fl": true}, "state_dict": {"rec.weight_ih_l0": [[-0.008778291754424572, 0.5338749885559082], [-2.4241639039246365e-05, 0.00023081932158675045], [-6.515286804642528e-05, 0.0007377826259471476], [0.007756343111395836, -0.6600179672241211], [-0.04771970957517624, -0.3330366611480713], [-7.97836619312875e-05, 0.0009629258420318365], [-6.482647586381063e-05, 0.0007285536848939955], [0.09796563535928726, -0.016308465972542763], [-0.006429525092244148, 0.21125109493732452], [-7.264923624461517e-05, 0.0008483175770379603], [-6.325264985207468e-05, 0.0007097015623003244], [-6.341774860629812e-05, 0.0007123674731701612], [0.01216926146298647, 0.26747655868530273], [-5.9711957874242216e-05, 0.0006585678202100098], [0.0694110244512558, 0.06884592771530151], [-2.0212286472087726e-05, 0.00018968372023664415], [-2.605360532470513e-05, 0.0002526365569792688], [-4.587669172906317e-05, 0.000482104136608541], [-4.922930020256899e-05, 0.0005218954174779356], [-4.760675074066967e-05, 0.0004939166828989983], [0.009053057059645653, 0.22679470479488373], [-3.2553500204812735e-05, 0.00031934131402522326], [-4.9984690122073516e-05, 0.0005289691034704447], [-0.01917141303420067, 0.32638540863990784], [-4.941345832776278e-05, 0.0005238540470600128], [-0.049759555608034134, 0.012664735317230225], [-6.198290066095069e-05, 0.0006887649651616812], [-5.692263584933244e-05, 0.0006208902923390269], [-4.7620338591514155e-05, 0.0005005617276765406], [-7.315358379855752e-05, 0.0008566002361476421], [-4.7666308091720566e-05, 0.0005046565784141421], [-2.6196055841865018e-05, 0.00025447586085647345], [-0.08741552382707596, -0.5324591994285583], [0.06609028577804565, 1.1389468908309937], [-6.514695269288495e-05, 0.000731276348233223], [-2.4668297555763274e-05, 0.0002344803506275639], [-0.09944073110818863, -0.3552325367927551], [-0.005547025706619024, 0.39061909914016724], [-3.293470945209265e-05, 0.0003316776128485799], [-7.101420487742871e-05, 0.0008263933705165982], [-0.06276578456163406, 0.4535145163536072], [-1.627172423468437e-05, 0.00023595026868861169], [-5.0848324463004246e-05, 0.0007789577357470989], [0.04519735649228096, 0.5683203935623169], [-0.020556680858135223, 0.13929200172424316], [-6.258831126615405e-05, 0.0010213992791250348], [-4.95564381708391e-05, 0.0007674738299101591], [0.21556110680103302, 0.05588274821639061], [-0.00412037642672658, -0.054715968668460846], [-5.6459717598045245e-05, 0.0008974805241450667], [-4.844018621952273e-05, 0.0007477449253201485], [-4.866813469561748e-05, 0.0007507771952077746], [0.015542116947472095, 0.2526460289955139], [-4.612842167261988e-05, 0.0006932112155482173], [0.054070327430963516, 0.060529839247465134], [-1.4383641428139526e-05, 0.00019345158943906426], [-1.7620011931285262e-05, 0.0002586829650681466], [-3.3747848647180945e-05, 0.0005023293779231608], [-3.645407559815794e-05, 0.0005448145093396306], [-3.671288141049445e-05, 0.0005155917606316507], [0.029496459290385246, 0.32392969727516174], [-2.2991578589426354e-05, 0.000328913884004578], [-3.7526482628891245e-05, 0.0005529089248739183], [0.0032093271147459745, 0.31886911392211914], [-3.7048688682261854e-05, 0.00054745381930843], [-0.16491356492042542, 0.1294413059949875], [-4.721085133496672e-05, 0.0007246824097819626], [-4.351330062490888e-05, 0.0006523027550429106], [-3.5512555768946186e-05, 0.0005223125335760415], [-5.696839070878923e-05, 0.0009065446211025119], [-3.5297791328048334e-05, 0.0005266856169328094], [-1.8688495401875116e-05, 0.0002605278859846294], [0.015744740143418312, 0.6889519095420837], [-0.06527996808290482, 0.03795948624610901], [-4.9847818445414305e-05, 0.000770359009038657], [-1.661342139414046e-05, 0.00023976463126018643], [0.06404073536396027, 0.23892603814601898], [0.004405934363603592, 0.03686535358428955], [-2.297268838447053e-05, 0.00034169727587141097], [-5.543491352000274e-05, 0.0008744110236875713], [0.42352935671806335, 0.22969375550746918], [-0.0060016014613211155, 0.0023960035759955645], [-0.010817700996994972, 0.0037282693665474653], [-0.22765406966209412, -0.028941933065652847], [-0.1484665423631668, 0.020401516929268837], [0.011913112364709377, -0.004180210642516613], [0.010181035846471786, -0.0036503197625279427], [0.030436040833592415, 0.01927625574171543], [1.0662587881088257, 0.0023663134779781103], [0.01116121280938387, -0.003940172027796507], [0.010233640670776367, -0.003640140872448683], [-0.010312908329069614, 0.0036531744990497828], [0.3755968511104584, 0.13097922503948212], [0.010263104923069477, -0.0035610066261142492], [0.2135455310344696, -0.03857264295220375], [0.004430209286510944, -0.002028954681009054], [0.006128870882093906, -0.002470528008416295], [0.008575616404414177, -0.0031583423260599375], [0.00881106499582529, -0.003214962547644973], [0.00934340339154005, -0.003264626255258918], [-0.06993585079908371, -0.08568114787340164], [0.007318499498069286, -0.0027555227279663086], [0.009170842356979847, -0.0032722558826208115], [-0.20888826251029968, 0.07757966965436935], [0.009134101681411266, -0.0032843169756233692], [-0.1582743525505066, 0.006437940988689661], [-0.0099936006590724, 0.0035681892186403275], [0.009888159111142159, -0.0034736688248813152], [0.008944250643253326, -0.0032276364509016275], [-0.011268680915236473, 0.0039604357443749905], [0.008797352202236652, -0.0032229507341980934], [-0.005286893807351589, 0.002324036555364728], [0.3384834825992584, -0.037179600447416306], [-0.034602489322423935, 0.017528695985674858], [0.010200751945376396, -0.0036399345844984055], [0.0060934205539524555, -0.0024095894768834114], [0.19544333219528198, 0.07452372461557388], [1.0879576206207275, 0.13987062871456146], [-0.0068468498066067696, 0.002717305440455675], [-0.011225038208067417, 0.0039106872864067554], [-0.0012333637569099665, 0.553282618522644], [-2.8852711693616584e-05, 0.00023095998039934784], [-7.4833667895291e-05, 0.0007381528848782182], [0.05925566330552101, 0.1526782363653183], [-0.05882984772324562, -0.11627909541130066], [-8.94197728484869e-05, 0.0009634374873712659], [-7.428821118082851e-05, 0.0007289450149983168], [0.12667106091976166, 0.03688368201255798], [-0.010420871898531914, 0.2200879007577896], [-8.237838483182713e-05, 0.0008487668819725513], [-7.282183651113883e-05, 0.0007100768852978945], [-7.301852747332305e-05, 0.0007127417484298348], [0.022666215896606445, 0.3785918653011322], [-6.923092587385327e-05, 0.0006588998949155211], [0.06593795865774155, 0.0834634006023407], [-2.2683394490741193e-05, 0.00018981489120051265], [-3.082312468905002e-05, 0.0002527897304389626], [-5.424447954283096e-05, 0.0004823669733013958], [-5.7774115703068674e-05, 0.0005221783649176359], [-5.6376793509116396e-05, 0.0004941656370647252], [-0.00254451553337276, 0.33824846148490906], [-3.9169390220195055e-05, 0.00031952597782947123], [-5.8832112699747086e-05, 0.0005292457644827664], [-0.0121450861915946, 0.35006222128868103], [-5.823842002428137e-05, 0.000524129020050168], [-0.10111413896083832, 0.11148303747177124], [-7.138364890124649e-05, 0.0006891321972943842], [-6.630753341596574e-05, 0.0006212100270204246], [-5.6258071708725765e-05, 0.0005008268053643405], [-8.288127719424665e-05, 0.0008570511126890779], [-5.6267639592988417e-05, 0.0005049293977208436], [-2.9760147299384698e-05, 0.0002546441101003438], [-0.011272250674664974, 0.19187383353710175], [-0.029555847868323326, 0.5560739040374756], [-7.460791675839573e-05, 0.0007316690171137452], [-2.9420947612379678e-05, 0.00023462256649509072], [0.1491931825876236, -0.15855343639850616], [-0.012846095487475395, 0.3908494710922241], [-3.886023841914721e-05, 0.0003318757808301598], [-8.07638862170279e-05, 0.0008268194505944848]], "rec.weight_hh_l0": [[0.05271380767226219, -3.648976417025551e-05, -0.0001005474550765939, 0.09834479540586472, -0.04057558998465538, 9.596112795406953e-05, 8.171758963726461e-05, -0.1074611246585846, 0.0007562552345916629, 9.137741290032864e-05, 8.607842755736783e-05, -8.799449278740212e-05, -0.04115009307861328, 9.575035801390186e-05, -0.06757162511348724, 1.505199725215789e-05, 3.514387208269909e-05, 6.901736924191937e-05, 7.173805352067575e-05, 8.996961696539074e-05, -0.3046308755874634, 5.488715396495536e-05, 8.091042400337756e-05, -0.0014678342267870903, 7.936616748338565e-05, -0.12322209030389786, -8.294606959680095e-05, 8.980245183920488e-05, 7.69926409702748e-05, -9.3505070253741e-05, 7.189371535787359e-05, -1.9638584490166977e-05, -0.12479537725448608, 0.04468221589922905, 8.285709918709472e-05, 3.830103014479391e-05, 0.08689512312412262, 0.009207282215356827, -4.095915210200474e-05, -9.734862396726385e-05], [1.7818509149947204e-05, -6.3166423203142585e-09, 8.266059836614659e-08, 7.22433760529384e-05, 8.695328688190784e-06, -8.867333889384099e-08, -5.2969607367003846e-08, -5.804337342851795e-05, -3.944724539906019e-06, -7.609785512840972e-08, -6.069023328336698e-08, 6.390159512648097e-08, -4.807552249985747e-05, -7.334568863370805e-08, -1.9795121261267923e-05, 5.562171523365578e-08, 1.1163779234379945e-08, -3.49493056717165e-08, -3.3470843874283673e-08, -7.41650367785951e-08, -0.0001219805417349562, -2.4309905199970672e-08, -5.0939181761577856e-08, -2.259858956676908e-05, -5.1408637347094555e-08, -4.415970033733174e-05, 5.1789619703868084e-08, -6.407079666814752e-08, -4.780126872105939e-08, 7.903945942189239e-08, -4.0294665382134554e-08, -4.787716179066592e-08, -7.849289249861613e-05, -3.7337101730372524e-06, -5.29246690916807e-08, 3.413886950909273e-09, 4.768148573930375e-05, 1.4474807358055841e-05, -6.909925520659499e-09, 8.327639733352044e-08], [7.494183955714107e-05, 2.8120064143877244e-07, 8.850473705024342e-07, 0.0002143267192877829, -1.9598273865994997e-06, -9.84941607384826e-07, -7.645865593985945e-07, -0.00017562216089572757, -1.3383611985773314e-05, -8.984030159808754e-07, -7.88049931088608e-07, 8.01738053723966e-07, -0.00012508194777183235, -8.1789482919703e-07, -7.336101407418028e-05, -5.096118016467699e-08, -2.7471043040350196e-07, -5.870635959581705e-07, -6.003489829708997e-07, -7.478103043467854e-07, -0.00039361437666229904, -4.5953692051625694e-07, -6.731085022693151e-07, -5.6658285757293925e-05, -6.720586611663748e-07, -0.0001633913634577766, 7.448118708452967e-07, -7.658811682631494e-07, -6.467752200478571e-07, 9.127398925556918e-07, -6.192167347762734e-07, 1.257057391512717e-07, -0.00022687684395350516, 1.8080630979966372e-05, -7.656871048311586e-07, -2.9569062576229044e-07, 0.00016847738879732788, 4.525475014816038e-05, 3.395111605186685e-07, 9.192306720251509e-07], [-0.05834207683801651, -0.011241694912314415, -0.019476141780614853, 0.23975226283073425, -0.10305426269769669, 0.02218581922352314, 0.019364137202501297, 0.26242098212242126, -0.050120722502470016, 0.020848693326115608, 0.01911965385079384, -0.019155194982886314, 0.2198631465435028, 0.018438322469592094, 0.14192159473896027, 0.010026301257312298, 0.011720096692442894, 0.015896441414952278, 0.016515381634235382, 0.016014689579606056, 0.41626405715942383, 0.013078185729682446, 0.016614917665719986, 0.16719505190849304, 0.016535596922039986, 0.21256229281425476, -0.018851613625884056, 0.017927106469869614, 0.016184566542506218, -0.020950913429260254, 0.016243016347289085, -0.011573410592973232, 0.21196621656417847, -0.022446727380156517, 0.01939992420375347, 0.011326760053634644, -0.09189313650131226, 0.08542699366807938, -0.013302695006132126, -0.020585456863045692], [0.256941020488739, 2.907078669522889e-05, 0.0003499645390547812, 0.005881053861230612, -0.07224291563034058, -0.0003690841549541801, -0.00025941774947568774, -0.010931151919066906, -0.010777758434414864, -0.000329682748997584, -0.0002796838234644383, 0.00028952735010534525, -0.28363215923309326, -0.0003168732509948313, 0.0417800135910511, 9.98568648356013e-05, -1.5630541383870877e-05, -0.00017665757331997156, -0.00018298263603355736, -0.00029455695766955614, 0.050261154770851135, -0.00012366948067210615, -0.00023423199309036136, -0.09272550791501999, -0.00023112558119464666, -0.0025857083965092897, 0.0002552272635512054, -0.00028452114202082157, -0.0002177323476644233, 0.00033958518179133534, -0.00019477037130855024, -7.936868496472016e-05, 0.01751694642007351, -0.16538967192173004, -0.0002617994323372841, -3.8682152080582455e-05, 0.07663964480161667, 0.15697602927684784, 3.618781556724571e-05, 0.0003527359804138541], [9.394634253112599e-05, 3.02064819379666e-07, 1.0007599939854117e-06, 0.00027653598226606846, -2.0234976545907557e-05, -1.1071830385844805e-06, -8.528919579475769e-07, -0.00022160685330163687, -1.5984205674612895e-05, -1.0088546105180285e-06, -8.834114169076202e-07, 9.000809768622275e-07, -0.00014514643407892436, -9.24329242479871e-07, -9.381965355714783e-05, -2.3377486613185283e-08, -2.9187327754698345e-07, -6.550076818712114e-07, -6.676031034658081e-07, -8.525984753759985e-07, -0.0005121704307384789, -5.129999181008316e-07, -7.568154387627146e-07, -6.110508547862992e-05, -7.561839652225899e-07, -0.00020822785154450685, 8.316236517202924e-07, -8.633278412162326e-07, -7.270370474543597e-07, 1.0258821703246213e-06, -6.926900368853239e-07, 1.084493490566274e-07, -0.00028925438527949154, 4.5135311665944755e-05, -8.538943916391872e-07, -3.1945964451551845e-07, 0.00021759603987447917, 5.564805178437382e-05, 3.6382598977979796e-07, 1.0361288786953082e-06], [6.374430085998029e-05, 1.585147515470453e-07, 6.147234330455831e-07, 0.00021596881560981274, -5.942069492448354e-06, -6.792620865780918e-07, -5.100321232021088e-07, -0.00017072807531803846, -1.1628847460087854e-05, -6.146635769255226e-07, -5.328249130798213e-07, 5.445248234536848e-07, -0.00011311058915453032, -5.649434910992568e-07, -6.932442920515314e-05, 3.286000804791911e-08, -1.4916618340521381e-07, -3.858548893731495e-07, -3.9174204857772565e-07, -5.252750270301476e-07, -0.00038742402102798223, -2.9868331807847426e-07, -4.5453947450369014e-07, -5.172723103896715e-05, -4.545802596567228e-07, -0.00015083632024470717, 4.971918201590597e-07, -5.239354550212738e-07, -4.35582677482671e-07, 6.263749696699961e-07, -4.1089526803261833e-07, 1.9879593082805513e-08, -0.0002281142951687798, 2.9280110538820736e-05, -5.105296168039786e-07, -1.7032927246418694e-07, 0.0001579451491124928, 4.404613355291076e-05, 1.9229747749704984e-07, 6.351706360874232e-07], [-0.045234307646751404, 0.0006511250394396484, 0.001086513977497816, -0.09226781129837036, 0.029476338997483253, -0.0012499041622504592, -0.0011170429643243551, 0.08694271743297577, 0.017611827701330185, -0.0011828158749267459, -0.0010911556892096996, 0.00108919118065387, -0.03625567629933357, -0.0010298957349732518, 0.05423222482204437, -0.0006462858873419464, -0.0006837474647909403, -0.0009045525803230703, -0.0009481663582846522, -0.0008676119614392519, -0.024265790358185768, -0.000732753484044224, -0.0009338496020063758, -0.051745083183050156, -0.0009263557149097323, -0.02057371847331524, 0.00108424574136734, -0.0010075122117996216, -0.0009068836225196719, 0.0011850299779325724, -0.0009215376921929419, 0.0007279429701156914, 0.14500947296619415, -0.01999926194548607, -0.0011205929331481457, -0.0006539744208566844, -0.006499281153082848, 0.036891549825668335, 0.0007805472705513239, 0.0011565724853426218], [-0.0022134692408144474, 0.00029548423481173813, 0.0004520211659837514, 0.021370576694607735, 0.028036341071128845, -0.0005550081841647625, -0.0005076825618743896, -0.0882130041718483, -0.0018308577127754688, -0.0005257704760879278, -0.0004829461104236543, 0.00047771830577403307, -0.09934492409229279, -0.0004269517376087606, -0.027747860178351402, -0.0003492632822599262, -0.0003176481695845723, -0.0003968183882534504, -0.0004214031796436757, -0.0003315365465823561, -0.1521342545747757, -0.00031033545383252203, -0.0003938651643693447, -0.015242722816765308, -0.0003902785829268396, -0.143827423453331, 0.00048637043801136315, -0.000424536265200004, -0.0003821997670456767, 0.000522877206094563, -0.000401561293983832, 0.00038520529051311314, -0.05474451556801796, 0.02562694251537323, -0.0005089080659672618, -0.00029383462970145047, 0.12699483335018158, -0.01299096830189228, 0.000368913053534925, 0.0004984931438229978], [8.04447554401122e-05, 2.4898142214624386e-07, 8.495741212755092e-07, 0.0002463265846017748, -1.2219242307764944e-05, -9.40831114348839e-07, -7.209153523035639e-07, -0.00019713642541319132, -1.4004232980369125e-05, -8.558356512367027e-07, -7.476334644707094e-07, 7.621202939844807e-07, -0.00013088251580484211, -7.836929967197648e-07, -8.227255602832884e-05, -8.164809273125684e-09, -2.396885179223318e-07, -5.513703627002542e-07, -5.618044838229252e-07, -7.230571554828202e-07, -0.0004511633887887001, -4.3038468788836326e-07, -6.393045737240755e-07, -5.759967098128982e-05, -6.388368660736887e-07, -0.00018148940580431372, 7.027383048807678e-07, -7.309613465622533e-07, -6.137709078757325e-07, 8.706168159733352e-07, -5.838448942085961e-07, 8.045424948477375e-08, -0.0002589309005998075, 3.5827531974064186e-05, -7.217603297249298e-07, -2.6398618047096534e-07, 0.0001892689906526357, 5.037408118369058e-05, 3.0062929567975516e-07, 8.797273380878323e-07], [6.514315464301035e-05, 1.900569941426511e-07, 6.769146807528159e-07, 0.0002093705115839839, -3.1902300179353915e-06, -7.50382071146305e-07, -5.707190666726092e-07, -0.00016753829549998045, -1.1740691661543678e-05, -6.810346349084284e-07, -5.929845769969688e-07, 6.049219791748328e-07, -0.00011422169336583465, -6.233563567548117e-07, -6.830898200860247e-05, 6.992518564175043e-09, -1.8186875649917056e-07, -4.3409173144937085e-07, -4.4205603444424924e-07, -5.755893539571844e-07, -0.00037762802094221115, -3.373615982127376e-07, -5.059005161456298e-07, -5.2688727009808645e-05, -5.056072609477269e-07, -0.00014998686674516648, 5.561418561228493e-07, -5.802701821266965e-07, -4.852884103456745e-07, 6.931798566256475e-07, -4.6051201252339524e-07, 5.0716366217784525e-08, -0.00022149324649944901, 2.4133008992066607e-05, -5.713849304811447e-07, -2.0230575614732516e-07, 0.0001560637028887868, 4.352941323304549e-05, 2.3021053152660897e-07, 7.009718956396682e-07], [6.648427370237187e-05, 2.029711936302192e-07, 7.060065740915888e-07, 0.0002096820971928537, -2.900204663092154e-06, -7.832041433175618e-07, -5.979218826723809e-07, -0.00016840785974636674, -1.1943458957830444e-05, -7.114683171494107e-07, -6.203214297784143e-07, 6.324906962618115e-07, -0.00011568656918825582, -6.505587748506514e-07, -6.889276846777648e-05, -1.4618618537909356e-09, -1.9504635417888494e-07, -4.555705288566969e-07, -4.6429664735114784e-07, -5.996148502163123e-07, -0.0003791874332819134, -3.545242748259625e-07, -5.29326428022614e-07, -5.326965037966147e-05, -5.289225555316079e-07, -0.0001516541960882023, 5.826117899232486e-07, -6.062478519197612e-07, -5.07914592162706e-07, 7.239135015879583e-07, -4.82778716559551e-07, 6.154168374905566e-08, -0.0002218348963651806, 2.3166812752606347e-05, -5.986497058074747e-07, -2.1552261841861764e-07, 0.0001575634814798832, 4.375803473521955e-05, 2.4569530410190055e-07, 7.314995968954463e-07], [-0.23612068593502045, -9.490577213000506e-05, -0.00024654570734128356, 0.049749065190553665, -0.014505554921925068, 0.00024589282111264765, 0.00019572785822674632, -0.07700236886739731, 0.03887731209397316, 0.00022824718325864524, 0.00020761543419212103, -0.0002132863737642765, -0.0276526790112257, 0.00023210208746604621, 0.006738264579325914, 2.2958036424824968e-05, 9.043994941748679e-05, 0.0001642116258153692, 0.00016768710338510573, 0.00022372964303940535, -0.22767436504364014, 0.0001406480005243793, 0.00019392473041079938, 0.03296142444014549, 0.00019228730525355786, -0.0990149974822998, -0.00019648995657917112, 0.00021568845841102302, 0.0001865048543550074, -0.00023419778153765947, 0.00017271193792112172, -3.6520221328828484e-05, -0.08613836020231247, -0.03832932561635971, 0.00019688639440573752, 9.961100295186043e-05, 0.12054569274187088, -0.06318417191505432, -9.951103129424155e-05, -0.00024363961711060256], [6.630959251197055e-05, 2.415457913684804e-07, 7.72875694110553e-07, 0.00019324889581184834, 2.703188101804699e-06, -8.606544952272088e-07, -6.659917062279419e-07, -0.00015871292271185666, -1.1952943168580532e-05, -7.842304512450937e-07, -6.869043431834143e-07, 6.990399583628459e-07, -0.00011540867853909731, -7.136769681892474e-07, -6.548910459969193e-05, -3.8214363229371884e-08, -2.3552880179522617e-07, -5.100849307382305e-07, -5.215621285969974e-07, -6.525833100567979e-07, -0.00035159176331944764, -3.9850513644523744e-07, -5.860487704012485e-07, -5.352388325263746e-05, -5.851570108461601e-07, -0.00014521069533657283, 6.486485517598339e-07, -6.677353781014972e-07, -5.629062798107043e-07, 7.96929782609368e-07, -5.38419840268034e-07, 1.0351383394890945e-07, -0.00020545689039863646, 1.2665728718275204e-05, -6.66957078010455e-07, -2.543298194268573e-07, 0.00014952433411963284, 4.123473263462074e-05, 2.9202070095379895e-07, 8.028157481021481e-07], [-0.042844995856285095, -0.0003385469608474523, -0.0007167608710005879, 0.01217336393892765, -0.06942569464445114, 0.0007866407977417111, 0.0006505505880340934, -0.00359797733835876, 0.027744494378566742, 0.000729638384655118, 0.0006601556669920683, -0.0006680471706204116, 0.02739088423550129, 0.0006739873788319528, 0.009867659769952297, 0.00020974913786631078, 0.0003433783131185919, 0.0005326888058334589, 0.0005488600581884384, 0.0006116487784311175, -0.01986495591700077, 0.00044167879968881607, 0.000585072033572942, -0.02526615560054779, 0.0005821915692649782, -0.049835678189992905, -0.0006387530011124909, 0.0006419421406462789, 0.0005670628743246198, -0.0007393701234832406, 0.0005511432536877692, -0.00026567772147245705, 0.03566420078277588, 0.05071764439344406, 0.0006523408810608089, 0.00034648895962163806, 0.04753226786851883, -0.005753200501203537, -0.000391096284147352, -0.0007413358543999493], [5.27377960679587e-06, -9.8921617563974e-08, -1.3157786327155918e-07, 6.162347563076764e-05, -1.0863016086659627e-06, 1.53899151200676e-07, 1.4672967552087357e-07, -4.365447239251807e-05, -3.1229524211084936e-06, 1.4826690630798112e-07, 1.4012677240771154e-07, -1.3869828308088472e-07, -2.869437594199553e-05, 1.265397600036522e-07, -1.3868087080481928e-05, 1.1570994473686369e-07, 1.0561829100197428e-07, 1.2167905083515507e-07, 1.2875447907845228e-07, 1.019575321947741e-07, -9.932466491591185e-05, 9.998790062581975e-08, 1.2032759855173936e-07, -1.1309987712593284e-05, 1.190744427503887e-07, -2.585248694231268e-05, -1.4235553180697025e-07, 1.2652395753320889e-07, 1.1747678030360476e-07, -1.475856095112249e-07, 1.222837084924322e-07, -1.2513201852470957e-07, -6.765790021745488e-05, 6.530283371830592e-06, 1.4722587593496428e-07, 9.826101887711047e-08, 3.16807308990974e-05, 7.065565569064347e-06, -1.1847770764461529e-07, -1.4183076757490198e-07], [1.8080647350871004e-05, -1.80895050050367e-08, 6.539382724213283e-08, 7.948414713609964e-05, 7.677943358430639e-06, -6.85676866396534e-08, -3.4392822811923907e-08, -6.25321627012454e-05, -4.239952886564424e-06, -5.6919478907957455e-08, -4.2786417964180146e-08, 4.611283088706841e-08, -4.9580125050852075e-05, -5.686264614723768e-08, -2.129080894519575e-05, 6.8539264930223e-08, 2.3660396308855525e-08, -1.9745652224401056e-08, -1.7419761633163944e-08, -6.067416080668409e-08, -0.00013335463881958276, -1.1903714458583181e-08, -3.560840511340757e-08, -2.3345244699157774e-05, -3.623048527856554e-08, -4.6836186811560765e-05, 3.3763885909365854e-08, -4.775948880819669e-08, -3.287676619834201e-08, 5.988677287405153e-08, -2.4928228370413308e-08, -6.206821012710861e-08, -8.601511217420921e-05, -1.7298557395406533e-06, -3.428124273341382e-08, 1.5158814647975305e-08, 5.098335532238707e-05, 1.531654197606258e-05, -2.1018459861466e-08, 6.47488320737466e-08], [4.262985021341592e-05, 1.0159537566778454e-07, 4.066861265528132e-07, 0.0001463291555410251, 8.34252750792075e-06, -4.510107203259395e-07, -3.365948089140147e-07, -0.00011798915511462837, -8.031698598642834e-06, -4.071343653322401e-07, -3.517377535899868e-07, 3.595755515561905e-07, -8.657312719151378e-05, -3.7305593991732167e-07, -4.552139216684736e-05, 2.605585258663723e-08, -9.52800505160667e-08, -2.529416747165669e-07, -2.569540811236948e-07, -3.460947937128367e-07, -0.00025640978128649294, -1.9481380775232537e-07, -2.989219183291425e-07, -4.238383553456515e-05, -2.9891225494793616e-07, -0.00010001869668485597, 3.2785322900963365e-07, -3.45496601994455e-07, -2.862014127913426e-07, 4.150251697865315e-07, -2.696745866614947e-07, 8.871137602284307e-09, -0.0001567225845064968, 6.540633876284119e-06, -3.3696801438054536e-07, -1.0946925499411009e-07, 0.00010394946002634242, 3.0983144824858755e-05, 1.2379997826883482e-07, 4.207607560147153e-07], [4.4716234697261825e-05, 9.803385836448797e-08, 4.1373490944351943e-07, 0.00015847744361963123, 5.851191872352501e-06, -4.577831873575633e-07, -3.392070766494726e-07, -0.00012633735605049878, -8.641966815048363e-06, -4.1261307615059195e-07, -3.556309025043447e-07, 3.6393976188264787e-07, -9.012863301904872e-05, -3.7913099504294223e-07, -4.8982332373270765e-05, 3.670437820346706e-08, -9.085118080065513e-08, -2.541938215472328e-07, -2.5773826450858905e-07, -3.532447294674057e-07, -0.000277702376479283, -1.9537607442998706e-07, -3.023177725935966e-07, -4.35355759691447e-05, -3.024259171979793e-07, -0.0001070322105078958, 3.3049926173589483e-07, -3.5038061696468503e-07, -2.8929227369189903e-07, 4.2089905605280364e-07, -2.716177789352514e-07, -1.0470362354908502e-09, -0.00016911979764699936, 1.0601421308820136e-05, -3.3954430023186433e-07, -1.0631779900904803e-07, 0.00011180018191225827, 3.294591078883968e-05, 1.1955803813634702e-07, 4.2743340600281954e-07], [5.559734927373938e-05, 2.2723102688360086e-07, 6.84606504819385e-07, 0.00014604783791583031, 1.3420892173598986e-05, -7.65887477882643e-07, -5.983850428492588e-07, -0.00012552476255223155, -9.582392522133887e-06, -6.991610916884383e-07, -6.141338531051588e-07, 6.240119319045334e-07, -0.00010135438060387969, -6.329314032882394e-07, -5.206070636631921e-05, -6.011521946902576e-08, -2.239255962876996e-07, -4.593767641836166e-07, -4.711068015694764e-07, -5.742167559219524e-07, -0.0002650698006618768, -3.595078794660367e-07, -5.232254807197023e-07, -4.827969678444788e-05, -5.220721277510165e-07, -0.00011439771333243698, 5.824250592922908e-07, -5.939965035395289e-07, -5.028628606851271e-07, 7.097721095306042e-07, -4.83436622289446e-07, 1.1759593121496437e-07, -0.00015806357259862125, -3.4116692404495552e-06, -5.993882155053143e-07, -2.3783009339695127e-07, 0.00011613657261477783, 3.239870420657098e-05, 2.7477071284920385e-07, 7.130431640689494e-07], [0.21172666549682617, 0.0005824602558277547, 0.001189183909446001, -0.007150736171752214, 0.03922447934746742, -0.0013545701513066888, -0.0011487473966553807, -0.03029179386794567, -0.02461353689432144, -0.0012624450027942657, -0.0011419368674978614, 0.0011478082742542028, 0.0002348969574086368, -0.0011150822974741459, -0.08392017334699631, -0.0004636456142179668, -0.0006031201919540763, -0.000907699519302696, -0.0009475952829234302, -0.0009601196506991982, -0.1403639316558838, -0.0007237055106088519, -0.0009733867482282221, -0.05643381178379059, -0.0009669537539593875, -0.06300888955593109, 0.0011165126925334334, -0.0010721179423853755, -0.0009406108874827623, 0.0012720365775749087, -0.0009358431561850011, 0.000556974031496793, 0.011597400531172752, -0.08974118530750275, -0.0011519058607518673, -0.000591396470554173, -0.02980414405465126, 0.008837222121655941, 0.0007009459659457207, 0.001255884300917387], [3.0361970857484266e-05, 6.473622704561421e-08, 2.6911945383290004e-07, 9.830236376728863e-05, 1.289846477448009e-05, -2.986966478601971e-07, -2.2145638922665967e-07, -8.192696986952797e-05, -5.522982519323705e-06, -2.6906815264737816e-07, -2.3177432240117923e-07, 2.3709986862741061e-07, -6.750762986484915e-05, -2.4649131091791787e-07, -3.0388549930648878e-05, 2.1491100454795742e-08, -6.027566001876039e-08, -1.6560049687086575e-07, -1.681900272387793e-07, -2.2881557981691003e-07, -0.00017022856627590954, -1.271762783972008e-07, -1.9664749117964675e-07, -3.289776941528544e-05, -1.9662168426748394e-07, -6.773109635105357e-05, 2.1565703889336874e-07, -2.278729880345054e-07, -1.8811985569300305e-07, 2.744343134963856e-07, -1.7682434361177002e-07, 1.613756905882724e-09, -0.00010669860785128549, -4.966115284332773e-06, -2.2173655622736987e-07, -7.005337465670891e-08, 7.037934847176075e-05, 2.1468686099979095e-05, 7.895888387565719e-08, 2.784181845072453e-07], [5.070578117738478e-05, 1.5659099972253898e-07, 5.43407395525719e-07, 0.0001586385042173788, 8.175295079126954e-06, -6.046642511137179e-07, -4.6133277464832645e-07, -0.00012979719031136483, -9.33633327804273e-06, -5.488510623763432e-07, -4.780555400429876e-07, 4.873167540608847e-07, -9.676376066636294e-05, -5.003916498935723e-07, -5.167382914805785e-05, -3.4592126940680146e-09, -1.5080537707490294e-07, -3.5050970836891793e-07, -3.5763517303166736e-07, -4.5972734596944065e-07, -0.0002821572998072952, -2.7220141873840475e-07, -4.069717078891699e-07, -4.654112126445398e-05, -4.065559835453314e-07, -0.00011383522360119969, 4.492574134928873e-07, -4.663343986521795e-07, -3.903846845787484e-07, 5.584013820225664e-07, -3.713600733590283e-07, 4.962553745713194e-08, -0.00016971562581602484, 6.437560841732193e-06, -4.619572848696407e-07, -1.661478563619312e-07, 0.0001175024954136461, 3.4023421903839335e-05, 1.8994131778526935e-07, 5.637949698211742e-07], [-0.015311194583773613, 0.00023088134184945375, 0.00032986566657200456, 0.0387515127658844, 0.022809628397226334, -0.0004125660634599626, -0.00038125933497212827, -0.06679163128137589, -0.010726292617619038, -0.0003913014370482415, -0.00036032666685059667, 0.00035551804467104375, -0.10951164364814758, -0.00031274923821911216, 0.0036225777585059404, -0.0002788036654237658, -0.0002505685552023351, -0.0003010696673300117, -0.00031921218032948673, -0.0002406631101621315, -0.18234194815158844, -0.00023815492750145495, -0.00029356410959735513, 0.021941615268588066, -0.000291757402010262, -0.11100931465625763, 0.00036444709985516965, -0.00031348064658232033, -0.00028642150573432446, 0.0003882916353177279, -0.0003038111899513751, 0.00030981257441453636, -0.06205730512738228, 0.0020891509484499693, -0.00038133806083351374, -0.00022884657664690167, 0.07039433717727661, 0.02175501547753811, 0.00029123821877874434, 0.0003678078355733305], [5.0503378588473424e-05, 1.5682267928696092e-07, 5.416548560788215e-07, 0.00015691992302890867, 8.509806320944335e-06, -6.028620873621549e-07, -4.602770786732435e-07, -0.00012864821474067867, -9.194998710881919e-06, -5.472940074469079e-07, -4.7681047021796985e-07, 4.859966225012613e-07, -9.622097422834486e-05, -4.988297632735339e-07, -5.12198093929328e-05, -4.834900035888268e-09, -1.5116106055756973e-07, -3.498135185964202e-07, -3.569831790173339e-07, -4.58102448419595e-07, -0.00027931187651120126, -2.7172109184903093e-07, -4.0590691696706926e-07, -4.645739682018757e-05, -4.0547971025262086e-07, -0.00011291069677099586, 4.482160420593573e-07, -4.6497925154653785e-07, -3.893888447237259e-07, 5.567811172113579e-07, -3.7054178392281756e-07, 5.083920484594273e-08, -0.00016795367992017418, 6.077118086977862e-06, -4.6090306682344817e-07, -1.6631003063594108e-07, 0.00011643888865364715, 3.3801887184381485e-05, 1.9020907870981318e-07, 5.620624961011345e-07], [0.04665642976760864, 0.000413813249906525, 0.0009782802080735564, 0.09584469348192215, 0.02151966094970703, -0.001121790031902492, -0.0009247483685612679, -0.025055186823010445, -0.0029585615266114473, -0.0010380189632996917, -0.0009271253366023302, 0.0009334958740510046, -0.026832642033696175, -0.0009109662496484816, -0.0908522680401802, -0.0002800079819280654, -0.0004239220579620451, -0.0007213380886241794, -0.0007449655677191913, -0.0007966276025399566, 0.03473648801445961, -0.0005619856528937817, -0.0007813705014996231, 0.015599642880260944, -0.0007789505179971457, 0.05511712282896042, 0.000895570614375174, -0.0008715747972019017, -0.0007544646505266428, 0.001046143239364028, -0.0007480144267901778, 0.000360489560989663, -0.09262353926897049, -0.003673244034871459, -0.0009264241671189666, -0.00042333631427027285, -0.025188356637954712, -0.04161504656076431, 0.000509919598698616, 0.0010341049637645483], [6.0846665292046964e-05, 1.5739712466711353e-07, 5.995890433041495e-07, 0.00020479765953496099, -2.933450559794437e-06, -6.633907787545468e-07, -4.993440825273865e-07, -0.0001625680160941556, -1.1235038982704282e-05, -6.005608383929939e-07, -5.209529945204849e-07, 5.321701337379636e-07, -0.00010985738481394947, -5.511751623998862e-07, -6.565010698977858e-05, 2.6374586070687656e-08, -1.4872141207433742e-07, -3.7792466400787816e-07, -3.8403319990720775e-07, -5.114019927532354e-07, -0.0003665258118417114, -2.9262943712637934e-07, -4.441787382347684e-07, -5.081247218186036e-05, -4.441294834123255e-07, -0.00014328659744933248, 4.86672604438354e-07, -5.115506382935564e-07, -4.257046271050058e-07, 6.118430633250682e-07, -4.0212469798461825e-07, 2.4978266566222374e-08, -0.00021670598653145134, 2.435775240883231e-05, -4.998678946321888e-07, -1.687627815272208e-07, 0.00014970614574849606, 4.2126532207475975e-05, 1.9098116865734482e-07, 6.199845756782452e-07], [6.0617887356784195e-05, 2.0505024167505326e-07, 6.804162353546417e-07, 0.00018363239360041916, 4.059610091644572e-06, -7.572064077976393e-07, -5.822683988299104e-07, -0.00015000630810391158, -1.0990707778546494e-05, -6.888279813210829e-07, -6.018897238391219e-07, 6.12997666848969e-07, -0.00010877902241190895, -6.275524242482788e-07, -6.106320506660268e-05, -2.006773769380743e-08, -1.988372133610028e-07, -4.4447156710702984e-07, -4.539885480880912e-07, -5.752320930696442e-07, -0.00033119783620350063, -3.463548523541249e-07, -5.131105922373536e-07, -5.120434070704505e-05, -5.124623498886649e-07, -0.00013492556172423065, 5.671020630870771e-07, -5.86109422329173e-07, -4.925723260384984e-07, 7.003630457802501e-07, -4.6995847924335976e-07, 7.770969290277208e-08, -0.0001955080369953066, 1.2039109606121201e-05, -5.830753480040585e-07, -2.1663794314008555e-07, 0.00013915577437728643, 3.9199472666950896e-05, 2.4824163347147987e-07, 7.063080147418077e-07], [4.801386603503488e-05, 1.4444788121181773e-07, 5.066610242465686e-07, 0.00015053081733640283, 9.339392818219494e-06, -5.638225957227405e-07, -4.293457038784254e-07, -0.0001234600058523938, -8.790318133833352e-06, -5.114911232340091e-07, -4.4515732611216663e-07, 4.5387622549242224e-07, -9.308620792580768e-05, -4.66366458340417e-07, -4.882858775090426e-05, -5.101100652993296e-10, -1.3888009675611102e-07, -3.2582426001681597e-07, -3.323679891309439e-07, -4.2867353045039636e-07, -0.0002668883535079658, -2.5281869397986156e-07, -3.788198625898076e-07, -4.511101360549219e-05, -3.784535067552497e-07, -0.00010759257565950975, 4.180861026270577e-07, -4.3440169861241884e-07, -3.6331425690150354e-07, 5.204730655350431e-07, -3.4536932957962563e-07, 4.3587476739048725e-08, -0.00016131081792991608, 4.733328296424588e-06, -4.299247962080699e-07, -1.5342038750532083e-07, 0.00011102937423856929, 3.242108869017102e-05, 1.7529633566937264e-07, 5.256303552414465e-07], [8.221378084272146e-05, 2.6245555773130036e-07, 8.817596608423628e-07, 0.0002482303243596107, -1.245538533112267e-05, -9.768588142833323e-07, -7.504349923692644e-07, -0.00019913191499654204, -1.4318399735202547e-05, -8.891779543773737e-07, -7.774931987114542e-07, 7.922969302853744e-07, -0.0001328718790318817, -8.137512281791714e-07, -8.331846765941009e-05, -1.578404074109585e-08, -2.533102474444604e-07, -5.746682631979638e-07, -5.858368581357354e-07, -7.499544381062151e-07, -0.00045573650277219713, -4.4901406681674416e-07, -6.649854640272679e-07, -5.821002559969202e-05, -6.644193604188331e-07, -0.00018429472402203828, 7.314975505323673e-07, -7.595522788506059e-07, -6.385652113749529e-07, 9.043319550983142e-07, -6.080785510675923e-07, 9.07253294712973e-08, -0.00026082369731739163, 3.5348599340068176e-05, -7.513411901527434e-07, -2.7784744816017337e-07, 0.00019206167780794203, 5.0801416364265606e-05, 3.1673863531977986e-07, 9.133563025898184e-07], [4.5575052354251966e-05, 1.181646922532309e-07, 4.5063845277582004e-07, 0.00015239801723510027, 7.859872312110383e-06, -5.002401053388894e-07, -3.7605460079248587e-07, -0.00012325805437285453, -8.446205356449354e-06, -4.523999734828976e-07, -3.9190683764900314e-07, 4.002701814442844e-07, -9.026991028804332e-05, -4.139017448778759e-07, -4.80518901895266e-05, 1.8637432930290743e-08, -1.1187390214217885e-07, -2.836598014255287e-07, -2.885654168949259e-07, -3.8282377090581576e-07, -0.00026854706811718643, -2.1908438441187172e-07, -3.332762616992113e-07, -4.400564284878783e-05, -3.331643654291838e-07, -0.00010566730634309351, 3.662717347197031e-07, -3.841083184852323e-07, -3.1929718602441426e-07, 4.608762651514553e-07, -3.0179938903529546e-07, 1.9929576211552558e-08, -0.00016308593330904841, 7.47735430195462e-06, -3.764973541819927e-07, -1.266317468662237e-07, 0.00010959696373902261, 3.244618346798234e-05, 1.4375220303008973e-07, 4.666353845550475e-07], [9.482266250415705e-06, -1.0152641038985166e-07, -1.1332439697753216e-07, 8.259413880296052e-05, 1.4266204573232244e-07, 1.3445462343497638e-07, 1.3566749146320944e-07, -5.9438210882944986e-05, -3.9593355722900014e-06, 1.3172729040888953e-07, 1.2714890829101932e-07, -1.2494591317135928e-07, -3.861950972350314e-05, 1.1043871239735381e-07, -1.94607418961823e-05, 1.3008941834868892e-07, 1.0943780637262535e-07, 1.1462824289765194e-07, 1.2215522815495206e-07, 8.538655293932607e-08, -0.00013401155592873693, 9.528904598710142e-08, 1.0948772199981249e-07, -1.664126102696173e-05, 1.0809095130071e-07, -3.78694967366755e-05, -1.3153480438177212e-07, 1.1261441557053331e-07, 1.0734309086046778e-07, -1.3034951962254127e-07, 1.1395849242035183e-07, -1.377887031139835e-07, -8.993087249109522e-05, 6.567040600202745e-06, 1.3619424521493784e-07, 1.0017625839964239e-07, 4.444714795681648e-05, 1.1391509360691998e-05, -1.2138494298596925e-07, -1.235311941627515e-07], [0.020481480285525322, -9.475499973632395e-05, 0.00010452470451127738, 0.06656914949417114, -0.14001157879829407, 0.00015968014486134052, 0.00028462623595260084, 0.38920605182647705, -0.03070218116044998, 0.00016751140356063843, 0.00015129456005524844, -0.00011170132347615436, 0.42508792877197266, -0.00011492700286908075, 0.11966432631015778, 0.0006552403210662305, 0.0001772185933077708, 4.856246232520789e-05, 0.00014305753575172275, -0.00043708569137379527, 0.5354339480400085, -0.00012722921383101493, -6.77273201290518e-05, -0.03405465930700302, -8.588659693486989e-05, 0.39051198959350586, -0.00022810266818851233, -5.773157317889854e-05, -8.693191193742678e-05, -0.00013696629321202636, 2.7092326490674168e-05, -0.0006422708975151181, -0.052512019872665405, 0.04101887345314026, 0.00029028760036453605, 6.792056956328452e-05, -0.14099113643169403, 0.03069842793047428, -0.00026674498803913593, -3.231379378121346e-05], [0.06882940977811813, -0.0003398336993996054, -0.0009357380913570523, 0.10463893413543701, -0.22348253428936005, 0.0010788680519908667, 0.0008959168917499483, -0.0076548196375370026, 0.05402757599949837, 0.0009971711551770568, 0.0008883597329258919, -0.0008934452780522406, 0.3494360148906708, 0.0008659642189741135, -0.12052885442972183, 0.00025835243286564946, 0.00035402303910814226, 0.0006582308560609818, 0.0007018031319603324, 0.0007115377229638398, -0.5482133030891418, 0.0004749419749714434, 0.0007260908023454249, -0.04294300824403763, 0.0007142178947106004, -0.02180670015513897, -0.0008673408883623779, 0.0008242199546657503, 0.0006885037873871624, -0.001006080536171794, 0.0006841720314696431, -0.0003307414590381086, -0.06983019411563873, 0.06986922770738602, 0.0009028483764268458, 0.00034998395130969584, 0.020789088681340218, -0.005234733689576387, -0.0004498925118241459, -0.0009924444602802396], [6.389610643964261e-05, 1.5957525079102197e-07, 6.18050535194925e-07, 0.00021687518164981157, -6.09792414252297e-06, -6.829350809312018e-07, -5.129028295414173e-07, -0.0001713804667815566, -1.1723865100066178e-05, -6.180275704537053e-07, -5.357882173484541e-07, 5.475395710163866e-07, -0.00011344058293616399, -5.680262233909161e-07, -6.961129838600755e-05, 3.268633008701727e-08, -1.501960440464245e-07, -3.880727206251322e-07, -3.9400416085300094e-07, -5.28112707343098e-07, -0.00038894530734978616, -3.004277004947653e-07, -4.570824501115567e-07, -5.175775368115865e-05, -4.5712047835877456e-07, -0.000151431915583089, 4.999897100788075e-07, -5.268231575428217e-07, -4.3802791083180637e-07, 6.297901222751534e-07, -4.1323471577925375e-07, 2.0336424100264594e-08, -0.00022904499201104045, 2.9370170523179695e-05, -5.134037337484187e-07, -1.714448245593303e-07, 0.00015857779362704605, 4.4136180804343894e-05, 1.935722337975676e-07, 6.386140398717544e-07], [1.867930041044019e-05, -1.5361913130451654e-10, 9.740669781876932e-08, 7.331154483836144e-05, 9.227313967130613e-06, -1.0535477201756294e-07, -6.660452811502182e-08, -5.927106394665316e-05, -4.026180704386206e-06, -9.149626123416965e-08, -7.443426852660195e-08, 7.778031374527927e-08, -4.940568396705203e-05, -8.70838121613815e-08, -2.0367357137729414e-05, 5.189053453591441e-08, 4.898895511473711e-09, -4.56024871198224e-08, -4.449574220188879e-08, -8.630443204538096e-08, -0.00012408084876369685, -3.274265480968097e-08, -6.265122465265449e-08, -2.3286265786737204e-05, -6.306920852239273e-08, -4.552853715722449e-05, 6.504659211259423e-08, -7.714240268796857e-08, -5.909567590833831e-08, 9.460408989525604e-08, -5.13723144024425e-08, -4.2951718626227375e-08, -7.968717545736581e-05, -4.244040610501543e-06, -6.658981277496423e-08, -2.913674190807569e-09, 4.89290505356621e-05, 1.4895480489940383e-05, 5.234075395321724e-10, 9.875727613462004e-08], [-0.2502094507217407, 0.00034667758154682815, 0.0004793198313564062, -0.03722962737083435, -0.14770151674747467, -0.0005148158525116742, -0.00047302586608566344, 0.053810592740774155, -0.12050169706344604, -0.0004966001724824309, -0.00047212839126586914, 0.0004729383799713105, -0.10610281676054001, -0.0004656454548239708, 0.07915239036083221, -0.0003118060121778399, -0.00035262457095086575, -0.00042988487984985113, -0.00043463805923238397, -0.0004420152981765568, 0.27748724818229675, -0.0003903308534063399, -0.00044054616591893137, 0.07133076339960098, -0.00044026930117979646, 0.05851423367857933, 0.0004660624254029244, -0.0004586113791447133, -0.0004352379764895886, 0.0004978244542144239, -0.00043543888023123145, 0.00034231552854180336, 0.043057043105363846, 0.4365050196647644, -0.0004730696964543313, -0.0003490751550998539, -0.09753009676933289, -0.10177360475063324, 0.0003815274394582957, 0.0004935698816552758], [-0.0170001033693552, -1.8317514332011342e-05, -7.489107520086691e-05, 0.07944788038730621, 0.028694698587059975, 5.21448309882544e-05, 3.596952956286259e-05, -0.10380995273590088, -0.00018582418852020055, 4.904489833279513e-05, 4.720714423456229e-05, -5.122204311192036e-05, -0.12056254595518112, 7.192538032541052e-05, -0.013151356019079685, -2.688128370209597e-05, 1.2986587535124272e-05, 4.0358496335102245e-05, 3.8427217077696696e-05, 8.35441387607716e-05, -0.2145749032497406, 3.957765511586331e-05, 5.7443474361207336e-05, -0.007809191010892391, 5.6694061640882865e-05, -0.12686991691589355, -4.118312426726334e-05, 6.349096656776965e-05, 5.511509152711369e-05, -5.2900955779477954e-05, 4.354461270850152e-05, 2.6382725991425104e-05, -0.09216154366731644, 0.05967674404382706, 3.689847289933823e-05, 2.0842688172706403e-05, 0.09447039663791656, 0.02022361569106579, -9.146658157987986e-06, -6.289496377576143e-05], [2.2976413674768992e-05, -1.5320273050178912e-08, 1.0047904197563184e-07, 0.0001042621661326848, 7.0647206484864e-06, -1.0677229056454962e-07, -6.00972640540931e-08, -8.085886656772345e-05, -5.275304829410743e-06, -9.060097738711193e-08, -7.083029629484372e-08, 7.518147526752728e-08, -5.937199966865592e-05, -8.853206878711717e-08, -2.833161488524638e-05, 8.184554189938353e-08, 2.2202650384883782e-08, -3.8033149962757307e-08, -3.552245431137635e-08, -9.141482593122419e-08, -0.0001755011035129428, -2.5352067112294208e-08, -5.928664492671487e-08, -2.8625556296901777e-05, -6.003784847052884e-08, -6.14331875112839e-05, 5.884366771624627e-08, -7.627088649542202e-08, -5.5350444227997286e-08, 9.452684679445156e-08, -4.510049222972157e-08, -7.220218378733989e-08, -0.00011225831985939294, 2.253961611131672e-06, -5.997080876340988e-08, 1.1431835922337541e-08, 6.638812192250043e-05, 2.0044173652422614e-05, -1.7372810745541756e-08, 1.005544447707507e-07], [8.152486407198012e-05, 2.8208776825522364e-07, 9.153071687251213e-07, 0.0002390676090726629, -9.24349205888575e-06, -1.0158975101148826e-06, -7.848380505492969e-07, -0.00019342516316100955, -1.427387360308785e-05, -9.258523618882464e-07, -8.11056509064656e-07, 8.258211323664e-07, -0.00013215509534347802, -8.454165936200297e-07, -8.103439176920801e-05, -3.488257860340127e-08, -2.739622289027466e-07, -6.02169393459917e-07, -6.147766953290557e-07, -7.763376856928517e-07, -0.00044010175042785704, -4.711662882073142e-07, -6.935057399459765e-07, -5.8380424889037386e-05, -6.926808282514685e-07, -0.00018022560107056051, 7.648503128621087e-07, -7.90440992659569e-07, -6.66212599753635e-07, 9.411186852048559e-07, -6.361195232784667e-07, 1.1243563591278871e-07, -0.000251665071118623, 2.924148975580465e-05, -7.858681101424736e-07, -2.9757453035017534e-07, 0.00018707758863456547, 4.952710878569633e-05, 3.4035630847029097e-07, 9.492197250438039e-07], [0.15148568153381348, -0.0005503377760760486, -0.0010106984991580248, 0.09489193558692932, -0.12383773177862167, 0.0011849990114569664, 0.0010474524460732937, -0.02736063487827778, -0.021655403077602386, 0.0011160655412822962, 0.0010201047407463193, -0.0010172410402446985, 0.1604180634021759, 0.0009518746519461274, -0.09295372664928436, 0.0005554209928959608, 0.0005814720061607659, 0.0008217634749598801, 0.0008655628771521151, 0.0007833602139726281, -0.19650869071483612, 0.0006397083052434027, 0.00085067143663764, 0.03463829681277275, 0.00084329565288499, 0.040419433265924454, -0.001011814340017736, 0.0009297926444560289, 0.0008220606832765043, -0.0011170838261023164, 0.0008399626822210848, -0.0006351140327751637, -0.09571243822574615, 0.04432803764939308, 0.0010508454870432615, 0.0005533769726753235, -0.020845191553235054, -0.011195791885256767, -0.0006848171469755471, -0.0010854867286980152], [1.4508578715322074e-05, -1.8901049614328258e-08, 5.526786495124725e-08, 7.19393792678602e-05, 3.1127294732868904e-06, -5.463012442419313e-08, -2.3894614287200966e-08, -5.5762226111255586e-05, -1.1607710348471301e-07, -4.461049840642772e-08, -3.2763168178462365e-08, 3.609696364037518e-08, -4.035901292809285e-05, -4.8087272830343863e-08, -2.114767994498834e-05, 6.899171722807296e-08, 2.459033332513627e-08, -1.435720964337861e-08, -1.1195615989834096e-08, -5.5144095512105196e-08, -0.00011986348545178771, -9.410234369511272e-09, -2.933906628754812e-08, -2.015649624809157e-05, -3.014294236436399e-08, -4.196705049253069e-05, 2.4087404071337915e-08, -3.960955297088731e-08, -2.7276733760572824e-08, 4.75290420354213e-08, -1.9045712562615336e-08, -6.336796332107042e-08, -7.859872130211443e-05, 9.742728252604138e-06, -2.3710546415145473e-08, 1.610904831750304e-08, 4.554293263936415e-05, 9.249953109247144e-06, -2.3435946516769945e-08, 5.297732030840052e-08], [5.424318806035444e-05, 2.817044730818452e-07, 8.780337452662934e-07, 0.0002231823600595817, -2.1978203221806325e-05, -9.67464984569233e-07, -7.502003995796258e-07, -0.00018388031458016485, -1.2460461675800616e-06, -8.834915661282139e-07, -7.769120315970213e-07, 7.912458954706381e-07, -0.0001099670262192376, -8.130676860673702e-07, -8.044318383326754e-05, -4.164942524198523e-08, -2.7389967272029025e-07, -5.848656883244985e-07, -5.948004968558962e-07, -7.538143336205394e-07, -0.000398212403524667, -4.629784484677657e-07, -6.713464699714677e-07, -5.812650852021761e-05, -6.711050559715659e-07, -0.00017419274081476033, 7.325733122343081e-07, -7.611715204802749e-07, -6.464943567152659e-07, 8.981607493296906e-07, -6.166372372717888e-07, 1.1618593021012202e-07, -0.00024295826733577996, 7.159997039707378e-05, -7.510278123845637e-07, -2.9641915944012e-07, 0.00018110610835719854, 2.2036811060388573e-05, 3.3594983506191056e-07, 9.072346642824414e-07], [0.10796093195676804, -0.011860847473144531, -0.0197556484490633, 0.3196471035480499, -0.2772304117679596, 0.022635184228420258, 0.01996488869190216, 0.01655798964202404, -0.015594149939715862, 0.02132793702185154, 0.019621282815933228, -0.019623782485723495, -0.2703052759170532, 0.018736880272626877, 0.017317436635494232, 0.011070403270423412, 0.012412374839186668, 0.01641887053847313, 0.01708505116403103, 0.01614089496433735, -0.4330829381942749, 0.013520406559109688, 0.017011957243084908, 0.14227929711341858, 0.016929516568779945, -0.020469972863793373, -0.019416650757193565, 0.018289294093847275, 0.01658778265118599, -0.021402087062597275, 0.016739290207624435, -0.012635917402803898, -0.06785640120506287, -0.054039210081100464, 0.01999860815703869, 0.011921552009880543, 0.08491548895835876, 0.010973875410854816, -0.014062339439988136, -0.020956972613930702], [0.18158257007598877, 0.0002832771569956094, 0.0007272643852047622, -0.049579016864299774, -0.13729079067707062, -0.0008022206020541489, -0.0006495693814940751, -0.002168959239497781, -0.021562421694397926, -0.0007407334633171558, -0.0006615974707528949, 0.0006704558618366718, -0.10297942161560059, -0.0006776629597879946, -0.07076343894004822, -0.00013738185225520283, -0.00028518494218587875, -0.0005127715412527323, -0.0005284951184876263, -0.0006131959380581975, -0.1401849389076233, -0.00040727484156377614, -0.0005735845188610256, -0.1630071997642517, -0.0005708024255000055, -0.044285550713539124, 0.0006346754962578416, -0.0006407643086276948, -0.0005528084002435207, 0.0007508970447815955, -0.0005345388199202716, 0.00019798132416326553, 0.03595375269651413, 0.5190739035606384, -0.0006517583969980478, -0.00029293959960341454, 0.12966029345989227, -0.044455546885728836, 0.0003394458908587694, 0.0007533314055763185], [6.849256897112355e-05, 2.8853210665147344e-07, 9.665678817327716e-07, 0.00029046114650554955, -4.269543569535017e-05, -1.0577373359410558e-06, -8.111156830636901e-07, -0.00023507965670432895, -7.508802468692011e-07, -9.642054692449165e-07, -8.454848057226627e-07, 8.627695819996006e-07, -0.00012898513523396105, -8.940880320551514e-07, -0.00010319623106624931, -1.272330352186657e-09, -2.764360260698595e-07, -6.319025942502776e-07, -6.398673235707975e-07, -8.377007247872825e-07, -0.0005240862374193966, -4.998740905648447e-07, -7.328670221795619e-07, -6.353747448883951e-05, -7.333038070100883e-07, -0.00022490188712254167, 7.929256184979749e-07, -8.34083891732007e-07, -7.054354114188754e-07, 9.81413222689298e-07, -6.68589791530394e-07, 8.41040872501253e-08, -0.0003119620378129184, 0.000110882923763711, -8.117387437778234e-07, -3.059800235405419e-07, 0.00023498952214140445, 2.8418638976290822e-05, 3.4324352782277856e-07, 9.94919219010626e-07], [4.636166704585776e-05, 1.3609468396680313e-07, 5.667380378326925e-07, 0.00022452190751209855, -2.2061036361264996e-05, -6.170506026137446e-07, -4.568648535041575e-07, -0.00017815457249525934, -1.3844322666045628e-07, -5.575050181505503e-07, -4.826572421734454e-07, 4.947489742335165e-07, -0.00010074791498482227, -5.211023790252511e-07, -7.569264562334865e-05, 5.978245098958723e-08, -1.2492250789364334e-07, -3.504651715502405e-07, -3.5235672157796216e-07, -4.952770495947334e-07, -0.0003944606287404895, -2.739580224897509e-07, -4.17598783997164e-07, -5.183553366805427e-05, -4.1849298781926336e-07, -0.00016060526832006872, 4.4690017375614843e-07, -4.814629619431798e-07, -4.0088497144097346e-07, 5.692371587429079e-07, -3.7431979649227287e-07, -1.0479301870702784e-08, -0.00024206703528761864, 7.407603698084131e-05, -4.570495377720363e-07, -1.478099704854685e-07, 0.0001681519643170759, 2.4668786863912828e-05, 1.6236143096648448e-07, 5.808051923850144e-07], [-0.06779268383979797, 0.0005174889229238033, 0.000824923103209585, -0.09415248036384583, 0.07277646660804749, -0.0009814975783228874, -0.0009028963977470994, 0.16553016006946564, 0.03230619058012962, -0.0009347667801193893, -0.0008649769006296992, 0.000857789593283087, -0.07749313861131668, -0.0007810693350620568, 0.10156558454036713, -0.0005993989179842174, -0.0005534158553928137, -0.0007082622032612562, -0.0007538013160228729, -0.0006153009016998112, -0.08083424717187881, -0.0005521505954675376, -0.0007140683010220528, -0.07576588541269302, -0.0007058148039504886, -0.07455942034721375, 0.0008697726880200207, -0.0007723580929450691, -0.0006904861074872315, 0.0009316019131802022, -0.0007186174625530839, 0.0006594720762223005, 0.2730602025985718, -0.03915456682443619, -0.0009064504411071539, -0.0005161933368071914, -0.015396534465253353, 0.06988658756017685, 0.0006418868433684111, 0.0008959376136772335], [0.029619446024298668, 4.345330307842232e-05, -6.99192241881974e-05, -0.054313141852617264, -0.03620288148522377, 7.306678890017793e-05, 2.9776674637105316e-05, 0.04685567691922188, -0.0020300375763326883, 5.819382568006404e-05, 4.0106991946231574e-05, -4.435764640220441e-05, 0.11231521517038345, 5.8457393606659025e-05, -0.01771891489624977, -0.00010716986434999853, -5.17535736435093e-05, 6.739875061612111e-06, 5.704059276467888e-06, 5.951763523626141e-05, 0.0810413509607315, -5.420160960056819e-06, 2.9006521799601614e-05, 0.006748344283550978, 2.853222395060584e-05, 0.02990097366273403, -2.9194803573773243e-05, 4.6182376536307856e-05, 2.397794378339313e-05, -6.21383951511234e-05, 1.3453596693580039e-05, 0.00010096601181430742, 0.05292300507426262, 0.04347776249051094, 3.0484607123071328e-05, -3.9282585930777714e-05, 0.0016997021157294512, -0.018844617530703545, 4.8709760449128225e-05, -6.850811769254506e-05], [5.8418514527147636e-05, 2.3381988967230427e-07, 8.135751841109595e-07, 0.00025762536097317934, -3.211044895579107e-05, -8.905610684450949e-07, -6.782556738471612e-07, -0.00020772905554622412, -4.934147455060156e-07, -8.101839057417237e-07, -7.084329354256624e-07, 7.23456651030574e-07, -0.00011624073522398248, -7.514969979638408e-07, -9.025573672261089e-05, 1.4215907562231678e-08, -2.227270101684553e-07, -5.262468789624108e-07, -5.324425274011446e-07, -7.050943509057106e-07, -0.00046034378465265036, -4.14948800653292e-07, -6.132326575425395e-07, -5.9071062423754483e-05, -6.137202035461087e-07, -0.00019490750855766237, 6.629643962696719e-07, -6.99793815783778e-07, -5.898998551856494e-07, 8.251026883954182e-07, -5.577302886194957e-07, 5.564671212709982e-08, -0.0002775778993964195, 9.240771760232747e-05, -6.787611255276715e-07, -2.488440316028573e-07, 0.00020350546401459724, 2.6442099624546245e-05, 2.78623730309846e-07, 8.372048228011408e-07], [4.7178120439639315e-05, 1.742089352774201e-07, 6.409205184354505e-07, 0.00021759142691735178, -2.0074554413440637e-05, -7.01458361618279e-07, -5.290330591378734e-07, -0.00017473606567364186, -3.3352216632920317e-07, -6.363838451761694e-07, -5.543096790461277e-07, 5.667025106959045e-07, -0.00010119188664248213, -5.908917160013516e-07, -7.466664828825742e-05, 2.8720810618665382e-08, -1.6436570149380714e-07, -4.083131273091567e-07, -4.125370480778656e-07, -5.558827069762629e-07, -0.0003834898234345019, -3.2068192012957297e-07, -4.79150628507341e-07, -5.308162508299574e-05, -4.796814891960821e-07, -0.00015951754176057875, 5.170800818632415e-07, -5.48802120192704e-07, -4.605262517998199e-07, 6.486389452220465e-07, -4.3379259295761585e-07, 2.6490981852589357e-08, -0.00023543676070403308, 7.01775134075433e-05, -5.294037350722647e-07, -1.86450620276446e-07, 0.00016650426550768316, 2.349846181459725e-05, 2.0791894428384694e-07, 6.590998964384198e-07], [4.815928696189076e-05, 1.8944456314784475e-07, 6.741450988556608e-07, 0.00021796154032927006, -2.0205688997521065e-05, -7.387739060504828e-07, -5.601323209702969e-07, -0.00017571990611031651, -4.484967917051108e-07, -6.710646403007559e-07, -5.855746394445305e-07, 5.982280413263652e-07, -0.00010233893408440053, -6.220345767360413e-07, -7.534194446634501e-05, 1.850356845523038e-08, -1.7991233391967398e-07, -4.331475338403834e-07, -4.3819289885504986e-07, -5.835671572640422e-07, -0.0003848277556244284, -3.407031670121796e-07, -5.061341994405666e-07, -5.38319545739796e-05, -5.065514869784238e-07, -0.0001613262720638886, 5.473767146213504e-07, -5.785915959677368e-07, -4.866384983870375e-07, 6.836503985141462e-07, -4.5949494165142823e-07, 3.940636972288303e-08, -0.0002360369253437966, 7.023022772045806e-05, -5.605685942100536e-07, -2.0202313066874922e-07, 0.00016827703802846372, 2.330330062250141e-05, 2.260687352872992e-07, 6.938946626178222e-07], [-0.12537306547164917, -0.0003663017996586859, -0.0007324485923163593, 0.059065401554107666, -0.06191254407167435, 0.0008005097624845803, 0.0006845947355031967, -0.05295893922448158, 0.02948637120425701, 0.0007514588069170713, 0.0006884509930387139, -0.0006941629108041525, 0.0001478964404668659, 0.0006918921717442572, 0.08098101615905762, 0.000269425188889727, 0.0003766589506994933, 0.0005650381790474057, 0.0005845422856509686, 0.0006199051276780665, -0.24160021543502808, 0.0004623033746611327, 0.0006102292682044208, 0.021538032218813896, 0.0006058998988009989, -0.0820697546005249, -0.0006715488852933049, 0.0006642018561251462, 0.0005915462970733643, -0.0007590693421661854, 0.0005811635055579245, -0.00032730595557950437, -0.06978506594896317, -0.08671504259109497, 0.0006874967948533595, 0.00037327242898754776, 0.09966366738080978, 0.03530513122677803, -0.0004322923196014017, -0.0007576861535198987], [4.801125396625139e-05, 2.4024942035794083e-07, 7.632635288246092e-07, 0.0002003234694711864, -1.5385252481792122e-05, -8.410977443418233e-07, -6.496909463749034e-07, -0.00016496729222126305, -1.0374860721640289e-06, -7.672013566661917e-07, -6.735870101692853e-07, 6.863072599117004e-07, -0.00010125202243216336, -7.062257054712973e-07, -7.1606962592341e-05, -2.8187727707518206e-08, -2.3296828999264108e-07, -5.054362759437936e-07, -5.13794020662317e-07, -6.553456728397578e-07, -0.0003544054343365133, -3.9949614460965677e-07, -5.816883117404359e-07, -5.4327167163137347e-05, -5.815377903672925e-07, -0.0001536732306703925, 6.343937570818525e-07, -6.604653322028753e-07, -5.599634960162803e-07, 7.801954211572593e-07, -5.333644139682292e-07, 9.303496284474022e-08, -0.000218748435145244, 5.985813550068997e-05, -6.504031944132294e-07, -2.532217138195847e-07, 0.0001598205417394638, 2.046691588475369e-05, 2.866624413400132e-07, 7.884952424319636e-07], [-0.014624092727899551, -0.0005161784938536584, -0.0010027349926531315, 0.043067771941423416, -0.0751308873295784, 0.001113539794459939, 0.0009417663095518947, -0.014411376789212227, 0.008792049251496792, 0.0010392072144895792, 0.0009464463219046593, -0.0009539867169223726, -0.06392816454172134, 0.000946209707763046, 0.04258895665407181, 0.00037720773252658546, 0.000529540644492954, 0.0007776438142172992, 0.0008013825281523168, 0.0008503052522428334, -0.08283908665180206, 0.0006444172468036413, 0.0008358338382095098, -0.007219781633466482, 0.0008324451046064496, -0.07073033601045609, -0.0009218189516104758, 0.0009091655956581235, 0.0008127820328809321, -0.0010493742302060127, 0.0007999964291229844, -0.0004573873011395335, 0.05777117982506752, -0.04604937508702278, 0.0009438582346774638, 0.0005247903754934669, 0.037572797387838364, 0.005679923575371504, -0.000602375715970993, -0.0010442694183439016], [6.0213242250029e-06, -1.1328014437594902e-07, -1.6223924603764317e-07, 6.196658796397969e-05, -3.920960807590745e-06, 1.8996217931999126e-07, 1.77371177301211e-07, -4.222195639158599e-05, -6.06024514127057e-07, 1.8180443817072955e-07, 1.7023457132836484e-07, -1.688452329062784e-07, -2.553070407884661e-05, 1.5512367212977551e-07, -1.4622246453654952e-05, 1.2836451901421242e-07, 1.2061721577083517e-07, 1.4502889200684876e-07, 1.5332514635701955e-07, 1.257067623328112e-07, -0.00010014457075158134, 1.1792395326892802e-07, 1.4512545476463856e-07, -7.403602921840502e-06, 1.4365431866281142e-07, -2.4331882741535082e-05, -1.718905480174726e-07, 1.5410607545618404e-07, 1.4131659042959654e-07, -1.812650936017235e-07, 1.4635959644238028e-07, -1.4024176664406696e-07, -6.7458204284776e-05, 9.64493756328011e-06, 1.7797511020489765e-07, 1.1282782708121886e-07, 2.9410284696496092e-05, 5.897140908928122e-06, -1.364702484352165e-07, -1.7473945490564802e-07], [1.470532879466191e-05, -3.326485042975946e-08, 3.2904029723113126e-08, 7.949256541905925e-05, 2.031569692917401e-06, -2.868785031751031e-08, -3.3195815540842943e-10, -6.04863598709926e-05, -1.5867027514104848e-07, -1.998027876481956e-08, -9.918040611012202e-09, 1.3349795047190582e-08, -4.209995313431136e-05, -2.681452571096088e-08, -2.271512676088605e-05, 8.406170337593721e-08, 3.976749951561942e-08, 4.813003329218191e-09, 8.982926402723024e-09, -3.750835730897961e-08, -0.00013191098696552217, 6.186491319226661e-09, -9.793405197910943e-09, -2.0582014258252457e-05, -1.0775035086396656e-08, -4.495570101425983e-05, 1.2227767687278401e-09, -1.8674930046813643e-08, -8.27188983976157e-09, 2.2892486128966993e-08, 4.017338128825543e-10, -8.011269869712123e-08, -8.640238229418173e-05, 1.1731695849448442e-05, -7.016712905150158e-11, 3.0482148360988504e-08, 4.898059705737978e-05, 9.996824701374862e-06, -4.065959657850726e-08, 2.9052765526671465e-08], [3.086029028054327e-05, 8.574848919806755e-08, 3.7199407643129234e-07, 0.00014985905727371573, -3.6486933367996244e-06, -4.057352498421096e-07, -2.978883912874153e-07, -0.00011991633073193952, -5.600754349188719e-08, -3.6553544191519904e-07, -3.1527679311693646e-07, 3.2343226052944374e-07, -7.584987906739116e-05, -3.414143634472566e-07, -4.928286944050342e-05, 4.553690402531174e-08, -7.805692803231068e-08, -2.2736962534963823e-07, -2.2847039815587777e-07, -3.247074573664577e-07, -0.00025732783251442015, -1.772674238509353e-07, -2.723144802985189e-07, -4.091940718353726e-05, -2.7291670789963973e-07, -0.00010326272604288533, 2.9130697498658265e-07, -3.1480817597184796e-07, -2.612337937080156e-07, 3.734769222774048e-07, -2.432422547826718e-07, -1.313865194418895e-08, -0.0001634510699659586, 3.6603054468287155e-05, -2.980337399094424e-07, -9.356839569818476e-08, 0.00010816383291967213, 1.735862133500632e-05, 1.022932210048566e-07, 3.813176761013892e-07], [3.260471930843778e-05, 7.957929426538612e-08, 3.740965155429876e-07, 0.000162713389727287, -6.487012342404341e-06, -4.066582732775714e-07, -2.954628826046246e-07, -0.00012899567082058638, -1.920943191180413e-07, -3.6556303939505597e-07, -3.142545210721437e-07, 3.228790887987998e-07, -7.938396447570994e-05, -3.4286284744666773e-07, -5.30793986399658e-05, 5.862440488613174e-08, -7.090390852226847e-08, -2.247555244139221e-07, -2.2516559283758397e-07, -3.280505893599184e-07, -0.0002796375483740121, -1.7476808977789915e-07, -2.7164520588485175e-07, -4.219873881083913e-05, -2.724058276726282e-07, -0.00011118528345832601, 2.8909590810144437e-07, -3.152105421122542e-07, -2.6040953571282444e-07, 3.738808231901203e-07, -2.4121322894643527e-07, -2.587375469431663e-08, -0.00017673154070507735, 4.214494038023986e-05, -2.955560489681375e-07, -8.778255278230063e-08, 0.00011665976489894092, 1.8767930669127963e-05, 9.487394692087037e-08, 3.82659294473342e-07], [4.0120550693245605e-05, 2.363502460411837e-07, 6.946845019228931e-07, 0.00014960332191549242, -2.7387500267650466e-06, -7.697379373894364e-07, -6.021909939590842e-07, -0.00012818216055165976, -9.312342967859877e-07, -7.038952958282607e-07, -6.204046485436265e-07, 6.308648607955547e-07, -8.782735676504672e-05, -6.438820605580986e-07, -5.656806752085686e-05, -5.990706597458484e-08, -2.3225575773722085e-07, -4.7003015879454324e-07, -4.795897439180408e-07, -5.91973332575435e-07, -0.00026292414986528456, -3.7260863905430597e-07, -5.349824618861021e-07, -4.8307232646038756e-05, -5.343933935364475e-07, -0.00011846145207528025, 5.875515398656717e-07, -6.045373197594017e-07, -5.154225277692603e-07, 7.1489085939902e-07, -4.941148290527053e-07, 1.1841771652143507e-07, -0.00016689203039277345, 3.533815106493421e-05, -6.030090844433289e-07, -2.4723931346670724e-07, 0.00012303318362683058, 1.4745873158972245e-05, 2.820763995714515e-07, 7.200055733846966e-07], [0.0474720261991024, 0.00021741677483078092, 0.00046486675273627043, 0.021545231342315674, -0.019072629511356354, -0.0005311514833010733, -0.00045633118133991957, -0.025113588199019432, 0.022511158138513565, -0.0004969577421434224, -0.0004503415839280933, 0.0004517497727647424, 0.25973039865493774, -0.0004346934147179127, -0.1263471245765686, -0.00017407698032911867, -0.00022740020358469337, -0.00035324401687830687, -0.0003729415184352547, -0.0003623498778324574, -0.16233514249324799, -0.000270195712801069, -0.00037865425110794604, -0.0973798930644989, -0.0003744234854821116, -0.03341560810804367, 0.0004427378298714757, -0.0004185649158898741, -0.0003639669739641249, 0.0005001244135200977, -0.00036335474578663707, 0.00021372937771957368, -0.004925683606415987, 0.28614097833633423, -0.00045899784890934825, -0.00022091892606113106, 0.009456303901970387, -0.11002258956432343, 0.0002688935783226043, 0.0004917449550703168], [2.2785681721870787e-05, 5.577482653507104e-08, 2.475109965871525e-07, 9.886884072329849e-05, 3.982445377914701e-06, -2.696484102671093e-07, -1.9671618645134004e-07, -8.06683165137656e-05, -3.483205501808584e-09, -2.4247950136668805e-07, -2.0869163108727662e-07, 2.1427734964163392e-07, -5.739592234021984e-05, -2.2697318513564824e-07, -3.2655774703016505e-05, 3.360185019118944e-08, -5.036227435084584e-08, -1.5007317699655687e-07, -1.506109015281254e-07, -2.1655274906606792e-07, -0.00016771584341768175, -1.1726005766377057e-07, -1.8053096084713616e-07, -3.107799057033844e-05, -1.8094834786097636e-07, -6.696338823530823e-05, 1.9245939597567485e-07, -2.0894127317205857e-07, -1.731546603878087e-07, 2.479260672316741e-07, -1.607301243211623e-07, -1.208646072115016e-08, -0.0001090841178665869, 1.6694439182174392e-05, -1.9682782692598266e-07, -6.10723560612314e-08, 7.060384814394638e-05, 1.2103726476198062e-05, 6.607004365832836e-08, 2.5345107701468805e-07], [3.6781810194952413e-05, 1.4787542568228673e-07, 5.213559575167892e-07, 0.00016296991088893265, -6.008828222547891e-06, -5.72714498048299e-07, -4.341619899150828e-07, -0.00013281864812597632, -5.127798772264214e-07, -5.198966732677945e-07, -4.533854109922686e-07, 4.6307945922308136e-07, -8.466382860206068e-05, -4.808641733689001e-07, -5.6122138630598783e-05, 1.1118633125306587e-08, -1.4080590915455105e-07, -3.352841133619222e-07, -3.395289240870625e-07, -4.5003926629760826e-07, -0.00028288218891248107, -2.6364836003267555e-07, -3.9138009810812946e-07, -4.5914486690890044e-05, -3.916056812158786e-07, -0.00011843715765280649, 4.2412113998580026e-07, -4.4735722326549876e-07, -3.7626358562192763e-07, 5.296177505442756e-07, -3.555178977876494e-07, 3.354386279852406e-08, -0.000178303467691876, 4.2168914660578594e-05, -4.3456054754642537e-07, -1.5749304793644114e-07, 0.00012357353989500552, 1.7942484191735275e-05, 1.764685322314108e-07, 5.371890097194409e-07], [0.05017739534378052, 0.0001569802698213607, 2.2118274500826374e-05, -0.01215603481978178, -0.028427738696336746, -3.8645939639536664e-05, -8.59858701005578e-05, 0.05819595232605934, -0.019334204494953156, -5.184930705581792e-05, -6.821480201324448e-05, 6.18874910287559e-05, 0.20681089162826538, -3.427336196182296e-05, -0.022503521293401718, -0.00023365436936728656, -0.00017353521252516657, -0.00010253446089336649, -0.0001070237995008938, -1.9942428480135277e-05, -0.09044922888278961, -0.00011012970207957551, -7.100092625478283e-05, 0.055703237652778625, -7.236590317916125e-05, 0.0121145099401474, 8.336923929164186e-05, -5.077746027382091e-05, -7.767915667500347e-05, 4.637080928659998e-05, -9.457947453483939e-05, 0.00023995453375391662, 0.037567172199487686, 0.008921499364078045, -8.406402776017785e-05, -0.00015107232320588082, -0.04383396729826927, -0.03162844479084015, 0.00017782545182853937, 3.360636401339434e-05], [3.655401087598875e-05, 1.4829655015091703e-07, 5.199566999181116e-07, 0.00016118225175887346, -5.62237710255431e-06, -5.713791892958398e-07, -4.3351329281904327e-07, -0.00013159516674932092, -4.1932381122933293e-07, -5.187746978663199e-07, -4.5252178892951633e-07, 4.6213762061597663e-07, -8.414251351496205e-05, -4.796294206244056e-07, -5.562865408137441e-05, 9.51188905418121e-09, -1.413662715776809e-07, -3.3487162909295876e-07, -3.391847656075697e-07, -4.4864125925414555e-07, -0.0002799599024001509, -2.6337212943872146e-07, -3.9060111589606095e-07, -4.580208405968733e-05, -3.908094186044764e-07, -0.00011740727495634928, 4.2346295003881096e-07, -4.463246625618922e-07, -3.755393720439315e-07, 5.284271082928171e-07, -3.549895382093382e-07, 3.502001888477935e-08, -0.0001764501357683912, 4.159164018346928e-05, -4.339132431141479e-07, -1.578449513317537e-07, 0.0001224588049808517, 1.779033300408628e-05, 1.769888626768079e-07, 5.358614885153656e-07], [-0.006343667395412922, 0.0005376811604946852, 0.0013358722208067775, 0.16388875246047974, -0.006613417062908411, -0.0014903758419677615, -0.0012068916112184525, -0.053321972489356995, -0.03418849781155586, -0.0013767820782959461, -0.0012297206558287144, 0.00124395324382931, -0.11125574260950089, -0.0012469597859308124, -0.10771965235471725, -0.00027193251298740506, -0.000538816733751446, -0.0009687123238109052, -0.0009858591947704554, -0.0011424289550632238, -0.0054163457825779915, -0.0007774399127811193, -0.0010663564316928387, 0.06569419056177139, -0.001065370044670999, 0.1507810801267624, 0.0011757516767829657, -0.0011859947117045522, -0.0010327210184186697, 0.0013919364428147674, -0.0010076139587908983, 0.0003840151184704155, -0.2432645559310913, -0.006011683959513903, -0.0012087340001016855, -0.0005552034708671272, 0.015824051573872566, -0.060436639934778214, 0.0006460693548433483, 0.0013908121036365628], [4.426830855663866e-05, 1.3770370799193188e-07, 5.56764746306726e-07, 0.0002124807651853189, -1.8669679775484838e-05, -6.071603024793149e-07, -4.513117346505169e-07, -0.0001690788340056315, -2.851485305654933e-07, -5.489778232004028e-07, -4.7583068862877553e-07, 4.874543719779467e-07, -9.754316852195188e-05, -5.121767117088893e-07, -7.162510155467317e-05, 5.08852622260747e-08, -1.2730511400604883e-07, -3.465379165845661e-07, -3.488690367703384e-07, -4.854803705711674e-07, -0.00037223659455776215, -2.711340130190365e-07, -4.114905891583476e-07, -5.078130561742e-05, -4.1225391100851994e-07, -0.0001520113873993978, 4.413579688389291e-07, -4.7375368694702047e-07, -3.95106155792746e-07, 5.603156978395418e-07, -3.696686121656967e-07, -2.5899031808052086e-09, -0.0002295388258062303, 6.727353320457041e-05, -4.5153728933655657e-07, -1.4900486178248684e-07, 0.0001590441243024543, 2.34203598665772e-05, 1.6430243476861506e-07, 5.711241328754113e-07], [4.384192652651109e-05, 1.9884896573785227e-07, 6.623465651500737e-07, 0.00018991398974321783, -1.2516424249042757e-05, -7.287388825716334e-07, -5.581951540989394e-07, -0.0001552688336232677, -7.16144597845414e-07, -6.63320861349348e-07, -5.806418812426273e-07, 5.922635750721383e-07, -9.551762195769697e-05, -6.119813633631566e-07, -6.663698877673596e-05, -6.554179421414119e-09, -1.9130069972561614e-07, -4.3281218609081407e-07, -4.391965546801657e-07, -5.701469376617752e-07, -0.00033371811150573194, -3.412312139516871e-07, -5.013258146391308e-07, -5.1452647312544286e-05, -5.013949930798844e-07, -0.00014221241872292012, 5.451624360830465e-07, -5.709710535484191e-07, -4.823085077987344e-07, 6.750786951670307e-07, -4.5773921897307446e-07, 6.306131439259843e-08, -0.0002072513452731073, 5.503561260411516e-05, -5.587542659668543e-07, -2.1055235777112102e-07, 0.00014804319653194398, 2.01318362087477e-05, 2.3736265575280413e-07, 6.833994916632946e-07], [3.481658495729789e-05, 1.3536104859213083e-07, 4.840633778258052e-07, 0.0001543121034046635, -4.174363766651368e-06, -5.315778821568529e-07, -4.0190417394114775e-07, -0.0001258512056665495, -3.888718538291869e-07, -4.822099981538486e-07, -4.201093872779893e-07, 4.2923616661028063e-07, -8.12927755760029e-05, -4.4626631279243156e-07, -5.295415758155286e-05, 1.4031387607360557e-08, -1.2854141573370725e-07, -3.100717833603994e-07, -3.1382680276692554e-07, -4.181398480795906e-07, -0.00026710471138358116, -2.436831039176468e-07, -3.6264552250031556e-07, -4.423686186783016e-05, -3.628962588209106e-07, -0.00011141512368340045, 3.926285785382788e-07, -4.1487464841338806e-07, -3.4858209119192907e-07, 4.913455313726445e-07, -3.289950427642907e-07, 2.748575944622189e-08, -0.0001690192730166018, 3.845306855509989e-05, -4.0226527175946103e-07, -1.443816586288449e-07, 0.000116319177323021, 1.71871197380824e-05, 1.615036779867296e-07, 4.986036401533056e-07], [5.9761558077298105e-05, 2.4949622456915677e-07, 8.495892416249262e-07, 0.00025970960268750787, -3.283814658061601e-05, -9.30674673327303e-07, -7.113343372111558e-07, -0.00020996233797632158, -6.53742688427883e-07, -8.474007131553662e-07, -7.41899953027314e-07, 7.572694471491559e-07, -0.00011787136463681236, -7.852226531213091e-07, -9.144848445430398e-05, 4.973320866241693e-09, -2.385898483225901e-07, -5.526861173166253e-07, -5.59646309739037e-07, -7.354665285674855e-07, -0.00046484285849146545, -4.362957497505704e-07, -6.422432647923415e-07, -5.987344775348902e-05, -6.426361096600886e-07, -0.00019799453730229288, 6.952317335162661e-07, -7.319325163734902e-07, -6.179648721627018e-07, 8.627233114566479e-07, -5.851786113453272e-07, 6.784311068486204e-08, -0.00027989287627860904, 9.327627049060538e-05, -7.11898621830187e-07, -2.6494137728150235e-07, 0.00020666455384343863, 2.6348847313784063e-05, 2.972257391320454e-07, 8.747458082325466e-07], [3.296437716926448e-05, 1.0372386327617278e-07, 4.1838390529846947e-07, 0.0001563604164402932, -4.861524303123588e-06, -4.5741614940197906e-07, -3.39476855515386e-07, -0.00012570923718158156, -9.021074021120512e-08, -4.131487685299362e-07, -3.5766882433563296e-07, 3.6637871403399913e-07, -7.911014108685777e-05, -3.8461939766420983e-07, -5.2113286074018106e-05, 3.7280702969155755e-08, -9.606110040749627e-08, -2.6013321985374205e-07, -2.6208553549622593e-07, -3.638507166670024e-07, -0.00026972315390594304, -2.0336761963335448e-07, -3.0884908142070344e-07, -4.2852294427575544e-05, -3.0936612915866135e-07, -0.00010955317702610046, 3.318541246244422e-07, -3.557042589363846e-07, -2.9649464750036714e-07, 4.2170282199549547e-07, -2.7745593911276956e-07, -1.0322225296732768e-09, -0.00017060992831829935, 3.959209789172746e-05, -3.3969021728808e-07, -1.1216213380293993e-07, 0.00011457591608632356, 1.793508454284165e-05, 1.237936118059224e-07, 4.296103384149319e-07], [8.782077202340588e-06, -1.214393137161096e-07, -1.5507929163049994e-07, 8.334666199516505e-05, -3.670503929242841e-06, 1.8368527321399597e-07, 1.7758755177510466e-07, -5.813813186250627e-05, -4.362725007922563e-07, 1.7751371217400447e-07, 1.6826766113808844e-07, -1.6610340480838204e-07, -3.437811028561555e-05, 1.4937273817849928e-07, -2.059218422800768e-05, 1.47944021477997e-07, 1.3025085365825362e-07, 1.465156458380079e-07, 1.5577471401684306e-07, 1.1757435913750669e-07, -0.000135333466459997, 1.1985235914835357e-07, 1.433004825912576e-07, -1.2371898264973424e-05, 1.4159061834106978e-07, -3.666643533506431e-05, -1.7193136159221467e-07, 1.5020442845070647e-07, 1.3984319480186969e-07, -1.7632427784519678e-07, 1.4682565563362004e-07, -1.589425124848276e-07, -9.034602408064529e-05, 1.3058334843663033e-05, 1.7826096154749393e-07, 1.2035893348638638e-07, 4.2373685573693365e-05, 8.74542001838563e-06, -1.462419163544837e-07, -1.684171877514018e-07], [0.059216152876615524, -0.0027625863440334797, -0.004544230177998543, 0.11239515990018845, 0.002026238478720188, 0.0052974633872509, 0.004766486119478941, 0.16969121992588043, -0.02503656968474388, 0.005012331530451775, 0.004623731132596731, -0.004606741014868021, -0.46667906641960144, 0.00430665398016572, 0.03808124363422394, 0.0028517399914562702, 0.0029268355574458838, 0.0038188504986464977, 0.004032565746456385, 0.003536724718287587, -0.4009055197238922, 0.003051366889849305, 0.003918270114809275, -0.04618997871875763, 0.0038813240826129913, 0.07323453575372696, -0.004619302693754435, 0.004225338809192181, 0.003800486447289586, -0.005016852170228958, 0.003884684992954135, -0.0032040770165622234, -0.12563751637935638, 0.0184907466173172, 0.0047818515449762344, 0.0027680478524416685, 0.03121965005993843, 0.10797237604856491, -0.003360683796927333, -0.004872686229646206], [-0.040151387453079224, -0.0007846723310649395, -0.001175201847217977, 0.12692521512508392, 0.029484568163752556, 0.001372176455333829, 0.0012508864747360349, 0.009312356822192669, -0.0039229802787303925, 0.0013041734928265214, 0.0012107696384191513, -0.001204185071401298, -0.05866888165473938, 0.0011199039872735739, 0.01431974396109581, 0.0008390169241465628, 0.000832287420053035, 0.0010321455774828792, 0.0010801829630509019, 0.0009367037564516068, -0.1018616110086441, 0.0008470028988085687, 0.00104093411937356, -0.057189688086509705, 0.001033802516758442, 0.045220598578453064, -0.00121204589959234, 0.0011068986495956779, 0.0010163855040445924, -0.0013027028180658817, 0.001044325646944344, -0.0009319036034867167, 0.01132067572325468, 0.04313436523079872, 0.001253778231330216, 0.0007837588200345635, -0.02472357079386711, -0.012146023102104664, -0.0009445199393667281, -0.0012615346349775791], [4.648848334909417e-05, 1.3711029112073447e-07, 5.70036320368672e-07, 0.00022546848049387336, -2.2271211491897702e-05, -6.206444140843814e-07, -4.5965444428475166e-07, -0.000178860776941292, -2.0486298524247104e-07, -5.607953426078893e-07, -4.855578481510747e-07, 4.977057415089803e-07, -0.00010108410060638562, -5.241598728389363e-07, -7.600102253491059e-05, 5.971313754571383e-08, -1.2589804043727781e-07, -3.5264193343209627e-07, -3.545687548012211e-07, -4.981331471753947e-07, -0.0003960039757657796, -2.756831349870481e-07, -4.2011561163235456e-07, -5.1866820285795256e-05, -4.21008564899239e-07, -0.0001612728665350005, 4.496276346799277e-07, -4.843209353566635e-07, -4.033068705666665e-07, 5.725824507862853e-07, -3.766205338706641e-07, -1.0133030414749555e-08, -0.00024306554405484349, 7.43375567253679e-05, -4.5984279495314695e-07, -1.4888502164467354e-07, 0.0001688389602350071, 2.4685248718014918e-05, 1.6356982257548225e-07, 5.841970960318577e-07], [1.5108089428395033e-05, -1.2212225009022859e-08, 7.09651217789542e-08, 7.299681601580232e-05, 3.427324600124848e-06, -7.227573917134578e-08, -3.835419803976947e-08, -5.699263419955969e-05, -1.1310238079431656e-07, -6.092590609796389e-08, -4.73673900103222e-08, 5.084902099383726e-08, -4.145001730648801e-05, -6.274145647466867e-08, -2.1772064428660087e-05, 6.496353677221123e-08, 1.7799990814637567e-08, -2.5783961632441788e-08, -2.2983671854603926e-08, -6.820967968224068e-08, -0.00012180778867332265, -1.853291919928779e-08, -4.188535740468069e-08, -2.093520015478134e-05, -4.2642973596684897e-08, -4.335612538852729e-05, 3.816683147306321e-08, -5.3562061452794296e-08, -3.939661752383472e-08, 6.402261476523563e-08, -3.091643208108508e-08, -5.80659360593927e-08, -7.987725257407874e-05, 9.847346518654376e-06, -3.819935656679263e-08, 9.24491239118197e-09, 4.6887460484867916e-05, 9.39554774959106e-06, -1.5425921873202242e-08, 6.940551600109757e-08], [-0.03829727694392204, -0.00010306391050107777, 0.00013072206638753414, 0.08086331188678741, -0.11536876857280731, -9.002775186672807e-05, 7.5716598075814545e-06, -0.0027797846123576164, -0.05564657226204872, -6.336858496069908e-05, -3.41331833624281e-05, 4.886452006758191e-05, -0.18481048941612244, -0.000112270048703067, 0.035533320158720016, 0.0003024707839358598, 0.00013359260628931224, 1.4216207091521937e-05, 3.109668250544928e-05, -0.00016582773241680115, -0.21884165704250336, 1.781255150490324e-06, -4.7228906623786315e-05, 0.08900360763072968, -5.0370243116049096e-05, -0.027990883216261864, 9.086379009204393e-07, -7.941309740999714e-05, -4.1300289012724534e-05, 7.581359386676922e-05, -3.8097805372672155e-06, -0.00029837212059646845, 0.01970379427075386, -0.2832363545894623, 8.79796061781235e-06, 9.153478458756581e-05, -0.16919288039207458, 0.04800814390182495, -0.00014690469834022224, 0.00010629734606482089], [-0.06023513153195381, -0.0008142780279740691, -0.001614658278413117, 0.03361064940690994, -0.04421469569206238, 0.0018162252381443977, 0.00154195970389992, 0.018731122836470604, 0.007354220375418663, 0.0016961504006758332, 0.0015407829778268933, -0.0015501505695283413, -0.01079593040049076, 0.0015193992294371128, 0.053622305393218994, 0.0006311413017101586, 0.0008373824530281126, 0.001246353960596025, 0.001290895277634263, 0.0013387545477598906, -0.03275618702173233, 0.001013013068586588, 0.0013354698894545436, 0.03132423385977745, 0.0013286026660352945, 0.037541866302490234, -0.001503156847320497, 0.0014618270797654986, 0.0012947068316861987, -0.0017097435193136334, 0.001283144811168313, -0.0007545029511675239, 0.013830495066940784, -0.010049273259937763, 0.001545826904475689, 0.0008270492544397712, 0.01681395433843136, 0.029044844210147858, -0.0009625175734981894, -0.001693500904366374], [1.7806865798775107e-05, -3.566914585917402e-08, 5.7796473384996716e-08, 0.00010534967441344634, 1.6965503846222418e-07, -5.47050724719611e-08, -1.5588131674348915e-08, -7.982621173141524e-05, -2.820421407534468e-08, -4.2336640859730323e-08, -2.779586694146019e-08, 3.2259595883488146e-08, -5.149954813532531e-05, -4.898545569176349e-08, -3.032023596460931e-05, 1.0234106184725533e-07, 4.3738140220739297e-08, -5.63485347271353e-09, -7.716249306177758e-10, -6.061110013888538e-08, -0.00017549078620504588, -1.1877626659995144e-09, -2.520725139731894e-08, -2.5649247618275695e-05, -2.6413855991336277e-08, -6.090308306738734e-05, 1.6251707535275273e-08, -3.799788927949521e-08, -2.2816385225610247e-08, 4.616681081870411e-08, -1.1700038271555968e-08, -9.598296202284473e-08, -0.0001141863176599145, 1.888421866169665e-05, -1.5272904718699465e-08, 3.1978999004422803e-08, 6.568552635144442e-05, 1.2959138985024765e-05, -4.3408910244124854e-08, 5.3807568178854126e-08], [5.9200716350460425e-05, 2.757182642199041e-07, 8.951520840128069e-07, 0.0002499035035725683, -2.9992454074090347e-05, -9.83162294687645e-07, -7.573622156087367e-07, -0.00020368477271404117, -9.413282100467768e-07, -8.9671573277883e-07, -7.87053465955978e-07, 8.024347835089429e-07, -0.00011673961853375658, -8.282658541247656e-07, -8.898822125047445e-05, -1.9507824688957953e-08, -2.660187874425901e-07, -5.897788355468947e-07, -5.984940685266338e-07, -7.719760901636619e-07, -0.00044774854904972017, -4.664224206862855e-07, -6.809247565797705e-07, -6.021005901857279e-05, -6.810140007473819e-07, -0.0001933045859914273, 7.399332275781489e-07, -7.738287308711733e-07, -6.555020490850438e-07, 9.122320534515893e-07, -6.230558255992946e-07, 9.586278792994563e-08, -0.00027021090500056744, 8.709544636076316e-05, -7.580753162983456e-07, -2.913444063779025e-07, 0.00020144011068623513, 2.495091212040279e-05, 3.2854498499546025e-07, 9.231958983946242e-07], [0.49373722076416016, 0.003107794327661395, 0.0047135986387729645, 0.15256431698799133, -0.15717482566833496, -0.005518211517482996, -0.004974789917469025, 0.1645396202802658, 0.12877248227596283, -0.005218322388827801, -0.004822070710361004, 0.004802084993571043, -0.9430014491081238, -0.004483701195567846, -0.0572381429374218, -0.0031465112697333097, -0.0032770014367997646, -0.00405888119712472, -0.004265457391738892, -0.0037264025304466486, -0.3720376789569855, -0.003357992973178625, -0.004130729008466005, 1.240759015083313, -0.004100526683032513, -0.11499188840389252, 0.004825918469578028, -0.004413446877151728, -0.004027178511023521, 0.005221650470048189, -0.0041171652264893055, 0.003525140229612589, 0.25978192687034607, -0.16003957390785217, -0.004984182305634022, -0.0031085526570677757, 0.04307374730706215, -0.6938427686691284, 0.003689732402563095, 0.005064165685325861], [-0.0004218441026750952, 0.0002579517604317516, 0.00046934932470321655, -0.014251168817281723, 0.0014074902283027768, -0.0005320410127751529, -0.0004592770419549197, -0.0014686179347336292, 0.0002804136893246323, -0.0004986412241123617, -0.0004556173807941377, 0.00045725470408797264, -0.0017344432417303324, -0.00044339001760818064, -0.0012862475123256445, -0.00021788678714074194, -0.0002677280572243035, -0.0003750759642571211, -0.0003892190579790622, -0.0003875337715726346, 0.00028942865901626647, -0.0003077513538300991, -0.0003958076413255185, -0.004061347804963589, -0.0003939577436540276, -0.0019295549718663096, 0.0004474339075386524, -0.00042930300696752965, -0.0003849808999802917, 0.0005017517833039165, -0.00038441282231360674, 0.00025539251510053873, 0.0015760802198201418, -0.0034428543876856565, -0.00046013941755518317, -0.00026066257851198316, -0.00013137204223312438, -0.002134178066626191, 0.0003052094834856689, 0.000494633219204843], [0.0005129679339006543, 0.00046944254427216947, 0.0008664449560455978, -0.023194046691060066, 0.0016634073108434677, -0.0009774623904377222, -0.0008404919062741101, -0.0025745274033397436, 0.00032965632271952927, -0.0009155888110399246, -0.0008361222571693361, 0.0008398944046348333, -0.004265790805220604, -0.0008183483732864261, -0.0025419846642762423, -0.0003859004646074027, -0.00048559418064542115, -0.0006874057580716908, -0.0007122716051526368, -0.0007197927334345877, 0.00068143371026963, -0.000565448310226202, -0.0007284757448360324, -0.008519125171005726, -0.0007251896313391626, -0.0026497358921915293, 0.0008195540867745876, -0.0007909818086773157, -0.0007084219832904637, 0.0009219259954988956, -0.0007052556611597538, 0.00045436181244440377, 0.0023956738878041506, -0.007891014218330383, -0.0008420827216468751, -0.00047501310473307967, 0.00015650768182240427, -0.004382753744721413, 0.000553067191503942, 0.000910729868337512], [-0.11143841594457626, 0.0018906109035015106, 0.0031834878027439117, 0.6759762763977051, -0.1276744306087494, -0.003564554499462247, -0.0031769888009876013, -0.017894510179758072, 0.3376633822917938, -0.0033804653212428093, -0.0031381333246827126, 0.003141037654131651, 0.07437476515769958, -0.0030302859377115965, 0.09756481647491455, -0.0017115793889388442, -0.001978233689442277, -0.0026709677185863256, -0.002766583813354373, -0.0026547254528850317, -0.027973884716629982, -0.0021757716313004494, -0.0027709943242371082, -0.17611104249954224, -0.002759450813755393, 0.045066505670547485, 0.003101891838014126, -0.002960469340905547, -0.0027073638048022985, 0.0033932800870388746, -0.0027177007868885994, 0.0019687849562615156, -0.10601265728473663, -0.08494752645492554, -0.0031858559232205153, -0.0019018303137272596, 0.1902468055486679, 0.06343171000480652, 0.002241451060399413, 0.0033364060800522566], [0.26484212279319763, -0.00011444144911365584, -0.0012881109723821282, -0.006762590259313583, 0.4131832420825958, 0.001286215498112142, 0.0008190529770217836, -0.08044011145830154, 0.18274839222431183, 0.0011286674998700619, 0.0009403862641192973, -0.0009907210478559136, -0.21487772464752197, 0.0011668592924252152, 0.28734374046325684, -0.0005508791655302048, 3.801150887738913e-05, 0.0006053023971617222, 0.0005899100215174258, 0.0012007937766611576, -0.14055843651294708, 0.0005071823252364993, 0.0008494017529301345, 0.09515069425106049, 0.0008491161279380322, -0.029495036229491234, -0.0008224548655562103, 0.0010273382067680359, 0.0008024881244637072, -0.001176806166768074, 0.0006771549815312028, 0.0004790683451574296, 0.013654765672981739, -0.17690618336200714, 0.0008223376935347915, 0.00015457835979759693, -0.23606882989406586, 0.47183486819267273, -5.804195461678319e-05, -0.0012588331010192633], [-0.0004614969075191766, -0.0005367756239138544, -0.000988387269899249, 0.026447881013154984, -0.002234895247966051, 0.001115867285989225, 0.0009601955534890294, 0.0030331274028867483, -0.0004296062106732279, 0.0010453752474859357, 0.0009547632071189582, -0.0009589189430698752, 0.004631086252629757, 0.0009335476206615567, 0.0030529063660651445, 0.0004437156894709915, 0.0005555663956329226, 0.0007850832189433277, 0.000813689548522234, 0.0008201744058169425, -0.0008291758131235838, 0.0006454276735894382, 0.0008313852595165372, 0.00944578554481268, 0.000827610376290977, 0.003464299254119396, -0.000936132506467402, 0.0009025947074405849, 0.0008085094159469008, -0.001052483101375401, 0.0008053306373767555, -0.000521798909176141, -0.0028574494644999504, 0.008755404502153397, 0.0009620107593946159, 0.0005430085584521294, 5.199220140639227e-06, 0.004844170995056629, -0.0006328645395115018, -0.0010393467964604497], [-0.00011646860366454348, -0.00046520098112523556, -0.0008533681975677609, 0.023480921983718872, -0.0021326630376279354, 0.0009645522222854197, 0.0008308156975544989, 0.0026617171242833138, -0.0004473101580515504, 0.0009037616546265781, 0.0008255465072579682, -0.0008289521210826933, 0.0036740864161401987, 0.0008060681284405291, 0.0026428408455103636, 0.00038715242408216, 0.0004818339948542416, 0.0006790568004362285, 0.0007040483760647476, 0.0007071232539601624, -0.0006874636164866388, 0.0005579895223490894, 0.0007183579728007317, 0.007913676090538502, 0.000715065689291805, 0.003219588892534375, -0.000809814955573529, 0.0007796738645993173, 0.0006986228981986642, -0.0009097500005736947, 0.0006963884807191789, -0.0004546831187326461, -0.002659749938175082, 0.007198540028184652, 0.0008323857327923179, 0.0004704493912868202, 0.00015991899999789894, 0.004053853917866945, -0.0005489285686053336, -0.0008979380363598466], [-0.007692362181842327, 0.001719307852908969, 0.0026649015489965677, -0.08643298596143723, 0.04481928423047066, -0.0030343933030962944, -0.0027445806190371513, 0.4215930998325348, 0.03406446427106857, -0.0028954327572137117, -0.0027004857547581196, 0.0026930393651127815, 0.16915461421012878, -0.0025536585599184036, 0.1262865513563156, -0.001637604204006493, -0.001791137969121337, -0.0023477035574615, -0.0023997824173420668, -0.00228113797493279, 0.10554678738117218, -0.001975392457097769, -0.002379406476393342, -0.007318992633372545, -0.0023821096401661634, 0.1584765464067459, 0.0026677572168409824, -0.002522359136492014, -0.002340676262974739, 0.002891798038035631, -0.0023841115180402994, 0.0018599230097606778, 0.36519989371299744, -0.012067914940416813, -0.002742136362940073, -0.0017251430545002222, -0.02817477099597454, -0.06455408036708832, 0.002033503958955407, 0.0028215579222887754], [-0.09022843837738037, 0.0052803135477006435, 0.010083530098199844, -0.30969956517219543, 0.011465353891253471, -0.011182905174791813, -0.009522655978798866, -0.3045443594455719, -0.6115527749061584, -0.010464508086442947, -0.009557418525218964, 0.009626542218029499, 0.07502592355012894, -0.009530860930681229, 0.023893138393759727, -0.0037995451129972935, -0.005398413632065058, -0.00788448192179203, -0.008124497719109058, -0.008560783229768276, -0.010922040790319443, -0.006559267174452543, -0.008451908826828003, -0.18840385973453522, -0.008412400260567665, 0.36286765336990356, 0.009323115460574627, -0.009174792096018791, -0.00821975339204073, 0.010559387505054474, -0.008101350627839565, 0.004616749007254839, -0.46390607953071594, -0.015370781533420086, -0.009547277353703976, -0.005369188729673624, 0.05117763951420784, -0.4483538269996643, 0.006123390514403582, 0.010497411713004112], [-0.00035616153036244214, -0.0005031859036535025, -0.0009257803321816027, 0.024985063821077347, -0.0021169830579310656, 0.0010454659350216389, 0.0008998033008538187, 0.0028391415253281593, -0.00042585874325595796, 0.0009794500656425953, 0.0008945745648816228, -0.0008984232554212213, 0.0042529962956905365, 0.0008744255173951387, 0.0028456812724471092, 0.00041651303763501346, 0.0005208781803958118, 0.0007356391288340092, 0.0007625034777447581, 0.0007679858827032149, -0.0007780393934808671, 0.0006047231145203114, 0.0007788492366671562, 0.008804939687252045, 0.0007753068348392844, 0.003268512198701501, -0.000877207494340837, 0.0008455091738142073, 0.0007574264891445637, -0.0009860715363174677, 0.0007545689586549997, -0.0004896933678537607, -0.0027316734194755554, 0.008114945143461227, 0.0009015037794597447, 0.0005089943297207355, 3.893781467922963e-05, 0.004512016661465168, -0.000593362026847899, -0.0009736530482769012], [-0.00022785275359638035, -0.00045957276597619057, -0.0008446206338703632, 0.023070329800248146, -0.001954061212018132, 0.0009541060426272452, 0.0008213823894038796, 0.002589247887954116, -0.0004076698678545654, 0.0008938913233578205, 0.0008164611645042896, -0.0008199263247661293, 0.003790904302150011, 0.0007977837231010199, 0.0025605950504541397, 0.0003810073249042034, 0.0004758108698297292, 0.0006714811897836626, 0.0006960618775337934, 0.0007004356593824923, -0.0006950002280063927, 0.0005519561236724257, 0.0007107293349690735, 0.007989061065018177, 0.0007074896129779518, 0.002986377803608775, -0.0008007104624994099, 0.0007714905077591538, 0.0006911943200975657, -0.0008998955017887056, 0.0006887116469442844, -0.00044782154145650566, -0.0025401439052075148, 0.0072990539483726025, 0.0008229351951740682, 0.00046484085032716393, 6.0492322518257424e-05, 0.004091876558959484, -0.0005420197849161923, -0.0008884432609193027], [0.00026949524180963635, 0.00046058764564804733, 0.000847024261020124, -0.023067522794008255, 0.0019083190709352493, -0.0009566296939738095, -0.0008234066190198064, -0.002583431312814355, 0.00039531398215331137, -0.0008962284191511571, -0.000818571716081351, 0.0008220801246352494, -0.0038588629104197025, -0.0008000482339411974, -0.0025539950001984835, -0.0003813609655480832, -0.0004767973441630602, -0.0006731822504661977, -0.0006977816228754818, -0.00070261734072119, 0.0006931230309419334, -0.00055341562256217, -0.0007126621785573661, -0.008058829233050346, -0.000709418673068285, -0.0029345222283154726, 0.0008027174044400454, -0.0007736218394711614, -0.000693069479893893, 0.0009022761951200664, -0.0006904873298481107, 0.00044835396693088114, 0.00251606828533113, -0.007381003815680742, -0.0008249636157415807, -0.0004658955440390855, -2.7104384571430273e-05, -0.00413165520876646, 0.000543127884157002, 0.0008908723830245435], [0.3107675611972809, -0.0027694939635694027, -0.005368684884160757, -0.27467650175094604, 0.03766312822699547, 0.006184783764183521, 0.005282311234623194, -0.2880415916442871, 0.4957531988620758, 0.0057708085514605045, 0.005228437948971987, -0.005243636202067137, 0.35276269912719727, 0.005043728742748499, -0.07837491482496262, 0.002317449077963829, 0.0028748302720487118, 0.004198320209980011, 0.0043720765970647335, 0.004329457879066467, -0.1410815417766571, 0.0033637848682701588, 0.004444689955562353, -0.1961045116186142, 0.004423879086971283, 0.21967417001724243, -0.005125461146235466, 0.004874551668763161, 0.004308481700718403, -0.005803020671010017, 0.004315576981753111, -0.0027486695908010006, -0.450960248708725, 0.07818164676427841, 0.005290762055665255, 0.00280015473254025, -0.03288140147924423, 0.7554399967193604, -0.0033257785253226757, -0.005699739791452885], [-0.0004281945002730936, -0.00044317610445432365, -0.0008174314862117171, 0.02204444631934166, -0.001577296294271946, 0.0009222967782989144, 0.000793170474935323, 0.0024230226408690214, -0.0003195216122549027, 0.00086393574019894, 0.0007889771950431168, -0.0007925123791210353, 0.003980296663939953, 0.0007720713620074093, 0.0023633427917957306, 0.0003645819961093366, 0.00045845797285437584, 0.0006487048231065273, 0.0006721946992911398, 0.0006789983599446714, -0.0006420142017304897, 0.0005336282192729414, 0.0006873650709167123, 0.008020205423235893, 0.0006842620205134153, 0.0024925973266363144, -0.0007733918610028923, 0.000746298348531127, 0.0006684542750008404, -0.0008698959718458354, 0.000665524392388761, -0.0004292000667192042, -0.0022779719438403845, 0.00738992914557457, 0.0007946714176796377, 0.00044841767521575093, -0.0001428566756658256, 0.004125777166336775, -0.0005221451283432543, -0.0008592758676968515], [-0.3482067883014679, -0.00016174878692254424, 0.0002738749317359179, 0.008016697131097317, -0.046685297042131424, -0.00016565737314522266, -6.23824744252488e-05, -0.025312134996056557, 0.09424224495887756, -0.00015247566625475883, -0.0001309212384512648, 0.00015185367374215275, 0.00865989737212658, -0.00025301583809778094, 0.21706654131412506, 0.0004518271016422659, 0.00021160051983315498, -5.2286937716417015e-05, -2.3787166355759837e-05, -0.0003435703692957759, 0.14031551778316498, -3.221414954168722e-05, -0.00014948053285479546, -0.09253143519163132, -0.0001534421753603965, 0.08215553313493729, 7.798220758559182e-05, -0.00020601421419996768, -0.00013586561544798315, 0.00016726543253753334, -8.176208939403296e-05, -0.0004405357176437974, 0.04655276983976364, 0.05003895238041878, -6.19416605331935e-05, 0.00014187574561219662, -0.0035321915056556463, 0.16552668809890747, -0.00020620734721887857, 0.00021793285850435495], [0.0009884466417133808, -0.0002226033975603059, -0.0003982283524237573, 0.013426652178168297, -0.001951587968505919, 0.0004553591425064951, 0.0003950426762457937, 0.001450559590011835, -0.00041156832594424486, 0.00042696084710769355, 0.0003901577147189528, -0.00039100018329918385, 0.000739017385058105, 0.00037608155980706215, 0.001324700890108943, 0.00019634529598988593, 0.00023234634136315435, 0.000321151310345158, 0.0003341890696901828, 0.0003246247360948473, -0.0002258757158415392, 0.0002617470163386315, 0.00033677773899398744, 0.0026657856069505215, 0.0003350901242811233, 0.0025359673891216516, -0.00038421337376348674, 0.0003650222497526556, 0.00032753648702055216, -0.00042918146937154233, 0.0003286799765191972, -0.00022848090156912804, -0.0018550672102719545, 0.0020282347686588764, 0.00039578464929945767, 0.0002244546340079978, 0.0005678592133335769, 0.001439667888917029, -0.0002655178541317582, -0.00042165949707850814], [0.00048508046893402934, -0.00026912582688964903, -0.0004886783426627517, 0.014902458526194096, -0.001572704641148448, 0.0005543013685382903, 0.00047874904703348875, 0.0015602411003783345, -0.0003086281940340996, 0.000519549532327801, 0.00047475830069743097, -0.0004764055192936212, 0.0017129891784861684, 0.00046165770618245006, 0.001378517597913742, 0.00022825240739621222, 0.0002794389147311449, 0.0003908898215740919, 0.00040571059798821807, 0.0004031347925774753, -0.00029477415955625474, 0.0003206157998647541, 0.0004122595419175923, 0.004136232193559408, 0.000410322449170053, 0.0021122400648891926, -0.0004663467116188258, 0.0004470922867767513, 0.0004009889962617308, -0.0005227425135672092, 0.0004005634691566229, -0.00026728861848823726, -0.0016869952669367194, 0.003477040445432067, 0.0004796485882252455, 0.0002719008189160377, 0.00020312776905484498, 0.0021646746899932623, -0.0003185686655342579, -0.0005151847144588828], [-6.195582500367891e-06, -0.000377627438865602, -0.0006923043401911855, 0.01945403963327408, -0.0016711675561964512, 0.000782475050073117, 0.0006740026292391121, 0.0021100693847984076, -0.0003504028427414596, 0.0007331574452109635, 0.0006697303033433855, -0.000672495283652097, 0.002961704507470131, 0.0006539658061228693, 0.0019867760129272938, 0.0003140373155474663, 0.0003911052772309631, 0.0005510111805051565, 0.0005712604033760726, 0.0005738429608754814, -0.000575625104829669, 0.0004529391007963568, 0.0005828847060911357, 0.006489795166999102, 0.0005802209489047527, 0.0023869345895946026, -0.000656978867482394, 0.0006325661088339984, 0.0005668991361744702, -0.0007380186580121517, 0.0005650616367347538, -0.00036890461342409253, -0.002088526263833046, 0.005759472958743572, 0.0006752738263458014, 0.00038189414772205055, 7.108692079782486e-05, 0.0033038188703358173, -0.00044549867743626237, -0.0007284395396709442], 