{"model_data": {"model": "SimpleRNN", "input_size": 1, "skip": 1, "output_size": 1, "unit_type": "LSTM", "num_layers": 1, "hidden_size": 20, "bias_fl": true}, "state_dict": {"rec.weight_ih_l0": [[-0.06940265744924545], [-0.003158824983984232], [-0.2692422866821289], [0.005685240495949984], [0.021063370630145073], [-0.10700850933790207], [0.15507400035858154], [-0.06719302386045456], [-0.09809450805187225], [0.0800301656126976], [-0.022015376016497612], [-0.01199853140860796], [0.06693597137928009], [0.009697516448795795], [-0.008745740167796612], [0.01256590336561203], [0.0634210854768753], [-0.03589392453432083], [0.03960369899868965], [0.03577105700969696], [-0.10222149640321732], [-0.052452124655246735], [0.02126466855406761], [0.03007030114531517], [-0.02300797402858734], [-0.1638684868812561], [0.21086134016513824], [-0.0617331936955452], [-0.18753638863563538], [0.11093153059482574], [0.05256301909685135], [-0.030958028510212898], [0.09908831119537354], [-0.010775374248623848], [0.007986428216099739], [0.01808660291135311], [0.16716067492961884], [-0.07980271428823471], [0.0601438470184803], [0.130707785487175], [0.479490727186203], [-0.18442876636981964], [-0.010790364816784859], [-2.5309500694274902], [-0.2955583930015564], [0.8821732401847839], [-0.07977711409330368], [-0.09511639922857285], [0.28796401619911194], [0.25945693254470825], [0.04626527801156044], [0.07858727127313614], [0.04964961111545563], [-0.5727993845939636], [-0.710267961025238], [0.8064722418785095], [1.5161808729171753], [-0.5112682580947876], [-0.17998571693897247], [0.5430116057395935], [-0.09485167264938354], [-0.04901515319943428], [-0.031115880236029625], [0.004509917926043272], [-0.07169004529714584], [-0.14356598258018494], [0.27043604850769043], [-0.03359055146574974], [-0.1487462818622589], [0.12876209616661072], [0.05044060945510864], [0.001682698610238731], [0.07938309013843536], [0.03434837982058525], [-0.008539892733097076], [0.08488955348730087], [0.07424145936965942], [-0.07463338226079941], [0.051405735313892365], [0.2086319774389267]], "rec.weight_hh_l0": [[0.08898915350437164, 0.07500764727592468, -0.06257142871618271, 0.03766689822077751, -0.000994100235402584, -0.048142820596694946, 0.019796743988990784, -0.1304008662700653, -0.055028706789016724, -0.01408388838171959, -0.03054947964847088, 0.0004024905210826546, -0.03573812544345856, -0.0009960285387933254, -0.016855966299772263, -0.05479983985424042, -0.08891668915748596, 0.06668523699045181, 0.0851668119430542, 0.08690647780895233], [-0.005647331476211548, 0.03192860260605812, 0.0444624088704586, 0.003972596488893032, 0.09572522342205048, -0.015547002665698528, -0.05031225457787514, -0.10632243752479553, 0.0039519378915429115, 0.03732233867049217, 0.044483818113803864, 0.0338236466050148, -0.013207240030169487, 0.004834397230297327, -0.024102678522467613, 0.026541244238615036, -0.04363207146525383, 0.10320146381855011, 0.024536916986107826, -0.03499168902635574], [0.01702212356030941, -0.26277390122413635, 0.027006490156054497, 0.06923944503068924, 0.3261951208114624, -0.02528141252696514, -0.09774529933929443, 0.8687540888786316, -0.13680842518806458, 0.356121689081192, -0.05267077311873436, 0.16001278162002563, -0.2909080684185028, 0.31610050797462463, 0.12626400589942932, -0.0753989890217781, 0.25247251987457275, -0.47634047269821167, -0.061640508472919464, -0.5371270179748535], [-0.14173519611358643, 0.09536098688840866, 0.03962068259716034, 0.020726287737488747, -0.29437777400016785, -0.13556578755378723, 0.13003459572792053, -0.5036748647689819, 0.018948566168546677, -0.0768287181854248, 0.005756738595664501, -0.026507554575800896, 0.3023339807987213, -0.11320788413286209, 0.031011303886771202, 0.012168577872216702, 0.08870821446180344, 0.43842804431915283, 0.018884742632508278, 0.44578659534454346], [-0.10317080467939377, 0.05220068246126175, -0.024090616032481194, 0.20573846995830536, 0.07619954645633698, -0.004148711916059256, -0.06066473573446274, -0.122632697224617, 0.002970157191157341, -0.06485696882009506, 0.003667642828077078, -0.0767420157790184, 0.15975421667099, 0.022084766998887062, -0.061889518052339554, -0.1108783707022667, -0.047162014991045, 0.08853054791688919, -0.15898095071315765, 0.21856072545051575], [0.04601573571562767, 0.07366111874580383, -0.033562056720256805, 0.04739885404706001, 0.020979177206754684, -0.07944884896278381, -0.0015061652520671487, -0.2198820561170578, 0.02389673702418804, -0.04986637458205223, -0.009884585626423359, -0.017639292404055595, 0.05197063833475113, -0.0035755643621087074, 0.016980277374386787, 0.006113531067967415, -0.013027405366301537, 0.10276191681623459, 0.07994293421506882, 0.12094089388847351], [-0.02836880087852478, -0.11348860710859299, -0.06556610018014908, -0.1606900691986084, -0.06957089155912399, -0.021663391962647438, -0.14130575954914093, 0.049216512590646744, -0.0216231606900692, 0.09546706825494766, 0.07962413877248764, 1.2044974937452935e-05, -0.0638393685221672, -0.00873857643455267, -0.029642704874277115, 0.05962158367037773, -0.020462658256292343, -0.07617738842964172, -0.14563153684139252, 0.015595437958836555], [-0.06606966257095337, 0.0187763012945652, -0.14909802377223969, 0.0646120235323906, -0.1171102449297905, -0.022364068776369095, -0.03344029560685158, -0.07980598509311676, -0.027621200308203697, -0.016203314065933228, -0.03390197083353996, -0.10016626864671707, 0.04887235909700394, 0.04759899899363518, 0.017337357625365257, -0.02527894824743271, -0.05579642206430435, 0.06657711416482925, 0.04144506901502609, -0.10514327883720398], [0.0008587912889197469, 0.0349213145673275, -0.17315831780433655, -0.08401267230510712, 0.17851212620735168, -0.026358794420957565, -0.05654723942279816, 0.01947755552828312, -0.1931997388601303, 0.028249159455299377, 0.03110884316265583, 0.01071221474558115, -0.1580933928489685, 0.02418903075158596, 0.0360289104282856, 0.050737716257572174, -0.15324963629245758, -0.04871506989002228, 0.04382827505469322, -0.003254021517932415], [-0.042742978781461716, -0.002282296074554324, -0.049344077706336975, -0.24416759610176086, -0.024628307670354843, -0.0303331445902586, -0.03763464838266373, 0.08299145102500916, 0.011362693272531033, 0.05308594927191734, -0.03782639652490616, -0.0032301251776516438, -0.01312856376171112, -0.033542804419994354, -0.004844296723604202, -0.0974641814827919, -0.059257060289382935, -0.018045105040073395, 0.01219166349619627, 0.0036060651764273643], [0.06429000198841095, 0.03738356754183769, 0.01873856969177723, -0.0368768535554409, 0.20579794049263, -0.03670550882816315, -0.1738635152578354, 0.27500852942466736, -0.027189690619707108, 0.0887589231133461, -0.03645602613687515, 0.04908448085188866, -0.026435403153300285, 0.08561593294143677, -0.019351480528712273, 0.04023275524377823, -0.12288851290941238, -0.1463838666677475, 0.004370096605271101, -0.2314625382423401], [0.015074419789016247, 0.08839093893766403, -0.08933895826339722, -0.10119824856519699, 0.08340577781200409, -0.045899126678705215, -0.006481523159891367, -0.06491587311029434, 0.011690563522279263, 0.0025374223478138447, -0.011665104888379574, 0.024944571778178215, -0.026322808116674423, -0.012950914911925793, 0.018172526732087135, -0.0516289658844471, -0.06803292781114578, 0.08120731264352798, 0.04644576460123062, 0.04920197278261185], [0.004366083536297083, -0.0877024233341217, 0.11544059962034225, -0.01646849885582924, -0.20714668929576874, -0.10203815996646881, 0.04567452147603035, -0.033406611531972885, 0.020520765334367752, 0.054346706718206406, 0.032383374869823456, 0.04206006973981857, 0.07111185789108276, -0.06086239963769913, 0.045290157198905945, 0.30445951223373413, 0.10317830741405487, 0.05164135992527008, -0.052889384329319, 0.16462841629981995], [-0.03143816068768501, 0.035401225090026855, -0.07156747579574585, 0.004695198033004999, -0.050773147493600845, -0.037804052233695984, -0.002887139795348048, -0.10977884382009506, -0.04409955069422722, 0.006515380926430225, 0.02287406288087368, -0.02021375298500061, 0.032713379710912704, -0.010027541778981686, -0.019109150394797325, -0.08286847174167633, -0.029310477897524834, 0.09151183068752289, -0.01130637340247631, 0.06053708493709564], [-0.052318472415208817, 0.09010813385248184, -0.04329860210418701, -0.027489330619573593, 0.04050425812602043, 0.013915769755840302, 0.029487114399671555, -0.2294832468032837, -0.0014743402134627104, -0.05728744715452194, 0.04615713283419609, -0.028879931196570396, -0.145003542304039, -0.05613858997821808, -0.030115634202957153, 0.060885634273290634, -0.15278680622577667, 0.06269631534814835, 0.050755273550748825, 0.15746347606182098], [-0.1552799940109253, 0.08463895320892334, 0.022192399948835373, 0.028590599074959755, -0.2997525930404663, -0.11385274678468704, 0.11208741366863251, -0.4347851872444153, 0.02367365173995495, -0.07849378883838654, -0.014340084046125412, -0.04490446671843529, 0.3951222896575928, -0.07162276655435562, 0.04032237455248833, -0.07171923667192459, 0.12995241582393646, 0.40896183252334595, -0.005301749799400568, 0.37846750020980835], [-0.06077888607978821, 0.04099952057003975, 0.02087278664112091, -0.14735180139541626, -0.12700819969177246, -0.043336473405361176, 0.041346557438373566, -0.3108465075492859, 0.0357428714632988, -0.030100291594862938, 0.06116686388850212, -0.00910967867821455, 0.07773477584123611, -0.060926925390958786, -0.040496185421943665, -0.06531593948602676, -0.012533147819340229, 0.17717178165912628, -0.019208213314414024, 0.2721429467201233], [0.06893660873174667, -0.01865355670452118, 0.04675703123211861, 0.0158123467117548, -0.13712038099765778, -0.1553502380847931, 0.002456521848216653, -0.07824006676673889, 0.045516856014728546, 0.009176142513751984, -0.01855623908340931, 0.024494316428899765, 0.1058514267206192, -0.06577060371637344, -0.03508459031581879, -0.0006501307361759245, 0.08683677762746811, 0.05550460144877434, 0.028535092249512672, 0.10725358873605728], [0.3028301000595093, -0.051648497581481934, 0.0008150405483320355, -0.03539429232478142, 0.29925769567489624, 0.06159084290266037, -0.29658687114715576, 0.10081790387630463, 0.13129450380802155, 0.17824715375900269, -0.1091030091047287, 0.2292719930410385, -0.09033800661563873, 0.11871948093175888, 0.008167324587702751, -0.026544619351625443, -0.03912860155105591, -0.21755048632621765, -0.025654150173068047, -0.08667511492967606], [-0.004965385887771845, -0.006571379490196705, 0.020134706050157547, -0.017522385343909264, -0.08552495390176773, -0.0817764475941658, -0.06603854894638062, -0.10153909772634506, -0.07163981348276138, 0.09677959233522415, 0.07143950462341309, 0.0195069070905447, 0.022138260304927826, 0.09326586127281189, -0.020729154348373413, 0.0525314025580883, 0.09743151813745499, -0.07197435200214386, 0.004015385173261166, 0.020957056432962418], [0.19360290467739105, 0.07942606508731842, -0.03952763229608536, 0.06602372974157333, 0.0005783697124570608, -0.1091417595744133, 0.026541434228420258, -0.10765557736158371, -0.07991629838943481, -0.008839168585836887, -0.07242158055305481, 0.05565695837140083, -0.03339876979589462, -0.008207760751247406, -0.023010408505797386, -0.06314932554960251, -0.07717865705490112, 0.059439659118652344, 0.16578218340873718, 0.07423821091651917], [-0.012337793596088886, 0.05360472574830055, 0.06954441219568253, 0.14219117164611816, 0.10235380381345749, -0.0628567785024643, -0.06130865961313248, -0.14564357697963715, 0.021865487098693848, -0.004061589483171701, 0.05129393935203552, 0.0410129576921463, 0.02017560787498951, 0.02123846486210823, -0.07475577294826508, -0.1702369898557663, -0.02077721431851387, 0.1962457299232483, 0.04664837196469307, 0.06011566147208214], [-0.06859812885522842, 0.4264904260635376, 0.02937784604728222, 0.13391849398612976, -0.22679905593395233, -0.38811326026916504, -0.1177433505654335, -0.8927336931228638, -0.28645914793014526, -0.0033261184580624104, 0.17664410173892975, -0.0021207788959145546, 0.12444908171892166, 0.08053410798311234, -0.1718320995569229, -0.18748034536838531, -0.13803787529468536, 0.6354414820671082, -0.13880957663059235, 0.6711657047271729], [-0.08868282288312912, -0.0798841044306755, 0.15259161591529846, -0.056450605392456055, -0.48111864924430847, -0.2061733454465866, 0.1005745455622673, -0.0684666857123375, 0.10001516342163086, -0.04026959091424942, -0.10502897948026657, 0.0487317219376564, 0.6824489235877991, -0.09631627798080444, 0.1425296813249588, 0.037774764001369476, 0.4104403257369995, 0.5231850743293762, -0.09300810843706131, 0.31157246232032776], [-0.007914746180176735, 0.16821333765983582, -0.08343411982059479, 0.07844892144203186, 0.022687604650855064, -0.20420631766319275, 0.017012041062116623, -0.3449753522872925, 0.018146583810448647, -0.11497782170772552, -0.0695348009467125, -0.017063608393073082, 0.1592443734407425, -0.03858549892902374, -0.006753900554031134, 0.10310427844524384, -0.1956603229045868, 0.29192957282066345, -0.10121942311525345, 0.373703271150589], [0.06441717594861984, 0.07671567797660828, 0.03910260647535324, 0.15085949003696442, 0.06707558780908585, -0.1602574735879898, -0.012447381392121315, -0.19746080040931702, 0.03071654587984085, -0.02843029424548149, -0.0853203609585762, -0.04800906404852867, 0.10569839179515839, 0.004009798634797335, 0.03145918250083923, -0.13252511620521545, 0.03265102952718735, 0.2112889587879181, 0.04122850298881531, 0.12962158024311066], [-0.05151445046067238, -0.14386390149593353, 0.01664816029369831, -0.09333519637584686, -0.12123981863260269, 3.9609376472071745e-06, -0.24734936654567719, 0.052994344383478165, -0.026816358789801598, 0.1525273472070694, 0.1821708381175995, -0.0068369219079613686, -0.067039854824543, -0.01729622669517994, -0.06862761080265045, 0.16887705028057098, 0.015445759519934654, -0.11215051263570786, -0.249649316072464, 0.10181805491447449], [0.012387419119477272, 0.2882687449455261, -0.3042828142642975, 0.09278549253940582, -0.3174009621143341, -0.09782677888870239, -0.23891475796699524, -0.465349942445755, -0.05920056253671646, 0.06575381755828857, 0.1293361783027649, -0.1622336208820343, 0.12250522524118423, 0.054504528641700745, 0.024831201881170273, -0.13402009010314941, -0.13431403040885925, 0.19684052467346191, 0.018392613157629967, 0.1016412302851677], [0.0034384739119559526, 0.10542342066764832, -0.33026131987571716, -0.038606561720371246, 0.14879098534584045, -0.12065833806991577, -0.035220082849264145, -0.16232794523239136, -0.2979958951473236, 0.013060643337666988, -0.024368511512875557, -0.051133893430233, -0.08289774507284164, 0.04692139849066734, 0.0670207217335701, 0.07302198559045792, -0.20107822120189667, 0.13053138554096222, 0.06977424770593643, 0.16660112142562866], [-0.028429295867681503, -0.0598268061876297, 0.022590743377804756, -0.20775391161441803, 0.01986107975244522, 0.040551260113716125, -0.13490796089172363, 0.16771796345710754, 0.032802656292915344, 0.11074422299861908, 0.024093152955174446, 0.030530057847499847, -0.0865299180150032, -0.004219861701130867, -0.059925831854343414, -0.0728975161910057, -0.04149920120835304, -0.15025198459625244, -0.031441573053598404, -0.06811950355768204], [-0.03110807202756405, 0.07864480465650558, 0.14609551429748535, -0.03234611451625824, -0.04064665734767914, -0.10900186747312546, -0.07995636016130447, -0.3292263448238373, -0.03060133196413517, 0.07709605991840363, 0.05598309263586998, 0.048149555921554565, -0.03318707272410393, -0.05384727567434311, -0.051893215626478195, -0.06685349345207214, -0.06722669303417206, 0.16941502690315247, -0.016666289418935776, 0.2562575936317444], [0.02249491773545742, 0.0989983007311821, -0.08391651511192322, -0.05643269047141075, 0.06972333788871765, -0.06604614108800888, 0.019110925495624542, -0.07038552314043045, 0.015578686259686947, 0.007615541107952595, -0.006972032133489847, 0.034373894333839417, -0.07648710161447525, -0.031977422535419464, 0.006794359534978867, -0.033822014927864075, -0.07304122298955917, 0.08715830743312836, 0.08484140038490295, 0.07562986016273499], [0.03130754828453064, -0.10247273743152618, 0.06920336186885834, -0.12657567858695984, -0.2632080018520355, -0.15725859999656677, 0.008952174335718155, -0.05619548633694649, 0.012685379013419151, 0.07381583005189896, 0.0019311972428113222, 0.056419290602207184, 0.1566264033317566, -0.06617798656225204, 0.04920332506299019, 0.2215750366449356, 0.11950545012950897, 0.11961603909730911, -0.08427495509386063, 0.2050725370645523], [-0.018285352736711502, 0.03563463315367699, -0.08840915560722351, 0.10758793354034424, -0.02168288268148899, -0.007740037050098181, -0.03149274364113808, 0.06755918264389038, -0.049071017652750015, -0.0033261324279010296, 0.029324688017368317, -0.03981310501694679, 0.027170957997441292, 0.018871426582336426, -0.06304168701171875, -0.18338841199874878, -0.004486376885324717, 0.01039394922554493, -0.005890873726457357, -0.042245399206876755], [0.041977304965257645, -0.04419366642832756, 0.06217724457383156, 0.052844490855932236, 0.15077368915081024, 0.069100022315979, -0.06430830806493759, 0.26209408044815063, 0.04318205267190933, 0.0050676665268838406, -0.019903775304555893, 0.028437355533242226, -0.11060260236263275, 0.019079355522990227, -0.03239443525671959, -0.03530333191156387, 0.015898920595645905, -0.15964773297309875, -0.012238734401762486, -0.21919338405132294], [-0.08336728811264038, -0.04978063702583313, -0.11579084396362305, -0.06339860707521439, -0.12304114550352097, 0.05564826354384422, -0.057859353721141815, -0.015469933860003948, -0.027210447937250137, -0.016725534573197365, 0.09686318784952164, -0.06339699774980545, 0.28801238536834717, 0.11369768530130386, 0.03129496052861214, -0.06856081634759903, 0.008383641019463539, -0.12199680507183075, -0.10580410063266754, -0.09074766933917999], [0.006165765225887299, -0.12038679420948029, 0.05786028504371643, -0.3658798933029175, -0.04698045551776886, 0.03542475402355194, -0.08589540421962738, 0.11756652593612671, 0.08949555456638336, 0.0700908675789833, 0.11550789326429367, 0.07063434273004532, -0.016343947499990463, -0.015301987528800964, -0.09157588332891464, -0.09585500508546829, 0.013514905236661434, -0.12568186223506927, -0.14487914741039276, 0.03909178450703621], [0.10050142556428909, 0.1697368323802948, 0.14834409952163696, 0.35049816966056824, -0.18598544597625732, -0.24215498566627502, 0.0007993535255081952, -0.28152093291282654, 0.11200026422739029, -0.05472658574581146, -0.1017623096704483, 0.005884131416678429, 0.11968767642974854, -0.007013644557446241, -0.12825509905815125, -0.3576046824455261, 0.08152912557125092, 0.2683836817741394, 0.07282286137342453, 0.274721622467041], [0.0386013500392437, 0.21939873695373535, 0.058206506073474884, 0.04555264487862587, -0.14001931250095367, -0.1166713610291481, -0.22347833216190338, -0.3825500011444092, 0.07158396393060684, -0.008754831738770008, 0.10903740674257278, 0.10615690052509308, 0.23265263438224792, -0.08896015584468842, -0.1005101129412651, -0.10828648507595062, -0.1441013216972351, 0.13679589331150055, -0.15953560173511505, 0.40678083896636963], [0.0572793185710907, 0.14981263875961304, -0.10864140838384628, -0.19566522538661957, -0.23915383219718933, -0.23494374752044678, -0.24097588658332825, -0.31867191195487976, -0.15493333339691162, 0.20017941296100616, 0.1709606945514679, 0.13527749478816986, 0.1335526704788208, 0.10035049170255661, 0.08718913793563843, 0.16494379937648773, -0.0007068424019962549, 0.20430101454257965, 0.02495724894106388, 0.26571109890937805], [0.18089286983013153, 0.08445402979850769, -0.16401006281375885, 0.3066278100013733, 0.18890807032585144, -0.1749289333820343, 0.04328909516334534, 0.024324964731931686, -0.04220426082611084, -0.037203073501586914, -0.1987064629793167, 0.36379995942115784, -0.0252195093780756, 0.05615267530083656, -0.011483568698167801, 0.16583794355392456, -0.02967016026377678, 0.011090016923844814, 0.46129682660102844, -0.044877953827381134], [-0.15193705260753632, -0.08350371569395065, -0.09853152185678482, 0.22037693858146667, 0.07158781588077545, -0.28954577445983887, 0.08663123846054077, -0.24369008839130402, 0.1806011199951172, -0.25656795501708984, -0.3038407564163208, 0.20987829566001892, -0.05267537385225296, 0.21765895187854767, -0.10702662169933319, -0.14104291796684265, -0.4394717812538147, 0.03849203139543533, 0.12796898186206818, -0.10213103145360947], [0.09114788472652435, -0.1652999371290207, 0.4471145272254944, -0.504372239112854, 0.02414732240140438, -0.05220632255077362, -0.0022662936244159937, 0.1786056011915207, 0.10332618653774261, 0.04578788951039314, 0.15948335826396942, 0.013904668390750885, 0.1557042896747589, -0.22108294069766998, -0.30970266461372375, 0.07488736510276794, 0.20400811731815338, -0.2714676856994629, -0.020141350105404854, 0.12642303109169006], [-0.4207462966442108, -0.5536481142044067, 1.4391952753067017, 0.631834864616394, -0.21722964942455292, -0.5036835670471191, -0.17022642493247986, 0.2194090336561203, 0.581180214881897, 0.02683344855904579, 0.20753668248653412, 0.2140660136938095, -0.022571561858057976, 0.16852883994579315, 0.6857602596282959, -0.017790833488106728, -1.3148857355117798, 0.30157679319381714, -0.5948036313056946, -0.21839062869548798], [0.059741389006376266, 0.011081821285188198, -0.2120979279279709, 0.12747584283351898, 0.0045031229965388775, 0.08784979581832886, -0.14069271087646484, 0.35014671087265015, -0.3108275532722473, 0.1256818324327469, 0.08132343739271164, 0.0029350267723202705, -0.17360767722129822, 0.2813674807548523, -0.17345599830150604, -0.30451011657714844, 0.22730250656604767, -0.007485037669539452, 0.4902329742908478, -0.23667272925376892], [-0.24500615894794464, -0.2592920958995819, 0.1136692687869072, 0.33144354820251465, 0.29878243803977966, -0.1929139643907547, 0.07193028926849365, 0.06088777258992195, -0.07868973165750504, -0.2769504189491272, 0.23129910230636597, -0.03235625848174095, -0.04574166238307953, 0.095383420586586, 0.38704726099967957, -0.26039567589759827, -0.39529240131378174, -0.06542760133743286, -0.23425480723381042, 0.057151056826114655], [0.03917315602302551, 0.18292395770549774, 0.3046763241291046, -0.13439680635929108, 0.10211911052465439, -0.2784273326396942, 0.35961973667144775, -0.3181815445423126, 0.1619870811700821, -0.2501404583454132, -0.20467685163021088, 0.10582244396209717, 0.08259978890419006, -0.08157757669687271, -0.07836437225341797, 0.11936736851930618, -0.04827843979001045, 0.31714579463005066, 0.10161668062210083, 0.05056418851017952], [0.1680985987186432, -0.04901381954550743, 0.13953742384910583, -0.18617425858974457, 0.15904314815998077, 0.2510598301887512, -0.09400125592947006, 0.4486364722251892, 0.08706892281770706, 0.14560359716415405, 0.11590331047773361, 0.09533466398715973, 0.12199477851390839, -0.01607104204595089, 0.0984674021601677, -0.034446634352207184, 0.3069741129875183, -0.054054681211709976, 0.05399089679121971, -0.031313423067331314], [0.1962490677833557, -0.03425276279449463, 0.16146601736545563, -0.05690304562449455, -0.09713617712259293, 0.16057977080345154, 0.11151617765426636, 0.05216642841696739, 0.22904206812381744, -0.011501307599246502, 0.0341038815677166, -0.08064262568950653, -0.030237838625907898, -0.25040513277053833, 0.09063485264778137, -0.15841704607009888, 0.02007770910859108, 0.20446255803108215, -0.17070013284683228, -0.19887347519397736], [-0.10992931574583054, -0.11346720904111862, 0.005969419609755278, -0.24452926218509674, 0.1457240730524063, 0.0010685358429327607, -0.21101361513137817, 0.3027713894844055, -0.10966072976589203, 0.02720654383301735, 0.030886858701705933, 0.05031365156173706, 0.06428966671228409, 0.11557847261428833, 0.15279221534729004, 0.38751643896102905, 0.02119631879031658, -0.09122869372367859, -0.00026854220777750015, 0.040039289742708206], [-0.025289339944720268, -0.0454196035861969, -0.22849500179290771, 0.0632200539112091, -0.27188241481781006, 0.12471406906843185, -0.24858032166957855, 0.2393122911453247, -0.09401806443929672, 0.22652022540569305, 0.1764974147081375, -0.02145746909081936, -0.22195927798748016, -0.04061320051550865, -0.1356872320175171, 0.09212284535169601, 0.11876394599676132, -0.15678484737873077, -0.08886462450027466, 0.369920551776886], [0.2551831901073456, -0.08135200291872025, 0.14993609488010406, -0.32005688548088074, -0.03679196164011955, -0.2853635251522064, -0.1596766710281372, 0.1435016393661499, -0.02953621745109558, 0.19183337688446045, 0.33237960934638977, 0.13254740834236145, -0.0656023845076561, -0.14277063310146332, -0.05004555359482765, -0.06729099154472351, 0.2134225219488144, 0.14046506583690643, 0.29846543073654175, -0.24943900108337402], [-0.005172147881239653, -0.14727261662483215, -0.1098770722746849, 0.34994733333587646, -0.22273831069469452, -0.029735222458839417, -0.05592474713921547, -0.06419305503368378, -0.04293963685631752, -0.15833346545696259, 0.18410907685756683, -0.0700763687491417, 0.27235090732574463, 0.07506590336561203, -0.1611924171447754, -0.43142828345298767, 0.11012157052755356, 0.33884966373443604, -0.03182469308376312, 0.07952141016721725], [-0.07763417810201645, 0.01474651787430048, -0.002636025194078684, 0.11205493658781052, -0.21197137236595154, -0.07981010526418686, -0.21019238233566284, 0.16418419778347015, 0.02899891324341297, 0.17464226484298706, 0.06957856565713882, -0.03741232678294182, 0.1667199432849884, 0.1494000405073166, -0.054014645516872406, 0.01712370477616787, -0.2613133490085602, -0.13515913486480713, -0.2347038984298706, -0.4280681014060974], [-0.16313983500003815, -0.13527002930641174, -0.08552958071231842, -0.4338165521621704, 0.13665902614593506, -0.30806848406791687, 0.024141065776348114, 0.03869986906647682, 0.18921449780464172, -0.3762909471988678, -0.16827519237995148, -0.07869750261306763, 0.19339269399642944, -0.0515286922454834, -0.7213796973228455, 0.47613444924354553, 0.07970136404037476, 0.09965839236974716, -0.16567549109458923, -0.01990208774805069], [0.27664124965667725, -0.06863763928413391, -0.47115927934646606, -3.3215420246124268, 0.22257716953754425, -0.08046673983335495, 0.3638218343257904, 0.016585491597652435, -0.06546686589717865, -0.07712341845035553, 0.02149452269077301, -0.17946015298366547, 0.2392398715019226, -0.8242267966270447, -0.05085476487874985, 1.185070514678955, 0.4407881796360016, -0.30398690700531006, -0.01122627966105938, 0.4915767312049866], [-0.09579551964998245, -0.10175590962171555, 0.12092150747776031, 0.5429252982139587, -0.015033220872282982, 0.14885784685611725, 0.4523473381996155, 0.08666571974754333, 0.03750614821910858, -0.024539202451705933, -0.23503151535987854, 0.14151565730571747, 0.2664739191532135, -0.20372040569782257, 0.21931962668895721, -0.018524253740906715, -0.20736126601696014, 0.10570047795772552, 0.4652814567089081, 0.2864221930503845], [-0.1446738839149475, 0.056464631110429764, 0.09468932449817657, 0.038660284131765366, -0.27762874960899353, -0.264129638671875, 0.007564965635538101, -0.17564941942691803, 0.0018702808301895857, -0.11823147535324097, 0.06120549514889717, 0.001568026840686798, 0.08925297856330872, -0.03279924392700195, 0.018649348989129066, -0.08653734624385834, 0.03374254330992699, 0.04338392615318298, 0.2574361562728882, 0.16027024388313293], [-0.09397005289793015, 0.08251458406448364, 0.07922597974538803, 0.16338853538036346, 0.26520824432373047, -0.1863052397966385, -0.0056913746520876884, 0.2598004937171936, 0.0988389402627945, -0.14647603034973145, 0.03139070048928261, 0.15330106019973755, -0.04339876398444176, -0.0005692602135241032, -0.011734947562217712, 0.12171903252601624, -0.18461452424526215, 0.333516001701355, 0.4110812544822693, -0.05121370032429695], [-0.2627214789390564, 0.05128035321831703, -0.0040216450579464436, 0.09977418929338455, 0.08790474385023117, -0.049322836101055145, 0.027272813022136688, -0.19029854238033295, -0.27996477484703064, -0.191692054271698, 0.04528343304991722, -0.11861327290534973, 0.009888269007205963, -0.19782279431819916, 0.13876159489154816, 0.0527474582195282, -0.11120891571044922, 0.2127295583486557, 0.14313048124313354, 0.2907803952693939], [0.08904670923948288, 0.08205508440732956, -0.08548042178153992, 0.015113215893507004, -0.0061481064185500145, -0.05971513316035271, 0.00733884098008275, -0.13258740305900574, -0.061517346650362015, -0.03649725764989853, -0.027459243312478065, 0.000818658503703773, -0.03369231894612312, -0.0007673716172575951, -0.06697999686002731, -0.22896526753902435, -0.11652569472789764, 0.08051686733961105, 0.08540567755699158, 0.08175788819789886], [0.04789060354232788, 0.045003291219472885, -0.03501115366816521, 0.17674686014652252, 0.16245009005069733, -0.06380408257246017, -0.061729442328214645, -0.16185946762561798, -0.08189067244529724, 0.07219751924276352, -0.008670968934893608, 0.020430905744433403, -0.016684742644429207, 0.05553476884961128, 0.011105927638709545, 0.22793681919574738, -0.03207149729132652, 0.10761021077632904, 0.06876271963119507, -0.05715819075703621], [-0.11413118988275528, 0.1070665717124939, -0.17686162889003754, -0.04841205105185509, 0.15185825526714325, -0.07439178973436356, -0.14281821250915527, -0.14896944165229797, -0.1988251805305481, 0.04403511807322502, 0.015323284082114697, 0.11602453142404556, -0.00971059687435627, 0.024559229612350464, -0.027982715517282486, -0.18664541840553284, -0.09073854237794876, 0.1670284867286682, -0.049401722848415375, 0.11978641152381897], [-0.13864032924175262, 0.09876798838376999, 0.04166232421994209, 0.03025376796722412, -0.2716585099697113, -0.12729395925998688, 0.13021966814994812, -0.5117327570915222, 0.014042425900697708, -0.06714263558387756, 0.010971017181873322, -0.02380559593439102, 0.27870166301727295, -0.10475122183561325, 0.028112279251217842, 0.026221346110105515, 0.0801900252699852, 0.42782092094421387, 0.019293291494250298, 0.447357714176178], [-0.029500586912035942, 0.10679438710212708, -0.14228644967079163, 0.47586023807525635, 0.09102516621351242, -0.10486003011465073, -0.043782930821180344, -0.1966380774974823, -0.06837824732065201, -0.04835524410009384, 0.0052347443997859955, -0.1609463095664978, 0.27121835947036743, 0.005785800516605377, 0.08356223255395889, 0.0058711520396173, -0.09492449462413788, 0.18081019818782806, -0.11140292137861252, 0.3002728223800659], [0.05917419120669365, 0.08075237274169922, 0.020991770550608635, 0.18485106527805328, 0.0015172400744631886, -0.10055804252624512, -0.012202415615320206, -0.20742513239383698, 0.03924209997057915, -0.06877133995294571, -0.002609188435599208, -0.0008121298160403967, 0.09236225485801697, 0.010801972821354866, -0.049929745495319366, -0.11838827282190323, 0.033724211156368256, 0.16289792954921722, 0.08808130025863647, 0.08386421948671341], [-0.11394441872835159, -0.15913762152194977, 0.03966372460126877, -0.19290859997272491, -0.05168192461133003, 0.06563439220190048, -0.25993090867996216, 0.15635764598846436, 0.009462542831897736, 0.13825620710849762, 0.2073356956243515, 0.05926575884222984, -0.1292741298675537, -0.034652505069971085, -0.1379210650920868, 0.0680142417550087, -0.024486275389790535, -0.18111872673034668, -0.27024516463279724, -0.01684560813009739], [0.022410651668906212, 0.26537445187568665, -0.06449345499277115, 0.12694624066352844, -0.23764677345752716, -0.2792477309703827, -0.1627897173166275, -0.2613425552845001, -0.07187589257955551, 0.05292774364352226, -0.048329755663871765, -0.09942851960659027, -0.015098297968506813, 0.049680888652801514, 0.1233067438006401, 0.12707309424877167, -0.14664669334888458, 0.27490437030792236, 0.1188175305724144, 0.1983383595943451], [0.04164871200919151, 0.09242753684520721, -0.2168397754430771, 0.04528038203716278, 0.18208959698677063, -0.07122227549552917, -0.028217554092407227, -0.12121493369340897, -0.2237846553325653, 0.004555355291813612, -0.00019687374879140407, -0.02958521991968155, -0.13896845281124115, 0.030577022582292557, 0.019509073346853256, 0.06513158231973648, -0.18141363561153412, 0.06847202777862549, 0.07739101350307465, 0.07750480622053146], [-0.05418406054377556, -0.04041990265250206, -0.02421843446791172, -0.3127852976322174, -0.03970582038164139, -0.021863214671611786, -0.09811332821846008, 0.07390587776899338, 0.004805765114724636, 0.11124198883771896, 0.003582339733839035, 0.029592767357826233, -0.04533562436699867, -0.0402103066444397, -0.05103816092014313, -0.046541761606931686, -0.048886265605688095, -0.0800461396574974, -0.032536581158638, -0.018923619762063026], [0.06543734669685364, 0.018298862501978874, 0.044653765857219696, -0.014332804828882217, 0.04877675324678421, -0.10613305866718292, -0.15087349712848663, -0.028362831100821495, -0.07601674646139145, 0.11033884435892105, 0.07833275943994522, 0.02412841096520424, 0.029353776946663857, 0.031024986878037453, -0.038602713495492935, 0.0189081821590662, -0.06555403023958206, -0.026930151507258415, -0.03885168582201004, 0.04387776553630829], [0.02994747832417488, 0.07858449220657349, -0.06792822480201721, -0.04195254668593407, 0.07061740756034851, -0.044411420822143555, 0.005411868914961815, -0.06667204946279526, -0.006351416930556297, 0.022157160565257072, -0.0068154227919876575, 0.01093748677521944, -0.05566026642918587, -0.015271713957190514, 0.0036780431400984526, 0.03542718291282654, -0.023267138749361038, 0.07490276545286179, 0.04328806325793266, 0.05193342640995979], [-0.059137795120477676, -0.09153430908918381, 0.08637530356645584, -0.09463100135326385, -0.218740314245224, -0.09724368900060654, 0.05959645286202431, -0.01187299657613039, 0.02820879966020584, 0.03946822136640549, 0.0941898375749588, 0.05190044268965721, 0.09740085899829865, -0.07663481682538986, 0.07052963972091675, 0.3890349268913269, 0.05530896782875061, 0.04481964185833931, -0.08736148476600647, 0.20152956247329712], [-0.05433875322341919, 0.06027842313051224, -0.10665200650691986, -0.03741839900612831, -0.034918349236249924, -0.023519879207015038, -0.017787039279937744, -0.04973597824573517, -0.05241517350077629, 0.0026543547865003347, 0.022728750482201576, -0.02610168419778347, 0.05231520161032677, -0.008887149393558502, -0.02048380672931671, -0.11995568871498108, -0.03722722455859184, 0.06572415679693222, -0.020033612847328186, 0.01707255281507969], [-0.04790676385164261, 0.08747603744268417, -0.04062866419553757, -0.024123141542077065, 0.03582831099629402, 0.009570680558681488, 0.028479455038905144, -0.22451747953891754, -0.001123246387578547, -0.05390450358390808, 0.04208020120859146, -0.02917408011853695, -0.14142778515815735, -0.05552011728286743, -0.021782275289297104, 0.062409836798906326, -0.15481330454349518, 0.060903068631887436, 0.05087484419345856, 0.1542118638753891], [-0.058106642216444016, -0.05624992027878761, 0.05056431517004967, 0.04406692832708359, -0.5550015568733215, -0.19626781344413757, 0.08702829480171204, -0.17250286042690277, -0.003356932196766138, 0.055569279938936234, 0.052344370633363724, -0.017191562801599503, 0.5875720977783203, 0.00976740475744009, 0.12274458259344101, 0.13708393275737762, 0.31189262866973877, 0.2673845589160919, -0.11769207566976547, 0.370398610830307], [-0.09381203353404999, 0.04080510884523392, 0.03467300906777382, -0.2554694414138794, -0.13550975918769836, -0.034650880843400955, 0.03888697922229767, -0.27032217383384705, 0.05139562115073204, -0.03845668211579323, 0.07634301483631134, -0.005806831642985344, 0.08902936428785324, -0.06998845189809799, -0.04454652965068817, -0.043828029185533524, -0.029242992401123047, 0.1628805249929428, -0.03329450637102127, 0.2649328410625458], [0.037298619747161865, 0.07175955176353455, 0.13072726130485535, 0.06587029248476028, -0.1758037507534027, -0.2466636747121811, 0.03223707526922226, -0.34032902121543884, 0.004925960209220648, -0.018387841060757637, -0.0684441328048706, 0.02794884331524372, 0.1428380310535431, -0.0958084687590599, -0.04427235573530197, -0.07441292703151703, 0.13695712387561798, 0.28556105494499207, 0.01572311855852604, 0.24225130677223206], [0.14168864488601685, 0.027247771620750427, 0.1236146092414856, 0.05996927246451378, 0.029328346252441406, -0.06335730105638504, -0.21472814679145813, -0.07224216312170029, -0.05575547367334366, 0.13658595085144043, 0.01202284637838602, 0.08865977823734283, -0.04989505931735039, 0.03837304934859276, 0.0012838180409744382, 0.09280463308095932, -0.11300617456436157, -0.1281381994485855, -0.16254159808158875, 0.10145947337150574], [0.00312778796069324, 0.11624909192323685, -0.10557104647159576, -0.1752418428659439, -0.08715078979730606, -0.17203903198242188, -0.1086384728550911, 0.019754968583583832, -0.12408137321472168, 0.06477680802345276, 0.17813317477703094, 0.11432009935379028, 0.12358883768320084, 0.08259446918964386, 0.07442822307348251, 0.2489624172449112, 0.004936646204441786, 0.08414429426193237, 0.012574374675750732, 0.06177284196019173]], "rec.bias_ih_l0": [0.24054254591464996, -0.08976159244775772, -0.7025569677352905, 0.7479069232940674, -0.0857611894607544, 0.1931161880493164, -0.010405520908534527, 0.09930014610290527, -0.1371288299560547, 0.008524690754711628, -0.2902255058288574, -0.09848390519618988, 0.07796606421470642, 0.22686827182769775, 0.4465067386627197, 0.6535927653312683, 0.5285503268241882, -0.12966185808181763, -0.32743126153945923, -0.06132027506828308, 0.1903373748064041, 0.08759050071239471, 1.0056802034378052, -0.24698308110237122, 0.05771256238222122, -0.12565335631370544, 0.15357087552547455, 0.6835747361183167, 0.07420219480991364, 0.18054714798927307, 0.6484628915786743, 0.1968715339899063, 0.12634627521038055, 0.06625456362962723, -0.30600202083587646, -0.12564270198345184, -0.14745604991912842, 0.15197740495204926, 0.7065675258636475, 0.34458571672439575, 0.045945096760988235, 0.10532865673303604, 0.14989934861660004, -0.08036187291145325, 0.13403381407260895, 0.08136696368455887, -0.12067703157663345, -0.039098240435123444, 0.015477638691663742, -0.022671153768897057, -0.01312941499054432, -0.0003458033315837383, -0.0680401548743248, 0.08122376352548599, 0.06130405142903328, -0.06302756816148758, -0.33118656277656555, 0.06265836954116821, -0.08220285922288895, -0.16353614628314972, 0.2528330981731415, 0.10931818187236786, 0.47805461287498474, 0.7727918028831482, -0.04623575881123543, 0.2621302604675293, -0.016304058954119682, 0.14601920545101166, 0.12970897555351257, 0.08635015785694122, 0.11713564395904541, 0.14408522844314575, 0.06224798411130905, 0.11578017473220825, 0.4487181603908539, 0.10858985781669617, 0.510353147983551, 0.1952924281358719, 0.20347246527671814, 0.2523645758628845], "rec.bias_hh_l0": [0.2396964132785797, -0.009595663286745548, -0.6209097504615784, 0.7479044198989868, -0.0869382992386818, 0.11837594956159592, -0.03314206749200821, 0.07980135828256607, -0.06904910504817963, -0.06929372251033783, -0.319581538438797, -0.03808999061584473, 0.11144101619720459, 0.23165066540241241, 0.4476129412651062, 0.6537052392959595, 0.5213960409164429, 0.054091405123472214, -0.33938077092170715, 0.23709416389465332, 0.18618986010551453, 0.12768031656742096, 1.1115314960479736, -0.2587074041366577, 0.05805160105228424, -0.11927083134651184, 0.22488345205783844, 0.40409207344055176, 0.161210834980011, 0.2606709599494934, 0.6720531582832336, 0.20578883588314056, 0.09854772686958313, 0.15134109556674957, -0.30795541405677795, -0.12489274144172668, -0.10233572125434875, 0.24806100130081177, 0.6985212564468384, 0.43883055448532104, -0.11861925572156906, -0.006343113724142313, 0.01921835169196129, 0.16945651173591614, -0.029581177979707718, -0.1548890918493271, -0.01854393258690834, -0.12012770026922226, 0.02674383483827114, 0.11876091361045837, 0.12884977459907532, 0.12819966673851013, 0.015989072620868683, 0.12244907766580582, -0.13725490868091583, -0.11403676122426987, 0.03261399269104004, -0.07628108561038971, 0.16746197640895844, 0.13968734443187714, 0.255254328250885, 0.03366753086447716, 0.32904958724975586, 0.7727993130683899, -0.04415693134069443, 0.09616230428218842, 0.006338132545351982, 0.133505716919899, 0.09621549397706985, 0.07787586748600006, 0.14179061353206635, 0.12929178774356842, 0.05527247115969658, 0.17052865028381348, 0.449262410402298, 0.12298141419887543, 0.5171884894371033, 0.2638638913631439, 0.18498215079307556, 0.39328068494796753], "lin.weight": [[-0.10600713640451431, 0.3638106882572174, -0.003658731933683157, 0.17207445204257965, 0.15111202001571655, -0.37360915541648865, 0.32542741298675537, 0.019180402159690857, -0.2969675362110138, -0.2510145902633667, -0.3527390658855438, -0.2722605764865875, -0.09462878108024597, 0.3057496249675751, 0.6557283401489258, -0.2554403245449066, -0.21973015367984772, 0.19126813113689423, 0.29271480441093445, -0.31651365756988525]], "lin.bias": [-0.020056188106536865]}}